{"learner":{"attributes":{"scikit_learn":"{\"_estimator_type\": \"regressor\"}"},"feature_names":[],"feature_types":[],"gradient_booster":{"model":{"gbtree_model_param":{"num_parallel_tree":"1","num_trees":"300"},"iteration_indptr":[0,3,6,9,12,15,18,21,24,27,30,33,36,39,42,45,48,51,54,57,60,63,66,69,72,75,78,81,84,87,90,93,96,99,102,105,108,111,114,117,120,123,126,129,132,135,138,141,144,147,150,153,156,159,162,165,168,171,174,177,180,183,186,189,192,195,198,201,204,207,210,213,216,219,222,225,228,231,234,237,240,243,246,249,252,255,258,261,264,267,270,273,276,279,282,285,288,291,294,297,300],"tree_info":[0,1,2,0,1,2,0,1,2,0,1,2,0,1,2,0,1,2,0,1,2,0,1,2,0,1,2,0,1,2,0,1,2,0,1,2,0,1,2,0,1,2,0,1,2,0,1,2,0,1,2,0,1,2,0,1,2,0,1,2,0,1,2,0,1,2,0,1,2,0,1,2,0,1,2,0,1,2,0,1,2,0,1,2,0,1,2,0,1,2,0,1,2,0,1,2,0,1,2,0,1,2,0,1,2,0,1,2,0,1,2,0,1,2,0,1,2,0,1,2,0,1,2,0,1,2,0,1,2,0,1,2,0,1,2,0,1,2,0,1,2,0,1,2,0,1,2,0,1,2,0,1,2,0,1,2,0,1,2,0,1,2,0,1,2,0,1,2,0,1,2,0,1,2,0,1,2,0,1,2,0,1,2,0,1,2,0,1,2,0,1,2,0,1,2,0,1,2,0,1,2,0,1,2,0,1,2,0,1,2,0,1,2,0,1,2,0,1,2,0,1,2,0,1,2,0,1,2,0,1,2,0,1,2,0,1,2,0,1,2,0,1,2,0,1,2,0,1,2,0,1,2,0,1,2,0,1,2,0,1,2,0,1,2,0,1,2,0,1,2,0,1,2,0,1,2,0,1,2,0,1,2,0,1,2,0,1,2,0,1,2,0,1,2,0,1,2,0,1,2],"trees":[{"base_weights":[-2.6146358E-1,-2.803438E-1,4.0972412E-1,-3.3691522E-1,-1.919024E-1,1.4149058E-1,5.7385997E-3,-2.073021E-2,-3.4024757E-1,-2.316323E-1,-4.2763583E-2,-1.02396645E-1,-2.86328E-2,-8.024461E-2,-1.7013668E-1,9.432062E-2,-7.6341964E-2,-1.3875094E-1,-2.2795331E-1,-2.8724879E-2,-1.3134897E-1,-4.8491016E-2,-2.3548873E-2,-1.805545E-2,-7.242038E-2,1.4862598E-2,-1.47997355E-2,-4.738337E-2,-1.7585501E-2],"categories":[],"categories_nodes":[],"categories_segments":[],"categories_sizes":[],"default_left":[0,0,0,0,0,0,0,0,0,0,0,0,0,0,0,0,0,0,0,0,0,0,0,0,0,0,0,0,0],"id":0,"left_children":[1,3,5,7,9,-1,-1,-1,11,13,15,-1,-1,-1,17,-1,19,21,23,25,27,-1,-1,-1,-1,-1,-1,-1,-1],"loss_changes":[3.1688557E0,1.1111126E0,1.6025388E-1,1.0321617E-1,5.470698E-1,0E0,0E0,0E0,4.25148E-3,1.1763191E-1,2.75856E-1,0E0,0E0,0E0,2.2809744E-2,0E0,4.8612483E-2,1.7649561E-2,5.7766438E-3,2.1798711E-2,8.150384E-3,0E0,0E0,0E0,0E0,0E0,0E0,0E0,0E0],"parents":[2147483647,0,0,1,1,2,2,3,3,4,4,8,8,9,9,10,10,14,14,16,16,17,17,18,18,19,19,20,20],"right_children":[2,4,6,8,10,-1,-1,-1,12,14,16,-1,-1,-1,18,-1,20,22,24,26,28,-1,-1,-1,-1,-1,-1,-1,-1],"split_conditions":[8.270231E-1,6.639695E-2,2.801241E-1,2.4810713E-4,1.8107894E-1,1.4149058E-1,5.7385997E-3,-2.073021E-2,9.9912304E-1,1.7674339E-1,7.39683E-1,-1.02396645E-1,-2.86328E-2,-8.024461E-2,3.0693942E-1,9.432062E-2,9.2432207E-1,2.4479957E-1,7.831449E-1,1.5818876E-3,9.305479E-1,-4.8491016E-2,-2.3548873E-2,-1.805545E-2,-7.242038E-2,1.4862598E-2,-1.47997355E-2,-4.738337E-2,-1.7585501E-2],"split_indices":[57,57,0,8,20,0,0,0,27,57,16,0,0,0,47,0,43,54,7,29,1,0,0,0,0,0,0,0,0],"split_type":[0,0,0,0,0,0,0,0,0,0,0,0,0,0,0,0,0,0,0,0,0,0,0,0,0,0,0,0,0],"sum_hessian":[2.4E2,2.34E2,6E0,1.41E2,9.3E1,5E0,1E0,2E0,1.39E2,7.3E1,2E1,1.38E2,1E0,4.4E1,2.9E1,1E0,1.9E1,2.1E1,8E0,1.1E1,8E0,1.4E1,7E0,1E0,7E0,2E0,9E0,5E0,3E0],"tree_param":{"num_deleted":"0","num_feature":"60","num_nodes":"29","size_leaf_vector":"1"}},{"base_weights":[4.8886558E-1,1.23644635E-1,1.6535987E-1],"categories":[],"categories_nodes":[],"categories_segments":[],"categories_sizes":[],"default_left":[0,0,0],"id":1,"left_children":[1,-1,-1],"loss_changes":[9.253006E-1,0E0,0E0],"parents":[2147483647,0,0],"right_children":[2,-1,-1],"split_conditions":[8.664519E-1,1.23644635E-1,1.6535987E-1],"split_indices":[58,0,0],"split_type":[0,0,0],"sum_hessian":[2.4E2,1.11E2,1.29E2],"tree_param":{"num_deleted":"0","num_feature":"60","num_nodes":"3","size_leaf_vector":"1"}},{"base_weights":[-2.2740199E-1,-2.906309E-1,-8.289108E-3,-3.2257193E-1,-1.857123E-1,-1.1637846E-1,1.5913485E-1,-1.3717646E-2,-3.2620025E-1,-2.1230604E-1,2.6963687E-2,-1.335562E-1,4.5843698E-2,1.9629681E-1,-4.249698E-2,-2.8029876E-2,-3.2720268E-1,-1.1325248E-1,-2.3662572E-1,5.472784E-2,-4.0614028E-2,-1.43024E-1,-1.0167794E-2,2.0574654E-2,-3.355761E-3,3.963452E-2,2.6060677E-1,-2.9332024E-1,-1.0476697E-1,-1.3576609E-2,-4.077872E-2,-1.6098186E-2,-2.4079683E-1,5.359769E-4,-1.5498249E-2,-1.2102929E-1,-2.034997E-1,9.174668E-2,-1.812918E-2,3.809093E-2,2.855105E-1,-2.4156693E-2,-8.865745E-2,-1.807824E-2,-7.34418E-2,-1.6049156E-2,-3.972928E-2,-7.2810024E-2,-2.5019787E-2,4.9392525E-3,3.1935383E-2,8.996214E-2,2.1281648E-2],"categories":[],"categories_nodes":[],"categories_segments":[],"categories_sizes":[],"default_left":[0,0,0,0,0,0,0,0,0,0,0,0,0,0,0,0,0,0,0,0,0,0,0,0,0,0,0,0,0,0,0,0,0,0,0,0,0,0,0,0,0,0,0,0,0,0,0,0,0,0,0,0,0],"id":2,"left_children":[1,3,5,7,9,11,13,-1,15,17,19,21,23,25,-1,-1,27,29,31,-1,33,35,-1,-1,-1,37,39,41,-1,-1,-1,-1,43,-1,-1,45,47,49,-1,-1,51,-1,-1,-1,-1,-1,-1,-1,-1,-1,-1,-1,-1],"loss_changes":[3.3364697E0,5.667696E-1,1.0138409E0,1.277237E-1,2.658937E-1,1.0086754E-1,2.7372283E-1,0E0,2.0942688E-3,7.1968555E-2,7.044384E-2,2.440387E-2,5.9542144E-3,1.9116986E-1,0E0,0E0,1.2750626E-3,9.267911E-3,1.1500001E-2,0E0,2.4342528E-3,1.2614667E-2,0E0,0E0,0E0,4.2046577E-2,1.0341704E-2,4.8208237E-3,0E0,0E0,0E0,0E0,7.685542E-3,0E0,0E0,1.0624766E-2,8.006886E-3,3.782358E-3,0E0,0E0,1.2628794E-2,0E0,0E0,0E0,0E0,0E0,0E0,0E0,0E0,0E0,0E0,0E0,0E0],"parents":[2147483647,0,0,1,1,2,2,3,3,4,4,5,5,6,6,8,8,9,9,10,10,11,11,12,12,13,13,16,16,17,17,18,18,20,20,21,21,25,25,26,26,27,27,32,32,35,35,36,36,37,37,40,40],"right_children":[2,4,6,8,10,12,14,-1,16,18,20,22,24,26,-1,-1,28,30,32,-1,34,36,-1,-1,-1,38,40,42,-1,-1,-1,-1,44,-1,-1,46,48,50,-1,-1,52,-1,-1,-1,-1,-1,-1,-1,-1,-1,-1,-1,-1],"split_conditions":[1.6611853E-1,6.639695E-2,1.1623269E-1,2.4810713E-4,1.5509959E-1,9.497984E-1,2.8359568E-1,-1.3717646E-2,6.5419637E-4,8.644497E-3,2.0151854E-1,4.7669518E-1,3.345049E-1,3.073953E-1,-4.249698E-2,-2.8029876E-2,8.5405964E-1,5.7111094E-3,7.3808205E-1,5.472784E-2,1.3633732E-2,1.15923196E-1,-1.0167794E-2,2.0574654E-2,-3.355761E-3,6.825284E-2,3.1991753E-1,6.565155E-3,-1.0476697E-1,-1.3576609E-2,-4.077872E-2,-1.6098186E-2,9.4015116E-4,5.359769E-4,-1.5498249E-2,4.709223E-2,2.8388345E-1,3.0367741E-2,-1.812918E-2,3.809093E-2,2.6322237E-1,-2.4156693E-2,-8.865745E-2,-1.807824E-2,-7.34418E-2,-1.6049156E-2,-3.972928E-2,-7.2810024E-2,-2.5019787E-2,4.9392525E-3,3.1935383E-2,8.996214E-2,2.1281648E-2],"split_indices":[57,57,15,8,12,19,33,0,38,9,14,59,3,57,0,0,55,12,4,0,3,6,0,0,0,0,57,27,0,0,0,0,5,0,0,38,0,6,0,0,2,0,0,0,0,0,0,0,0,0,0,0,0],"split_type":[0,0,0,0,0,0,0,0,0,0,0,0,0,0,0,0,0,0,0,0,0,0,0,0,0,0,0,0,0,0,0,0,0,0,0,0,0,0,0,0,0,0,0,0,0,0,0,0,0,0,0,0,0],"sum_hessian":[2.4E2,1.86E2,5.4E1,1.41E2,4.5E1,3.3E1,2.1E1,2E0,1.39E2,4E1,5E0,3E1,3E0,1.9E1,2E0,1E0,1.38E2,9E0,3.1E1,1E0,4E0,2.7E1,3E0,2E0,1E0,6E0,1.3E1,6E1,7.8E1,3E0,6E0,1E0,3E1,1E0,3E0,2.2E1,5E0,4E0,2E0,3E0,1E1,1E0,5.9E1,1E0,2.9E1,4E0,1.8E1,3E0,2E0,1E0,3E0,9E0,1E0],"tree_param":{"num_deleted":"0","num_feature":"60","num_nodes":"53","size_leaf_vector":"1"}},{"base_weights":[-1.8392855E-1,-1.9779429E-1,3.0783963E-1,-2.369094E-1,-1.3660131E-1,1.0611794E-1,4.8778118E-3,-1.6584171E-2,-2.3910923E-1,8.017252E-2,-1.4381729E-1,-7.1969636E-2,-1.9404083E-2,-1.6542315E-1,-5.668467E-2,-1.8999192E-1,-1.2521516E-1,-1.5449893E-2,-9.637446E-2,-2.1364056E-2,-5.8185745E-2,-2.4639402E-2,-4.3441407E-2,1.0328743E-2,-1.1537452E-2,-6.4035356E-3,-3.3739097E-2],"categories":[],"categories_nodes":[],"categories_segments":[],"categories_sizes":[],"default_left":[0,0,0,0,0,0,0,0,0,0,0,0,0,0,0,0,0,0,0,0,0,0,0,0,0,0,0],"id":3,"left_children":[1,3,5,7,9,-1,-1,-1,11,-1,13,-1,-1,15,17,19,21,23,25,-1,-1,-1,-1,-1,-1,-1,-1],"loss_changes":[1.7042036E0,5.301256E-1,8.790642E-2,4.3518066E-2,3.1236112E-1,0E0,0E0,0E0,3.7641525E-3,0E0,1.6570258E-1,0E0,0E0,4.9311876E-2,3.1243011E-2,6.88684E-3,1.42707825E-2,1.3948021E-2,9.67107E-3,0E0,0E0,0E0,0E0,0E0,0E0,0E0,0E0],"parents":[2147483647,0,0,1,1,2,2,3,3,4,4,8,8,10,10,13,13,14,14,15,15,16,16,17,17,18,18],"right_children":[2,4,6,8,10,-1,-1,-1,12,-1,14,-1,-1,16,18,20,22,24,26,-1,-1,-1,-1,-1,-1,-1,-1],"split_conditions":[8.270231E-1,6.639695E-2,2.801241E-1,2.4810713E-4,6.825284E-2,1.0611794E-1,4.8778118E-3,-1.6584171E-2,1E0,8.017252E-2,1.8107894E-1,-7.1969636E-2,-1.9404083E-2,1.7206594E-1,1.9349235E-3,7.4596804E-1,7.877105E-1,8.3641596E-2,4.0478855E-3,-2.1364056E-2,-5.8185745E-2,-2.4639402E-2,-4.3441407E-2,1.0328743E-2,-1.1537452E-2,-6.4035356E-3,-3.3739097E-2],"split_indices":[57,57,0,8,57,0,0,0,34,0,20,0,0,57,50,4,58,24,39,0,0,0,0,0,0,0,0],"split_type":[0,0,0,0,0,0,0,0,0,0,0,0,0,0,0,0,0,0,0,0,0,0,0,0,0,0,0],"sum_hessian":[2.4E2,2.34E2,6E0,1.41E2,9.3E1,5E0,1E0,2E0,1.39E2,1E0,9.2E1,1.38E2,1E0,7.3E1,1.9E1,4.3E1,3E1,1E1,9E0,2E0,4.1E1,1.1E1,1.9E1,3E0,7E0,2E0,7E0],"tree_param":{"num_deleted":"0","num_feature":"60","num_nodes":"27","size_leaf_vector":"1"}},{"base_weights":[3.434051E-1,8.925918E-2,3.9714378E-1,3.384018E-2,1.1962409E-1],"categories":[],"categories_nodes":[],"categories_segments":[],"categories_sizes":[],"default_left":[0,0,0,0,0],"id":4,"left_children":[1,-1,3,-1,-1],"loss_changes":[4.7595978E-1,0E0,4.2533875E-3,0E0,0E0],"parents":[2147483647,0,0,2,2],"right_children":[2,-1,4,-1,-1],"split_conditions":[8.919282E-1,8.925918E-2,7.824334E-1,3.384018E-2,1.1962409E-1],"split_indices":[58,0,16,0,0],"split_type":[0,0,0,0,0],"sum_hessian":[2.4E2,1.33E2,1.07E2,1E0,1.06E2],"tree_param":{"num_deleted":"0","num_feature":"60","num_nodes":"5","size_leaf_vector":"1"}},{"base_weights":[-1.6085157E-1,-2.0548193E-1,-6.183724E-3,-2.276266E-1,-1.3265531E-1,-8.577543E-2,1.1710272E-1,-1.0974116E-2,-2.3009455E-1,-1.483655E-1,6.939319E-2,-9.8772444E-2,3.639531E-2,1.4581178E-1,-3.3997584E-2,-2.3094627E-1,-1.6755734E-2,-6.250868E-2,-1.6059881E-1,-1.0850549E-2,4.651866E-2,-8.294878E-2,-4.526388E-2,1.6459722E-2,-2.8523952E-3,1.6846081E-2,1.8767728E-1,-6.949435E-2,-2.0119546E-2,-4.4339555E-3,-2.0400053E-2,-1.7050426E-1,-1.8930934E-2,4.5558217E-4,-5.3383294E-3,-6.085198E-2,-1.1221846E-1,6.1527483E-2,-4.834448E-2,3.201169E-2,2.1749254E-1,-4.3584958E-2,-6.93479E-2,-1.969414E-2,-4.9776677E-3,-4.188758E-2,-1.0860582E-2,2.1812085E-2,4.1983635E-3,-4.0921615E-3,-1.7662857E-2,6.8477646E-2,1.8089399E-2],"categories":[],"categories_nodes":[],"categories_segments":[],"categories_sizes":[],"default_left":[0,0,0,0,0,0,0,0,0,0,0,0,0,0,0,0,0,0,0,0,0,0,0,0,0,0,0,0,0,0,0,0,0,0,0,0,0,0,0,0,0,0,0,0,0,0,0,0,0,0,0,0,0],"id":5,"left_children":[1,3,5,7,9,11,13,-1,15,17,19,21,23,25,-1,27,-1,29,31,33,-1,35,-1,-1,-1,37,39,-1,-1,-1,-1,41,-1,-1,-1,43,45,47,49,-1,51,-1,-1,-1,-1,-1,-1,-1,-1,-1,-1,-1,-1],"loss_changes":[1.6623244E0,2.713828E-1,5.497364E-1,5.85351E-2,1.5630972E-1,5.758193E-2,1.6206232E-1,0E0,7.8783035E-3,3.512466E-2,2.9180113E-2,1.3045043E-2,3.9130757E-3,1.04822636E-1,0E0,4.453659E-4,0E0,8.296855E-4,2.4973035E-2,2.846926E-4,0E0,9.98722E-3,0E0,0E0,0E0,2.0451348E-2,1.3005137E-2,0E0,0E0,0E0,0E0,1.6899526E-2,0E0,0E0,0E0,2.5187135E-3,1.5778989E-2,1.1080708E-3,2.9337266E-4,0E0,3.1604767E-3,0E0,0E0,0E0,0E0,0E0,0E0,0E0,0E0,0E0,0E0,0E0,0E0],"parents":[2147483647,0,0,1,1,2,2,3,3,4,4,5,5,6,6,8,8,9,9,10,10,11,11,12,12,13,13,15,15,17,17,18,18,19,19,21,21,25,25,26,26,31,31,35,35,36,36,37,37,38,38,40,40],"right_children":[2,4,6,8,10,12,14,-1,16,18,20,22,24,26,-1,28,-1,30,32,34,-1,36,-1,-1,-1,38,40,-1,-1,-1,-1,42,-1,-1,-1,44,46,48,50,-1,52,-1,-1,-1,-1,-1,-1,-1,-1,-1,-1,-1,-1],"split_conditions":[1.6611853E-1,6.639695E-2,1.1623269E-1,2.4810713E-4,2.7635422E-1,9.497984E-1,2.8359568E-1,-1.0974116E-2,1E0,1.3522989E-3,1.9049903E-2,2.9394713E-1,3.345049E-1,2.8915516E-1,-3.3997584E-2,9.9912304E-1,-1.6755734E-2,3.6526304E-3,1.6210711E-1,2.6322674E-2,4.651866E-2,6.53562E-2,-4.526388E-2,1.6459722E-2,-2.8523952E-3,3.1428836E-2,3.345049E-1,-6.949435E-2,-2.0119546E-2,-4.4339555E-3,-2.0400053E-2,8.84477E-1,-1.8930934E-2,4.5558217E-4,-5.3383294E-3,6.93383E-2,6.971658E-2,1.195705E-3,3.105316E-1,3.201169E-2,2.6322237E-1,-4.3584958E-2,-6.93479E-2,-1.969414E-2,-4.9776677E-3,-4.188758E-2,-1.0860582E-2,2.1812085E-2,4.1983635E-3,-4.0921615E-3,-1.7662857E-2,6.8477646E-2,1.8089399E-2],"split_indices":[57,57,15,8,18,19,33,0,34,44,2,44,3,57,0,27,0,0,9,0,0,17,0,0,0,0,57,0,0,0,0,10,0,0,0,14,20,2,0,0,2,0,0,0,0,0,0,0,0,0,0,0,0],"split_type":[0,0,0,0,0,0,0,0,0,0,0,0,0,0,0,0,0,0,0,0,0,0,0,0,0,0,0,0,0,0,0,0,0,0,0,0,0,0,0,0,0,0,0,0,0,0,0,0,0,0,0,0,0],"sum_hessian":[2.4E2,1.86E2,5.4E1,1.41E2,4.5E1,3.3E1,2.1E1,2E0,1.39E2,4.2E1,3E0,3E1,3E0,1.9E1,2E0,1.38E2,1E0,6E0,3.6E1,2E0,1E0,2.5E1,5E0,2E0,1E0,5E0,1.4E1,1.37E2,1E0,1E0,5E0,3.2E1,4E0,1E0,1E0,1.6E1,9E0,3E0,2E0,5E0,9E0,2.5E1,7E0,1.4E1,2E0,6E0,3E0,2E0,1E0,1E0,1E0,8E0,1E0],"tree_param":{"num_deleted":"0","num_feature":"60","num_nodes":"53","size_leaf_vector":"1"}},{"base_weights":[-1.2918888E-1,-1.3937843E-1,2.3134425E-1,-1.6659686E-1,-9.677847E-2,7.958844E-2,4.146141E-3,-1.3267338E-2,-1.6802914E-1,6.8146646E-2,-1.0270416E-1,-1.6858847E-1,-1.3542436E-2,-5.6134E-2,-1.2292917E-1,-1.3677072E-2,-5.074482E-2,-9.490117E-2,-2.0906096E-2,-9.971804E-2,-4.881261E-2,-1.0977429E-2,-3.0471053E-2,6.8881275E-4,-1.4188654E-2,-3.6775075E-2,-2.0188047E-2],"categories":[],"categories_nodes":[],"categories_segments":[],"categories_sizes":[],"default_left":[0,0,0,0,0,0,0,0,0,0,0,0,0,0,0,0,0,0,0,0,0,0,0,0,0,0,0],"id":6,"left_children":[1,3,5,7,9,-1,-1,-1,11,-1,13,15,-1,17,19,-1,-1,21,23,25,-1,-1,-1,-1,-1,-1,-1],"loss_changes":[9.1759825E-1,2.5636005E-1,4.8028827E-2,1.7457724E-2,2.0376587E-1,0E0,0E0,0E0,2.0124912E-3,0E0,8.06945E-2,1.8785E-3,0E0,3.898657E-2,4.286796E-2,0E0,0E0,1.7275512E-3,1.0517538E-2,2.3631305E-2,0E0,0E0,0E0,0E0,0E0,0E0,0E0],"parents":[2147483647,0,0,1,1,2,2,3,3,4,4,8,8,10,10,11,11,13,13,14,14,17,17,18,18,19,19],"right_children":[2,4,6,8,10,-1,-1,-1,12,-1,14,16,-1,18,20,-1,-1,22,24,26,-1,-1,-1,-1,-1,-1,-1],"split_conditions":[8.270231E-1,6.639695E-2,2.801241E-1,2.4810713E-4,6.825284E-2,7.958844E-2,4.146141E-3,-1.3267338E-2,9.9912304E-1,6.8146646E-2,4.5254626E-3,6.5419637E-4,-1.3542436E-2,1.5430015E-3,8.474188E-1,-1.3677072E-2,-5.074482E-2,1.3260719E-2,9.2876905E-1,1.6172267E-1,-4.881261E-2,-1.0977429E-2,-3.0471053E-2,6.8881275E-4,-1.4188654E-2,-3.6775075E-2,-2.0188047E-2],"split_indices":[57,57,0,8,57,0,0,0,27,0,44,38,0,41,34,0,0,18,7,57,0,0,0,0,0,0,0],"split_type":[0,0,0,0,0,0,0,0,0,0,0,0,0,0,0,0,0,0,0,0,0,0,0,0,0,0,0],"sum_hessian":[2.4E2,2.34E2,6E0,1.41E2,9.3E1,5E0,1E0,2E0,1.39E2,1E0,9.2E1,1.38E2,1E0,2.9E1,6.3E1,1E0,1.37E2,1.3E1,1.6E1,4.2E1,2.1E1,2E0,1.1E1,9E0,7E0,2.3E1,1.9E1],"tree_param":{"num_deleted":"0","num_feature":"60","num_nodes":"27","size_leaf_vector":"1"}},{"base_weights":[2.4139073E-1,5.7707805E-2,8.143067E-2],"categories":[],"categories_nodes":[],"categories_segments":[],"categories_sizes":[],"default_left":[0,0,0],"id":7,"left_children":[1,-1,-1],"loss_changes":[3.0281258E-1,0E0,0E0],"parents":[2147483647,0,0],"right_children":[2,-1,-1],"split_conditions":[8.2218355E-1,5.7707805E-2,8.143067E-2],"split_indices":[58,0,0],"split_type":[0,0,0],"sum_hessian":[2.4E2,9.4E1,1.46E2],"tree_param":{"num_deleted":"0","num_feature":"60","num_nodes":"3","size_leaf_vector":"1"}},{"base_weights":[-1.1364441E-1,-1.305994E-1,9.133469E-2,-1.60165E-1,-7.780775E-2,7.29125E-3,1.6624467E-1,-1.8131767E-1,-1.4150518E-1,-9.474639E-2,1.938555E-2,1.8181968E-2,-3.8353387E-2,5.422656E-2,2.1640528E-2,-1.7828288E-2,-5.5301957E-2,-8.779294E-3,-1.4400798E-1,-8.006966E-2,-1.4322308E-1,-5.725861E-2,7.444547E-2,-1.50421895E-2,-2.9557797E-3,-2.2037715E-2,-1.4682874E-1,-1.1324028E-1,-5.1652938E-2,-1.5802006E-1,-9.408533E-3,-1.1413582E-2,-2.9789735E-2,3.503792E-2,2.899617E-3,-1.0594516E-2,-4.4361766E-2,-3.6290392E-2,-4.8743635E-3,-1.826739E-2,-4.414499E-4,-1.9859582E-2,-5.3683996E-2,-4.8235953E-3,3.8724396E-4,-7.5002657E-3,6.160024E-3],"categories":[],"categories_nodes":[],"categories_segments":[],"categories_sizes":[],"default_left":[0,0,0,0,0,0,0,0,0,0,0,0,0,0,0,0,0,0,0,0,0,0,0,0,0,0,0,0,0,0,0,0,0,0,0,0,0,0,0,0,0,0,0,0,0,0,0],"id":8,"left_children":[1,3,5,7,9,11,13,15,17,19,21,-1,23,-1,-1,-1,-1,-1,25,27,29,31,33,-1,-1,-1,35,37,39,41,-1,43,-1,-1,45,-1,-1,-1,-1,-1,-1,-1,-1,-1,-1,-1,-1],"loss_changes":[8.495035E-1,3.3560014E-1,1.1840601E-1,3.039074E-2,1.3683513E-1,2.666005E-2,6.169975E-4,1.2252331E-2,1.825893E-2,3.833574E-2,5.9122924E-2,0E0,1.5216591E-3,0E0,0E0,0E0,0E0,0E0,4.736185E-3,4.6936423E-2,1.9872397E-2,1.0430727E-2,2.3899708E-2,0E0,0E0,0E0,3.391385E-3,1.6772687E-2,1.4745414E-2,1.3133556E-2,0E0,2.5782204E-4,0E0,0E0,2.4813204E-3,0E0,0E0,0E0,0E0,0E0,0E0,0E0,0E0,0E0,0E0,0E0,0E0],"parents":[2147483647,0,0,1,1,2,2,3,3,4,4,5,5,6,6,7,7,8,8,9,9,10,10,12,12,18,18,19,19,20,20,21,21,22,22,26,26,27,27,28,28,29,29,31,31,34,34],"right_children":[2,4,6,8,10,12,14,16,18,20,22,-1,24,-1,-1,-1,-1,-1,26,28,30,32,34,-1,-1,-1,36,38,40,42,-1,44,-1,-1,46,-1,-1,-1,-1,-1,-1,-1,-1,-1,-1,-1,-1],"split_conditions":[4.5950177E-1,6.639695E-2,3.1004723E-2,4.5254626E-3,1.4085293E-1,1.3652451E-2,2.775638E-1,1.2225801E-3,1.0959617E-3,9.2580444E-1,1.7445427E-1,1.8181968E-2,3.090103E-1,5.422656E-2,2.1640528E-2,-1.7828288E-2,-5.5301957E-2,-8.779294E-3,4.7404575E-3,7.960708E-1,9.539094E-1,3.6705025E-2,9.2390704E-1,-1.50421895E-2,-2.9557797E-3,-2.2037715E-2,7.133568E-1,2.6454294E-1,9.207052E-1,1.1984207E-3,-9.408533E-3,8.6680764E-1,-2.9789735E-2,3.503792E-2,9.305479E-1,-1.0594516E-2,-4.4361766E-2,-3.6290392E-2,-4.8743635E-3,-1.826739E-2,-4.414499E-4,-1.9859582E-2,-5.3683996E-2,-4.8235953E-3,3.8724396E-4,-7.5002657E-3,6.160024E-3],"split_indices":[59,57,21,14,18,36,3,38,2,58,11,0,0,0,0,0,0,0,42,31,52,0,1,0,0,0,58,47,7,41,0,1,0,0,1,0,0,0,0,0,0,0,0,0,0,0,0],"split_type":[0,0,0,0,0,0,0,0,0,0,0,0,0,0,0,0,0,0,0,0,0,0,0,0,0,0,0,0,0,0,0,0,0,0,0,0,0,0,0,0,0,0,0,0,0,0,0],"sum_hessian":[2.4E2,2.22E2,1.8E1,1.41E2,8.1E1,9E0,9E0,6.2E1,7.9E1,6.9E1,1.2E1,4E0,5E0,7E0,2E0,2E0,6E1,2E0,7.7E1,5.5E1,1.4E1,5E0,7E0,3E0,2E0,4E0,7.3E1,2.4E1,3.1E1,1.2E1,2E0,3E0,2E0,4E0,3E0,1E0,7.2E1,2.2E1,2E0,2.6E1,5E0,3E0,9E0,2E0,1E0,1E0,2E0],"tree_param":{"num_deleted":"0","num_feature":"60","num_nodes":"47","size_leaf_vector":"1"}},{"base_weights":[-9.084746E-2,-9.834707E-2,1.7390303E-1,-1.22612596E-1,-7.486659E-2,5.9691325E-2,3.5242217E-3,-1.23538144E-1,-2.7038623E-3,6.441648E-2,-7.891924E-2,-1.9877713E-2,-1.2503225E-1,5.7924647E-2,-1.28498385E-2,-9.264288E-2,-4.188535E-2,-9.723861E-3,-3.7676916E-2,-6.737011E-2,-1.0189615E-1,-1.062995E-1,-2.975348E-2,-2.4023063E-2,-1.1709478E-2,-3.1031387E-2,-1.408209E-3,-3.623959E-2,-7.2454447E-3,6.745361E-3,-1.233014E-2],"categories":[],"categories_nodes":[],"categories_segments":[],"categories_sizes":[],"default_left":[0,0,0,0,0,0,0,0,0,0,0,0,0,0,0,0,0,0,0,0,0,0,0,0,0,0,0,0,0,0,0],"id":9,"left_children":[1,3,5,7,9,-1,-1,11,-1,13,15,-1,17,-1,-1,19,21,-1,-1,23,25,27,29,-1,-1,-1,-1,-1,-1,-1,-1],"loss_changes":[4.9561405E-1,1.2471533E-1,2.6117057E-2,1.0872722E-2,7.394856E-2,0E0,0E0,1.3862848E-3,0E0,6.346745E-2,5.6600094E-2,0E0,1.5571117E-3,0E0,0E0,1.3246894E-2,2.3407005E-2,0E0,0E0,6.2368363E-3,8.656263E-3,3.0379072E-3,1.870644E-2,0E0,0E0,0E0,0E0,0E0,0E0,0E0,0E0],"parents":[2147483647,0,0,1,1,2,2,3,3,4,4,7,7,9,9,10,10,12,12,15,15,16,16,19,19,20,20,21,21,22,22],"right_children":[2,4,6,8,10,-1,-1,12,-1,14,16,-1,18,-1,-1,20,22,-1,-1,24,26,28,30,-1,-1,-1,-1,-1,-1,-1,-1],"split_conditions":[8.270231E-1,3.0215953E-2,2.801241E-1,5.320642E-1,7.39683E-1,5.9691325E-2,3.5242217E-3,4.35701E-3,-2.7038623E-3,3.0557817E-2,1.924353E-1,-1.9877713E-2,2.4355846E-3,5.7924647E-2,-1.28498385E-2,3.482894E-2,7.824334E-1,-9.723861E-3,-3.7676916E-2,1.656001E-2,9.781603E-1,2.8123993E-1,7.821962E-1,-2.4023063E-2,-1.1709478E-2,-3.1031387E-2,-1.408209E-3,-3.623959E-2,-7.2454447E-3,6.745361E-3,-1.233014E-2],"split_indices":[57,57,0,20,16,0,0,36,0,0,57,0,27,0,0,51,16,0,0,51,7,0,4,0,0,0,0,0,0,0,0],"split_type":[0,0,0,0,0,0,0,0,0,0,0,0,0,0,0,0,0,0,0,0,0,0,0,0,0,0,0,0,0,0,0],"sum_hessian":[2.4E2,2.34E2,6E0,1.13E2,1.21E2,5E0,1E0,1.12E2,1E0,3E0,1.18E2,4E0,1.08E2,1E0,2E0,8.5E1,3.3E1,1E0,1.07E2,2.5E1,6E1,4E0,2.9E1,1.6E1,9E0,5.9E1,1E0,3E0,1E0,5E0,2.4E1],"tree_param":{"num_deleted":"0","num_feature":"60","num_nodes":"31","size_leaf_vector":"1"}},{"base_weights":[1.6955085E-1,1.3180861E-1,1.8964133E-1,1.3525188E-2,3.999564E-2,1.6803795E-1,6.0247943E-2,1.47679215E-2,5.0771315E-2],"categories":[],"categories_nodes":[],"categories_segments":[],"categories_sizes":[],"default_left":[0,0,0,0,0,0,0,0,0],"id":10,"left_children":[1,3,5,-1,-1,7,-1,-1,-1],"loss_changes":[1.5774488E-1,5.383849E-3,3.706932E-3,0E0,0E0,7.915497E-5,0E0,0E0,0E0],"parents":[2147483647,0,0,1,1,2,2,5,5],"right_children":[2,4,6,-1,-1,8,-1,-1,-1],"split_conditions":[8.040161E-1,7.315598E-1,9.031544E-1,1.3525188E-2,3.999564E-2,7.346193E-1,6.0247943E-2,1.47679215E-2,5.0771315E-2],"split_indices":[58,1,52,0,0,25,0,0,0],"split_type":[0,0,0,0,0,0,0,0,0],"sum_hessian":[2.4E2,8.6E1,1.54E2,2E0,8.4E1,5.8E1,9.6E1,1E0,5.7E1],"tree_param":{"num_deleted":"0","num_feature":"60","num_nodes":"9","size_leaf_vector":"1"}},{"base_weights":[-8.048971E-2,-9.277499E-2,6.7936964E-2,-1.2035022E-1,-6.3353606E-2,5.1222728E-3,3.718739E-2,-1.2168996E-1,-9.0649715E-3,-7.550696E-2,-2.1184811E-2,1.3818295E-2,-2.9847028E-2,-1.0257754E-1,-1.3211396E-1,-6.2240157E-2,-1.01700835E-1,1.8696204E-2,-6.2504E-2,-1.2145244E-2,-1.3050119E-2,-9.005338E-3,-3.1070068E-2,-1.3336594E-1,-7.0468844E-3,-8.423887E-2,-3.304765E-2,-4.215725E-2,-1.167058E-1,-2.891837E-2,7.0441976E-2,-2.5753617E-2,-3.0233461E-2,-4.387543E-3,-7.0583227E-4,-4.0383577E-2,-7.482872E-3,-3.0429607E-2,-1.4995621E-2,-1.667384E-2,-4.224992E-3,-3.3470006E-3,-1.5697846E-2,-3.672076E-2,-4.156709E-4,-1.0967464E-3,-1.1018976E-2,3.3021707E-2,9.772605E-3,-9.795608E-3,-2.3583146E-3],"categories":[],"categories_nodes":[],"categories_segments":[],"categories_sizes":[],"default_left":[0,0,0,0,0,0,0,0,0,0,0,0,0,0,0,0,0,0,0,0,0,0,0,0,0,0,0,0,0,0,0,0,0,0,0,0,0,0,0,0,0,0,0,0,0,0,0,0,0,0,0],"id":11,"left_children":[1,3,5,7,9,11,-1,13,-1,15,17,-1,19,21,23,25,27,29,31,33,-1,-1,-1,35,-1,37,39,41,43,45,47,-1,49,-1,-1,-1,-1,-1,-1,-1,-1,-1,-1,-1,-1,-1,-1,-1,-1,-1,-1],"loss_changes":[4.457575E-1,1.7329574E-1,6.6224955E-2,1.008904E-2,5.4774553E-2,1.5690763E-2,0E0,8.761525E-3,0E0,2.320838E-2,4.4012718E-2,0E0,9.21811E-4,4.979968E-5,6.2509775E-3,3.510575E-2,1.9203126E-2,3.653101E-2,7.1967095E-3,6.272766E-5,0E0,0E0,0E0,5.828619E-3,0E0,1.4364421E-2,1.0754392E-2,1.6229078E-3,1.3626337E-2,1.4444385E-3,6.919034E-3,0E0,1.2208382E-4,0E0,0E0,0E0,0E0,0E0,0E0,0E0,0E0,0E0,0E0,0E0,0E0,0E0,0E0,0E0,0E0,0E0,0E0],"parents":[2147483647,0,0,1,1,2,2,3,3,4,4,5,5,7,7,9,9,10,10,12,12,13,13,14,14,15,15,16,16,17,17,18,18,19,19,23,23,25,25,26,26,27,27,28,28,29,29,30,30,32,32],"right_children":[2,4,6,8,10,12,-1,14,-1,16,18,-1,20,22,24,26,28,30,32,34,-1,-1,-1,36,-1,38,40,42,44,46,48,-1,50,-1,-1,-1,-1,-1,-1,-1,-1,-1,-1,-1,-1,-1,-1,-1,-1,-1,-1],"split_conditions":[4.5950177E-1,3.0215953E-2,3.1004723E-2,9.626848E-1,1.3618758E-1,1.3652451E-2,3.718739E-2,8.664519E-1,-9.0649715E-3,8.892205E-1,4.0533405E-2,1.3818295E-2,1.8115446E-1,7.133568E-1,5.320642E-1,1.9491665E-1,1.9276992E-3,5.9395645E-2,8.3111316E-1,9.290062E-1,-1.3050119E-2,-9.005338E-3,-3.1070068E-2,2.7249995E-1,-7.0468844E-3,7.896672E-1,7.705273E-1,2.0421652E-2,1.0723421E-1,1.666842E-1,1.9491665E-1,-2.5753617E-2,5.320398E-1,-4.387543E-3,-7.0583227E-4,-4.0383577E-2,-7.482872E-3,-3.0429607E-2,-1.4995621E-2,-1.667384E-2,-4.224992E-3,-3.3470006E-3,-1.5697846E-2,-3.672076E-2,-4.156709E-4,-1.0967464E-3,-1.1018976E-2,3.3021707E-2,9.772605E-3,-9.795608E-3,-2.3583146E-3],"split_indices":[59,57,21,19,12,36,0,34,0,43,50,0,9,58,20,59,11,56,1,1,0,0,0,3,0,25,37,27,12,12,11,0,2,0,0,0,0,0,0,0,0,0,0,0,0,0,0,0,0,0,0],"split_type":[0,0,0,0,0,0,0,0,0,0,0,0,0,0,0,0,0,0,0,0,0,0,0,0,0,0,0,0,0,0,0,0,0,0,0,0,0,0,0,0,0,0,0,0,0,0,0,0,0,0,0],"sum_hessian":[2.4E2,2.22E2,1.8E1,1.13E2,1.09E2,9E0,9E0,1.11E2,2E0,8.4E1,2.5E1,4E0,5E0,4.3E1,6.8E1,5.8E1,2.6E1,1.3E1,1.2E1,3E0,2E0,1E0,4.2E1,6.7E1,1E0,3.2E1,2.6E1,6E0,2E1,7E0,6E0,6E0,6E0,2E0,1E0,6.6E1,1E0,2E1,1.2E1,1.1E1,1.5E1,2E0,4E0,1.9E1,1E0,2E0,5E0,2E0,4E0,5E0,1E0],"tree_param":{"num_deleted":"0","num_feature":"60","num_nodes":"51","size_leaf_vector":"1"}},{"base_weights":[-6.392075E-2,-6.944784E-2,1.3076292E-1,-8.2782574E-2,-4.8565064E-2,5.4914504E-2,4.5786783E-2,-6.2283196E-2,-8.890589E-2,4.9235955E-2,-5.2616727E-2,1.6317654E-2,2.9955895E-3,1.712814E-5,-6.406598E-2,-2.6794024E-2,-6.8563614E-3,-6.1089594E-2,-1.391925E-2,-6.83586E-2,-3.1925205E-2,-5.0223287E-2,-8.900409E-2,-3.2848876E-2,1.3848893E-2,-7.2720908E-3,-2.1193257E-2,-1.2033985E-2,-3.1098106E-3,-2.722301E-2,-1.3103082E-2,-3.0877827E-2,-7.995873E-3,-4.9164663E-3,-1.4797207E-2,8.084536E-3,-1.7963336E-3],"categories":[],"categories_nodes":[],"categories_segments":[],"categories_sizes":[],"default_left":[0,0,0,0,0,0,0,0,0,0,0,0,0,0,0,0,0,0,0,0,0,0,0,0,0,0,0,0,0,0,0,0,0,0,0,0,0],"id":12,"left_children":[1,3,5,7,9,-1,11,13,15,-1,17,-1,-1,-1,19,-1,-1,21,23,25,27,29,31,33,35,-1,-1,-1,-1,-1,-1,-1,-1,-1,-1,-1,-1],"loss_changes":[2.684052E-1,6.141925E-2,2.2719897E-2,1.228708E-2,8.963786E-2,0E0,6.8922155E-4,4.0046573E-3,8.389354E-4,0E0,2.9642373E-2,0E0,0E0,0E0,2.6465356E-3,0E0,0E0,1.858282E-2,9.916451E-3,1.3126433E-3,6.433525E-4,1.115635E-2,1.4617771E-2,2.174777E-3,2.2401744E-3,0E0,0E0,0E0,0E0,0E0,0E0,0E0,0E0,0E0,0E0,0E0,0E0],"parents":[2147483647,0,0,1,1,2,2,3,3,4,4,6,6,7,7,8,8,10,10,14,14,17,17,18,18,19,19,20,20,21,21,22,22,23,23,24,24],"right_children":[2,4,6,8,10,-1,12,14,16,-1,18,-1,-1,-1,20,-1,-1,22,24,26,28,30,32,34,36,-1,-1,-1,-1,-1,-1,-1,-1,-1,-1,-1,-1],"split_conditions":[8.270231E-1,6.639695E-2,2.382026E-1,1.6309027E-2,6.825284E-2,5.4914504E-2,2.801241E-1,7.740533E-1,9.9656045E-1,4.9235955E-2,2.8858408E-1,1.6317654E-2,2.9955895E-3,1.712814E-5,5.320642E-1,-2.6794024E-2,-6.8563614E-3,9.2580444E-1,3.073953E-1,7.6612777E-1,9.1685116E-1,7.5314254E-1,4.7669518E-1,9.297178E-1,2.178674E-2,-7.2720908E-3,-2.1193257E-2,-1.2033985E-2,-3.1098106E-3,-2.722301E-2,-1.3103082E-2,-3.0877827E-2,-7.995873E-3,-4.9164663E-3,-1.4797207E-2,8.084536E-3,-1.7963336E-3],"split_indices":[57,57,0,39,57,0,0,49,24,0,17,0,0,0,20,0,0,58,57,58,1,31,59,40,0,0,0,0,0,0,0,0,0,0,0,0,0],"split_type":[0,0,0,0,0,0,0,0,0,0,0,0,0,0,0,0,0,0,0,0,0,0,0,0,0,0,0,0,0,0,0,0,0,0,0,0,0],"sum_hessian":[2.4E2,2.34E2,6E0,1.41E2,9.3E1,3E0,3E0,3.5E1,1.06E2,1E0,9.2E1,2E0,1E0,1E0,3.4E1,1.05E2,1E0,7.5E1,1.7E1,2.9E1,5E0,5.6E1,1.9E1,1E1,7E0,2E0,2.7E1,3E0,2E0,6E0,5E1,1.5E1,4E0,6E0,4E0,4E0,3E0],"tree_param":{"num_deleted":"0","num_feature":"60","num_nodes":"37","size_leaf_vector":"1"}},{"base_weights":[1.19429596E-1,9.288118E-2,1.3356045E-1,2.0032072E-2,9.697341E-2,1.3404098E-1,8.933857E-3,1.0820151E-2,2.9454328E-2,3.462469E-2,4.2415887E-2],"categories":[],"categories_nodes":[],"categories_segments":[],"categories_sizes":[],"default_left":[0,0,0,0,0,0,0,0,0,0,0],"id":13,"left_children":[1,3,5,-1,7,9,-1,-1,-1,-1,-1],"loss_changes":[7.800603E-2,2.8196573E-3,3.738165E-3,0E0,1.8284321E-3,4.75049E-3,0E0,0E0,0E0,0E0,0E0],"parents":[2147483647,0,0,1,1,2,2,4,4,5,5],"right_children":[2,4,6,-1,8,10,-1,-1,-1,-1,-1],"split_conditions":[8.040161E-1,7.469168E-1,8.067669E-1,2.0032072E-2,7.315598E-1,8.9414185E-1,8.933857E-3,1.0820151E-2,2.9454328E-2,3.462469E-2,4.2415887E-2],"split_indices":[58,58,30,0,1,58,0,0,0,0,0],"split_type":[0,0,0,0,0,0,0,0,0,0,0],"sum_hessian":[2.4E2,8.6E1,1.54E2,1.4E1,7.2E1,1.53E2,1E0,2E0,7E1,4.8E1,1.05E2],"tree_param":{"num_deleted":"0","num_feature":"60","num_nodes":"11","size_leaf_vector":"1"}},{"base_weights":[-5.7176515E-2,-6.763641E-2,3.590241E-2,-8.45509E-2,-4.7000937E-2,-5.5993972E-3,8.1329316E-2,-5.0150426E-3,-8.557634E-2,-5.4774452E-2,-1.695055E-2,-2.9542722E-2,3.1248823E-2,9.4424695E-2,9.459715E-3,-7.2822034E-2,-9.235923E-2,-5.0207566E-2,-3.3696853E-2,2.9331924E-2,-2.706944E-2,-4.588219E-2,2.3521632E-3,1.340716E-2,-5.393958E-3,3.0230388E-2,6.5517966E-3,-2.2070106E-2,-6.006435E-3,-9.3097635E-2,-5.9898524E-3,-3.9213303E-2,-8.054785E-2,-6.233635E-3,-1.8044528E-2,-3.082082E-3,-1.5284756E-2,4.1942196E-3,-1.8552811E-3,-2.8146556E-2,-6.360441E-3,-1.4879023E-2,-6.1319415E-3,-2.6488474E-2,-8.826798E-3,6.557401E-3,-5.8968267E-3],"categories":[],"categories_nodes":[],"categories_segments":[],"categories_sizes":[],"default_left":[0,0,0,0,0,0,0,0,0,0,0,0,0,0,0,0,0,0,0,0,0,0,0,0,0,0,0,0,0,0,0,0,0,0,0,0,0,0,0,0,0,0,0,0,0,0,0],"id":14,"left_children":[1,3,5,7,9,11,13,-1,15,17,19,21,23,25,-1,27,29,31,-1,-1,33,35,37,-1,-1,-1,-1,-1,-1,39,-1,41,43,45,-1,-1,-1,-1,-1,-1,-1,-1,-1,-1,-1,-1,-1],"loss_changes":[2.3706478E-1,7.176733E-2,4.7587868E-2,6.7774653E-3,2.2431254E-2,1.327494E-2,4.8478767E-3,0E0,3.3094883E-3,1.5123069E-2,2.818593E-2,4.7982316E-3,4.7738357E-3,1.9431487E-3,0E0,2.9718876E-4,1.9899607E-3,2.1859124E-2,0E0,0E0,1.4098828E-2,5.591409E-4,4.835266E-4,0E0,0E0,0E0,0E0,0E0,0E0,1.7076731E-3,0E0,1.0097459E-2,4.9274564E-3,5.7084644E-3,0E0,0E0,0E0,0E0,0E0,0E0,0E0,0E0,0E0,0E0,0E0,0E0,0E0],"parents":[2147483647,0,0,1,1,2,2,3,3,4,4,5,5,6,6,8,8,9,9,10,10,11,11,12,12,13,13,15,15,16,16,17,17,20,20,21,21,22,22,29,29,31,31,32,32,33,33],"right_children":[2,4,6,8,10,12,14,-1,16,18,20,22,24,26,-1,28,30,32,-1,-1,34,36,38,-1,-1,-1,-1,-1,-1,40,-1,42,44,46,-1,-1,-1,-1,-1,-1,-1,-1,-1,-1,-1,-1,-1],"split_conditions":[3.4557304E-1,3.291181E-2,3.1004723E-2,2.4810713E-4,1.3618758E-1,9.4584554E-1,8.9935964E-1,-5.0150426E-3,8.664519E-1,9.4845444E-1,2.0151854E-1,9.40687E-1,9.4584554E-1,2.6322237E-1,9.459715E-3,9.368923E-1,5.320642E-1,8.55326E-2,-3.3696853E-2,2.9331924E-2,4.332485E-2,3.1258106E-2,7.968732E-2,1.340716E-2,-5.393958E-3,3.0230388E-2,6.5517966E-3,-2.2070106E-2,-6.006435E-3,2.7249995E-1,-5.9898524E-3,1.6172267E-1,9.222468E-1,1.5430015E-3,-1.8044528E-2,-3.082082E-3,-1.5284756E-2,4.1942196E-3,-1.8552811E-3,-2.8146556E-2,-6.360441E-3,-1.4879023E-2,-6.1319415E-3,-2.6488474E-2,-8.826798E-3,6.557401E-3,-5.8968267E-3],"split_indices":[59,57,21,8,12,10,10,0,34,49,14,7,1,2,0,1,20,24,0,0,44,0,0,0,0,0,0,0,0,3,0,54,49,50,0,0,0,0,0,0,0,0,0,0,0,0,0],"split_type":[0,0,0,0,0,0,0,0,0,0,0,0,0,0,0,0,0,0,0,0,0,0,0,0,0,0,0,0,0,0,0,0,0,0,0,0,0,0,0,0,0,0,0,0,0,0,0],"sum_hessian":[2.4E2,2.16E2,2.4E1,1.17E2,9.9E1,1.3E1,1.1E1,2E0,1.15E2,7.8E1,2.1E1,8E0,5E0,8E0,3E0,4.4E1,7.1E1,7.4E1,4E0,1E0,2E1,5E0,3E0,4E0,1E0,7E0,1E0,4.3E1,1E0,7E1,1E0,5.6E1,1.8E1,1.3E1,7E0,1E0,4E0,1E0,2E0,6.9E1,1E0,3.5E1,2.1E1,1.5E1,3E0,4E0,9E0],"tree_param":{"num_deleted":"0","num_feature":"60","num_nodes":"47","size_leaf_vector":"1"}},{"base_weights":[-4.493707E-2,-4.912681E-2,1.0213802E-1,-5.3408794E-2,-1.4161586E-2,4.2558745E-2,3.6879055E-2,-6.01824E-2,-3.4290012E-2,4.1850563E-2,-2.5437174E-2,1.305412E-2,2.5462524E-3,-1.9587923E-2,-6.1706066E-2,-2.0787764E-2,-5.074138E-2,-6.6350102E-3,-1.6457142E-2,-2.7922278E-3,-7.4914326E-3,-4.648685E-2,-6.537252E-2,-3.5717282E-2,-4.635439E-3,-5.5807598E-2,5.013451E-3,-1.1596503E-2,1.0912331E-2,-6.4722565E-3,-1.6167644E-2,-1.98237E-2,-5.020658E-3,-1.1552885E-2,-2.9549554E-3,3.0835464E-3,-4.8309113E-3,-1.7604148E-2,1.1094019E-3,-1.0720969E-3,3.32815E-3,-5.26044E-3,3.669374E-4],"categories":[],"categories_nodes":[],"categories_segments":[],"categories_sizes":[],"default_left":[0,0,0,0,0,0,0,0,0,0,0,0,0,0,0,0,0,0,0,0,0,0,0,0,0,0,0,0,0,0,0,0,0,0,0,0,0,0,0,0,0,0,0],"id":15,"left_children":[1,3,5,7,9,-1,11,13,15,-1,17,-1,-1,19,21,23,25,27,-1,-1,-1,29,31,33,35,37,39,41,-1,-1,-1,-1,-1,-1,-1,-1,-1,-1,-1,-1,-1,-1,-1],"loss_changes":[1.5352339E-1,3.442794E-2,1.2914889E-2,2.500248E-2,5.0329976E-2,0E0,3.841524E-4,8.254707E-3,1.1606634E-2,0E0,1.40181575E-2,0E0,0E0,1.5499676E-4,5.163729E-3,7.792267E-3,7.341452E-3,4.0494637E-3,0E0,0E0,0E0,4.7408566E-3,2.8800368E-3,8.4860437E-4,3.0729722E-3,4.148923E-3,1.962842E-4,1.2394751E-3,0E0,0E0,0E0,0E0,0E0,0E0,0E0,0E0,0E0,0E0,0E0,0E0,0E0,0E0,0E0],"parents":[2147483647,0,0,1,1,2,2,3,3,4,4,6,6,7,7,8,8,10,10,13,13,14,14,15,15,16,16,17,17,21,21,22,22,23,23,24,24,25,25,26,26,27,27],"right_children":[2,4,6,8,10,-1,12,14,16,-1,18,-1,-1,20,22,24,26,28,-1,-1,-1,30,32,34,36,38,40,42,-1,-1,-1,-1,-1,-1,-1,-1,-1,-1,-1,-1,-1,-1,-1],"split_conditions":[8.270231E-1,2.2452141E-1,2.382026E-1,1.1709869E-1,2.0151854E-1,4.2558745E-2,2.801241E-1,8.6985086E-4,9.304683E-2,4.1850563E-2,1.2530873E-2,1.305412E-2,2.5462524E-3,1.3266623E-3,7.7697843E-1,1.6309027E-2,9.781603E-1,4.759352E-1,-1.6457142E-2,-2.7922278E-3,-7.4914326E-3,2.661629E-2,3.1326535E-1,9.40687E-1,8.1320655E-1,3.7196082E-1,3.3667952E-1,9.4845444E-1,1.0912331E-2,-6.4722565E-3,-1.6167644E-2,-1.98237E-2,-5.020658E-3,-1.1552885E-2,-2.9549554E-3,3.0835464E-3,-4.8309113E-3,-1.7604148E-2,1.1094019E-3,-1.0720969E-3,3.32815E-3,-5.26044E-3,3.669374E-4],"split_indices":[57,12,0,57,14,0,0,41,0,0,33,0,0,11,58,3,16,15,0,0,0,24,18,19,7,6,0,16,0,0,0,0,0,0,0,0,0,0,0,0,0,0,0],"split_type":[0,0,0,0,0,0,0,0,0,0,0,0,0,0,0,0,0,0,0,0,0,0,0,0,0,0,0,0,0,0,0,0,0,0,0,0,0,0,0,0,0,0,0],"sum_hessian":[2.4E2,2.34E2,6E0,2.08E2,2.6E1,3E0,3E0,1.52E2,5.6E1,1E0,2.5E1,2E0,1E0,6E0,1.46E2,3.2E1,2.4E1,1.6E1,9E0,3E0,3E0,3.1E1,1.15E2,1.6E1,1.6E1,2.2E1,2E0,1.5E1,1E0,8E0,2.3E1,1.13E2,2E0,1.4E1,2E0,7E0,9E0,2.1E1,1E0,1E0,1E0,1E1,5E0],"tree_param":{"num_deleted":"0","num_feature":"60","num_nodes":"43","size_leaf_vector":"1"}},{"base_weights":[8.420767E-2,6.6804305E-2,9.546685E-2,9.801865E-4,6.7425646E-2,9.6727066E-2,1.2326221E-2,5.5634096E-2,7.4724376E-2,9.717269E-2,5.2178E-3,3.5411061E-3,5.6434765E-2,5.0362315E-2,8.0101766E-2,9.750596E-2,7.6773586E-3,4.9463604E-3,1.7110884E-2,5.958212E-3,1.6230764E-2,5.905089E-3,8.102755E-2,9.781481E-2,8.278871E-3,9.905839E-3,2.4758244E-2,8.56779E-3,2.9434217E-2],"categories":[],"categories_nodes":[],"categories_segments":[],"categories_sizes":[],"default_left":[0,0,0,0,0,0,0,0,0,0,0,0,0,0,0,0,0,0,0,0,0,0,0,0,0,0,0,0,0],"id":16,"left_children":[1,3,5,-1,7,9,-1,11,13,15,-1,-1,17,19,21,23,-1,-1,-1,-1,-1,-1,25,27,-1,-1,-1,-1,-1],"loss_changes":[4.084575E-2,3.6484897E-3,5.894065E-3,0E0,4.1909516E-3,3.2593012E-3,0E0,7.726848E-4,3.4331381E-3,8.2075596E-4,0E0,0E0,2.0742416E-5,4.0856004E-4,9.2211366E-4,2.8038025E-4,0E0,0E0,0E0,0E0,0E0,0E0,4.4336915E-4,3.707409E-5,0E0,0E0,0E0,0E0,0E0],"parents":[2147483647,0,0,1,1,2,2,4,4,5,5,7,7,8,8,9,9,12,12,13,13,14,14,15,15,22,22,23,23],"right_children":[2,4,6,-1,8,10,-1,12,14,16,-1,-1,18,20,22,24,-1,-1,-1,-1,-1,-1,26,28,-1,-1,-1,-1,-1],"split_conditions":[8.3959204E-1,1.6430249E-3,8.067669E-1,9.801865E-4,7.685588E-1,1E0,1.2326221E-2,3.33689E-2,6.0785636E-2,1E0,5.2178E-3,3.5411061E-3,7.3120403E-1,7.545656E-1,7.315598E-1,1E0,7.6773586E-3,4.9463604E-3,1.7110884E-2,5.958212E-3,1.6230764E-2,5.905089E-3,9.728809E-3,2.50931E-3,8.278871E-3,9.905839E-3,2.4758244E-2,8.56779E-3,2.9434217E-2],"split_indices":[49,2,30,0,58,16,0,2,26,37,0,0,43,19,1,55,0,0,0,0,0,0,3,33,0,0,0,0,0],"split_type":[0,0,0,0,0,0,0,0,0,0,0,0,0,0,0,0,0,0,0,0,0,0,0,0,0,0,0,0,0],"sum_hessian":[2.4E2,9.7E1,1.43E2,1E0,9.6E1,1.39E2,4E0,4E1,5.6E1,1.38E2,1E0,1E0,3.9E1,1.2E1,4.4E1,1.37E2,1E0,1E0,3.8E1,2E0,1E1,1E0,4.3E1,1.36E2,1E0,2E0,4.1E1,1E0,1.35E2],"tree_param":{"num_deleted":"0","num_feature":"60","num_nodes":"29","size_leaf_vector":"1"}},{"base_weights":[-4.049425E-2,-4.804439E-2,2.666077E-2,-6.0279522E-2,-3.417084E-2,-4.492059E-3,6.0784005E-2,-6.100453E-2,-3.935816E-3,-4.0288065E-2,-1.3228883E-2,-2.3428317E-2,2.4661005E-2,2.608447E-2,3.6833365E-2,-5.151165E-2,-6.617384E-2,-3.5695884E-2,-2.7292704E-2,2.4932135E-2,-2.070568E-2,-3.196712E-2,4.3049953E-3,1.0711908E-2,-4.5848656E-3,1.2096417E-2,1.8625796E-3,-4.344021E-3,-1.5610832E-2,-6.7586385E-2,-7.897018E-3,-2.2444276E-2,-5.1881436E-2,1.9738898E-3,-4.004792E-2,-4.0940996E-3,-1.268864E-2,2.2589117E-3,-3.2166392E-4,-2.0421501E-2,-5.4063746E-3,-9.242541E-3,-2.3519152E-3,-4.591254E-3,-1.6919654E-2,1.00382175E-2,-2.3008652E-3,-6.534332E-3,-1.5778083E-2],"categories":[],"categories_nodes":[],"categories_segments":[],"categories_sizes":[],"default_left":[0,0,0,0,0,0,0,0,0,0,0,0,0,0,0,0,0,0,0,0,0,0,0,0,0,0,0,0,0,0,0,0,0,0,0,0,0,0,0,0,0,0,0,0,0,0,0,0,0],"id":17,"left_children":[1,3,5,7,9,11,13,15,-1,17,19,21,23,-1,25,27,29,31,-1,-1,33,35,37,-1,-1,-1,-1,-1,-1,39,-1,41,43,45,47,-1,-1,-1,-1,-1,-1,-1,-1,-1,-1,-1,-1,-1,-1],"loss_changes":[1.23475134E-1,3.477484E-2,2.6848929E-2,3.0974746E-3,1.2790136E-2,8.306465E-3,4.3172017E-3,2.0872653E-3,0E0,1.5373886E-2,1.9727906E-2,2.2689016E-3,3.192863E-3,0E0,6.0421973E-4,1.01059675E-4,2.1049678E-3,1.4921911E-2,0E0,0E0,1.0607221E-2,7.4730953E-4,6.0093273E-5,0E0,0E0,0E0,0E0,0E0,0E0,3.6081672E-4,0E0,5.0111506E-3,4.589595E-3,3.9003256E-3,1.8336568E-3,0E0,0E0,0E0,0E0,0E0,0E0,0E0,0E0,0E0,0E0,0E0,0E0,0E0,0E0],"parents":[2147483647,0,0,1,1,2,2,3,3,4,4,5,5,6,6,7,7,9,9,10,10,11,11,12,12,14,14,15,15,16,16,17,17,20,20,21,21,22,22,29,29,31,31,32,32,33,33,34,34],"right_children":[2,4,6,8,10,12,14,16,-1,18,20,22,24,-1,26,28,30,32,-1,-1,34,36,38,-1,-1,-1,-1,-1,-1,40,-1,42,44,46,48,-1,-1,-1,-1,-1,-1,-1,-1,-1,-1,-1,-1,-1,-1],"split_conditions":[3.4557304E-1,3.0215953E-2,3.1004723E-2,9.626848E-1,1.0723421E-1,9.418136E-1,7.877105E-1,8.664519E-1,-3.935816E-3,9.4646215E-1,7.39683E-1,9.4508654E-1,9.4584554E-1,2.608447E-2,9.5331645E-1,7.133568E-1,3.1326535E-1,3.1258106E-2,-2.7292704E-2,2.4932135E-2,2.322349E-3,6.5592453E-3,1.8267079E-1,1.0711908E-2,-4.5848656E-3,1.2096417E-2,1.8625796E-3,-4.344021E-3,-1.5610832E-2,2.7249995E-1,-7.897018E-3,2.2651286E-1,7.971617E-3,1.6430249E-3,1.4573662E-2,-4.0940996E-3,-1.268864E-2,2.2589117E-3,-3.2166392E-4,-2.0421501E-2,-5.4063746E-3,-9.242541E-3,-2.3519152E-3,-4.591254E-3,-1.6919654E-2,1.00382175E-2,-2.3008652E-3,-6.534332E-3,-1.5778083E-2],"split_indices":[59,57,21,19,12,19,10,34,0,49,16,16,1,0,4,58,18,18,0,0,35,27,0,0,0,0,0,0,0,3,0,59,27,47,33,0,0,0,0,0,0,0,0,0,0,0,0,0,0],"split_type":[0,0,0,0,0,0,0,0,0,0,0,0,0,0,0,0,0,0,0,0,0,0,0,0,0,0,0,0,0,0,0,0,0,0,0,0,0,0,0,0,0,0,0,0,0,0,0,0,0],"sum_hessian":[2.4E2,2.16E2,2.4E1,1.13E2,1.03E2,1.3E1,1.1E1,1.11E2,2E0,7.9E1,2.4E1,8E0,5E0,4E0,7E0,4.3E1,6.8E1,7.4E1,5E0,1E0,2.3E1,6E0,2E0,4E0,1E0,6E0,1E0,1E0,4.2E1,6.5E1,3E0,4.2E1,3.2E1,1.1E1,1.2E1,3E0,3E0,1E0,1E0,6.4E1,1E0,2.6E1,1.6E1,4E0,2.8E1,2E0,9E0,6E0,6E0],"tree_param":{"num_deleted":"0","num_feature":"60","num_nodes":"49","size_leaf_vector":"1"}},{"base_weights":[-3.1450517E-2,-3.4630682E-2,7.980506E-2,-3.773957E-2,-8.18847E-3,3.298303E-2,2.9715426E-2,-4.2380806E-2,-2.4537992E-2,3.5572976E-2,-1.8002136E-2,1.0443294E-2,2.1643147E-3,-2.0287191E-2,-4.3774202E-2,-1.9882066E-2,-5.0570272E-2,-3.8258585E-3,-4.277931E-2,-3.0632562E-3,-1.0610421E-2,-5.4035336E-2,-4.023679E-2,-4.15547E-2,-1.411113E-2,-1.9512493E-2,-5.9515494E-3,-1.0374479E-2,2.0050779E-2,-6.260175E-3,-1.5077242E-2,-1.6573787E-2,-2.112738E-3,-2.02706E-3,-1.2727583E-2,-4.4030147E-3,-1.7108172E-2,1.6327266E-3,-5.4890793E-3,-2.913675E-4,-4.2115976E-3,9.275481E-3,1.8366576E-3],"categories":[],"categories_nodes":[],"categories_segments":[],"categories_sizes":[],"default_left":[0,0,0,0,0,0,0,0,0,0,0,0,0,0,0,0,0,0,0,0,0,0,0,0,0,0,0,0,0,0,0,0,0,0,0,0,0,0,0,0,0,0,0],"id":18,"left_children":[1,3,5,7,9,-1,11,13,15,-1,17,-1,-1,19,21,23,25,27,29,-1,-1,31,33,35,37,-1,-1,39,41,-1,-1,-1,-1,-1,-1,-1,-1,-1,-1,-1,-1,-1,-1],"loss_changes":[8.8032156E-2,1.9009352E-2,7.300321E-3,1.1827111E-2,3.447941E-2,0E0,2.0748144E-4,3.852874E-3,5.9032068E-3,0E0,8.617536E-3,0E0,0E0,1.3104226E-3,3.0526519E-3,5.6671854E-3,2.2675171E-3,2.86612E-3,4.2602234E-4,0E0,0E0,1.5451983E-3,7.846355E-3,3.3217352E-3,3.4553185E-3,0E0,0E0,4.6873814E-4,4.161878E-4,0E0,0E0,0E0,0E0,0E0,0E0,0E0,0E0,0E0,0E0,0E0,0E0,0E0,0E0],"parents":[2147483647,0,0,1,1,2,2,3,3,4,4,6,6,7,7,8,8,10,10,13,13,14,14,15,15,16,16,17,17,18,18,21,21,22,22,23,23,24,24,27,27,28,28],"right_children":[2,4,6,8,10,-1,12,14,16,-1,18,-1,-1,20,22,24,26,28,30,-1,-1,32,34,36,38,-1,-1,40,42,-1,-1,-1,-1,-1,-1,-1,-1,-1,-1,-1,-1,-1,-1],"split_conditions":[8.270231E-1,2.2527473E-1,2.382026E-1,1.1709869E-1,2.0151854E-1,3.298303E-2,2.801241E-1,1.1515467E-3,9.44043E-1,3.5572976E-2,6.1674643E-2,1.0443294E-2,2.1643147E-3,1.2044477E-2,3.0140479E-3,7.6085067E-1,6.565155E-3,3.1991753E-1,5.5887785E-2,-3.0632562E-3,-1.0610421E-2,9.6837693E-1,1.1477362E-2,1.6309027E-2,7.692308E-1,-1.9512493E-2,-5.9515494E-3,1.5818876E-3,9.81277E-3,-6.260175E-3,-1.5077242E-2,-1.6573787E-2,-2.112738E-3,-2.02706E-3,-1.2727583E-2,-4.4030147E-3,-1.7108172E-2,1.6327266E-3,-5.4890793E-3,-2.913675E-4,-4.2115976E-3,9.275481E-3,1.8366576E-3],"split_indices":[57,12,0,57,14,0,0,41,49,0,47,0,0,6,29,13,18,57,44,0,0,13,30,24,58,0,0,32,0,0,0,0,0,0,0,0,0,0,0,0,0,0,0],"split_type":[0,0,0,0,0,0,0,0,0,0,0,0,0,0,0,0,0,0,0,0,0,0,0,0,0,0,0,0,0,0,0,0,0,0,0,0,0,0,0,0,0,0,0],"sum_hessian":[2.4E2,2.34E2,6E0,2.09E2,2.5E1,3E0,3E0,1.53E2,5.6E1,1E0,2.4E1,2E0,1E0,1E1,1.43E2,4.9E1,7E0,1.6E1,8E0,7E0,3E0,3.3E1,1.1E2,9E0,4E1,4E0,3E0,1.3E1,3E0,3E0,5E0,3.2E1,1E0,7E0,1.03E2,4E0,5E0,7E0,3.3E1,4E0,9E0,1E0,2E0],"tree_param":{"num_deleted":"0","num_feature":"60","num_nodes":"43","size_leaf_vector":"1"}},{"base_weights":[5.9612762E-2,4.2779103E-2,6.533041E-2,2.7684495E-2,4.53896E-2,5.9247524E-2,7.346288E-2,4.330127E-3,9.149297E-3,9.785061E-3,5.0031405E-2,5.4185323E-2,7.293418E-2,7.403416E-2,4.9353275E-3,5.144071E-2,5.0737206E-3,5.6134738E-2,3.2136217E-2,7.671681E-3,7.799998E-2,7.495399E-2,8.460027E-3,3.7849725E-3,5.221152E-2,5.6997176E-2,5.0173877E-3,8.3315675E-4,1.0637684E-2,2.3941372E-2,5.7448447E-3,2.265947E-2,5.351803E-3,3.965432E-3,1.5897777E-2,1.7261703E-2,2.7791085E-3],"categories":[],"categories_nodes":[],"categories_segments":[],"categories_sizes":[],"default_left":[0,0,0,0,0,0,0,0,0,0,0,0,0,0,0,0,0,0,0,0,0,0,0,0,0,0,0,0,0,0,0,0,0,0,0,0,0],"id":19,"left_children":[1,3,5,7,9,11,13,-1,-1,-1,15,17,19,21,-1,23,-1,25,27,-1,29,31,-1,-1,33,35,-1,-1,-1,-1,-1,-1,-1,-1,-1,-1,-1],"loss_changes":[2.040118E-2,1.2652948E-3,4.4530034E-3,7.122755E-6,1.5104264E-3,3.4614801E-3,1.1270642E-3,0E0,0E0,0E0,8.569807E-4,1.720652E-3,4.2434484E-3,8.7961555E-4,0E0,3.886819E-4,0E0,1.561895E-3,7.794937E-4,0E0,9.1440976E-4,9.287298E-4,0E0,0E0,3.3506006E-4,1.3291389E-3,0E0,0E0,0E0,0E0,0E0,0E0,0E0,0E0,0E0,0E0,0E0],"parents":[2147483647,0,0,1,1,2,2,3,3,4,4,5,5,6,6,10,10,11,11,12,12,13,13,15,15,17,17,18,18,20,20,21,21,24,24,25,25],"right_children":[2,4,6,8,10,12,14,-1,-1,-1,16,18,20,22,-1,24,-1,26,28,-1,30,32,-1,-1,34,36,-1,-1,-1,-1,-1,-1,-1,-1,-1,-1,-1],"split_conditions":[7.824334E-1,5.3009827E-2,9.2876905E-1,1.2044477E-2,2.6034975E-2,1.7206594E-1,3.7244484E-1,4.330127E-3,9.149297E-3,9.785061E-3,9.9656045E-1,1.3618758E-1,7.625109E-1,3.7196082E-1,4.9353275E-3,5.9376406E-3,5.0737206E-3,3.0531296E-1,1.9282224E-2,7.671681E-3,2.2324379E-1,6.98511E-1,8.460027E-3,3.7849725E-3,7.3365486E-1,1E0,5.0173877E-3,8.3315675E-4,1.0637684E-2,2.3941372E-2,5.7448447E-3,2.265947E-2,5.351803E-3,3.965432E-3,1.5897777E-2,1.7261703E-2,2.7791085E-3],"split_indices":[58,8,58,0,39,9,6,0,0,0,27,9,46,0,0,6,0,8,0,0,30,44,0,0,19,4,0,0,0,0,0,0,0,0,0,0,0],"split_type":[0,0,0,0,0,0,0,0,0,0,0,0,0,0,0,0,0,0,0,0,0,0,0,0,0,0,0,0,0,0,0,0,0,0,0,0,0],"sum_hessian":[2.4E2,6.3E1,1.77E2,1.1E1,5.2E1,1.06E2,7.1E1,3E0,8E0,1.6E1,3.6E1,8.1E1,2.5E1,7E1,1E0,3.4E1,2E0,7.3E1,8E0,3E0,2.2E1,6.8E1,2E0,1E0,3.3E1,7.1E1,2E0,1E0,7E0,2.1E1,1E0,6.7E1,1E0,1E0,3.2E1,7E1,1E0],"tree_param":{"num_deleted":"0","num_feature":"60","num_nodes":"37","size_leaf_vector":"1"}},{"base_weights":[-2.8662704E-2,-3.4127187E-2,1.9915538E-2,-4.254656E-2,-2.385106E-2,-3.7671875E-3,4.5885757E-2,-9.4933214E-4,-4.2856112E-2,-4.9429736E-3,-3.008785E-2,9.659204E-3,-8.95996E-3,1.9824194E-2,2.7528234E-2,-6.5552997E-3,-4.359874E-2,1.276762E-2,-3.4556687E-2,-1.6056636E-2,-3.764589E-2,-6.515354E-3,2.7136832E-2,8.9859115E-3,1.5831918E-3,-5.157013E-3,-4.416788E-2,2.1192312E-2,4.735466E-3,-1.5448569E-2,-5.9822546E-3,-6.6262702E-3,-3.0028451E-2,-2.9759431E-2,-5.6589484E-2,-3.7552402E-3,3.6592484E-3,1.9582987E-3,9.197163E-3,-9.597674E-3,-1.3731138E-2,4.066286E-3,-5.213039E-3,-4.1301246E-3,2.9849599E-3,-1.4289827E-3,-1.1672245E-2,-1.1263862E-2,-2.594678E-3,-1.8784108E-2,-4.691273E-3,1.9200773E-3,-2.7341547E-4],"categories":[],"categories_nodes":[],"categories_segments":[],"categories_sizes":[],"default_left":[0,0,0,0,0,0,0,0,0,0,0,0,0,0,0,0,0,0,0,0,0,0,0,0,0,0,0,0,0,0,0,0,0,0,0,0,0,0,0,0,0,0,0,0,0,0,0,0,0,0,0,0,0],"id":20,"left_children":[1,3,5,7,9,11,13,-1,15,17,19,21,-1,-1,23,-1,25,27,29,31,33,35,37,-1,-1,-1,39,-1,41,-1,-1,43,45,47,49,-1,51,-1,-1,-1,-1,-1,-1,-1,-1,-1,-1,-1,-1,-1,-1,-1,-1],"loss_changes":[6.465432E-2,1.775974E-2,1.55489985E-2,1.3028979E-3,1.1643853E-2,5.1943674E-3,2.6296545E-3,0E0,8.724183E-4,1.4077593E-2,7.3491707E-3,3.0037356E-3,0E0,0E0,2.7356157E-4,0E0,9.241253E-4,7.567901E-3,1.448852E-3,3.4902846E-3,5.487025E-3,4.122192E-4,1.6264012E-4,0E0,0E0,0E0,6.6256523E-4,0E0,3.3555948E-3,0E0,0E0,2.2675875E-3,2.2823066E-3,5.593043E-3,2.2280104E-3,0E0,4.341754E-5,0E0,0E0,0E0,0E0,0E0,0E0,0E0,0E0,0E0,0E0,0E0,0E0,0E0,0E0,0E0,0E0],"parents":[2147483647,0,0,1,1,2,2,3,3,4,4,5,5,6,6,8,8,9,9,10,10,11,11,14,14,16,16,17,17,18,18,19,19,20,20,21,21,22,22,26,26,28,28,31,31,32,32,33,33,34,34,36,36],"right_children":[2,4,6,8,10,12,14,-1,16,18,20,22,-1,-1,24,-1,26,28,30,32,34,36,38,-1,-1,-1,40,-1,42,-1,-1,44,46,48,50,-1,52,-1,-1,-1,-1,-1,-1,-1,-1,-1,-1,-1,-1,-1,-1,-1,-1],"split_conditions":[3.4557304E-1,3.291181E-2,3.1004723E-2,2.1028933E-4,3.369042E-2,1.3671091E-1,7.877105E-1,-9.4933214E-4,7.5975966E-1,9.226026E-1,5.977252E-2,9.418136E-1,-8.95996E-3,1.9824194E-2,9.5331645E-1,-6.5552997E-3,3.4721827E-3,7.39683E-1,9.381374E-1,3.5195474E-2,1.3618758E-1,9.5035183E-1,1.0090249E-1,8.9859115E-3,1.5831918E-3,-5.157013E-3,7.782829E-1,2.1192312E-2,5.977252E-2,-1.5448569E-2,-5.9822546E-3,1.5707213E-1,7.8124756E-1,1.6172267E-1,2.8388345E-1,-3.7552402E-3,1.8267079E-1,1.9582987E-3,9.197163E-3,-9.597674E-3,-1.3731138E-2,4.066286E-3,-5.213039E-3,-4.1301246E-3,2.9849599E-3,-1.4289827E-3,-1.1672245E-2,-1.1263862E-2,-2.594678E-3,-1.8784108E-2,-4.691273E-3,1.9200773E-3,-2.7341547E-4],"split_indices":[59,57,21,8,51,42,10,0,58,16,11,19,0,0,4,0,36,16,31,24,39,13,6,0,0,0,55,0,35,0,0,38,16,54,6,0,0,0,0,0,0,0,0,0,0,0,0,0,0,0,0,0,0],"split_type":[0,0,0,0,0,0,0,0,0,0,0,0,0,0,0,0,0,0,0,0,0,0,0,0,0,0,0,0,0,0,0,0,0,0,0,0,0,0,0,0,0,0,0,0,0,0,0,0,0,0,0,0,0],"sum_hessian":[2.4E2,2.16E2,2.4E1,1.17E2,9.9E1,1.3E1,1.1E1,1E0,1.16E2,2.5E1,7.4E1,9E0,4E0,4E0,7E0,5E0,1.11E2,1.6E1,9E0,2.7E1,4.7E1,5E0,4E0,6E0,1E0,3E0,1.08E2,1E0,1.5E1,3E0,6E0,1.7E1,1E1,3.5E1,1.2E1,3E0,2E0,1E0,3E0,1.5E1,9.3E1,1.1E1,4E0,1.2E1,5E0,3E0,7E0,2.5E1,1E1,1E1,2E0,1E0,1E0],"tree_param":{"num_deleted":"0","num_feature":"60","num_nodes":"53","size_leaf_vector":"1"}},{"base_weights":[-2.2146111E-2,-2.456957E-2,6.237651E-2,-2.6961958E-2,-5.140713E-3,2.3519773E-2,4.463938E-3,-2.2922875E-2,-3.5000015E-2,3.0237036E-2,-1.3091519E-2,-2.8330611E-2,-1.2718279E-2,-1.1313296E-2,-3.6700334E-2,-1.8891593E-3,-3.0826377E-2,-2.5675261E-2,-4.3893337E-2,-1.483932E-2,4.774138E-3,-4.7705436E-4,-3.8819648E-3,-3.7313942E-2,2.0147079E-4,2.129665E-2,-6.4003775E-3,-1.2666477E-2,-5.973318E-3,-1.5952802E-4,-7.990651E-3,-2.002506E-3,-1.4001E-2,-2.4304618E-3,-6.7301705E-3,-1.1441784E-2,-2.5107474E-3,7.884157E-3,1.699336E-3,-1.6741603E-4,-3.899279E-3],"categories":[],"categories_nodes":[],"categories_segments":[],"categories_sizes":[],"default_left":[0,0,0,0,0,0,0,0,0,0,0,0,0,0,0,0,0,0,0,0,0,0,0,0,0,0,0,0,0,0,0,0,0,0,0,0,0,0,0,0,0],"id":21,"left_children":[1,3,5,7,9,-1,-1,11,13,-1,15,17,19,21,23,25,27,29,31,33,-1,-1,-1,35,-1,37,39,-1,-1,-1,-1,-1,-1,-1,-1,-1,-1,-1,-1,-1,-1],"loss_changes":[5.0898254E-2,1.0784522E-2,4.160626E-3,5.983174E-3,2.405985E-2,0E0,0E0,7.475771E-3,2.3235083E-3,0E0,5.107243E-3,2.674885E-3,3.3333693E-3,7.431622E-5,1.4697462E-3,1.9144427E-3,4.0314626E-4,1.9414835E-3,9.285882E-4,2.2744415E-3,0E0,0E0,0E0,1.1619478E-3,0E0,8.486188E-5,5.7089305E-4,0E0,0E0,0E0,0E0,0E0,0E0,0E0,0E0,0E0,0E0,0E0,0E0,0E0,0E0],"parents":[2147483647,0,0,1,1,2,2,3,3,4,4,7,7,8,8,10,10,11,11,12,12,13,13,14,14,15,15,16,16,17,17,18,18,19,19,23,23,25,25,26,26],"right_children":[2,4,6,8,10,-1,-1,12,14,-1,16,18,20,22,24,26,28,30,32,34,-1,-1,-1,36,-1,38,40,-1,-1,-1,-1,-1,-1,-1,-1,-1,-1,-1,-1,-1,-1],"split_conditions":[8.270231E-1,2.2452141E-1,2.7694008E-1,9.2432207E-1,2.0151854E-1,2.3519773E-2,4.463938E-3,1.4515704E-1,1.0015161E-3,3.0237036E-2,5.8719013E-2,1.0465982E-1,1.0010169E-1,2.249553E-3,5.583794E-1,2.1055476E-3,8.6677206E-1,3.947966E-3,1.3266623E-3,2.661629E-2,4.774138E-3,-4.7705436E-4,-3.8819648E-3,6.881561E-1,2.0147079E-4,9.81277E-3,9.297771E-1,-1.2666477E-2,-5.973318E-3,-1.5952802E-4,-7.990651E-3,-2.002506E-3,-1.4001E-2,-2.4304618E-3,-6.7301705E-3,-1.1441784E-2,-2.5107474E-3,7.884157E-3,1.699336E-3,-1.6741603E-4,-3.899279E-3],"split_indices":[57,12,0,43,14,0,0,59,41,0,47,59,15,0,8,41,13,48,2,6,0,0,0,23,0,0,34,0,0,0,0,0,0,0,0,0,0,0,0,0,0],"split_type":[0,0,0,0,0,0,0,0,0,0,0,0,0,0,0,0,0,0,0,0,0,0,0,0,0,0,0,0,0,0,0,0,0,0,0,0,0,0,0,0,0],"sum_hessian":[2.4E2,2.34E2,6E0,2.08E2,2.6E1,4E0,2E0,1.41E2,6.7E1,1E0,2.5E1,9.1E1,5E1,5E0,6.2E1,1.6E1,9E0,8E1,1.1E1,4.7E1,3E0,1E0,4E0,6.1E1,1E0,2E0,1.4E1,3E0,6E0,3E0,7.7E1,1E0,1E1,2.6E1,2.1E1,5.9E1,2E0,1E0,1E0,8E0,6E0],"tree_param":{"num_deleted":"0","num_feature":"60","num_nodes":"41","size_leaf_vector":"1"}},{"base_weights":[4.2423043E-2,3.224789E-2,4.727872E-2,2.0281304E-2,3.4445666E-2,4.3196082E-2,5.3604703E-2,2.2748942E-2,3.2388712E-3,2.5781652E-2,3.7583936E-2,3.795168E-2,5.0829157E-2,5.4046735E-2,4.195029E-3,2.9242933E-3,7.3665148E-3,1.0453552E-3,2.6722282E-2,2.6427107E-2,4.2489808E-2,3.847091E-2,7.081837E-4,5.7306755E-3,5.3909313E-2,4.549036E-3,5.4462872E-2,1.5421809E-3,2.7587602E-2,2.8382564E-2,2.352238E-3,4.403493E-2,4.017103E-3,3.9230205E-2,2.9865564E-3,2.8329697E-2,5.822476E-2,1.6563838E-2,6.7680185E-3,3.0712904E-3,8.7079685E-3,1.8891424E-3,8.85309E-3,1.3463573E-2,3.0619563E-3,3.2839002E-3,1.1854328E-2,2.3446977E-3,9.133828E-3,1.8296652E-2,7.7106226E-3],"categories":[],"categories_nodes":[],"categories_segments":[],"categories_sizes":[],"default_left":[0,0,0,0,0,0,0,0,0,0,0,0,0,0,0,0,0,0,0,0,0,0,0,0,0,0,0,0,0,0,0,0,0,0,0,0,0,0,0,0,0,0,0,0,0,0,0,0,0,0,0],"id":22,"left_children":[1,3,5,7,9,11,13,15,-1,17,19,21,23,25,-1,-1,-1,-1,27,29,31,33,-1,-1,35,-1,37,-1,39,41,-1,43,-1,45,-1,47,49,-1,-1,-1,-1,-1,-1,-1,-1,-1,-1,-1,-1,-1,-1],"loss_changes":[1.0382533E-2,1.4316812E-3,1.8425882E-3,1.0548299E-4,8.527562E-4,2.1941364E-3,2.7756393E-4,1.8944964E-5,0E0,3.4732465E-4,1.4496148E-3,1.1103675E-3,2.7814358E-3,1.1263788E-4,0E0,0E0,0E0,0E0,2.3168512E-4,3.953185E-4,8.0418587E-4,9.95174E-4,0E0,0E0,2.2140741E-3,0E0,1.180917E-4,0E0,1.7718878E-4,1.8776767E-4,0E0,3.695786E-4,0E0,6.587058E-5,0E0,6.59544E-5,1.0394156E-3,0E0,0E0,0E0,0E0,0E0,0E0,0E0,0E0,0E0,0E0,0E0,0E0,0E0,0E0],"parents":[2147483647,0,0,1,1,2,2,3,3,4,4,5,5,6,6,7,7,9,9,10,10,11,11,12,12,13,13,18,18,19,19,20,20,21,21,24,24,26,26,28,28,29,29,31,31,33,33,35,35,36,36],"right_children":[2,4,6,8,10,12,14,16,-1,18,20,22,24,26,-1,-1,-1,-1,28,30,32,34,-1,-1,36,-1,38,-1,40,42,-1,44,-1,46,-1,48,50,-1,-1,-1,-1,-1,-1,-1,-1,-1,-1,-1,-1,-1,-1],"split_conditions":[8.040161E-1,7.489327E-1,9.321488E-1,7.685588E-1,6.5175146E-2,6.893977E-2,3.421297E-1,5.6782875E-2,3.2388712E-3,7.315598E-1,3.1258106E-2,6.8198994E-2,5.6740907E-3,2.50931E-3,4.195029E-3,2.9242933E-3,7.3665148E-3,1.0453552E-3,3.33689E-2,7.9257256E-1,9.975696E-1,2.2527473E-1,7.081837E-4,5.7306755E-3,7.988576E-1,4.549036E-3,3.7196082E-1,1.5421809E-3,7.395051E-1,4.0533405E-2,2.352238E-3,8.8495135E-1,4.017103E-3,7.346193E-1,2.9865564E-3,7.3808205E-1,9.70215E-1,1.6563838E-2,6.7680185E-3,3.0712904E-3,8.7079685E-3,1.8891424E-3,8.85309E-3,1.3463573E-2,3.0619563E-3,3.2839002E-3,1.1854328E-2,2.3446977E-3,9.133828E-3,1.8296652E-2,7.7106226E-3],"split_indices":[52,55,58,49,5,59,3,20,0,34,36,59,9,12,0,0,0,0,2,19,3,0,0,0,37,0,0,0,37,26,0,1,0,25,0,4,16,0,0,0,0,0,0,0,0,0,0,0,0,0,0],"split_type":[0,0,0,0,0,0,0,0,0,0,0,0,0,0,0,0,0,0,0,0,0,0,0,0,0,0,0,0,0,0,0,0,0,0,0,0,0,0,0,0,0,0,0,0,0,0,0,0,0,0,0],"sum_hessian":[2.4E2,8E1,1.6E2,1.4E1,6.6E1,1.02E2,5.8E1,1E1,4E0,2E1,4.6E1,6.4E1,3.8E1,5.7E1,1E0,2E0,8E0,1E0,1.9E1,1.6E1,3E1,6.3E1,1E0,4E0,3.4E1,1E0,5.6E1,1E0,1.8E1,1.4E1,2E0,2.8E1,2E0,6.1E1,2E0,6E0,2.8E1,5.4E1,2E0,2E0,1.6E1,1E0,1.3E1,2.7E1,1E0,1E0,6E1,1E0,5E0,2.5E1,3E0],"tree_param":{"num_deleted":"0","num_feature":"60","num_nodes":"51","size_leaf_vector":"1"}},{"base_weights":[-2.0306531E-2,-2.3728712E-2,2.0927807E-2,-2.7689982E-2,-1.1125375E-2,9.406075E-4,3.8822226E-2,-3.2082956E-2,-1.9174699E-2,-1.5360325E-2,1.5674997E-2,4.436912E-3,-1.0757077E-2,7.17089E-3,1.6567612E-2,-7.1866135E-3,-3.320005E-2,-2.2099484E-2,2.7297184E-2,-3.9829135E-2,-1.0916468E-2,8.22537E-3,3.1456768E-3,-4.3608462E-3,-6.397843E-4,-5.290911E-3,2.4473574E-3,-2.1854926E-2,-3.5452403E-2,5.298809E-3,-2.312493E-2,1.8013466E-2,-3.633678E-3,-1.5942965E-2,-4.362633E-3,-3.316691E-2,-5.5187526E-3,1.8764527E-3,-3.0361416E-4,2.6539967E-3,-7.9038815E-4,-8.875357E-3,-1.9687407E-3,-9.765334E-3,-1.6997337E-2,-7.493741E-3,-1.9731128E-3,-2.9359595E-3,1.3008043E-3,-2.65437E-3,6.911852E-4,-1.1487322E-2,4.0533097E-4,1.0972267E-3,-3.5431099E-3],"categories":[],"categories_nodes":[],"categories_segments":[],"categories_sizes":[],"default_left":[0,0,0,0,0,0,0,0,0,0,0,0,0,0,0,0,0,0,0,0,0,0,0,0,0,0,0,0,0,0,0,0,0,0,0,0,0,0,0,0,0,0,0,0,0,0,0,0,0,0,0,0,0,0,0],"id":23,"left_children":[1,3,5,7,9,11,13,15,17,19,21,-1,23,-1,-1,25,27,29,31,33,35,-1,37,-1,-1,-1,39,41,43,-1,45,-1,47,-1,49,51,53,-1,-1,-1,-1,-1,-1,-1,-1,-1,-1,-1,-1,-1,-1,-1,-1,-1,-1],"loss_changes":[3.450442E-2,1.08252615E-2,6.7590103E-3,5.706668E-3,6.4831763E-3,1.7791177E-3,1.1271778E-3,2.820678E-3,8.758474E-3,4.784529E-3,1.0907967E-3,0E0,1.6455498E-4,0E0,0E0,6.471984E-4,1.90828E-3,2.73256E-3,4.269842E-3,3.0735815E-3,4.8612254E-3,0E0,7.096544E-5,0E0,0E0,0E0,1.5339217E-4,2.1699416E-3,3.4467056E-3,0E0,1.5539695E-3,0E0,1.8954357E-4,0E0,1.1008934E-4,1.4667418E-3,2.0638485E-3,0E0,0E0,0E0,0E0,0E0,0E0,0E0,0E0,0E0,0E0,0E0,0E0,0E0,0E0,0E0,0E0,0E0,0E0],"parents":[2147483647,0,0,1,1,2,2,3,3,4,4,5,5,6,6,7,7,8,8,9,9,10,10,12,12,15,15,16,16,17,17,18,18,19,19,20,20,22,22,26,26,27,27,28,28,30,30,32,32,34,34,35,35,36,36],"right_children":[2,4,6,8,10,12,14,16,18,20,22,-1,24,-1,-1,26,28,30,32,34,36,-1,38,-1,-1,-1,40,42,44,-1,46,-1,48,-1,50,52,54,-1,-1,-1,-1,-1,-1,-1,-1,-1,-1,-1,-1,-1,-1,-1,-1,-1,-1],"split_conditions":[4.5950177E-1,1.2480795E-1,3.1004723E-2,7.4403904E-2,9.466361E-1,1.3652451E-2,2.4862869E-1,8.6985086E-4,2.866015E-1,6.291974E-3,9.031544E-1,4.436912E-3,3.090103E-1,7.17089E-3,1.6567612E-2,8.010267E-3,7.7716815E-1,7.762125E-2,3.0557817E-2,2.8388345E-1,1.9837002E-1,8.22537E-3,9.2390704E-1,-4.3608462E-3,-6.397843E-4,-5.290911E-3,9.236441E-3,7.807258E-1,6.639695E-2,5.298809E-3,7.170903E-2,1.8013466E-2,2.223908E-1,-1.5942965E-2,3.0229434E-1,7.9405487E-1,7.853269E-1,1.8764527E-3,-3.0361416E-4,2.6539967E-3,-7.9038815E-4,-8.875357E-3,-1.9687407E-3,-9.765334E-3,-1.6997337E-2,-7.493741E-3,-1.9731128E-3,-2.9359595E-3,1.3008043E-3,-2.65437E-3,6.911852E-4,-1.1487322E-2,4.0533097E-4,1.0972267E-3,-3.5431099E-3],"split_indices":[59,57,21,12,19,36,24,41,44,21,13,0,0,0,0,0,58,12,0,0,59,0,1,0,0,0,0,25,57,0,57,0,0,0,0,1,58,0,0,0,0,0,0,0,0,0,0,0,0,0,0,0,0,0,0],"split_type":[0,0,0,0,0,0,0,0,0,0,0,0,0,0,0,0,0,0,0,0,0,0,0,0,0,0,0,0,0,0,0,0,0,0,0,0,0,0,0,0,0,0,0,0,0,0,0,0,0,0,0,0,0,0,0],"sum_hessian":[2.4E2,2.22E2,1.8E1,1.68E2,5.4E1,9E0,9E0,1.09E2,5.9E1,4.7E1,7E0,4E0,5E0,6E0,3E0,5E0,1.04E2,5.6E1,3E0,6E0,4.1E1,3E0,4E0,3E0,2E0,2E0,3E0,1.9E1,8.5E1,1E0,5.5E1,1E0,2E0,4E0,2E0,7E0,3.4E1,2E0,2E0,1E0,2E0,1.2E1,7E0,7.7E1,8E0,4.9E1,6E0,1E0,1E0,1E0,1E0,6E0,1E0,1.4E1,2E1],"tree_param":{"num_deleted":"0","num_feature":"60","num_nodes":"55","size_leaf_vector":"1"}},{"base_weights":[-1.550872E-2,-1.7028598E-2,5.9635293E-2,-1.9036157E-2,-2.5419064E-3,2.026991E-2,4.186651E-3,-1.6854882E-2,-3.0506454E-2,2.5701482E-2,-8.537945E-3,-2.0142917E-2,-9.76145E-3,-3.3626538E-2,-1.1381668E-2,-1.9208973E-2,6.073241E-3,-2.1280652E-2,-6.9343983E-3,-2.7831264E-2,-6.313654E-3,-7.6149493E-3,-1.606586E-2,-4.7305296E-3,-1.7387619E-3,-1.0788717E-2,-2.9696664E-2,2.0032287E-2,-1.1770129E-4,-6.7652287E-3,-1.8973417E-3,4.0230007E-4,-4.2162193E-3,-1.7716393E-3,-1.1342976E-2,3.4027228E-3,-2.5582477E-3,-9.53693E-4,1.7125011E-4,-1.2852347E-3,-3.8077286E-3,-1.0248952E-2,-3.7060806E-3,7.232863E-3,1.170078E-3,-1.5004126E-3,1.1914931E-3],"categories":[],"categories_nodes":[],"categories_segments":[],"categories_sizes":[],"default_left":[0,0,0,0,0,0,0,0,0,0,0,0,0,0,0,0,0,0,0,0,0,0,0,0,0,0,0,0,0,0,0,0,0,0,0,0,0,0,0,0,0,0,0,0,0,0,0],"id":24,"left_children":[1,3,5,7,9,-1,-1,11,13,-1,15,17,19,21,23,25,27,29,31,33,35,-1,-1,-1,37,39,41,43,45,-1,-1,-1,-1,-1,-1,-1,-1,-1,-1,-1,-1,-1,-1,-1,-1,-1,-1],"loss_changes":[2.8540079E-2,6.8442523E-3,8.6852536E-4,4.689954E-3,1.6599407E-2,0E0,0E0,3.9316304E-3,1.526745E-3,0E0,4.638235E-3,1.6557686E-3,3.437743E-3,3.0756816E-3,2.2638933E-4,1.1808649E-3,1.1258132E-3,1.9469336E-3,6.6694524E-4,1.7458252E-3,2.051106E-3,0E0,0E0,0E0,1.1793606E-5,8.183578E-5,1.2020208E-4,1.6906415E-4,2.1957397E-4,0E0,0E0,0E0,0E0,0E0,0E0,0E0,0E0,0E0,0E0,0E0,0E0,0E0,0E0,0E0,0E0,0E0,0E0],"parents":[2147483647,0,0,1,1,2,2,3,3,4,4,7,7,8,8,10,10,11,11,12,12,13,13,14,14,15,15,16,16,17,17,18,18,19,19,20,20,24,24,25,25,26,26,27,27,28,28],"right_children":[2,4,6,8,10,-1,-1,12,14,-1,16,18,20,22,24,26,28,30,32,34,36,-1,-1,-1,38,40,42,44,46,-1,-1,-1,-1,-1,-1,-1,-1,-1,-1,-1,-1,-1,-1,-1,-1,-1,-1],"split_conditions":[9.9656045E-1,2.2191474E-1,2.382026E-1,9.4646215E-1,2.0151854E-1,2.026991E-2,4.186651E-3,1.4515704E-1,2.3206323E-1,2.5701482E-2,1.9837002E-1,2.2324379E-1,7.6085067E-1,2.8320484E-2,9.124634E-1,5.5887785E-2,8.493162E-1,9.531979E-1,9.268717E-1,1.3260719E-2,7.5017786E-1,-7.6149493E-3,-1.606586E-2,-4.7305296E-3,7.968732E-2,9.113012E-2,8.270231E-1,2.7694008E-1,9.2805755E-1,-6.7652287E-3,-1.8973417E-3,4.0230007E-4,-4.2162193E-3,-1.7716393E-3,-1.1342976E-2,3.4027228E-3,-2.5582477E-3,-9.53693E-4,1.7125011E-4,-1.2852347E-3,-3.8077286E-3,-1.0248952E-2,-3.7060806E-3,7.232863E-3,1.170078E-3,-1.5004126E-3,1.1914931E-3],"split_indices":[57,12,0,49,14,0,0,59,14,0,59,0,13,57,1,44,28,19,4,24,58,0,0,0,0,9,6,0,16,0,0,0,0,0,0,0,0,0,0,0,0,0,0,0,0,0,0],"split_type":[0,0,0,0,0,0,0,0,0,0,0,0,0,0,0,0,0,0,0,0,0,0,0,0,0,0,0,0,0,0,0,0,0,0,0,0,0,0,0,0,0,0,0,0,0,0,0],"sum_hessian":[2.4E2,2.36E2,4E0,2.07E2,2.9E1,3E0,1E0,1.76E2,3.1E1,1E0,2.8E1,1.19E2,5.7E1,2.6E1,5E0,1.6E1,1.2E1,1.09E2,1E1,8E0,4.9E1,2E1,6E0,3E0,2E0,1E1,6E0,3E0,9E0,1E2,9E0,5E0,5E0,3E0,5E0,5E0,4.4E1,1E0,1E0,3E0,7E0,4E0,2E0,2E0,1E0,4E0,5E0],"tree_param":{"num_deleted":"0","num_feature":"60","num_nodes":"47","size_leaf_vector":"1"}},{"base_weights":[3.0342015E-2,2.3333207E-2,3.3679727E-2,2.037282E-2,2.9515259E-2,3.406601E-2,3.000471E-3,3.232688E-2,1.7208911E-2,1.6215296E-3,3.0328523E-2,2.9855805E-2,3.7699714E-2,1.1088076E-2,2.295345E-3,1.1974517E-2,1.9451905E-2,4.17269E-3,3.2096006E-2,2.7062135E-2,1.1299375E-2,1.3043006E-2,3.9150245E-2,7.426858E-4,3.7240416E-3,2.4521113E-3,2.0336764E-2,2.6026638E-3,9.861616E-3,2.7303131E-2,1.8903584E-3,1.995213E-3,6.7506735E-3,4.015805E-2,1.09702945E-2,6.4191367E-3,2.5080757E-3,8.256605E-3,2.1583468E-3,1.2245096E-2,3.3531727E-3,6.0195924E-4,3.9868117E-3],"categories":[],"categories_nodes":[],"categories_segments":[],"categories_sizes":[],"default_left":[0,0,0,0,0,0,0,0,0,0,0,0,0,0,0,0,0,0,0,0,0,0,0,0,0,0,0,0,0,0,0,0,0,0,0,0,0,0,0,0,0,0,0],"id":25,"left_children":[1,3,5,7,9,11,-1,13,15,-1,17,19,21,-1,-1,23,25,-1,27,29,-1,31,33,-1,-1,-1,35,-1,-1,37,-1,-1,-1,39,41,-1,-1,-1,-1,-1,-1,-1,-1],"loss_changes":[4.851952E-3,8.810945E-4,1.1318773E-3,1.6373377E-3,3.066603E-4,1.2916178E-3,0E0,9.748619E-4,3.3062696E-4,0E0,2.2106804E-4,6.8229437E-4,2.3863688E-3,0E0,0E0,4.015211E-5,1.531206E-4,0E0,7.832423E-5,1.3315678E-4,0E0,2.1314155E-4,1.7178282E-3,0E0,0E0,0E0,1.8939748E-4,0E0,0E0,6.60792E-5,0E0,0E0,0E0,9.3782693E-4,5.648515E-5,0E0,0E0,0E0,0E0,0E0,0E0,0E0,0E0],"parents":[2147483647,0,0,1,1,2,2,3,3,4,4,5,5,7,7,8,8,10,10,11,11,12,12,15,15,16,16,18,18,19,19,21,21,22,22,26,26,29,29,33,33,34,34],"right_children":[2,4,6,8,10,12,-1,14,16,-1,18,20,22,-1,-1,24,26,-1,28,30,-1,32,34,-1,-1,-1,36,-1,-1,38,-1,-1,-1,40,42,-1,-1,-1,-1,-1,-1,-1,-1],"split_conditions":[8.040161E-1,7.851016E-1,8.067669E-1,7.448415E-1,3.9144106E-2,4.2637356E-2,3.000471E-3,8.10736E-1,7.650012E-1,1.6215296E-3,5.2291177E-2,9.395209E-1,5.6740907E-3,1.1088076E-2,2.295345E-3,4.4538837E-2,7.383983E-1,4.17269E-3,6.5592453E-3,2.2527473E-1,1.1299375E-2,3.6724906E-2,4.649409E-1,7.426858E-4,3.7240416E-3,2.4521113E-3,7.9577434E-1,2.6026638E-3,9.861616E-3,2.2527473E-1,1.8903584E-3,1.995213E-3,6.7506735E-3,2.8388345E-1,1.9282224E-2,6.4191367E-3,2.5080757E-3,8.256605E-3,2.1583468E-3,1.2245096E-2,3.3531727E-3,6.0195924E-4,3.9868117E-3],"split_indices":[52,46,30,40,17,59,0,10,25,0,8,58,9,0,0,17,58,0,33,3,0,0,26,0,0,0,52,0,0,12,0,0,0,30,0,0,0,0,0,0,0,0,0],"split_type":[0,0,0,0,0,0,0,0,0,0,0,0,0,0,0,0,0,0,0,0,0,0,0,0,0,0,0,0,0,0,0,0,0,0,0,0,0,0,0,0,0,0,0],"sum_hessian":[2.4E2,8E1,1.6E2,5.7E1,2.3E1,1.57E2,3E0,1E1,4.7E1,1E0,2.2E1,7.7E1,8E1,8E0,2E0,1.6E1,3.1E1,3E0,1.9E1,6E1,1.7E1,5E0,7.5E1,1E0,1.5E1,3E0,2.8E1,1E0,1.8E1,5.9E1,1E0,4E0,1E0,7.2E1,3E0,2.5E1,3E0,5.8E1,1E0,7E1,2E0,1E0,2E0],"tree_param":{"num_deleted":"0","num_feature":"60","num_nodes":"43","size_leaf_vector":"1"}},{"base_weights":[-1.4327788E-2,-1.7262703E-2,1.1720385E-2,-2.1715285E-2,-1.1933841E-2,3.817892E-2,3.1968062E-3,-2.2564083E-2,-9.022599E-3,-2.24051E-3,-1.7267985E-2,3.4550966E-3,1.2362373E-2,1.55925E-2,-1.0758137E-2,-2.525014E-3,-2.2915047E-2,3.4271001E-3,-5.9003336E-3,-6.8724332E-3,1.8592367E-2,-6.120614E-3,-2.322677E-2,6.4808577E-3,2.721566E-3,2.6546915E-3,-1.44431805E-2,-1.2455151E-3,1.0925867E-4,-6.0039833E-3,-2.3345135E-2,-8.2220323E-4,3.0636473E-3,2.5951623E-3,-2.018104E-2,1.29827E-2,6.391555E-5,2.1872905E-3,-1.46107925E-2,-1.2803283E-2,-1.944483E-2,1.3310462E-3,-1.3643503E-4,-1.7970953E-3,-6.4195395E-3,2.6232342E-4,-2.5764755E-3,-2.1402233E-3,-7.126806E-3,3.171265E-4,-5.40299E-4,-5.907355E-4,4.7306917E-3,-2.5504595E-3,-8.693263E-3,-2.04919E-3,1.0485633E-3,3.7823417E-3,-6.5989344E-4,-5.4092766E-3,4.979704E-4,-2.6841024E-3,-8.105137E-3],"categories":[],"categories_nodes":[],"categories_segments":[],"categories_sizes":[],"default_left":[0,0,0,0,0,0,0,0,0,0,0,0,0,0,0,0,0,0,0,0,0,0,0,0,0,0,0,0,0,0,0,0,0,0,0,0,0,0,0,0,0,0,0,0,0,0,0,0,0,0,0,0,0,0,0,0,0,0,0,0,0,0,0],"id":26,"left_children":[1,3,5,7,9,11,13,15,17,19,21,-1,-1,23,25,27,29,31,-1,33,35,37,39,-1,-1,41,43,-1,-1,45,47,49,-1,51,53,-1,55,57,59,-1,61,-1,-1,-1,-1,-1,-1,-1,-1,-1,-1,-1,-1,-1,-1,-1,-1,-1,-1,-1,-1,-1,-1],"loss_changes":[1.8626582E-2,4.889652E-3,5.515986E-3,1.056917E-3,5.1835813E-3,9.960495E-6,3.62737E-3,7.08729E-4,1.260167E-3,3.6981376E-3,4.175447E-3,0E0,0E0,2.3512449E-4,5.326107E-4,1.5611693E-5,6.380789E-4,1.5255528E-4,0E0,3.9583887E-3,3.198637E-3,1.7248122E-3,2.2597443E-3,0E0,0E0,1.864225E-5,3.4215278E-4,0E0,0E0,7.861214E-5,5.232468E-4,9.2615655E-6,0E0,1.1735014E-3,1.0892511E-3,0E0,1.4216066E-4,6.2201626E-4,6.9770357E-4,0E0,2.6995027E-3,0E0,0E0,0E0,0E0,0E0,0E0,0E0,0E0,0E0,0E0,0E0,0E0,0E0,0E0,0E0,0E0,0E0,0E0,0E0,0E0,0E0,0E0],"parents":[2147483647,0,0,1,1,2,2,3,3,4,4,5,5,6,6,7,7,8,8,9,9,10,10,13,13,14,14,15,15,16,16,17,17,19,19,20,20,21,21,22,22,25,25,26,26,29,29,30,30,31,31,33,33,34,34,36,36,37,37,38,38,40,40],"right_children":[2,4,6,8,10,12,14,16,18,20,22,-1,-1,24,26,28,30,32,-1,34,36,38,40,-1,-1,42,44,-1,-1,46,48,50,-1,52,54,-1,56,58,60,-1,62,-1,-1,-1,-1,-1,-1,-1,-1,-1,-1,-1,-1,-1,-1,-1,-1,-1,-1,-1,-1,-1,-1],"split_conditions":[3.4557304E-1,6.7534804E-2,8.319432E-1,9.5331645E-1,5.471457E-2,7.39683E-1,1.727877E-2,7.3120403E-1,1.9276992E-3,1.924353E-1,5.977252E-2,3.4550966E-3,1.2362373E-2,9.4205076E-1,2.2651286E-1,3.6705025E-2,7.3808205E-1,1.9504076E-3,-5.9003336E-3,3.0215953E-2,7.7470154E-1,7.9348564E-1,7.6755077E-1,6.4808577E-3,2.721566E-3,2.7694008E-1,6.5592453E-3,-1.2455151E-3,1.0925867E-4,7.489327E-1,3.4721827E-3,8.688592E-1,3.0636473E-3,1.0302403E-1,7.780062E-1,1.29827E-2,9.1685116E-1,5.296064E-2,2.2391716E-1,-1.2803283E-2,2.032019E-1,1.3310462E-3,-1.3643503E-4,-1.7970953E-3,-6.4195395E-3,2.6232342E-4,-2.5764755E-3,-2.1402233E-3,-7.126806E-3,3.171265E-4,-5.40299E-4,-5.907355E-4,4.7306917E-3,-2.5504595E-3,-8.693263E-3,-2.04919E-3,1.0485633E-3,3.7823417E-3,-6.5989344E-4,-5.4092766E-3,4.979704E-4,-2.6841024E-3,-8.105137E-3],"split_indices":[59,59,43,19,48,1,39,1,50,12,11,0,0,22,11,0,25,2,0,30,1,52,16,0,0,0,27,0,0,4,36,1,0,54,16,0,1,26,48,0,50,0,0,0,0,0,0,0,0,0,0,0,0,0,0,0,0,0,0,0,0,0,0],"split_type":[0,0,0,0,0,0,0,0,0,0,0,0,0,0,0,0,0,0,0,0,0,0,0,0,0,0,0,0,0,0,0,0,0,0,0,0,0,0,0,0,0,0,0,0,0,0,0,0,0,0,0,0,0,0,0,0,0,0,0,0,0,0,0],"sum_hessian":[2.4E2,2.16E2,2.4E1,1.16E2,1E2,5E0,1.9E1,1.08E2,8E0,3.6E1,6.4E1,1E0,4E0,1E1,9E0,2E0,1.06E2,4E0,4E0,3E1,6E0,2.3E1,4.1E1,4E0,6E0,2E0,7E0,1E0,1E0,3E0,1.03E2,3E0,1E0,1.8E1,1.2E1,2E0,4E0,1.2E1,1.1E1,5E0,3.6E1,1E0,1E0,4E0,3E0,1E0,2E0,3E0,1E2,1E0,2E0,1.4E1,4E0,6E0,6E0,1E0,3E0,3E0,9E0,9E0,2E0,1.6E1,2E1],"tree_param":{"num_deleted":"0","num_feature":"60","num_nodes":"63","size_leaf_vector":"1"}},{"base_weights":[-1.091725E-2,-1.208539E-2,4.6636008E-2,-1.393155E-2,-2.050723E-3,1.5709177E-2,3.5586567E-3,-1.2262182E-2,-2.2312533E-2,-6.977025E-3,4.1567102E-2,-1.46753E-2,-4.112998E-3,-1.732908E-2,-3.0251028E-2,1.1521288E-3,-1.4718567E-2,2.1846263E-2,6.8755546E-3,-9.180666E-3,-1.7574972E-2,-5.897187E-3,-7.9173245E-4,-5.460146E-3,1.4556237E-4,-1.13518955E-2,-2.253306E-3,1.0496589E-2,-3.2493246E-3,-3.8912464E-3,-1.8583594E-2,3.0628324E-3,3.116727E-5,-4.979302E-3,-1.2014018E-3,-4.8491536E-3,-1.0991404E-2,2.5153665E-3,-1.8534289E-3,4.9904953E-3,9.805942E-4,7.019585E-4,-1.7980176E-3,1.1038022E-3,-1.8423697E-3,-1.5490913E-3,-6.1662495E-3],"categories":[],"categories_nodes":[],"categories_segments":[],"categories_sizes":[],"default_left":[0,0,0,0,0,0,0,0,0,0,0,0,0,0,0,0,0,0,0,0,0,0,0,0,0,0,0,0,0,0,0,0,0,0,0,0,0,0,0,0,0,0,0,0,0,0,0],"id":27,"left_children":[1,3,5,7,9,-1,-1,11,13,15,17,19,21,23,25,27,29,-1,31,33,35,-1,37,-1,-1,-1,-1,39,41,43,45,-1,-1,-1,-1,-1,-1,-1,-1,-1,-1,-1,-1,-1,-1,-1,-1],"loss_changes":[1.67661E-2,4.3619983E-3,3.7475675E-4,2.5245883E-3,8.4552495E-3,0E0,0E0,3.2630153E-3,7.4173324E-4,2.219584E-3,3.836283E-3,1.909893E-3,2.0495055E-3,3.5034725E-4,1.6140044E-3,7.744326E-4,6.809486E-4,0E0,6.666721E-5,1.7378796E-3,1.6674194E-3,0E0,1.7323123E-3,0E0,0E0,0E0,0E0,2.118338E-4,2.1340606E-4,1.2479795E-4,2.376507E-4,0E0,0E0,0E0,0E0,0E0,0E0,0E0,0E0,0E0,0E0,0E0,0E0,0E0,0E0,0E0,0E0],"parents":[2147483647,0,0,1,1,2,2,3,3,4,4,7,7,8,8,9,9,10,10,11,11,12,12,13,13,14,14,15,15,16,16,18,18,19,19,20,20,22,22,27,27,28,28,29,29,30,30],"right_children":[2,4,6,8,10,-1,-1,12,14,16,18,20,22,24,26,28,30,-1,32,34,36,-1,38,-1,-1,-1,-1,40,42,44,46,-1,-1,-1,-1,-1,-1,-1,-1,-1,-1,-1,-1,-1,-1,-1,-1],"split_conditions":[9.9656045E-1,2.0774466E-1,2.382026E-1,9.466361E-1,2.866015E-1,1.5709177E-2,3.5586567E-3,2.1777487E-1,2.3480915E-1,2.4928108E-3,3.0557817E-2,7.821962E-1,2.3066949E-3,5.320398E-1,4.0087312E-1,8.972251E-1,7.745474E-1,2.1846263E-2,2.7694008E-1,7.7508104E-1,2.4757512E-1,-5.897187E-3,1.5771223E-2,-5.460146E-3,1.4556237E-4,-1.13518955E-2,-2.253306E-3,1.727877E-2,3.7151796E-1,2.5137085E-2,7.3160805E-2,3.0628324E-3,3.116727E-5,-4.979302E-3,-1.2014018E-3,-4.8491536E-3,-1.0991404E-2,2.5153665E-3,-1.8534289E-3,4.9904953E-3,9.805942E-4,7.019585E-4,-1.7980176E-3,1.1038022E-3,-1.8423697E-3,-1.5490913E-3,-6.1662495E-3],"split_indices":[57,18,0,49,44,0,0,59,59,2,0,58,17,5,59,19,7,0,0,37,48,0,18,0,0,0,0,0,20,0,15,0,0,0,0,0,0,0,0,0,0,0,0,0,0,0,0],"split_type":[0,0,0,0,0,0,0,0,0,0,0,0,0,0,0,0,0,0,0,0,0,0,0,0,0,0,0,0,0,0,0,0,0,0,0,0,0,0,0,0,0,0,0,0,0,0,0],"sum_hessian":[2.4E2,2.36E2,4E0,1.99E2,3.7E1,3E0,1E0,1.68E2,3.1E1,3.4E1,3E0,1.29E2,3.9E1,2.1E1,1E1,1.7E1,1.7E1,1E0,2E0,4.6E1,8.3E1,6E0,3.3E1,2E1,1E0,7E0,3E0,5E0,1.2E1,5E0,1.2E1,1E0,1E0,1.8E1,2.8E1,7.9E1,4E0,1.2E1,2.1E1,2E0,3E0,4E0,8E0,1E0,4E0,2E0,1E1],"tree_param":{"num_deleted":"0","num_feature":"60","num_nodes":"47","size_leaf_vector":"1"}},{"base_weights":[2.16669E-2,1.5191443E-2,2.3873428E-2,8.755517E-3,1.4024789E-2,1.2026239E-2,2.3173096E-2,1.0685558E-2,1.636225E-2,2.1278754E-2,2.808858E-2,1.2940989E-2,6.599903E-3,8.602738E-3,1.8418917E-2,1.9385034E-2,2.9163508E-2,2.8955968E-2,1.8879473E-3,1.4609098E-3,1.504987E-2,3.1706097E-4,2.280847E-3,5.957723E-4,2.7544813E-3,2.1117814E-2,1.09745795E-2,1.737464E-2,2.3024281E-2,3.64211E-2,1.6086524E-2,1.68522E-2,3.0463276E-2,1.6851187E-3,4.8762853E-3,1.6489238E-3,6.5140203E-3,1.1592091E-3,3.7362482E-3,4.2698025E-3,6.1680158E-3,8.464694E-4,7.060648E-3,2.8244467E-3,1.1332287E-2,1.5941621E-3,5.434636E-3,5.1166717E-4,5.7277144E-3,7.766818E-3,1.2067148E-2],"categories":[],"categories_nodes":[],"categories_segments":[],"categories_sizes":[],"default_left":[0,0,0,0,0,0,0,0,0,0,0,0,0,0,0,0,0,0,0,0,0,0,0,0,0,0,0,0,0,0,0,0,0,0,0,0,0,0,0,0,0,0,0,0,0,0,0,0,0,0,0],"id":28,"left_children":[1,3,5,-1,7,-1,9,11,13,15,17,19,21,23,25,27,29,31,-1,-1,33,-1,-1,-1,-1,35,37,39,41,43,45,47,49,-1,-1,-1,-1,-1,-1,-1,-1,-1,-1,-1,-1,-1,-1,-1,-1,-1,-1],"loss_changes":[3.0808076E-3,6.3553173E-4,1.0922775E-3,0E0,3.0128472E-4,0E0,1.0132119E-3,1.726083E-4,3.8414448E-4,1.3608299E-3,6.6850707E-4,2.1607545E-4,5.8675418E-5,1.6238482E-5,2.9062014E-4,3.828071E-4,1.5969835E-3,2.7111918E-4,0E0,0E0,5.6391582E-5,0E0,0E0,0E0,0E0,4.812423E-5,4.656252E-5,4.3799542E-4,2.950672E-4,1.5598536E-4,1.2230594E-4,2.0495523E-4,6.104447E-4,0E0,0E0,0E0,0E0,0E0,0E0,0E0,0E0,0E0,0E0,0E0,0E0,0E0,0E0,0E0,0E0,0E0,0E0],"parents":[2147483647,0,0,1,1,2,2,4,4,6,6,7,7,8,8,9,9,10,10,11,11,12,12,13,13,14,14,15,15,16,16,17,17,20,20,25,25,26,26,27,27,28,28,29,29,30,30,31,31,32,32],"right_children":[2,4,6,-1,8,-1,10,12,14,16,18,20,22,24,26,28,30,32,-1,-1,34,-1,-1,-1,-1,36,38,40,42,44,46,48,50,-1,-1,-1,-1,-1,-1,-1,-1,-1,-1,-1,-1,-1,-1,-1,-1,-1,-1],"split_conditions":[7.824334E-1,7.3826E-1,4.6511815E-4,8.755517E-3,7.858329E-1,1.2026239E-2,2.4307467E-1,9.639576E-2,5.3009827E-2,3.438034E-1,4.0311182E-1,7.692308E-1,5.5887785E-2,8.989891E-3,8.35738E-1,1.1886255E-1,2.4928108E-3,7.8569454E-1,1.8879473E-3,1.4609098E-3,4.1613325E-2,3.1706097E-4,2.280847E-3,5.957723E-4,2.7544813E-3,3.473602E-2,8.2284766E-1,9.0078264E-1,7.5017786E-1,2.9459705E-3,3.7372828E-1,1.9282224E-2,1.2044477E-2,1.6851187E-3,4.8762853E-3,1.6489238E-3,6.5140203E-3,1.1592091E-3,3.7362482E-3,4.2698025E-3,6.1680158E-3,8.464694E-4,7.060648E-3,2.8244467E-3,1.1332287E-2,1.5941621E-3,5.434636E-3,5.1166717E-4,5.7277144E-3,7.766818E-3,1.2067148E-2],"split_indices":[58,40,38,0,1,0,23,6,8,47,18,28,26,0,13,39,20,40,0,0,17,0,0,0,0,5,10,52,49,6,44,0,45,0,0,0,0,0,0,0,0,0,0,0,0,0,0,0,0,0,0],"split_type":[0,0,0,0,0,0,0,0,0,0,0,0,0,0,0,0,0,0,0,0,0,0,0,0,0,0,0,0,0,0,0,0,0,0,0,0,0,0,0,0,0,0,0,0,0,0,0,0,0,0,0],"sum_hessian":[2.4E2,6.3E1,1.77E2,3E0,6E1,5E0,1.72E2,2.7E1,3.3E1,1.28E2,4.4E1,1.6E1,1.1E1,8E0,2.5E1,1.06E2,2.2E1,4.2E1,2E0,4E0,1.2E1,2E0,9E0,1E0,7E0,1.7E1,8E0,7.2E1,3.4E1,1.3E1,9E0,6E0,3.6E1,2E0,1E1,1E0,1.6E1,2E0,6E0,3.9E1,3.3E1,1E0,3.3E1,1E0,1.2E1,2E0,7E0,1E0,5E0,2.7E1,9E0],"tree_param":{"num_deleted":"0","num_feature":"60","num_nodes":"51","size_leaf_vector":"1"}},{"base_weights":[-1.0105311E-2,-1.1973807E-2,1.2356786E-2,-1.6555233E-2,-8.977033E-3,3.3223032E-4,2.3145664E-2,-1.7290035E-2,-1.0464654E-3,2.8798871E-3,-1.0794718E-2,8.311063E-3,-6.3721687E-3,1.3906428E-2,1.0058373E-2,-8.3270796E-5,-1.7713865E-2,-1.0142773E-3,4.910447E-4,-4.0814835E-3,1.2410308E-2,-9.425493E-3,-2.4776712E-2,1.1288859E-3,3.9755255E-3,-4.9818907E-4,-3.1590492E-3,4.4901194E-3,1.1313916E-3,-2.641572E-3,2.6041002E-3,4.834045E-4,-1.7975572E-2,2.0157106E-3,-1.5595623E-2,-1.4242699E-2,-3.975994E-3,-3.0361367E-2,-1.6253939E-3,2.229754E-4,-5.4665785E-3,2.6536668E-3,-7.51472E-4,-7.283998E-3,-2.7008252E-3,-7.304988E-4,-5.086319E-3,-6.3430425E-3,-5.241678E-4,-3.8591453E-3,-1.0214974E-2,-8.5978216E-5,-6.4544904E-4],"categories":[],"categories_nodes":[],"categories_segments":[],"categories_sizes":[],"default_left":[0,0,0,0,0,0,0,0,0,0,0,0,0,0,0,0,0,0,0,0,0,0,0,0,0,0,0,0,0,0,0,0,0,0,0,0,0,0,0,0,0,0,0,0,0,0,0,0,0,0,0,0,0],"id":29,"left_children":[1,3,5,7,9,11,13,15,17,19,21,23,25,27,-1,29,31,-1,-1,33,-1,35,37,-1,-1,-1,-1,-1,-1,-1,-1,-1,39,41,43,45,47,49,51,-1,-1,-1,-1,-1,-1,-1,-1,-1,-1,-1,-1,-1,-1],"loss_changes":[1.026281E-2,2.9130615E-3,2.457208E-3,9.7334944E-4,2.9837312E-3,5.8789225E-4,4.9298676E-4,6.03823E-4,3.6853995E-5,5.259471E-3,2.0446628E-3,6.248825E-5,1.00056626E-4,1.8802471E-5,0E0,3.0574005E-4,4.3862313E-4,0E0,0E0,1.2249034E-3,0E0,2.8310204E-3,1.2435718E-3,0E0,0E0,0E0,0E0,0E0,0E0,0E0,0E0,0E0,3.8246438E-4,3.9265867E-4,1.2494286E-4,1.8158127E-3,1.9909611E-3,7.831259E-5,1.4964335E-6,0E0,0E0,0E0,0E0,0E0,0E0,0E0,0E0,0E0,0E0,0E0,0E0,0E0,0E0],"parents":[2147483647,0,0,1,1,2,2,3,3,4,4,5,5,6,6,7,7,8,8,9,9,10,10,11,11,12,12,13,13,15,15,16,16,19,19,21,21,22,22,32,32,33,33,34,34,35,35,36,36,37,37,38,38],"right_children":[2,4,6,8,10,12,14,16,18,20,22,24,26,28,-1,30,32,-1,-1,34,-1,36,38,-1,-1,-1,-1,-1,-1,-1,-1,-1,40,42,44,46,48,50,52,-1,-1,-1,-1,-1,-1,-1,-1,-1,-1,-1,-1,-1,-1],"split_conditions":[4.5950177E-1,4.6357717E-2,3.1004723E-2,3.1326535E-1,3.33689E-2,1.3652451E-2,2.4862869E-1,2.4355846E-3,2.4300918E-3,1.4753535E-2,9.305242E-1,1.690794E-1,1.8115446E-1,1.9992304E-1,1.0058373E-2,5.4441197E-3,2.4810713E-4,-1.0142773E-3,4.910447E-4,3.1719755E-2,1.2410308E-2,7.986797E-1,3.1341332E-1,1.1288859E-3,3.9755255E-3,-4.9818907E-4,-3.1590492E-3,4.4901194E-3,1.1313916E-3,-2.641572E-3,2.6041002E-3,4.834045E-4,7.383983E-1,9.154874E-1,3.6451197E-3,1.0852792E-2,1.5618235E-3,2.5917882E-1,3.1326535E-1,2.229754E-4,-5.4665785E-3,2.6536668E-3,-7.51472E-4,-7.283998E-3,-2.7008252E-3,-7.304988E-4,-5.086319E-3,-6.3430425E-3,-5.241678E-4,-3.8591453E-3,-1.0214974E-2,-8.5978216E-5,-6.4544904E-4],"split_indices":[59,59,21,18,53,36,24,3,2,45,31,2,9,0,0,0,59,0,0,32,0,31,3,0,0,0,0,0,0,0,0,0,22,13,0,6,26,8,0,0,0,0,0,0,0,0,0,0,0,0,0,0,0],"split_type":[0,0,0,0,0,0,0,0,0,0,0,0,0,0,0,0,0,0,0,0,0,0,0,0,0,0,0,0,0,0,0,0,0,0,0,0,0,0,0,0,0,0,0,0,0,0,0,0,0,0,0,0,0],"sum_hessian":[2.4E2,2.22E2,1.8E1,8.6E1,1.36E2,9E0,9E0,8.2E1,4E0,1.8E1,1.18E2,4E0,5E0,6E0,3E0,2E0,8E1,2E0,2E0,1.6E1,2E0,1.09E2,9E0,3E0,1E0,3E0,2E0,5E0,1E0,1E0,1E0,1E0,7.9E1,1.1E1,5E0,5.7E1,5.2E1,7E0,2E0,1E0,7.8E1,4E0,7E0,1E0,4E0,1.1E1,4.6E1,5E0,4.7E1,2E0,5E0,1E0,1E0],"tree_param":{"num_deleted":"0","num_feature":"60","num_nodes":"53","size_leaf_vector":"1"}},{"base_weights":[-7.665091E-3,-8.7473225E-3,2.976198E-2,-1.0571448E-2,-2.727861E-3,1.2174615E-2,3.450425E-3,-8.31029E-3,-1.5429899E-2,-5.124673E-3,4.1324038E-2,-1.701892E-2,-6.9680326E-3,2.345139E-3,-1.6435662E-2,7.149068E-3,-8.430725E-3,1.8569328E-2,2.6491285E-5,-9.3106795E-3,-9.760393E-3,-8.044453E-3,7.761894E-3,-1.2530944E-2,-2.2447133E-2,1.5453056E-2,-9.89932E-4,-4.5454795E-3,-1.4702983E-2,-3.9232722E-3,4.3008524E-5,-2.5784422E-3,3.9496813E-3,4.2043934E-3,-2.1992715E-3,-4.0384214E-3,5.6432805E-4,-2.0991855E-3,-8.570608E-3,6.0453992E-3,1.211302E-3,-1.4331975E-3,4.44147E-4,-5.9831236E-4,-2.492037E-3,3.329296E-4,-5.112365E-3],"categories":[],"categories_nodes":[],"categories_segments":[],"categories_sizes":[],"default_left":[0,0,0,0,0,0,0,0,0,0,0,0,0,0,0,0,0,0,0,0,0,0,0,0,0,0,0,0,0,0,0,0,0,0,0,0,0,0,0,0,0,0,0,0,0,0,0],"id":30,"left_children":[1,3,5,7,9,-1,-1,11,13,15,17,19,21,-1,23,25,27,-1,-1,-1,29,31,33,35,37,39,41,43,45,-1,-1,-1,-1,-1,-1,-1,-1,-1,-1,-1,-1,-1,-1,-1,-1,-1,-1],"loss_changes":[1.0021984E-2,2.551522E-3,9.1631245E-4,1.8492024E-3,6.124483E-3,0E0,0E0,1.3425648E-3,1.4378149E-3,2.2514635E-3,2.539651E-3,1.324927E-3,1.8065567E-3,0E0,9.862622E-4,8.263314E-4,9.810459E-4,0E0,0E0,0E0,3.9610534E-4,1.3154778E-3,8.57712E-4,4.946664E-4,1.6916404E-3,2.4043117E-4,7.2567986E-5,2.5210704E-4,6.1049405E-4,0E0,0E0,0E0,0E0,0E0,0E0,0E0,0E0,0E0,0E0,0E0,0E0,0E0,0E0,0E0,0E0,0E0,0E0],"parents":[2147483647,0,0,1,1,2,2,3,3,4,4,7,7,8,8,9,9,10,10,11,11,12,12,14,14,15,15,16,16,20,20,21,21,22,22,23,23,24,24,25,25,26,26,27,27,28,28],"right_children":[2,4,6,8,10,-1,-1,12,14,16,18,20,22,-1,24,26,28,-1,-1,-1,30,32,34,36,38,40,42,44,46,-1,-1,-1,-1,-1,-1,-1,-1,-1,-1,-1,-1,-1,-1,-1,-1,-1,-1],"split_conditions":[8.270231E-1,1.4085293E-1,2.382026E-1,9.2580444E-1,2.866015E-1,1.2174615E-2,3.450425E-3,7.5397265E-1,3.5686414E-3,8.914485E-2,3.0557817E-2,6.6205576E-2,2.2452141E-1,2.345139E-3,6.0728442E-2,9.2805755E-1,3.6705025E-2,1.8569328E-2,2.6491285E-5,-9.3106795E-3,7.676101E-1,9.792869E-1,2.7114102E-1,2.7249995E-1,1.195705E-3,9.236936E-1,8.738635E-1,9.4584554E-1,9.943588E-2,-3.9232722E-3,4.3008524E-5,-2.5784422E-3,3.9496813E-3,4.2043934E-3,-2.1992715E-3,-4.0384214E-3,5.6432805E-4,-2.0991855E-3,-8.570608E-3,6.0453992E-3,1.211302E-3,-1.4331975E-3,4.44147E-4,-5.9831236E-4,-2.492037E-3,3.329296E-4,-5.112365E-3],"split_indices":[57,18,0,58,44,0,0,37,36,29,0,33,57,0,57,22,0,0,0,0,31,19,50,3,41,1,1,28,17,0,0,0,0,0,0,0,0,0,0,0,0,0,0,0,0,0,0],"split_type":[0,0,0,0,0,0,0,0,0,0,0,0,0,0,0,0,0,0,0,0,0,0,0,0,0,0,0,0,0,0,0,0,0,0,0,0,0,0,0,0,0,0,0,0,0,0,0],"sum_hessian":[2.4E2,2.34E2,6E0,1.79E2,5.5E1,3E0,3E0,1.24E2,5.5E1,5.3E1,2E0,1.5E1,1.09E2,2E0,5.3E1,1.1E1,4.2E1,1E0,1E0,4E0,1.1E1,1.02E2,7E0,3.4E1,1.9E1,5E0,6E0,2.7E1,1.5E1,8E0,3E0,1E2,2E0,5E0,2E0,3.2E1,2E0,6E0,1.3E1,3E0,2E0,2E0,4E0,1.7E1,1E1,2E0,1.3E1],"tree_param":{"num_deleted":"0","num_feature":"60","num_nodes":"47","size_leaf_vector":"1"}},{"base_weights":[1.5645267E-2,1.1193148E-2,1.7158134E-2,6.7855287E-3,1.0260455E-2,1.2805951E-2,1.8491643E-2,5.965069E-3,1.1531449E-2,2.6079179E-3,1.4382964E-2,8.865546E-3,1.9196443E-2,1.9908124E-3,2.5365353E-4,1.0001398E-2,5.013118E-3,1.4743511E-2,5.349845E-4,1.1475214E-2,1.0316706E-3,6.773075E-5,1.9509474E-2,6.943813E-3,1.2693518E-2,1.5068829E-2,7.963926E-4,7.1950257E-4,3.776491E-3,-8.1310276E-4,8.4358157E-4,2.0002108E-2,6.6515408E-3,1.2388073E-3,2.442494E-3,4.1914615E-3,1.3224185E-3,1.2942821E-3,4.5896517E-3,5.601452E-3,8.019256E-3,3.7204922E-4,2.2457351E-3],"categories":[],"categories_nodes":[],"categories_segments":[],"categories_sizes":[],"default_left":[0,0,0,0,0,0,0,0,0,0,0,0,0,0,0,0,0,0,0,0,0,0,0,0,0,0,0,0,0,0,0,0,0,0,0,0,0,0,0,0,0,0,0],"id":31,"left_children":[1,3,5,-1,7,9,11,13,15,-1,17,19,21,-1,-1,23,-1,25,-1,27,-1,29,31,33,35,37,-1,-1,-1,-1,-1,39,41,-1,-1,-1,-1,-1,-1,-1,-1,-1,-1],"loss_changes":[1.4311932E-3,4.499266E-4,7.962547E-4,0E0,2.6423857E-4,1.6684132E-4,7.389337E-4,4.9350318E-5,1.9737892E-4,0E0,1.14534516E-4,1.1631701E-4,7.411763E-4,0E0,0E0,2.246513E-4,0E0,7.797917E-5,0E0,4.053244E-5,0E0,3.0492147E-5,6.397292E-4,3.3805205E-5,1.3960316E-4,5.732756E-6,0E0,0E0,0E0,0E0,0E0,5.484298E-4,1.7802784E-5,0E0,0E0,0E0,0E0,0E0,0E0,0E0,0E0,0E0,0E0],"parents":[2147483647,0,0,1,1,2,2,4,4,5,5,6,6,7,7,8,8,10,10,11,11,12,12,15,15,17,17,19,19,21,21,22,22,23,23,24,24,25,25,31,31,32,32],"right_children":[2,4,6,-1,8,10,12,14,16,-1,18,20,22,-1,-1,24,-1,26,-1,28,-1,30,32,34,36,38,-1,-1,-1,-1,-1,40,42,-1,-1,-1,-1,-1,-1,-1,-1,-1,-1],"split_conditions":[7.824334E-1,7.3826E-1,1.9476818E-3,6.7855287E-3,5.793221E-2,9.17029E-1,7.61325E-1,1.0042267E-1,1.3671091E-1,2.6079179E-3,9.513598E-1,7.6755077E-1,2.5993672E-3,1.9908124E-3,2.5365353E-4,1.3178124E-1,5.013118E-3,1.7206594E-1,5.349845E-4,7.971617E-3,1.0316706E-3,5.7111094E-3,6.237022E-1,7.6148313E-1,5.277274E-1,2.4355846E-3,7.963926E-4,7.1950257E-4,3.776491E-3,-8.1310276E-4,8.4358157E-4,9.4845444E-1,1.5818876E-3,1.2388073E-3,2.442494E-3,4.1914615E-3,1.3224185E-3,1.2942821E-3,4.5896517E-3,5.601452E-3,8.019256E-3,3.7204922E-4,2.2457351E-3],"split_indices":[58,40,59,0,29,58,46,9,57,0,10,34,33,0,0,17,0,6,0,3,0,0,38,28,20,12,0,0,0,0,0,55,5,0,0,0,0,0,0,0,0,0,0],"split_type":[0,0,0,0,0,0,0,0,0,0,0,0,0,0,0,0,0,0,0,0,0,0,0,0,0,0,0,0,0,0,0,0,0,0,0,0,0,0,0,0,0,0,0],"sum_hessian":[2.4E2,6.3E1,1.77E2,3E0,6E1,4.4E1,1.33E2,1.5E1,4.5E1,1.4E1,3E1,1E1,1.23E2,1.3E1,2E0,3.7E1,8E0,2.9E1,1E0,6E0,4E0,2E0,1.21E2,1.9E1,1.8E1,2.8E1,1E0,1E0,5E0,1E0,1E0,1.16E2,5E0,7E0,1.2E1,1.5E1,3E0,1E0,2.7E1,1E2,1.6E1,1E0,4E0],"tree_param":{"num_deleted":"0","num_feature":"60","num_nodes":"43","size_leaf_vector":"1"}},{"base_weights":[-7.1208375E-3,-8.386845E-3,1.1206564E-2,-9.832552E-3,-2.5159796E-3,5.7975696E-3,7.7952463E-3,-3.8748537E-3,-1.10379765E-2,1.6816217E-3,-1.7795507E-2,8.622752E-3,-6.493956E-3,-6.473503E-3,1.1502493E-2,-1.9714551E-2,-9.99984E-3,-9.251354E-3,4.541028E-3,-7.919632E-3,1.709085E-3,1.2306401E-2,1.7410934E-3,-2.6352704E-3,-2.8700978E-4,-9.232767E-3,6.562223E-3,-9.561218E-3,-2.7403565E-2,-1.5433516E-2,-8.179541E-3,-1.1558607E-3,-4.163244E-3,-4.4958014E-3,7.4868365E-3,2.4000788E-3,-9.1641844E-4,3.9866804E-3,9.6167927E-4,-4.4394584E-4,8.74883E-4,-1.3506969E-3,-5.3003374E-3,4.364021E-3,-3.2001548E-4,-3.6357306E-3,-1.1920679E-3,-1.3332267E-3,-9.014586E-3,-2.9370838E-3,-6.05067E-3,-9.548055E-4,-3.3386068E-3,-2.315654E-3,1.081425E-3,9.8626326E-5,-1.8476337E-3,4.863312E-4,3.1521465E-3],"categories":[],"categories_nodes":[],"categories_segments":[],"categories_sizes":[],"default_left":[0,0,0,0,0,0,0,0,0,0,0,0,0,0,0,0,0,0,0,0,0,0,0,0,0,0,0,0,0,0,0,0,0,0,0,0,0,0,0,0,0,0,0,0,0,0,0,0,0,0,0,0,0,0,0,0,0,0,0],"id":32,"left_children":[1,3,5,7,9,11,-1,13,15,17,19,21,23,25,-1,27,29,31,33,-1,35,37,39,-1,-1,41,43,45,47,49,51,53,-1,55,57,-1,-1,-1,-1,-1,-1,-1,-1,-1,-1,-1,-1,-1,-1,-1,-1,-1,-1,-1,-1,-1,-1,-1,-1],"loss_changes":[5.6858184E-3,1.8934477E-3,1.1282652E-3,1.2570918E-3,2.9802439E-3,5.074312E-4,0E0,3.7587928E-3,1.1539795E-3,1.198698E-3,1.7231498E-3,2.574192E-4,2.9641698E-5,1.1756265E-3,0E0,9.090253E-4,1.2189243E-3,2.835656E-4,8.322826E-4,0E0,1.4431859E-4,1.9993982E-5,2.3241373E-5,0E0,0E0,9.5789065E-4,3.8099763E-4,6.618467E-5,3.5229372E-4,6.8439636E-4,1.4971746E-3,1.5279978E-4,0E0,6.6209745E-5,3.9044337E-4,0E0,0E0,0E0,0E0,0E0,0E0,0E0,0E0,0E0,0E0,0E0,0E0,0E0,0E0,0E0,0E0,0E0,0E0,0E0,0E0,0E0,0E0,0E0,0E0],"parents":[2147483647,0,0,1,1,2,2,3,3,4,4,5,5,7,7,8,8,9,9,10,10,11,11,12,12,13,13,15,15,16,16,17,17,18,18,20,20,21,21,22,22,25,25,26,26,27,27,28,28,29,29,30,30,31,31,33,33,34,34],"right_children":[2,4,6,8,10,12,-1,14,16,18,20,22,24,26,-1,28,30,32,34,-1,36,38,40,-1,-1,42,44,46,48,50,52,54,-1,56,58,-1,-1,-1,-1,-1,-1,-1,-1,-1,-1,-1,-1,-1,-1,-1,-1,-1,-1,-1,-1,-1,-1,-1,-1],"split_conditions":[5.117582E-1,2.2429349E-1,2.4862869E-1,7.6755077E-1,9.453119E-1,2.7694008E-1,7.7952463E-3,2.382026E-1,7.5975966E-1,1.2046585E-2,3.1341332E-1,9.4205076E-1,3.090103E-1,7.6073205E-1,1.1502493E-2,8.3641596E-2,2.9929879E-3,2.866015E-1,2.322349E-3,-7.919632E-3,3.0072346E-1,1.9992304E-1,3.1258106E-2,-2.6352704E-3,-2.8700978E-4,7.755554E-1,7.6381534E-1,7.7470154E-1,1.15193715E-2,9.321488E-1,6.0728442E-2,1.0132549E-3,-4.163244E-3,1.6430249E-3,2.0947924E-2,2.4000788E-3,-9.1641844E-4,3.9866804E-3,9.6167927E-4,-4.4394584E-4,8.74883E-4,-1.3506969E-3,-5.3003374E-3,4.364021E-3,-3.2001548E-4,-3.6357306E-3,-1.1920679E-3,-1.3332267E-3,-9.014586E-3,-2.9370838E-3,-6.05067E-3,-9.548055E-4,-3.3386068E-3,-2.315654E-3,1.081425E-3,9.8626326E-5,-1.8476337E-3,4.863312E-4,3.1521465E-3],"split_indices":[59,59,24,22,49,0,0,18,28,6,3,22,0,22,0,36,29,59,23,0,0,0,0,0,0,31,22,13,6,10,33,2,0,35,3,0,0,0,0,0,0,0,0,0,0,0,0,0,0,0,0,0,0,0,0,0,0,0,0],"split_type":[0,0,0,0,0,0,0,0,0,0,0,0,0,0,0,0,0,0,0,0,0,0,0,0,0,0,0,0,0,0,0,0,0,0,0,0,0,0,0,0,0,0,0,0,0,0,0,0,0,0,0,0,0,0,0,0,0,0,0],"sum_hessian":[2.4E2,2.25E2,1.5E1,1.8E2,4.5E1,1.2E1,3E0,3.1E1,1.49E2,3.6E1,9E0,1E1,2E0,3E1,1E0,1.4E1,1.35E2,7E0,2.9E1,6E0,3E0,6E0,4E0,1E0,1E0,2.5E1,5E0,7E0,7E0,3.2E1,1.03E2,3E0,4E0,7E0,2.2E1,1E0,2E0,5E0,1E0,1E0,3E0,1.7E1,8E0,2E0,3E0,4E0,3E0,1E0,6E0,1.6E1,1.6E1,3.9E1,6.4E1,1E0,2E0,2E0,5E0,8E0,1.4E1],"tree_param":{"num_deleted":"0","num_feature":"60","num_nodes":"59","size_leaf_vector":"1"}},{"base_weights":[-5.3198985E-3,-6.011035E-3,2.850393E-2,3.5891314E-3,-6.8164784E-3,9.435328E-3,2.5072934E-3,-2.05737E-3,1.5783925E-2,-7.679931E-3,1.6903577E-3,-6.123626E-3,4.64484E-3,6.020655E-4,-8.358366E-3,-7.792222E-3,6.988235E-3,1.0305374E-2,-4.620101E-3,-2.4939263E-3,3.298877E-3,-1.0861249E-2,-6.239761E-3,-1.050886E-2,2.3846328E-4,5.116961E-3,1.2552604E-3,3.354287E-4,4.4137994E-3,-1.8263191E-3,4.0770698E-4,2.316814E-4,2.6372017E-3,7.8134995E-4,-3.5273489E-3,7.2126224E-4,-2.362769E-3,-3.8707107E-3,-1.144369E-3,-1.9007028E-4,2.9737875E-4,9.2519674E-4,-2.2804947E-3],"categories":[],"categories_nodes":[],"categories_segments":[],"categories_sizes":[],"default_left":[0,0,0,0,0,0,0,0,0,0,0,0,0,0,0,0,0,0,0,0,0,0,0,0,0,0,0,0,0,0,0,0,0,0,0,0,0,0,0,0,0,0,0],"id":33,"left_children":[1,3,5,7,9,-1,-1,11,-1,13,15,-1,17,19,21,23,25,27,29,-1,31,33,35,37,39,-1,41,-1,-1,-1,-1,-1,-1,-1,-1,-1,-1,-1,-1,-1,-1,-1,-1],"loss_changes":[5.805164E-3,1.8570414E-3,3.401423E-5,5.367707E-3,1.6215919E-3,0E0,0E0,2.3091196E-3,0E0,1.1231713E-3,1.1094422E-3,0E0,7.81835E-4,4.1210366E-4,9.0791006E-4,1.7703776E-4,7.866881E-4,3.4796871E-4,6.0924198E-5,0E0,1.7359399E-4,1.0326933E-3,1.4614924E-3,4.6920206E-5,2.5974243E-6,0E0,1.8541224E-4,0E0,0E0,0E0,0E0,0E0,0E0,0E0,0E0,0E0,0E0,0E0,0E0,0E0,0E0,0E0,0E0],"parents":[2147483647,0,0,1,1,2,2,3,3,4,4,7,7,9,9,10,10,12,12,13,13,14,14,15,15,16,16,17,17,18,18,20,20,21,21,22,22,23,23,24,24,26,26],"right_children":[2,4,6,8,10,-1,-1,12,-1,14,16,-1,18,20,22,24,26,28,30,-1,32,34,36,38,40,-1,42,-1,-1,-1,-1,-1,-1,-1,-1,-1,-1,-1,-1,-1,-1,-1,-1],"split_conditions":[9.9656045E-1,7.5017786E-1,2.382026E-1,8.035418E-1,3.4557304E-1,9.435328E-3,2.5072934E-3,7.5397265E-1,1.5783925E-2,7.545656E-1,2.0528855E-3,-6.123626E-3,9.353339E-2,7.416989E-1,6.348704E-2,9.40687E-1,9.124634E-1,7.545656E-1,4.4044178E-2,-2.4939263E-3,1.9456854E-2,3.5686414E-3,6.315789E-2,1.4930983E-1,3.052325E-1,5.116961E-3,3.090103E-1,3.354287E-4,4.4137994E-3,-1.8263191E-3,4.0770698E-4,2.316814E-4,2.6372017E-3,7.8134995E-4,-3.5273489E-3,7.2126224E-4,-2.362769E-3,-3.8707107E-3,-1.144369E-3,-1.9007028E-4,2.9737875E-4,9.2519674E-4,-2.2804947E-3],"split_indices":[57,58,0,52,59,0,0,37,0,4,35,0,24,28,26,7,58,16,0,0,36,27,24,12,0,0,0,0,0,0,0,0,0,0,0,0,0,0,0,0,0,0,0],"split_type":[0,0,0,0,0,0,0,0,0,0,0,0,0,0,0,0,0,0,0,0,0,0,0,0,0,0,0,0,0,0,0,0,0,0,0,0,0,0,0,0,0,0,0],"sum_hessian":[2.4E2,2.36E2,4E0,1.8E1,2.18E2,3E0,1E0,1.7E1,1E0,1.98E2,2E1,4E0,1.3E1,1.5E1,1.83E2,7E0,1.3E1,8E0,5E0,3E0,1.2E1,8.2E1,1.01E2,5E0,2E0,4E0,9E0,3E0,5E0,4E0,1E0,9E0,3E0,5E0,7.7E1,1.6E1,8.5E1,3E0,2E0,1E0,1E0,8E0,1E0],"tree_param":{"num_deleted":"0","num_feature":"60","num_nodes":"43","size_leaf_vector":"1"}},{"base_weights":[1.1179305E-2,7.3775295E-3,1.079094E-2,9.468177E-3,1.35587705E-2,8.279551E-3,1.6343314E-2,1.5238756E-2,7.4855485E-3,7.126918E-3,1.1216242E-2,2.1517204E-2,7.4655353E-3,8.502681E-3,1.7442053E-2,9.989689E-3,2.1233729E-3,6.5010977E-3,1.3824128E-2,1.1880572E-2,7.797897E-4,7.562149E-3,3.7188204E-3,1.1205077E-3,1.1508803E-2,4.5659393E-3,1.1057264E-2,2.4020458E-2,1.4332927E-2,1.2122989E-3,1.1623937E-2,-3.542602E-4,1.1043728E-3,2.0505767E-3,-8.930683E-4,4.5348825E-3,7.1686506E-4,1.1134803E-3,3.6789565E-3,8.276359E-4,-8.148909E-4,7.170439E-4,3.8563514E-3,5.64158E-5,1.5493461E-3,7.0037844E-4,3.5567323E-3,5.231289E-3,9.848013E-3,5.6477236E-3,3.276177E-3,5.4323675E-5,4.9121084E-4,1.3589859E-3,3.8493567E-3],"categories":[],"categories_nodes":[],"categories_segments":[],"categories_sizes":[],"default_left":[0,0,0,0,0,0,0,0,0,0,0,0,0,0,0,0,0,0,0,0,0,0,0,0,0,0,0,0,0,0,0,0,0,0,0,0,0,0,0,0,0,0,0,0,0,0,0,0,0,0,0,0,0,0,0],"id":34,"left_children":[1,-1,3,5,7,9,11,13,15,17,19,21,23,25,27,29,31,33,35,37,-1,-1,-1,39,41,43,45,47,49,51,53,-1,-1,-1,-1,-1,-1,-1,-1,-1,-1,-1,-1,-1,-1,-1,-1,-1,-1,-1,-1,-1,-1,-1,-1],"loss_changes":[9.899847E-4,0E0,7.35661E-4,1.196716E-3,6.409455E-4,3.9733667E-4,8.958136E-4,6.9766585E-4,2.2048573E-4,3.46018E-4,1.8665008E-4,1.5872298E-4,2.4365075E-4,1.1042098E-4,5.147476E-4,1.5804148E-4,4.038008E-5,3.2756152E-4,8.208002E-5,6.387895E-5,0E0,0E0,0E0,3.8922517E-5,4.2901782E-5,1.99918E-5,3.5007717E-5,1.232205E-4,2.6967237E-4,1.0185304E-6,2.7517672E-5,0E0,0E0,0E0,0E0,0E0,0E0,0E0,0E0,0E0,0E0,0E0,0E0,0E0,0E0,0E0,0E0,0E0,0E0,0E0,0E0,0E0,0E0,0E0,0E0],"parents":[2147483647,0,0,2,2,3,3,4,4,5,5,6,6,7,7,8,8,9,9,10,10,11,11,12,12,13,13,14,14,15,15,16,16,17,17,18,18,19,19,23,23,24,24,25,25,26,26,27,27,28,28,29,29,30,30],"right_children":[2,-1,4,6,8,10,12,14,16,18,20,22,24,26,28,30,32,34,36,38,-1,-1,-1,40,42,44,46,48,50,52,54,-1,-1,-1,-1,-1,-1,-1,-1,-1,-1,-1,-1,-1,-1,-1,-1,-1,-1,-1,-1,-1,-1,-1,-1],"split_conditions":[4.6511815E-4,7.3775295E-3,1.1886255E-1,3.230496E-1,4.7669518E-1,1.3090883E-1,3.1326535E-1,7.807258E-1,4.150204E-2,2.8123993E-1,6.98511E-1,2.4928108E-3,3.4557304E-1,2.125336E-1,8.414301E-1,3.5686414E-3,2.3806582E-3,3.2480848E-1,9.224247E-1,7.409281E-1,7.797897E-4,7.562149E-3,3.7188204E-3,9.5189345E-1,1.666842E-1,7.315598E-1,2.1167109E-2,2.6322237E-1,1.9254489E-3,4.8887916E-3,7.858329E-1,-3.542602E-4,1.1043728E-3,2.0505767E-3,-8.930683E-4,4.5348825E-3,7.1686506E-4,1.1134803E-3,3.6789565E-3,8.276359E-4,-8.148909E-4,7.170439E-4,3.8563514E-3,5.64158E-5,1.5493461E-3,7.0037844E-4,3.5567323E-3,5.231289E-3,9.848013E-3,5.6477236E-3,3.276177E-3,5.4323675E-5,4.9121084E-4,1.3589859E-3,3.8493567E-3],"split_indices":[38,0,21,53,26,33,51,37,9,57,38,20,59,23,49,54,2,59,10,55,0,0,0,1,0,1,0,20,44,0,16,0,0,0,0,0,0,0,0,0,0,0,0,0,0,0,0,0,0,0,0,0,0,0,0],"split_type":[0,0,0,0,0,0,0,0,0,0,0,0,0,0,0,0,0,0,0,0,0,0,0,0,0,0,0,0,0,0,0,0,0,0,0,0,0,0,0,0,0,0,0,0,0,0,0,0,0,0,0,0,0,0,0],"sum_hessian":[2.4E2,5E0,2.35E2,1.62E2,7.3E1,1.4E2,2.2E1,5.6E1,1.7E1,1.03E2,3.7E1,1.3E1,9E0,1.5E1,4.1E1,1.1E1,6E0,9.6E1,7E0,3.4E1,3E0,8E0,5E0,4E0,5E0,7E0,8E0,1.1E1,3E1,2E0,9E0,2E0,4E0,9.3E1,3E0,6E0,1E0,2E0,3.2E1,3E0,1E0,1E0,4E0,1E0,6E0,1E0,7E0,8E0,3E0,1.1E1,1.9E1,1E0,1E0,2E0,7E0],"tree_param":{"num_deleted":"0","num_feature":"60","num_nodes":"55","size_leaf_vector":"1"}},{"base_weights":[-5.064474E-3,-6.0013453E-3,8.485364E-3,-2.3485234E-3,-7.337549E-3,4.24731E-3,6.0413093E-3,9.7771175E-3,-3.4555611E-3,-8.554155E-3,-5.0437957E-4,6.5249666E-3,-5.519867E-3,-5.7847025E-3,-2.0066232E-3,-9.172645E-3,1.4674999E-3,6.5707313E-3,-5.3369943E-3,9.321408E-3,1.3049543E-3,-2.2399798E-3,-2.4396033E-4,3.1888143E-3,-6.165209E-3,-6.437335E-3,-1.1432034E-2,-2.284699E-3,4.9261986E-3,1.1837305E-2,1.870217E-3,6.421457E-4,-8.113163E-3,3.1807388E-3,1.223755E-3,-3.7735552E-4,6.7803566E-4,2.1605347E-3,-1.1856338E-3,-6.2845764E-4,-3.585912E-3,7.1533176E-4,-2.3941086E-3,-1.0383456E-3,-3.8983703E-3,3.2972006E-4,-1.0216222E-3,5.8379775E-4,1.8793017E-3,6.2663556E-4,4.125672E-3,8.966446E-4,-1.8525572E-4,-9.952754E-4,1.0354221E-3,-2.7412209E-3,-7.008168E-4],"categories":[],"categories_nodes":[],"categories_segments":[],"categories_sizes":[],"default_left":[0,0,0,0,0,0,0,0,0,0,0,0,0,0,0,0,0,0,0,0,0,0,0,0,0,0,0,0,0,0,0,0,0,0,0,0,0,0,0,0,0,0,0,0,0,0,0,0,0,0,0,0,0,0,0,0,0],"id":35,"left_children":[1,3,5,7,9,11,-1,-1,13,15,17,19,21,-1,23,25,27,29,31,33,35,-1,-1,37,39,41,43,45,47,49,51,53,55,-1,-1,-1,-1,-1,-1,-1,-1,-1,-1,-1,-1,-1,-1,-1,-1,-1,-1,-1,-1,-1,-1,-1,-1],"loss_changes":[3.1102877E-3,1.0858541E-3,7.0460036E-4,2.510697E-3,1.3673753E-3,3.2521854E-4,0E0,0E0,1.3601608E-3,8.81223E-4,9.240414E-4,1.4840806E-4,2.1416017E-5,0E0,1.2511832E-3,7.4218493E-4,1.2805441E-4,2.5017335E-4,2.7079537E-4,3.7595746E-6,1.5082399E-5,0E0,0E0,7.735262E-4,7.28832E-4,8.62987E-4,8.3931256E-4,2.2703834E-5,7.749324E-6,6.46133E-5,2.1325088E-5,7.8193836E-5,4.3743057E-5,0E0,0E0,0E0,0E0,0E0,0E0,0E0,0E0,0E0,0E0,0E0,0E0,0E0,0E0,0E0,0E0,0E0,0E0,0E0,0E0,0E0,0E0,0E0,0E0],"parents":[2147483647,0,0,1,1,2,2,3,3,4,4,5,5,8,8,9,9,10,10,11,11,12,12,14,14,15,15,16,16,17,17,18,18,19,19,20,20,23,23,24,24,25,25,26,26,27,27,28,28,29,29,30,30,31,31,32,32],"right_children":[2,4,6,8,10,12,-1,-1,14,16,18,20,22,-1,24,26,28,30,32,34,36,-1,-1,38,40,42,44,46,48,50,52,54,56,-1,-1,-1,-1,-1,-1,-1,-1,-1,-1,-1,-1,-1,-1,-1,-1,-1,-1,-1,-1,-1,-1,-1,-1],"split_conditions":[5.117582E-1,7.8124756E-1,2.4862869E-1,3.33689E-2,9.497984E-1,2.7694008E-1,6.0413093E-3,9.7771175E-3,7.448415E-1,4.6295702E-1,9.3268245E-1,9.4205076E-1,3.090103E-1,-5.7847025E-3,6.93383E-2,1.4573662E-2,6.6703698E-3,9.3268245E-1,9.236441E-3,2.8123993E-1,3.1258106E-2,-2.2399798E-3,-2.4396033E-4,3.1004723E-2,8.999867E-2,1.2225801E-3,7.858329E-1,6.4596254E-3,1.727877E-2,3.6526304E-3,9.2432207E-1,1.9349235E-3,6.6205576E-2,3.1807388E-3,1.223755E-3,-3.7735552E-4,6.7803566E-4,2.1605347E-3,-1.1856338E-3,-6.2845764E-4,-3.585912E-3,7.1533176E-4,-2.3941086E-3,-1.0383456E-3,-3.8983703E-3,3.2972006E-4,-1.0216222E-3,5.8379775E-4,1.8793017E-3,6.2663556E-4,4.125672E-3,8.966446E-4,-1.8525572E-4,-9.952754E-4,1.0354221E-3,-2.7412209E-3,-7.008168E-4],"split_indices":[59,58,24,53,19,0,0,0,37,20,13,22,0,0,20,15,36,31,39,15,0,0,0,27,56,38,55,0,0,0,4,2,0,0,0,0,0,0,0,0,0,0,0,0,0,0,0,0,0,0,0,0,0,0,0,0,0],"split_type":[0,0,0,0,0,0,0,0,0,0,0,0,0,0,0,0,0,0,0,0,0,0,0,0,0,0,0,0,0,0,0,0,0,0,0,0,0,0,0,0,0,0,0,0,0,0,0,0,0,0,0,0,0,0,0,0,0],"sum_hessian":[2.4E2,2.25E2,1.5E1,6.1E1,1.64E2,1.2E1,3E0,1E0,6E1,1.39E2,2.5E1,1E1,2E0,4E0,5.6E1,1.31E2,8E0,1E1,1.5E1,6E0,4E0,1E0,1E0,2.5E1,3.1E1,6.1E1,7E1,4E0,4E0,4E0,6E0,5E0,1E1,4E0,2E0,1E0,3E0,1.6E1,9E0,1.9E1,1.2E1,9E0,5.2E1,1.2E1,5.8E1,1E0,3E0,2E0,2E0,1E0,3E0,4E0,2E0,2E0,3E0,8E0,2E0],"tree_param":{"num_deleted":"0","num_feature":"60","num_nodes":"57","size_leaf_vector":"1"}},{"base_weights":[-3.6418757E-3,-4.1746767E-3,6.702379E-3,-5.515515E-3,-6.1711844E-4,-3.9310046E-3,-8.905167E-3,-2.3190957E-3,2.0610824E-2,-7.1867453E-3,-8.2190806E-4,-1.0268822E-2,6.5124184E-3,-4.0175905E-3,5.920979E-3,1.3416339E-2,1.0208902E-3,-5.184405E-3,-2.1034596E-2,8.459033E-3,-2.353511E-3,6.720138E-4,-1.1499405E-2,2.784646E-3,-6.849781E-4,-5.6447107E-3,8.020725E-4,4.458133E-3,7.111244E-4,-2.074911E-3,1.5617845E-3,8.91307E-4,-7.6592118E-3,4.481921E-3,8.186177E-4,1.8913379E-3,-1.1988897E-3,1.6517089E-3,-9.363754E-4,-2.4081625E-3,-5.372595E-3,-2.3224285E-4,-2.124023E-3,-4.910747E-4,8.507784E-4,9.240246E-4,-7.283561E-4],"categories":[],"categories_nodes":[],"categories_segments":[],"categories_sizes":[],"default_left":[0,0,0,0,0,0,0,0,0,0,0,0,0,0,0,0,0,0,0,0,0,0,0,0,0,0,0,0,0,0,0,0,0,0,0,0,0,0,0,0,0,0,0,0,0,0,0],"id":36,"left_children":[1,3,-1,5,7,9,11,13,15,17,19,21,23,25,27,-1,-1,29,31,33,35,37,39,-1,-1,41,43,-1,45,-1,-1,-1,-1,-1,-1,-1,-1,-1,-1,-1,-1,-1,-1,-1,-1,-1,-1],"loss_changes":[3.4296333E-3,1.1271122E-3,0E0,8.887956E-4,2.4323438E-3,1.1986602E-3,1.2021852E-3,8.9152297E-4,1.9222486E-3,1.4991788E-3,9.01221E-4,6.809081E-4,1.4300208E-4,4.1232037E-4,5.0173886E-4,0E0,0E0,9.717841E-4,8.313756E-4,2.9346137E-4,7.932475E-4,1.2719729E-4,8.5768057E-4,0E0,0E0,2.671698E-4,7.408987E-5,0E0,6.696683E-5,0E0,0E0,0E0,0E0,0E0,0E0,0E0,0E0,0E0,0E0,0E0,0E0,0E0,0E0,0E0,0E0,0E0,0E0],"parents":[2147483647,0,0,1,1,3,3,4,4,5,5,6,6,7,7,8,8,9,9,10,10,11,11,12,12,13,13,14,14,17,17,18,18,19,19,20,20,21,21,22,22,25,25,26,26,28,28],"right_children":[2,4,-1,6,8,10,12,14,16,18,20,22,24,26,28,-1,-1,30,32,34,36,38,40,-1,-1,42,44,-1,46,-1,-1,-1,-1,-1,-1,-1,-1,-1,-1,-1,-1,-1,-1,-1,-1,-1,-1],"split_conditions":[9.9656045E-1,1.9291434E-1,6.702379E-3,9.236936E-1,2.866015E-1,8.001028E-1,5.9265643E-1,1.6229214E-1,3.0557817E-2,2.4307467E-1,8.2218355E-1,3.6526304E-3,3.421297E-1,9.453119E-1,9.153293E-1,1.3416339E-2,1.0208902E-3,2.125336E-1,7.740533E-1,6.3768215E-2,1.3622907E-2,1.0723421E-1,6.1097056E-2,2.784646E-3,-6.849781E-4,7.7716815E-1,9.353506E-1,4.458133E-3,9.290062E-1,-2.074911E-3,1.5617845E-3,8.91307E-4,-7.6592118E-3,4.481921E-3,8.186177E-4,1.8913379E-3,-1.1988897E-3,1.6517089E-3,-9.363754E-4,-2.4081625E-3,-5.372595E-3,-2.3224285E-4,-2.124023E-3,-4.910747E-4,8.507784E-4,9.240246E-4,-7.283561E-4],"split_indices":[57,23,0,19,44,28,8,59,0,56,31,27,3,19,58,0,0,44,1,0,39,9,57,0,0,16,1,0,34,0,0,0,0,0,0,0,0,0,0,0,0,0,0,0,0,0,0],"split_type":[0,0,0,0,0,0,0,0,0,0,0,0,0,0,0,0,0,0,0,0,0,0,0,0,0,0,0,0,0,0,0,0,0,0,0,0,0,0,0,0,0,0,0,0,0,0,0],"sum_hessian":[2.4E2,2.36E2,4E0,1.71E2,6.5E1,1.18E2,5.3E1,6.1E1,4E0,5.7E1,6.1E1,4.9E1,4E0,5.1E1,1E1,1E0,3E0,5.1E1,6E0,8E0,5.3E1,5E0,4.4E1,3E0,1E0,3.8E1,1.3E1,3E0,7E0,4.4E1,7E0,1E0,5E0,3E0,5E0,8E0,4.5E1,2E0,3E0,3E1,1.4E1,9E0,2.9E1,6E0,7E0,4E0,3E0],"tree_param":{"num_deleted":"0","num_feature":"60","num_nodes":"47","size_leaf_vector":"1"}},{"base_weights":[8.122592E-3,2.0401359E-2,7.7760024E-3,6.740431E-3,1.5101463E-3,7.152129E-3,1.3242652E-2,6.596951E-3,1.2502802E-2,9.187591E-3,1.0128813E-2,7.008341E-3,7.4828096E-4,7.0928535E-3,1.9054875E-2,1.0136008E-3,1.2213945E-2,5.9089838E-3,9.218703E-3,-2.3910776E-3,4.229222E-3,1.0608336E-3,3.3749675E-3,6.0574193E-3,1.664883E-3,9.5083116E-4,-1.4801025E-3,4.8858807E-3,7.734692E-3,1.0842265E-3,2.2023101E-3,3.192324E-3,1.841448E-3,-1.3226108E-3,-8.9628695E-5,2.7873518E-4,1.9416065E-3,7.677913E-4,-3.872216E-4,-8.475781E-6,-6.575704E-4,1.0950521E-3,2.689124E-3],"categories":[],"categories_nodes":[],"categories_segments":[],"categories_sizes":[],"default_left":[0,0,0,0,0,0,0,0,0,0,0,0,0,0,0,0,0,0,0,0,0,0,0,0,0,0,0,0,0,0,0,0,0,0,0,0,0,0,0,0,0,0,0],"id":37,"left_children":[1,3,5,-1,-1,7,9,11,13,-1,15,17,19,21,23,25,27,29,31,33,35,37,-1,-1,-1,-1,39,-1,41,-1,-1,-1,-1,-1,-1,-1,-1,-1,-1,-1,-1,-1,-1],"loss_changes":[8.669812E-4,7.746415E-5,7.1016233E-4,0E0,0E0,5.5322424E-4,9.347177E-4,4.6634953E-4,5.383275E-4,0E0,3.8675475E-4,3.9021205E-4,1.6310331E-4,2.8896984E-4,1.0737916E-5,3.1571177E-5,1.8412736E-4,3.8426928E-4,1.9320287E-4,3.2454896E-5,4.5797045E-5,2.4445964E-5,0E0,0E0,0E0,0E0,3.0383471E-6,0E0,1.7481681E-5,0E0,0E0,0E0,0E0,0E0,0E0,0E0,0E0,0E0,0E0,0E0,0E0,0E0,0E0],"parents":[2147483647,0,0,1,1,2,2,5,5,6,6,7,7,8,8,10,10,11,11,12,12,13,13,14,14,15,15,16,16,17,17,18,18,19,19,20,20,21,21,26,26,28,28],"right_children":[2,4,6,-1,-1,8,10,12,14,-1,16,18,20,22,24,26,28,30,32,34,36,38,-1,-1,-1,-1,40,-1,42,-1,-1,-1,-1,-1,-1,-1,-1,-1,-1,-1,-1,-1,-1],"split_conditions":[6.04893E-4,1.2924387E-3,3.7782475E-1,6.740431E-3,1.5101463E-3,9.4845444E-1,7.3957846E-2,3.0891532E-1,2.8027214E-2,9.187591E-3,2.3206323E-1,1.1886255E-1,1.9935079E-1,9.4359237E-1,9.4205076E-1,2.7694008E-1,1.6210711E-1,6.971658E-2,3.7372828E-1,4.4979785E-2,3.0367741E-2,3.0367741E-2,3.3749675E-3,6.0574193E-3,1.664883E-3,9.5083116E-4,2.801241E-1,4.8858807E-3,2.8388345E-1,1.0842265E-3,2.2023101E-3,3.192324E-3,1.841448E-3,-1.3226108E-3,-8.9628695E-5,2.7873518E-4,1.9416065E-3,7.677913E-4,-3.872216E-4,-8.475781E-6,-6.575704E-4,1.0950521E-3,2.689124E-3],"split_indices":[41,2,59,0,0,55,51,59,57,0,11,21,57,58,7,0,12,44,26,39,6,9,0,0,0,0,0,0,9,0,0,0,0,0,0,0,0,0,0,0,0,0,0],"split_type":[0,0,0,0,0,0,0,0,0,0,0,0,0,0,0,0,0,0,0,0,0,0,0,0,0,0,0,0,0,0,0,0,0,0,0,0,0,0,0,0,0,0,0],"sum_hessian":[2.4E2,5E0,2.35E2,4E0,1E0,2.13E2,2.2E1,1.95E2,1.8E1,2E0,2E1,1.82E2,1.3E1,1.1E1,7E0,4E0,1.6E1,1.24E2,5.8E1,7E0,6E0,5E0,6E0,6E0,1E0,2E0,2E0,7E0,9E0,4.9E1,7.5E1,3.8E1,2E1,3E0,4E0,3E0,3E0,3E0,2E0,1E0,1E0,3E0,6E0],"tree_param":{"num_deleted":"0","num_feature":"60","num_nodes":"43","size_leaf_vector":"1"}},{"base_weights":[-3.5192687E-3,-4.237613E-3,6.1952462E-3,2.0497225E-3,-4.79424E-3,5.507809E-3,3.3494064E-3,-9.143847E-4,8.310548E-3,-1.5222609E-2,-4.4607525E-3,-1.9039818E-3,4.495308E-3,-4.863216E-3,3.574804E-3,-5.3876312E-3,-2.3127125E-4,-1.2956043E-2,-4.0436476E-3,7.6196874E-3,1.1995621E-3,-2.2876163E-3,-5.7596713E-4,5.2634017E-3,-1.5568584E-3,-5.1728156E-3,-1.8234473E-3,-4.934417E-3,4.517557E-4,2.612865E-3,9.790063E-4,7.24631E-4,-6.201714E-4,-6.293988E-4,8.2682224E-4,5.133588E-4,1.9026134E-3,1.2825207E-4,-8.288384E-4,-2.794037E-3,-1.1605873E-3,-2.0326017E-3,6.926146E-4,1.5601516E-4,-3.5207867E-4],"categories":[],"categories_nodes":[],"categories_segments":[],"categories_sizes":[],"default_left":[0,0,0,0,0,0,0,0,0,0,0,0,0,0,0,0,0,0,0,0,0,0,0,0,0,0,0,0,0,0,0,0,0,0,0,0,0,0,0,0,0,0,0,0,0],"id":38,"left_children":[1,3,5,7,9,-1,11,13,-1,15,17,-1,19,21,23,-1,-1,25,27,29,31,-1,33,35,37,-1,-1,39,41,-1,-1,-1,43,-1,-1,-1,-1,-1,-1,-1,-1,-1,-1,-1,-1],"loss_changes":[1.7080393E-3,7.972596E-4,5.269982E-4,1.4700062E-3,6.519859E-4,0E0,1.9519003E-4,3.3647192E-4,0E0,2.2340857E-4,6.6338247E-4,0E0,1.3501997E-4,1.1402916E-4,8.6182175E-5,0E0,0E0,1.6054546E-4,7.790765E-4,4.81226E-6,1.9198524E-5,0E0,3.1139545E-5,1.5968442E-5,8.360166E-6,0E0,0E0,7.2004786E-4,4.5851624E-4,0E0,0E0,0E0,3.1344348E-6,0E0,0E0,0E0,0E0,0E0,0E0,0E0,0E0,0E0,0E0,0E0,0E0],"parents":[2147483647,0,0,1,1,2,2,3,3,4,4,6,6,7,7,9,9,10,10,12,12,13,13,14,14,17,17,18,18,19,19,20,20,22,22,23,23,24,24,27,27,28,28,32,32],"right_children":[2,4,6,8,10,-1,12,14,-1,16,18,-1,20,22,24,-1,-1,26,28,30,32,-1,34,36,38,-1,-1,40,42,-1,-1,-1,44,-1,-1,-1,-1,-1,-1,-1,-1,-1,-1,-1,-1],"split_conditions":[4.7669518E-1,7.5397265E-1,7.5975966E-1,1.924353E-1,7.5735235E-1,5.507809E-3,7.488023E-1,9.967149E-2,8.310548E-3,7.990355E-1,3.801247E-3,-1.9039818E-3,9.0985453E-1,1.3423495E-1,3.1413347E-1,-5.3876312E-3,-2.3127125E-4,9.35825E-1,2.567144E-1,2.835138E-1,1.5155661E-1,-2.2876163E-3,7.960708E-1,5.3021792E-2,1.8733597E-1,-5.1728156E-3,-1.8234473E-3,2.9929879E-3,1.2046585E-2,2.612865E-3,9.790063E-4,7.24631E-4,9.154874E-1,-6.293988E-4,8.2682224E-4,5.133588E-4,1.9026134E-3,1.2825207E-4,-8.288384E-4,-2.794037E-3,-1.1605873E-3,-2.0326017E-3,6.926146E-4,1.5601516E-4,-3.5207867E-4],"split_indices":[59,19,16,12,19,0,31,3,0,1,21,0,4,35,2,0,0,34,59,23,6,0,1,0,0,0,0,29,6,0,0,0,4,0,0,0,0,0,0,0,0,0,0,0,0],