{"learner":{"attributes":{"best_iteration":"99","best_ntree_limit":"100","scikit_learn":"{\"n_estimators\": 100, \"objective\": \"reg:squarederror\", \"max_depth\": null, \"max_leaves\": null, \"max_bin\": null, \"grow_policy\": null, \"learning_rate\": null, \"verbosity\": null, \"booster\": null, \"tree_method\": null, \"gamma\": null, \"min_child_weight\": null, \"max_delta_step\": null, \"subsample\": null, \"sampling_method\": null, \"colsample_bytree\": null, \"colsample_bylevel\": null, \"colsample_bynode\": null, \"reg_alpha\": null, \"reg_lambda\": null, \"scale_pos_weight\": null, \"base_score\": null, \"missing\": NaN, \"num_parallel_tree\": null, \"random_state\": 42, \"n_jobs\": null, \"monotone_constraints\": null, \"interaction_constraints\": null, \"importance_type\": null, \"gpu_id\": null, \"validate_parameters\": null, \"predictor\": null, \"enable_categorical\": false, \"max_cat_to_onehot\": null, \"eval_metric\": null, \"early_stopping_rounds\": null, \"callbacks\": null, \"_estimator_type\": \"regressor\"}"},"feature_names":[],"feature_types":[],"gradient_booster":{"model":{"gbtree_model_param":{"num_parallel_tree":"1","num_trees":"300","size_leaf_vector":"0"},"tree_info":[0,1,2,0,1,2,0,1,2,0,1,2,0,1,2,0,1,2,0,1,2,0,1,2,0,1,2,0,1,2,0,1,2,0,1,2,0,1,2,0,1,2,0,1,2,0,1,2,0,1,2,0,1,2,0,1,2,0,1,2,0,1,2,0,1,2,0,1,2,0,1,2,0,1,2,0,1,2,0,1,2,0,1,2,0,1,2,0,1,2,0,1,2,0,1,2,0,1,2,0,1,2,0,1,2,0,1,2,0,1,2,0,1,2,0,1,2,0,1,2,0,1,2,0,1,2,0,1,2,0,1,2,0,1,2,0,1,2,0,1,2,0,1,2,0,1,2,0,1,2,0,1,2,0,1,2,0,1,2,0,1,2,0,1,2,0,1,2,0,1,2,0,1,2,0,1,2,0,1,2,0,1,2,0,1,2,0,1,2,0,1,2,0,1,2,0,1,2,0,1,2,0,1,2,0,1,2,0,1,2,0,1,2,0,1,2,0,1,2,0,1,2,0,1,2,0,1,2,0,1,2,0,1,2,0,1,2,0,1,2,0,1,2,0,1,2,0,1,2,0,1,2,0,1,2,0,1,2,0,1,2,0,1,2,0,1,2,0,1,2,0,1,2,0,1,2,0,1,2,0,1,2,0,1,2,0,1,2,0,1,2,0,1,2,0,1,2,0,1,2],"trees":[{"base_weights":[-3.9015573E-1,-4.0803817E-1,3.573827E-1,-4.4057336E-1,-2.6902694E-1,-4.4590718E-1,-2.080192E-1,-1.1350875E-1,-2.772373E-1,-1.5713751E-1,-4.4828233E-1,2.4837443E-1,-3.489728E-1,-4.7004592E-1,-3.9286375E-1,-9.549485E-2,-3.9653417E-1],"categories":[],"categories_nodes":[],"categories_segments":[],"categories_sizes":[],"default_left":[1,1,0,1,1,1,1,0,0,0,1,0,0,0,1,0,0],"id":0,"left_children":[1,3,-1,5,7,9,11,-1,-1,-1,13,-1,-1,-1,15,-1,-1],"loss_changes":[3.2738914E0,9.1718674E-1,0E0,1.3547516E-1,2.726674E-2,5.2330017E-2,4.7265786E-1,0E0,0E0,0E0,2.8816223E-2,0E0,0E0,0E0,2.3255348E-2,0E0,0E0],"parents":[2147483647,0,0,1,1,3,3,4,4,5,5,6,6,10,10,14,14],"right_children":[2,4,-1,6,8,10,12,-1,-1,-1,14,-1,-1,-1,16,-1,-1],"split_conditions":[6.0493934E-1,1.6392061E-1,1.07214816E-1,3.1659144E-1,3.5499847E-3,6.397842E-4,1.2179771E-2,-3.405263E-2,-8.317119E-2,-4.7141258E-2,6.342864E-2,7.451233E-2,-1.0469184E-1,-1.4101379E-1,2.4724472E-3,-2.8648457E-2,-1.18960254E-1],"split_indices":[87,87,0,72,72,35,6,0,0,0,87,0,0,0,18,0,0],"split_type":[0,0,0,0,0,0,0,0,0,0,0,0,0,0,0,0,0],"sum_hessian":[2.33E2,2.28E2,5E0,1.83E2,4.5E1,1.78E2,5E0,3E0,4.2E1,2E0,1.76E2,1E0,4E0,1.21E2,5.5E1,1E0,5.4E1],"tree_param":{"num_deleted":"0","num_feature":"90","num_nodes":"17","size_leaf_vector":"0"}},{"base_weights":[3.5505173E-1,2.791721E-1,4.2360732E-1],"categories":[],"categories_nodes":[],"categories_segments":[],"categories_sizes":[],"default_left":[1,0,0],"id":1,"left_children":[1,-1,-1],"loss_changes":[1.0990028E0,0E0,0E0],"parents":[2147483647,0,0],"right_children":[2,-1,-1],"split_conditions":[8.6276585E-1,8.3751634E-2,1.270822E-1],"split_indices":[88,0,0],"split_type":[0,0,0],"sum_hessian":[2.33E2,1.13E2,1.2E2],"tree_param":{"num_deleted":"0","num_feature":"90","num_nodes":"3","size_leaf_vector":"0"}},{"base_weights":[-3.505756E-1,-4.130345E-1,-1.1835959E-1,-4.4881758E-1,-3.2543328E-1,-2.0172374E-1,4.5681544E-2,-2.4400926E-1,-4.5689005E-1,-3.3540168E-1,1.1639851E-1,5.0006013E-2,-2.1901953E-1,-1.5670702E-1,9.6606396E-2,-2.3815198E-1,-3.6517227E-1,-7.652659E-2,-2.3664257E-1,-1.8825524E-1,-3.1031206E-2,1.5127559E-2,1.3583305E-1,-6.424102E-2,-2.4546331E-1,-1.7529547E-2,-8.689346E-2,-1.194586E-1,-2.459263E-1,-1.8521488E-2,2.5561666E-2,1.6700004E-1,4.733257E-2,5.879104E-3,2.9012531E-2,4.911214E-3,5.983595E-2],"categories":[],"categories_nodes":[],"categories_segments":[],"categories_sizes":[],"default_left":[1,1,1,1,1,1,1,0,0,1,0,0,1,1,1,1,0,1,1,0,0,1,1,0,0,0,0,0,0,0,1,0,1,0,0,0,0],"id":2,"left_children":[1,3,5,7,9,11,13,-1,-1,15,-1,-1,17,19,21,23,-1,25,27,-1,-1,29,31,-1,-1,-1,-1,-1,-1,-1,33,-1,35,-1,-1,-1,-1],"loss_changes":[3.3450413E0,4.3071365E-1,7.066477E-1,1.0013771E-1,2.9008865E-1,1.589837E-1,2.0065783E-1,0E0,0E0,7.516384E-2,0E0,0E0,6.2247753E-2,1.0017604E-2,4.588732E-2,4.5755506E-3,0E0,1.5348718E-3,1.0832548E-3,0E0,0E0,2.5800266E-3,1.9678384E-2,0E0,0E0,0E0,0E0,0E0,0E0,0E0,1.6904157E-4,0E0,1.8277746E-3,0E0,0E0,0E0,0E0],"parents":[2147483647,0,0,1,1,2,2,3,3,4,4,5,5,6,6,9,9,12,12,13,13,14,14,15,15,17,17,18,18,21,21,22,22,30,30,32,32],"right_children":[2,4,6,8,10,12,14,-1,-1,16,-1,-1,18,20,22,24,-1,26,28,-1,-1,30,32,-1,-1,-1,-1,-1,-1,-1,34,-1,36,-1,-1,-1,-1],"split_conditions":[1.6392061E-1,6.431237E-2,2.8414625E-1,4.548734E-3,3.144639E-1,5.8140075E-3,8.08806E-3,-7.320278E-2,-1.3706702E-1,3.9637428E-2,3.4919556E-2,1.5001805E-2,7.477761E-4,1.0589846E-1,3.1333935E-1,2.4724472E-3,-1.0955168E-1,8.714385E-1,3.7940573E-3,-5.6476574E-2,-9.309363E-3,3.4369353E-2,3.0484483E-1,-1.9272307E-2,-7.3639E-2,-5.2588643E-3,-2.606804E-2,-3.5837583E-2,-7.377789E-2,-5.5564465E-3,7.85621E-2,5.0100014E-2,2.131382E-2,1.7637314E-3,8.70376E-3,1.4733643E-3,1.7950786E-2],"split_indices":[87,87,87,66,72,27,21,0,0,74,0,0,14,0,87,18,0,1,15,0,0,0,36,0,0,0,0,0,0,0,0,0,0,0,0,0,0],"split_type":[0,0,0,0,0,0,0,0,0,0,0,0,0,0,0,0,0,0,0,0,0,0,0,0,0,0,0,0,0,0,0,0,0,0,0,0,0],"sum_hessian":[2.33E2,1.83E2,5E1,1.27E2,5.6E1,3.3E1,1.7E1,6E0,1.21E2,5.5E1,1E0,2E0,3.1E1,3E0,1.4E1,1.5E1,4E1,4E0,2.7E1,2E0,1E0,5E0,9E0,1E0,1.4E1,1E0,3E0,3E0,2.4E1,1E0,4E0,6E0,3E0,1E0,3E0,1E0,2E0],"tree_param":{"num_deleted":"0","num_feature":"90","num_nodes":"37","size_leaf_vector":"0"}},{"base_weights":[-2.7471563E-1,-2.877366E-1,2.6803705E-1,-3.1039017E-1,-1.9086719E-1,-3.1828898E-1,-2.0755956E-1,-1.23202E-1,-2.0861332E-1,-3.1921723E-1,-8.117062E-2,2.1111825E-1,-2.4954596E-1,-4.7661614E-2,-1.3354392E-1,-1.0871609E-1,-2.2553289E-1,-8.473919E-2,-3.2011387E-1,-2.701872E-1,-1.2523572E-1,-2.3932381E-1,-1.1147168E-1,-1.3338584E-1,-3.2156885E-1],"categories":[],"categories_nodes":[],"categories_segments":[],"categories_sizes":[],"default_left":[1,1,0,1,1,1,1,1,1,1,0,0,1,0,0,0,1,0,1,0,0,0,0,0,0],"id":3,"left_children":[1,3,-1,5,7,9,11,13,15,17,-1,-1,19,-1,-1,-1,21,-1,23,-1,-1,-1,-1,-1,-1],"loss_changes":[1.7308388E0,4.4328308E-1,0E0,8.3387375E-2,2.9535055E-2,1.1287689E-2,3.3394408E-1,3.0098706E-3,3.4638524E-2,8.195877E-3,0E0,0E0,4.6516657E-3,0E0,0E0,0E0,1.8939495E-2,0E0,2.4776459E-3,0E0,0E0,0E0,0E0,0E0,0E0],"parents":[2147483647,0,0,1,1,3,3,4,4,5,5,6,6,7,7,8,8,9,9,12,12,16,16,18,18],"right_children":[2,4,-1,6,8,10,12,14,16,18,-1,-1,20,-1,-1,-1,22,-1,24,-1,-1,-1,-1,-1,-1],"split_conditions":[6.0493934E-1,1.6392061E-1,8.041112E-2,2.3470287E-1,5.6343516E-3,3.2284492E-1,7.6034665E-1,9.1950154E-1,7.6678E-1,7.167365E-1,-2.4351187E-2,6.333548E-2,9.445648E-1,-1.4298485E-2,-4.006318E-2,-3.261483E-2,9.5211875E-1,-2.542176E-2,3.5266452E-3,-8.105616E-2,-3.757072E-2,-7.179715E-2,-3.3441506E-2,-4.0015753E-2,-9.647066E-2],"split_indices":[87,87,0,42,66,45,28,52,70,70,0,0,13,0,0,0,37,0,63,0,0,0,0,0,0],"split_type":[0,0,0,0,0,0,0,0,0,0,0,0,0,0,0,0,0,0,0,0,0,0,0,0,0],"sum_hessian":[2.33E2,2.28E2,5E0,1.83E2,4.5E1,1.68E2,1.5E1,1.1E1,3.4E1,1.67E2,1E0,1E0,1.4E1,2E0,9E0,6E0,2.8E1,1E0,1.66E2,1.1E1,3E0,2.4E1,4E0,2E0,1.64E2],"tree_param":{"num_deleted":"0","num_feature":"90","num_nodes":"25","size_leaf_vector":"0"}},{"base_weights":[2.494372E-1,1.8927953E-1,2.9291844E-1,2.3957598E-1,3.0413967E-1],"categories":[],"categories_nodes":[],"categories_segments":[],"categories_sizes":[],"default_left":[1,0,1,0,0],"id":4,"left_children":[1,-1,3,-1,-1],"loss_changes":[5.566368E-1,0E0,7.344246E-3,0E0,0E0],"parents":[2147483647,0,0,2,2],"right_children":[2,-1,4,-1,-1],"split_conditions":[8.315282E-1,5.678386E-2,8.7854177E-1,7.18728E-2,9.12419E-2],"split_indices":[88,0,88,0,0],"split_type":[0,0,0,0,0],"sum_hessian":[2.33E2,1E2,1.33E2,2.7E1,1.06E2],"tree_param":{"num_deleted":"0","num_feature":"90","num_nodes":"5","size_leaf_vector":"0"}},{"base_weights":[-2.4751875E-1,-2.9117748E-1,-8.515155E-2,-3.1581503E-1,-2.3074268E-1,-1.4798003E-1,2.8453268E-2,-8.496044E-2,-3.188051E-1,-2.383966E-1,9.893873E-2,-1.8254694E-1,-3.551863E-2,-7.947723E-2,8.438098E-2,-6.6176E-2,-3.2029673E-1,-1.4291099E-1,-2.536404E-1,-8.720605E-2,-1.9158405E-1,-7.716968E-2,3.5837606E-2,-2.0428926E-2,-9.901076E-2,1.9149303E-2,1.02035545E-1,-2.6666132E-1,-1.2022077E-1,-9.0105236E-2,-2.0286465E-1,4.9972236E-3,2.2200922E-2,4.1745305E-3,1.1244515E-1,-4.588172E-2,-2.0903695E-1,4.786877E-2,1.2405716E-1],"categories":[],"categories_nodes":[],"categories_segments":[],"categories_sizes":[],"default_left":[1,1,1,1,1,1,1,0,1,1,0,1,1,1,1,0,0,0,1,0,1,0,0,0,0,1,1,0,0,0,1,0,0,0,1,0,0,0,0],"id":5,"left_children":[1,3,5,7,9,11,13,-1,15,17,-1,19,21,23,25,-1,-1,-1,27,-1,29,-1,-1,-1,-1,31,33,-1,-1,-1,35,-1,-1,-1,37,-1,-1,-1,-1],"loss_changes":[1.6339731E0,2.0109749E-1,3.6822906E-1,6.1268806E-2,1.67418E-1,1.2180179E-1,1.2139616E-1,0E0,2.6284218E-2,4.5263767E-2,0E0,4.832864E-3,2.9514136E-2,6.0512684E-3,1.3017371E-2,0E0,0E0,0E0,4.9592257E-2,0E0,6.9051385E-3,0E0,0E0,0E0,0E0,6.180396E-5,9.717546E-3,0E0,0E0,0E0,8.819044E-3,0E0,0E0,0E0,8.1028044E-4,0E0,0E0,0E0,0E0],"parents":[2147483647,0,0,1,1,2,2,3,3,4,4,5,5,6,6,8,8,9,9,11,11,12,12,13,13,14,14,18,18,20,20,25,25,26,26,30,30,34,34],"right_children":[2,4,6,8,10,12,14,-1,16,18,-1,20,22,24,26,-1,-1,-1,28,-1,30,-1,-1,-1,-1,32,34,-1,-1,-1,36,-1,-1,-1,38,-1,-1,-1,-1],"split_conditions":[1.6392061E-1,6.431237E-2,4.0788117E-1,6.397842E-4,3.144639E-1,9.420824E-1,1.1877531E-1,-2.5488133E-2,2.9510916E-3,8.564662E-3,2.9681621E-2,7.4733186E-1,1.1444446E-2,7.592167E-4,1.8210543E-3,-1.98528E-2,-9.608903E-2,-4.2873297E-2,1.7143857E-1,-2.6161816E-2,5.1709814E-3,-2.3150904E-2,1.0751282E-2,-6.128678E-3,-2.9703228E-2,7.85621E-2,7.635979E-1,-7.99984E-2,-3.6066234E-2,-2.7031573E-2,7.4631196E-1,1.4991672E-3,6.6602766E-3,1.2523592E-3,2.4582124E-3,-1.3764516E-2,-6.271109E-2,1.4360632E-2,3.7217148E-2],"split_indices":[87,87,89,35,72,58,45,0,63,66,0,22,21,8,8,0,0,0,39,0,57,0,0,0,0,0,7,0,0,0,64,0,0,0,8,0,0,0,0],"split_type":[0,0,0,0,0,0,0,0,0,0,0,0,0,0,0,0,0,0,0,0,0,0,0,0,0,0,0,0,0,0,0,0,0,0,0,0,0,0,0],"sum_hessian":[2.33E2,1.83E2,5E1,1.27E2,5.6E1,3.2E1,1.8E1,2E0,1.25E2,5.5E1,1E0,2.4E1,8E0,6E0,1.2E1,1E0,1.24E2,9E0,4.6E1,3E0,2.1E1,5E0,3E0,2E0,4E0,3E0,9E0,4.1E1,5E0,3E0,1.8E1,1E0,2E0,1E0,8E0,1E0,1.7E1,2E0,6E0],"tree_param":{"num_deleted":"0","num_feature":"90","num_nodes":"39","size_leaf_vector":"0"}},{"base_weights":[-1.9381101E-1,-2.0330979E-1,2.0102777E-1,-2.3404409E-1,-1.6274804E-1,5.957049E-2,2.1740511E-1,-1.264959E-1,-2.382965E-1,6.761745E-2,-1.6803151E-1,-2.3925945E-1,-6.0889028E-2,1.7945051E-1,-7.802433E-2,-1.798438E-1,-9.9780746E-2,-6.8853796E-2,-2.4010572E-1,-4.677403E-2,-1.8251899E-1,-1.1006158E-1,-3.8852647E-2,-1.1089167E-1,-1.8772565E-1,-1.1470408E-1,-2.485454E-2],"categories":[],"categories_nodes":[],"categories_segments":[],"categories_sizes":[],"default_left":[1,1,1,1,1,0,0,0,1,1,1,1,0,0,0,1,1,0,0,0,1,1,0,0,0,0,0],"id":6,"left_children":[1,3,5,7,9,-1,-1,-1,11,13,15,17,-1,-1,-1,19,21,-1,-1,-1,23,25,-1,-1,-1,-1,-1],"loss_changes":[9.184847E-1,2.473898E-1,9.492487E-4,2.839613E-2,1.3550949E-1,0E0,0E0,0E0,6.2732697E-3,6.28642E-2,6.267452E-2,9.174347E-4,0E0,0E0,0E0,2.1365881E-2,6.3724667E-3,0E0,0E0,0E0,9.763956E-3,2.6871264E-3,0E0,0E0,0E0,0E0,0E0],"parents":[2147483647,0,0,1,1,2,2,3,3,4,4,8,8,9,9,10,10,11,11,15,15,16,16,20,20,21,21],"right_children":[2,4,6,8,10,-1,-1,-1,12,14,16,18,-1,-1,-1,20,22,-1,-1,-1,24,26,-1,-1,-1,-1,-1],"split_conditions":[6.0493934E-1,6.431237E-2,9.867884E-3,4.548734E-3,7.427366E-1,1.7871149E-2,6.522153E-2,-3.7948772E-2,7.284697E-1,3.3829153E-2,2.7509505E-1,2.6446462E-3,-1.826671E-2,5.3835157E-2,-2.34073E-2,7.5453136E-4,2.9467344E-1,-2.0656139E-2,-7.203172E-2,-1.4032209E-2,7.411554E-1,1.6409382E-1,-1.1655794E-2,-3.32675E-2,-5.63177E-2,-3.4411225E-2,-7.4563627E-3],"split_indices":[87,87,0,66,46,0,0,0,56,0,87,21,0,0,0,29,39,0,0,0,7,3,0,0,0,0,0],"split_type":[0,0,0,0,0,0,0,0,0,0,0,0,0,0,0,0,0,0,0,0,0,0,0,0,0,0,0],"sum_hessian":[2.33E2,2.28E2,5E0,1.27E2,1.01E2,1E0,4E0,6E0,1.21E2,2E0,9.9E1,1.2E2,1E0,1E0,1E0,8.3E1,1.6E1,1E0,1.19E2,2E0,8.1E1,1.3E1,3E0,7E0,7.4E1,1.2E1,1E0],"tree_param":{"num_deleted":"0","num_feature":"90","num_nodes":"27","size_leaf_vector":"0"}},{"base_weights":[1.7554578E-1,1.3040496E-1,2.0492315E-1,1.3154833E-1,5.1492434E-2,1.7284685E-1,2.1559769E-1,1.2103698E-1,1.5398E-1,1.74751E-1,4.9292713E-2,1.2180529E-1,3.4780085E-2],"categories":[],"categories_nodes":[],"categories_segments":[],"categories_sizes":[],"default_left":[1,1,1,1,0,1,0,1,0,0,0,0,0],"id":7,"left_children":[1,3,5,7,-1,9,-1,11,-1,-1,-1,-1,-1],"loss_changes":[2.835889E-1,1.7975569E-3,1.0670185E-2,3.2908916E-3,0E0,7.966757E-4,0E0,2.7006865E-4,0E0,0E0,0E0,0E0,0E0],"parents":[2147483647,0,0,1,1,2,2,3,3,5,5,7,7],"right_children":[2,4,6,8,-1,10,-1,12,-1,-1,-1,-1,-1],"split_conditions":[8.2024467E-1,9.966546E-1,8.9277804E-1,1.6479039E-1,1.5447731E-2,9.779824E-1,6.467931E-2,7.502594E-1,4.6194002E-2,5.2425303E-2,1.4787815E-2,3.654159E-2,1.0434026E-2],"split_indices":[88,42,88,47,0,10,0,2,0,0,0,0,0],"split_type":[0,0,0,0,0,0,0,0,0,0,0,0,0],"sum_hessian":[2.33E2,9.4E1,1.39E2,9.2E1,2E0,3.9E1,1E2,6.7E1,2.5E1,3.8E1,1E0,6.6E1,1E0],"tree_param":{"num_deleted":"0","num_feature":"90","num_nodes":"13","size_leaf_vector":"0"}},{"base_weights":[-1.749195E-1,-2.0358674E-1,-5.3331975E-2,-2.4117221E-1,-1.7785475E-1,-1.0300456E-1,2.2676675E-2,-2.4665305E-1,-1.1620605E-1,-1.8441999E-1,-7.93102E-2,-1.1839512E-1,-3.9919283E-2,6.420225E-2,-7.799578E-2,-6.6777915E-2,-1.871452E-1,1.6313136E-2,-9.330226E-2,-9.418209E-2,-1.672662E-1,-5.9725203E-2,-1.0133542E-2,7.3262505E-2,6.5604844E-3,-2.6503375E-2,-9.7116135E-2,-1.0026241E-1,-1.9139808E-1,-1.6343147E-2,4.2476356E-3,8.258678E-2,1.7760733E-2,-1.998478E-1,-1.45302E-1,1.819253E-2,8.7720305E-2],"categories":[],"categories_nodes":[],"categories_segments":[],"categories_sizes":[],"default_left":[1,1,1,1,1,1,1,0,0,1,1,1,1,1,1,0,1,0,0,0,0,0,1,1,0,0,0,0,1,0,0,1,0,0,0,0,0],"id":8,"left_children":[1,3,5,7,9,11,13,-1,-1,15,17,19,21,23,25,-1,27,-1,-1,-1,-1,-1,29,31,-1,-1,-1,-1,33,-1,-1,35,-1,-1,-1,-1,-1],"loss_changes":[8.047676E-1,1.398983E-1,1.760109E-1,2.2021294E-2,6.0421944E-2,2.2459447E-2,8.443665E-2,0E0,0E0,2.2127628E-2,1.3563763E-2,1.0279506E-2,3.524311E-3,6.8308488E-3,3.333412E-3,0E0,1.9607544E-2,0E0,0E0,0E0,0E0,0E0,4.2662543E-4,4.74336E-3,0E0,0E0,0E0,0E0,9.5222E-3,0E0,0E0,1.7098486E-3,0E0,0E0,0E0,0E0,0E0],"parents":[2147483647,0,0,1,1,2,2,3,3,4,4,5,5,6,6,9,9,10,10,11,11,12,12,13,13,14,14,16,16,22,22,23,23,28,28,31,31],"right_children":[2,4,6,8,10,12,14,-1,-1,16,18,20,22,24,26,-1,28,-1,-1,-1,-1,-1,30,32,-1,-1,-1,-1,34,-1,-1,36,-1,-1,-1,-1,-1],"split_conditions":[2.6048893E-1,4.8765987E-2,1.4686169E-1,5.4520965E-1,9.491264E-1,4.6394897E-1,2.2662884E-1,-7.399592E-2,-3.4861818E-2,5.9518726E-3,9.206823E-3,3.3066216E-1,9.486916E-1,3.1988582E-1,4.4714403E-3,-2.0033374E-2,7.4005854E-1,4.893941E-3,-2.7990678E-2,-2.8254628E-2,-5.0179865E-2,-1.7917562E-2,4.6367858E-2,2.2662884E-1,1.9681454E-3,-7.951013E-3,-2.9134842E-2,-3.0078724E-2,2.5725698E-1,-4.902944E-3,1.2742907E-3,1.0433662E-2,5.3282203E-3,-5.995434E-2,-4.35906E-2,5.457759E-3,2.6316093E-2],"split_indices":[89,89,45,50,49,89,5,0,0,78,0,89,85,53,12,0,10,0,0,0,0,0,0,2,0,0,0,0,14,0,0,0,0,0,0,0,0],"split_type":[0,0,0,0,0,0,0,0,0,0,0,0,0,0,0,0,0,0,0,0,0,0,0,0,0,0,0,0,0,0,0,0,0,0,0,0,0],"sum_hessian":[2.33E2,1.88E2,4.5E1,7.3E1,1.15E2,2.7E1,1.8E1,6.9E1,4E0,1.07E2,8E0,2.1E1,6E0,1.3E1,5E0,3E0,1.04E2,1E0,7E0,1.6E1,5E0,3E0,3E0,1.1E1,2E0,2E0,3E0,6E0,9.8E1,2E0,1E0,9E0,2E0,8E1,1.8E1,1E0,8E0],"tree_param":{"num_deleted":"0","num_feature":"90","num_nodes":"37","size_leaf_vector":"0"}},{"base_weights":[-1.3649045E-1,-1.4352041E-1,1.5456821E-1,-1.6499417E-1,-1.15165904E-1,6.474733E-2,1.8329181E-1,-1.2526257E-1,-1.7119202E-1,4.179868E-2,-1.2034462E-1,-3.3707827E-2,-1.2815493E-1,1.5253294E-1,-4.5957047E-2,-1.3613547E-1,-8.6152226E-2,-3.7280314E-2,-1.3097568E-1,-1.1713938E-1,-1.6260351E-1,-4.999435E-2,-9.535487E-2,-4.5137607E-2,-1.21520594E-1,-1.6670412E-1,-3.209453E-2,-4.4755746E-2,-1.02520354E-1],"categories":[],"categories_nodes":[],"categories_segments":[],"categories_sizes":[],"default_left":[1,1,1,1,1,0,0,1,0,1,1,0,1,0,0,1,1,0,0,1,1,0,1,0,0,0,0,0,0],"id":9,"left_children":[1,3,5,7,9,-1,-1,11,-1,13,15,-1,17,-1,-1,19,21,-1,-1,23,25,-1,27,-1,-1,-1,-1,-1,-1],"loss_changes":[5.0097847E-1,1.2043142E-1,3.6122203E-3,1.0076046E-2,8.7943435E-2,0E0,0E0,1.2411177E-3,0E0,4.588023E-2,4.1724443E-2,0E0,2.438724E-4,0E0,0E0,1.4136791E-2,6.546229E-3,0E0,0E0,7.763982E-3,8.028865E-3,0E0,4.8383772E-3,0E0,0E0,0E0,0E0,0E0,0E0],"parents":[2147483647,0,0,1,1,2,2,3,3,4,4,7,7,9,9,10,10,12,12,15,15,16,16,19,19,20,20,22,22],"right_children":[2,4,6,8,10,-1,-1,12,-1,14,16,-1,18,-1,-1,20,22,-1,-1,24,26,-1,28,-1,-1,-1,-1,-1,-1],"split_conditions":[6.0493934E-1,6.431237E-2,1.4856795E-2,1.310203E-2,8.397812E-2,1.94242E-2,5.4987546E-2,7.3544984E-4,-5.135761E-2,1.5978655E-1,1.947945E-1,-1.0112349E-2,7.9413193E-1,4.5759883E-2,-1.3787115E-2,1.1801176E-1,4.7740215E-3,-1.11840945E-2,-3.9292704E-2,4.9989093E-3,3.0417037E-1,-1.4998306E-2,7.625603E-1,-1.3541282E-2,-3.645618E-2,-5.0011236E-2,-9.628359E-3,-1.3426724E-2,-3.0756107E-2],"split_indices":[87,87,0,66,89,0,0,20,0,0,87,0,1,0,0,75,12,0,0,15,15,0,16,0,0,0,0,0,0],"split_type":[0,0,0,0,0,0,0,0,0,0,0,0,0,0,0,0,0,0,0,0,0,0,0,0,0,0,0,0,0],"sum_hessian":[2.33E2,2.28E2,5E0,1.27E2,1.01E2,2E0,3E0,2E1,1.07E2,3E0,9.8E1,1E0,1.9E1,1E0,2E0,6.5E1,3.3E1,1E0,1.8E1,4.1E1,2.4E1,8E0,2.5E1,3E0,3.8E1,2.3E1,1E0,4E0,2.1E1],"tree_param":{"num_deleted":"0","num_feature":"90","num_nodes":"29","size_leaf_vector":"0"}},{"base_weights":[1.2390985E-1,8.7194E-2,1.4170885E-1,1.1804961E-1,1.5052953E-1,3.2377243E-2,1.19208194E-1],"categories":[],"categories_nodes":[],"categories_segments":[],"categories_sizes":[],"default_left":[1,0,1,1,0,0,0],"id":10,"left_children":[1,-1,3,5,-1,-1,-1],"loss_changes":[1.4056396E-1,0E0,1.4785767E-2,8.055568E-4,0E0,0E0,0E0],"parents":[2147483647,0,0,2,2,3,3],"right_children":[2,-1,4,6,-1,-1,-1],"split_conditions":[7.9377025E-1,2.6158202E-2,8.749664E-1,7.179619E-1,4.5158863E-2,9.713173E-3,3.576246E-2],"split_indices":[88,0,85,16,0,0,0],"split_type":[0,0,0,0,0,0,0],"sum_hessian":[2.33E2,7.8E1,1.55E2,4.6E1,1.09E2,1E0,4.5E1],"tree_param":{"num_deleted":"0","num_feature":"90","num_nodes":"7","size_leaf_vector":"0"}},{"base_weights":[-1.24083E-1,-1.4290653E-1,-3.1989124E-2,-1.7023818E-1,-1.2093568E-1,-7.687023E-2,1.44152725E-2,-3.2415763E-2,-1.7494252E-1,-1.2462656E-1,8.952163E-3,1.9784689E-2,-8.269221E-2,-3.6218002E-2,4.836021E-2,-6.1406583E-2,-1.7852204E-1,-5.2652948E-2,-1.2985793E-1,1.14075094E-1,-6.411385E-2,-4.3019325E-2,-9.304855E-2,-5.4461658E-2,-1.0730743E-2,1.92492E-2,6.414844E-2,-1.16872735E-1,-1.879602E-1,1.3866156E-2,-6.2701106E-2,-1.0838783E-1,-1.4545368E-1,-1.9947127E-2,-7.622364E-2,-5.5525318E-2,-1.1189456E-1,3.6104918E-3,-1.5218675E-2,2.3376673E-2,7.3295035E-3,2.1328986E-2,8.5574314E-2,-4.4457704E-2,-1.259975E-1,-7.060061E-2,-2.6001731E-2,-1.1094069E-1,-3.481668E-2,-2.6352897E-2,-1.4717123E-1,2.5642812E-3,2.6729127E-2],"categories":[],"categories_nodes":[],"categories_segments":[],"categories_sizes":[],"default_left":[1,1,1,1,1,1,1,0,1,1,1,0,1,1,1,0,1,1,1,0,1,0,1,0,1,1,1,1,0,0,1,1,1,0,0,0,0,0,0,0,0,1,0,0,0,0,0,0,0,0,0,0,0],"id":11,"left_children":[1,3,5,7,9,11,13,-1,15,17,19,-1,21,23,25,-1,27,29,31,-1,33,-1,35,-1,37,39,41,43,-1,-1,45,47,49,-1,-1,-1,-1,-1,-1,-1,-1,51,-1,-1,-1,-1,-1,-1,-1,-1,-1,-1,-1],"loss_changes":[4.0107536E-1,9.590888E-2,8.649801E-2,4.879141E-2,5.4329157E-2,1.3453223E-2,3.784512E-2,0E0,2.1956205E-2,3.3826828E-2,3.8037445E-2,0E0,4.214436E-3,3.600413E-3,4.7401395E-3,0E0,2.3417473E-2,6.8849735E-3,1.7718792E-2,0E0,8.410774E-5,0E0,4.3944716E-3,0E0,3.767594E-4,1.2385007E-4,5.514346E-3,2.9884428E-3,0E0,0E0,4.835166E-4,4.7769547E-3,7.3724985E-3,0E0,0E0,0E0,0E0,0E0,0E0,0E0,0E0,3.3678696E-4,0E0,0E0,0E0,0E0,0E0,0E0,0E0,0E0,0E0,0E0,0E0],"parents":[2147483647,0,0,1,1,2,2,3,3,4,4,5,5,6,6,8,8,9,9,10,10,12,12,13,13,14,14,16,16,17,17,18,18,20,20,22,22,24,24,25,25,26,26,27,27,30,30,31,31,32,32,41,41],"right_children":[2,4,6,8,10,12,14,-1,16,18,20,-1,22,24,26,-1,28,30,32,-1,34,-1,36,-1,38,40,42,44,-1,-1,46,48,50,-1,-1,-1,-1,-1,-1,-1,-1,52,-1,-1,-1,-1,-1,-1,-1,-1,-1,-1,-1],"split_conditions":[1.9107102E-1,5.6313977E-2,3.4893072E-1,5.203545E-4,3.0983192E-1,5.7462696E-3,1.3292102E-3,-9.724729E-3,5.5965723E-4,1.3142434E-3,1.1854498E-2,5.935407E-3,4.878225E-2,9.486916E-1,2.9484404E-3,-1.8421976E-2,8.1623054E-1,5.7054134E-3,7.2833434E-2,3.422253E-2,1.8272063E-2,-1.2905798E-2,6.825338E-2,-1.6338497E-2,8.714385E-1,2.5602225E-3,7.888371E-1,7.467092E-1,-5.638806E-2,4.1598473E-3,9.452368E-1,1.8142594E-1,3.451826E-3,-5.984138E-3,-2.2867093E-2,-1.6657596E-2,-3.356837E-2,1.0831476E-3,-4.5656026E-3,7.0130024E-3,2.1988512E-3,4.638227E-2,2.5672296E-2,-1.3337311E-2,-3.779925E-2,-2.1180183E-2,-7.8005195E-3,-3.328221E-2,-1.0445004E-2,-7.90587E-3,-4.415137E-2,7.692844E-4,8.018739E-3],"split_indices":[87,44,89,77,74,27,17,0,80,32,12,0,35,85,62,0,31,0,51,0,0,0,53,0,4,11,58,1,0,0,4,84,15,0,0,0,0,0,0,0,0,2,0,0,0,0,0,0,0,0,0,0,0],"split_type":[0,0,0,0,0,0,0,0,0,0,0,0,0,0,0,0,0,0,0,0,0,0,0,0,0,0,0,0,0,0,0,0,0,0,0,0,0,0,0,0,0,0,0,0,0,0,0,0,0,0,0,0,0],"sum_hessian":[2.33E2,1.93E2,4E1,8.3E1,1.1E2,2E1,2E1,3E0,8E1,1.07E2,3E0,1E0,1.9E1,8E0,1.2E1,3E0,7.7E1,8E0,9.9E1,1E0,2E0,5E0,1.4E1,4E0,4E0,5E0,7E0,1.2E1,6.5E1,1E0,7E0,4.5E1,5.4E1,1E0,1E0,6E0,8E0,1E0,3E0,3E0,2E0,3E0,4E0,2E0,1E1,5E0,2E0,4.3E1,2E0,1E0,5.3E1,1E0,2E0],"tree_param":{"num_deleted":"0","num_feature":"90","num_nodes":"53","size_leaf_vector":"0"}},{"base_weights":[-9.628853E-2,-1.0155071E-1,1.20599695E-1,-1.2175698E-1,-8.631675E-2,5.1797867E-2,1.4205115E-1,-2.8651655E-2,-1.22435436E-1,-1.1682646E-1,-7.789009E-2,-4.4766698E-2,-1.2080057E-1,-8.169683E-2,1.6868088E-2,-1.3138327E-1,-7.481888E-2,-9.705476E-2,-6.3169174E-2,1.29653E-1,-4.3741394E-2,-3.7643544E-2,-1.3449973E-1,-1.9870529E-2,-9.9592455E-2,-7.2716966E-2,-3.8335305E-2],"categories":[],"categories_nodes":[],"categories_segments":[],"categories_sizes":[],"default_left":[1,1,1,1,1,0,0,0,0,1,1,0,1,1,1,1,0,1,1,0,0,0,0,0,0,0,0],"id":12,"left_children":[1,3,5,7,9,-1,-1,-1,-1,11,13,-1,15,17,19,21,-1,23,25,-1,-1,-1,-1,-1,-1,-1,-1],"loss_changes":[2.793126E-1,5.9981585E-2,1.4974475E-3,2.5562048E-3,2.5351107E-2,0E0,0E0,0E0,0E0,2.3242533E-3,4.0335715E-2,0E0,2.33531E-3,2.3461998E-2,3.985038E-2,4.875362E-4,0E0,8.7938905E-3,9.067804E-3,0E0,0E0,0E0,0E0,0E0,0E0,0E0,0E0],"parents":[2147483647,0,0,1,1,2,2,3,3,4,4,9,9,10,10,12,12,13,13,14,14,15,15,17,17,18,18],"right_children":[2,4,6,8,10,-1,-1,-1,-1,12,14,-1,16,18,20,22,-1,24,26,-1,-1,-1,-1,-1,-1,-1,-1],"split_conditions":[6.0493934E-1,2.952534E-2,1.4856795E-2,7.769924E-4,4.119585E-3,1.553936E-2,4.2615347E-2,-8.595496E-3,-3.6730632E-2,3.9410084E-3,3.2429606E-1,-1.343001E-2,8.595279E-2,1.6877091E-1,5.0136216E-2,4.88051E-4,-2.2445664E-2,7.4146175E-1,2.4461313E-1,3.8895905E-2,-1.3122419E-2,-1.1293064E-2,-4.034992E-2,-5.961159E-3,-2.9877737E-2,-2.1815091E-2,-1.1500591E-2],"split_indices":[87,87,0,20,50,0,0,0,0,9,74,0,17,89,0,11,0,10,84,0,0,0,0,0,0,0,0],"split_type":[0,0,0,0,0,0,0,0,0,0,0,0,0,0,0,0,0,0,0,0,0,0,0,0,0,0,0],"sum_hessian":[2.33E2,2.28E2,5E0,9.5E1,1.33E2,2E0,3E0,1E0,9.4E1,2.6E1,1.07E2,2E0,2.4E1,1.03E2,4E0,1.8E1,6E0,5.4E1,4.9E1,1E0,3E0,1E0,1.7E1,2E0,5.2E1,3.4E1,1.5E1],"tree_param":{"num_deleted":"0","num_feature":"90","num_nodes":"27","size_leaf_vector":"0"}},{"base_weights":[8.7236E-2,6.332628E-2,1.0095587E-1,4.966212E-2,6.9886394E-2,9.008727E-2,1.1073927E-1,1.9607723E-2,5.1012155E-2,7.763318E-2,4.878874E-2,2.2467345E-2,9.069744E-2,2.5667042E-2,1.11564346E-1,2.7963614E-2,5.3482562E-2,5.3764697E-2,2.5098313E-2,9.129785E-2,2.3433715E-2,5.549926E-2,1.5607685E-2,9.1898724E-2,2.4017602E-2,9.249695E-2,2.4712414E-2],"categories":[],"categories_nodes":[],"categories_segments":[],"categories_sizes":[],"default_left":[1,1,1,1,1,1,1,0,1,0,1,0,1,0,0,0,0,1,0,1,0,0,0,1,0,0,0],"id":13,"left_children":[1,3,5,7,9,11,13,-1,15,-1,17,-1,19,-1,-1,-1,-1,21,-1,23,-1,-1,-1,25,-1,-1,-1],"loss_changes":[7.036781E-2,4.417479E-3,5.654454E-3,2.9815733E-4,5.5283904E-3,1.0567904E-3,2.2604465E-3,0E0,2.1260977E-4,0E0,7.7248365E-4,0E0,8.4912777E-4,0E0,0E0,0E0,0E0,6.0386956E-5,0E0,7.439852E-4,0E0,0E0,0E0,6.08027E-4,0E0,0E0,0E0],"parents":[2147483647,0,0,1,1,2,2,3,3,4,4,5,5,6,6,8,8,10,10,12,12,17,17,19,19,23,23],"right_children":[2,4,6,8,10,12,14,-1,16,-1,18,-1,20,-1,-1,-1,-1,22,-1,24,-1,-1,-1,26,-1,-1,-1],"split_conditions":[8.020594E-1,7.5776744E-1,9.240256E-1,7.3989046E-1,1.5879816E-1,7.5747097E-1,3.2430916E-4,5.882317E-3,5.489172E-2,2.3289954E-2,8.673413E-1,6.7402036E-3,4.4225776E-1,7.7001126E-3,3.3469304E-2,8.389085E-3,1.604477E-2,2.5623414E-1,7.529494E-3,9.779824E-1,7.030115E-3,1.6649779E-2,4.6823057E-3,4.2668226E-1,7.205281E-3,2.7749086E-2,7.4137244E-3],"split_indices":[88,88,88,73,18,76,11,0,50,0,10,0,0,0,0,0,0,0,0,10,0,0,0,27,0,0,0],"split_type":[0,0,0,0,0,0,0,0,0,0,0,0,0,0,0,0,0,0,0,0,0,0,0,0,0,0,0],"sum_hessian":[2.33E2,8.7E1,1.46E2,3.1E1,5.6E1,7.4E1,7.2E1,2E0,2.9E1,3.9E1,1.7E1,1E0,7.3E1,1E0,7.1E1,4E0,2.5E1,1.3E1,4E0,7.2E1,1E0,1.2E1,1E0,7.1E1,1E0,7E1,1E0],"tree_param":{"num_deleted":"0","num_feature":"90","num_nodes":"27","size_leaf_vector":"0"}},{"base_weights":[-8.8072844E-2,-9.654383E-2,1.28643885E-2,-1.169453E-1,-7.794823E-2,-3.386381E-2,3.703616E-2,-1.1787675E-2,-1.17878996E-1,-9.085256E-2,-5.1158678E-2,-1.00307865E-2,-4.139086E-2,6.943327E-2,2.4833657E-2,-3.28974E-2,-1.1927763E-1,-1.6331151E-1,-8.127364E-2,9.696382E-2,-5.7442944E-2,1.131617E-2,3.42122E-2,-1.0186905E-1,-1.310358E-1,-8.929429E-2,-5.3142074E-2,1.003021E-2,-6.334432E-2,4.917547E-3,1.6075611E-2,-3.006497E-2,-1.3234888E-1,-1.0320593E-1,-7.087813E-2,-6.12173E-2,-1.990303E-2,1.9068798E-2,-8.542776E-3,-7.113819E-2,-2.7173512E-2],"categories":[],"categories_nodes":[],"categories_segments":[],"categories_sizes":[],"default_left":[1,1,1,1,1,1,1,0,1,1,1,0,0,0,1,0,1,0,1,0,1,1,0,0,1,1,1,1,1,0,0,0,0,0,0,0,0,0,0,0,0],"id":14,"left_children":[1,3,5,7,9,11,13,-1,15,17,19,-1,-1,-1,21,-1,23,-1,25,-1,27,29,-1,-1,31,33,35,37,39,-1,-1,-1,-1,-1,-1,-1,-1,-1,-1,-1,-1],"loss_changes":[2.01321E-1,7.282996E-2,2.2714745E-2,8.52716E-3,3.545338E-2,8.405633E-4,3.4149531E-3,0E0,7.961869E-3,4.0171146E-2,4.2803526E-2,0E0,0E0,0E0,1.0073665E-3,0E0,6.711483E-3,0E0,1.1049032E-2,0E0,1.6164556E-2,1.0367064E-4,0E0,0E0,3.3129454E-3,6.2634945E-3,3.6130212E-3,8.343947E-4,8.2157105E-3,0E0,0E0,0E0,0E0,0E0,0E0,0E0,0E0,0E0,0E0,0E0,0E0],"parents":[2147483647,0,0,1,1,2,2,3,3,4,4,5,5,6,6,8,8,9,9,10,10,14,14,16,16,18,18,20,20,21,21,24,24,25,25,26,26,27,27,28,28],"right_children":[2,4,6,8,10,12,14,-1,16,18,20,-1,-1,-1,22,-1,24,-1,26,-1,28,30,-1,-1,32,34,36,38,40,-1,-1,-1,-1,-1,-1,-1,-1,-1,-1,-1,-1],"split_conditions":[4.0788117E-1,3.0872026E-2,1.1877531E-1,7.2675705E-1,9.660244E-2,7.592167E-4,7.842359E-1,-3.5363028E-3,6.397842E-4,1.2947187E-3,7.4824095E-1,-3.0092362E-3,-1.2417258E-2,2.0829983E-2,2.3695171E-1,-9.869221E-3,8.679935E-1,-4.8993457E-2,2.2286241E-1,2.9089147E-2,6.9523265E-4,3.220374E-1,1.0263661E-2,-3.0560715E-2,9.008149E-4,9.681368E-2,3.1187508E-2,9.629685E-2,2.1715045E-1,1.4752642E-3,4.8226835E-3,-9.019491E-3,-3.9704666E-2,-3.096178E-2,-2.1263441E-2,-1.8365191E-2,-5.9709093E-3,5.7206396E-3,-2.562833E-3,-2.1341458E-2,-8.152054E-3],"split_indices":[89,87,45,88,42,8,52,0,35,17,46,0,0,0,42,0,73,0,89,0,29,36,0,0,17,21,45,0,87,0,0,0,0,0,0,0,0,0,0,0,0],"split_type":[0,0,0,0,0,0,0,0,0,0,0,0,0,0,0,0,0,0,0,0,0,0,0,0,0,0,0,0,0,0,0,0,0,0,0,0,0,0,0,0,0],"sum_hessian":[2.33E2,2.15E2,1.8E1,1E2,1.15E2,6E0,1.2E1,1E0,9.9E1,7.6E1,3.9E1,2E0,4E0,2E0,1E1,2E0,9.7E1,7E0,6.9E1,1E0,3.8E1,5E0,5E0,4.3E1,5.4E1,5.2E1,1.7E1,3E0,3.5E1,3E0,2E0,1E0,5.3E1,2.7E1,2.5E1,1.3E1,4E0,2E0,1E0,2.8E1,7E0],"tree_param":{"num_deleted":"0","num_feature":"90","num_nodes":"41","size_leaf_vector":"0"}},{"base_weights":[-6.790655E-2,-7.1855046E-2,9.411224E-2,-9.0729505E-2,-6.3821085E-2,4.14383E-2,1.1008963E-1,-9.243021E-2,-2.4204649E-2,-7.5805254E-2,-5.0912462E-2,-2.43752E-2,-9.312354E-2,-7.831296E-2,-4.2506408E-2,1.10205054E-1,-5.4262124E-2,-2.6869252E-2,-9.3758784E-2,-2.5783675E-2,-7.9384245E-2,-2.28193E-2,-5.9399728E-2,-1.6749397E-2,-8.001281E-2,-3.0926092E-2,-8.207028E-3,-4.812057E-2,-8.28892E-2],"categories":[],"categories_nodes":[],"categories_segments":[],"categories_sizes":[],"default_left":[1,1,1,1,1,0,0,1,0,1,1,0,1,1,0,0,1,0,0,0,1,1,1,0,0,0,0,0,0],"id":15,"left_children":[1,3,5,7,9,-1,-1,11,-1,13,15,-1,17,19,-1,-1,21,-1,-1,-1,23,25,27,-1,-1,-1,-1,-1,-1],"loss_changes":[1.5645945E-1,2.893436E-2,4.876256E-4,5.22995E-3,2.1511257E-2,0E0,0E0,7.4988604E-4,0E0,3.601998E-3,5.023448E-2,0E0,1.3232231E-4,2.2299886E-3,0E0,0E0,1.172933E-2,0E0,0E0,0E0,1.5732348E-3,1.2861504E-3,1.429227E-2,0E0,0E0,0E0,0E0,0E0,0E0],"parents":[2147483647,0,0,1,1,2,2,3,3,4,4,7,7,9,9,10,10,12,12,13,13,16,16,20,20,21,21,22,22],"right_children":[2,4,6,8,10,-1,-1,12,-1,14,16,-1,18,20,-1,-1,22,-1,-1,-1,24,26,28,-1,-1,-1,-1,-1,-1],"split_conditions":[6.0493934E-1,4.4813342E-3,1.4856795E-2,9.7315E-1,6.6301264E-2,1.243149E-2,3.302689E-2,1.8263152E-3,-7.261395E-3,9.5299035E-1,6.732489E-2,-7.3125605E-3,3.6009536E-3,3.8372956E-2,-1.2751923E-2,3.306152E-2,5.2435384E-3,-8.060776E-3,-2.8127637E-2,-7.735103E-3,7.078129E-1,7.44868E-3,3.3731498E-2,-5.024819E-3,-2.4003845E-2,-9.277828E-3,-2.4621084E-3,-1.4436171E-2,-2.4866762E-2],"split_indices":[87,47,0,43,87,0,0,9,0,61,87,0,63,47,0,0,15,0,0,0,16,60,51,0,0,0,0,0,0],"split_type":[0,0,0,0,0,0,0,0,0,0,0,0,0,0,0,0,0,0,0,0,0,0,0,0,0,0,0,0,0],"sum_hessian":[2.33E2,2.28E2,5E0,6.5E1,1.63E2,2E0,3E0,6.3E1,2E0,8.2E1,8.1E1,1E0,6.2E1,7.5E1,7E0,1E0,8E1,1E0,6.1E1,2E0,7.3E1,1.2E1,6.8E1,1E0,7.2E1,7E0,5E0,4.8E1,2E1],"tree_param":{"num_deleted":"0","num_feature":"90","num_nodes":"29","size_leaf_vector":"0"}},{"base_weights":[6.1833467E-2,4.5013618E-2,7.203328E-2,9.994706E-4,4.599147E-2,7.344857E-2,2.7240247E-2,6.276995E-3,-4.777789E-3,3.5685934E-2,5.2010134E-2,7.401121E-2,2.3271898E-2,1.8539976E-2,3.7249804E-2,3.1604365E-2,5.708787E-2,7.43365E-2,1.4885664E-2,3.832307E-2,1.4100532E-2,1.4044523E-2,5.779516E-2,7.486536E-2,2.5934994E-2,2.3548296E-2,4.1035585E-2,2.2191862E-2,5.9051946E-2,1.9097239E-2,7.514109E-2],"categories":[],"categories_nodes":[],"categories_segments":[],"categories_sizes":[],"default_left":[1,1,1,1,1,1,0,0,0,1,1,1,0,0,1,0,1,1,0,1,0,0,1,1,0,0,0,0,0,0,0],"id":16,"left_children":[1,3,5,7,9,11,-1,-1,-1,13,15,17,-1,-1,19,-1,21,23,-1,25,-1,-1,27,29,-1,-1,-1,-1,-1,-1,-1],"loss_changes":[3.6902368E-2,3.8706064E-3,7.1281195E-3,1.21459045E-4,3.6642551E-3,2.2017956E-3,0E0,0E0,0E0,2.7469546E-4,3.7909895E-3,1.5283823E-3,0E0,0E0,2.5467575E-4,0E0,4.669428E-4,1.5396476E-3,0E0,2.3598596E-4,0E0,0E0,5.2410364E-4,6.2543154E-4,0E0,0E0,0E0,0E0,0E0,0E0,0E0],"parents":[2147483647,0,0,1,1,2,2,3,3,4,4,5,5,9,9,10,10,11,11,14,14,16,16,17,17,19,19,22,22,23,23],"right_children":[2,4,6,8,10,12,-1,-1,-1,14,16,18,-1,-1,20,-1,22,24,-1,26,-1,-1,28,30,-1,-1,-1,-1,-1,-1,-1],"split_conditions":[8.223199E-1,3.548535E-2,9.0166366E-1,2.9029384E-2,4.1386314E-2,9.7896075E-1,8.172074E-3,1.8830985E-3,-1.4333368E-3,7.326468E-1,7.572042E-1,9.9237096E-1,6.98157E-3,5.561993E-3,4.035583E-1,9.48131E-3,7.1252687E-3,3.8753632E-1,4.465699E-3,7.454048E-1,4.23016E-3,4.2133573E-3,7.377737E-1,7.5587E-1,7.7804984E-3,7.064489E-3,1.2310676E-2,6.657559E-3,1.7715584E-2,5.729172E-3,2.2542328E-2],"split_indices":[70,86,57,0,60,67,0,0,0,85,88,85,0,0,20,0,24,36,0,31,0,0,85,76,0,0,0,0,0,0,0],"split_type":[0,0,0,0,0,0,0,0,0,0,0,0,0,0,0,0,0,0,0,0,0,0,0,0,0,0,0,0,0,0,0],"sum_hessian":[2.33E2,9E1,1.43E2,2E0,8.8E1,1.38E2,5E0,1E0,1E0,3.5E1,5.3E1,1.36E2,2E0,4E0,3.1E1,1.2E1,4.1E1,1.35E2,1E0,2.9E1,2E0,1E0,4E1,1.33E2,2E0,6E0,2.3E1,2E0,3.8E1,1E0,1.32E2],"tree_param":{"num_deleted":"0","num_feature":"90","num_nodes":"31","size_leaf_vector":"0"}},{"base_weights":[-6.2478025E-2,-6.857833E-2,1.0161124E-2,-8.824076E-2,-5.874875E-2,-2.5908453E-2,2.8801579E-2,-1.9631222E-2,-8.996999E-2,-4.084741E-2,-7.132564E-2,-1.2549454E-2,-3.95373E-2,5.5546623E-2,1.8889152E-2,-9.176624E-2,-2.0462638E-2,-3.4277014E-2,-6.879136E-2,-7.4703194E-2,-2.3441226E-3,5.0478727E-3,2.3448646E-2,-9.32484E-2,-2.9558117E-2,-2.4409615E-2,-6.284341E-3,-1.9165428E-2,-5.043537E-2,-8.355799E-2,-2.206026E-2,-2.4746219E-2,-7.766423E-2,8.241925E-2,-4.4139776E-2,1.4420152E-3,5.7691536E-3,2.9905211E-2,9.515777E-3,-3.2243505E-2,-9.469624E-2,-2.5654422E-2,1.074981E-3,-2.7875425E-2,-5.941209E-2,-1.1724144E-2,-9.214509E-2,-7.6767006E-3,-7.9452045E-2],"categories":[],"categories_nodes":[],"categories_segments":[],"categories_sizes":[],"default_left":[1,1,1,1,1,1,1,0,1,1,1,0,0,0,1,1,1,1,1,1,1,1,1,1,0,0,0,1,1,1,0,0,1,0,0,0,0,0,0,0,0,0,0,0,0,0,0,0,0],"id":17,"left_children":[1,3,5,7,9,11,13,-1,15,17,19,-1,-1,-1,21,23,25,27,29,31,33,35,37,39,-1,-1,-1,41,43,45,-1,-1,47,-1,-1,-1,-1,-1,-1,-1,-1,-1,-1,-1,-1,-1,-1,-1,-1],"loss_changes":[1.04387164E-1,3.656304E-2,1.3520918E-2,6.538689E-3,3.01826E-2,7.7830255E-4,2.3971796E-3,0E0,6.6121817E-3,9.2090145E-3,1.9628942E-2,0E0,0E0,0E0,5.758358E-4,3.3290982E-3,1.4485908E-5,1.1974841E-2,5.7473592E-3,1.0059953E-2,2.1351669E-2,2.0841326E-6,4.3509668E-4,2.5994778E-3,0E0,0E0,0E0,3.8364343E-3,3.4067184E-3,3.854435E-3,0E0,0E0,8.89954E-3,0E0,0E0,0E0,0E0,0E0,0E0,0E0,0E0,0E0,0E0,0E0,0E0,0E0,0E0,0E0,0E0],"parents":[2147483647,0,0,1,1,2,2,3,3,4,4,5,5,6,6,8,8,9,9,10,10,14,14,15,15,16,16,17,17,18,18,19,19,20,20,21,21,22,22,23,23,27,27,28,28,29,29,32,32],"right_children":[2,4,6,8,10,12,14,-1,16,18,20,-1,-1,-1,22,24,26,28,30,32,34,36,38,40,-1,-1,-1,42,44,46,-1,-1,48,-1,-1,-1,-1,-1,-1,-1,-1,-1,-1,-1,-1,-1,-1,-1,-1],"split_conditions":[4.0788117E-1,4.2469088E-2,1.1877531E-1,4.2708525E-3,3.4300756E-2,9.3450075E-1,7.842359E-1,-5.889367E-3,2.94558E-1,3.9606658E-1,3.2429606E-1,-3.7648364E-3,-1.186119E-2,1.6663987E-2,2.4487413E-1,2.0295729E-1,2.7297619E-3,5.644354E-2,2.781917E-1,4.3193963E-3,5.0136216E-2,4.9272023E-2,2.0121984E-1,6.148936E-4,-8.867435E-3,-7.3228846E-3,-1.8853025E-3,1.4002019E-1,9.27336E-3,8.2692707E-1,-6.6180783E-3,-7.423866E-3,7.42114E-1,2.4725774E-2,-1.3241934E-2,4.3260457E-4,1.7307461E-3,8.971564E-3,2.8547333E-3,-9.673052E-3,-2.8408872E-2,-7.696327E-3,3.224943E-4,-8.362628E-3,-1.7823627E-2,-3.5172433E-3,-2.764353E-2,-2.3030103E-3,-2.3835614E-2],"split_indices":[89,50,45,66,60,4,52,0,36,2,74,0,0,0,41,87,0,59,45,21,0,2,2,77,0,0,0,45,69,1,0,0,10,0,0,0,0,0,0,0,0,0,0,0,0,0,0,0,0],"split_type":[0,0,0,0,0,0,0,0,0,0,0,0,0,0,0,0,0,0,0,0,0,0,0,0,0,0,0,0,0,0,0,0,0,0,0,0,0,0,0,0,0,0,0,0,0,0,0,0,0],"sum_hessian":[2.33E2,2.15E2,1.8E1,6.9E1,1.46E2,6E0,1.2E1,2E0,6.7E1,6.2E1,8.4E1,4E0,2E0,2E0,1E1,6.5E1,2E0,5.2E1,1E1,8E1,4E0,3E0,7E0,6.3E1,2E0,1E0,1E0,2.8E1,2.4E1,7E0,3E0,5E0,7.5E1,1E0,3E0,1E0,2E0,4E0,3E0,2E0,6.1E1,2.1E1,7E0,8E0,1.6E1,1E0,6E0,2E0,7.3E1],"tree_param":{"num_deleted":"0","num_feature":"90","num_nodes":"49","size_leaf_vector":"0"}},{"base_weights":[-4.7845695E-2,-5.1077597E-2,6.425707E-2,-6.4790614E-2,-4.509087E-2,7.345497E-2,4.5348406E-3,-6.589046E-2,-1.9363718E-2,-2.8567474E-2,-5.0821446E-2,3.3150632E-2,8.5319474E-2,-3.3737116E-2,-6.744581E-2,-4.276179E-2,-1.8046541E-2,-5.330982E-2,4.927933E-3,-8.358832E-3,-4.908513E-2,-1.0481303E-2,-3.2012425E-2,-2.1485109E-2,-5.5191018E-2,9.36743E-2,-3.15562E-2,-9.745643E-3,-2.099201E-3,-2.8848518E-2,-6.3186094E-2,1.1273245E-2,-1.3703793E-2,-7.6175556E-3,-3.410959E-2,4.7641546E-3,-2.5915598E-2,-3.5134327E-2,-5.9122182E-2,-3.5302367E-2,-8.285768E-3],"categories":[],"categories_nodes":[],"categories_segments":[],"categories_sizes":[],"default_left":[1,1,1,1,1,1,0,1,0,1,1,0,0,0,0,1,1,1,1,1,1,1,1,1,1,0,1,0,0,0,0,0,0,0,0,0,0,0,0,0,0],"id":18,"left_children":[1,3,5,7,9,11,-1,13,-1,15,17,-1,-1,-1,-1,19,21,23,25,27,29,31,33,35,37,-1,39,-1,-1,-1,-1,-1,-1,-1,-1,-1,-1,-1,-1,-1,-1],"loss_changes":[8.806151E-2,1.5796423E-2,3.5121292E-3,2.0715892E-3,1.3887703E-2,4.075095E-5,0E0,9.752214E-4,0E0,5.7991445E-3,1.6771019E-2,0E0,0E0,0E0,0E0,3.5054497E-3,2.517159E-3,5.6392252E-3,2.2383012E-2,1.4265592E-5,2.4575107E-3,1.486459E-3,2.0060875E-4,1.0538427E-3,6.3593388E-3,0E0,1.4336733E-4,0E0,0E0,0E0,0E0,0E0,0E0,0E0,0E0,0E0,0E0,0E0,0E0,0E0,0E0],"parents":[2147483647,0,0,1,1,2,2,3,3,4,4,5,5,7,7,9,9,10,10,15,15,16,16,17,17,18,18,19,19,20,20,21,21,22,22,23,23,24,24,26,26],"right_children":[2,4,6,8,10,12,-1,14,-1,16,18,-1,-1,-1,-1,20,22,24,26,28,30,32,34,36,38,-1,40,-1,-1,-1,-1,-1,-1,-1,-1,-1,-1,-1,-1,-1,-1],"split_conditions":[3.8753632E-1,4.4813342E-3,5.7539538E-2,9.7315E-1,1.2361852E-2,1.4856795E-2,1.3604523E-3,5.5747577E-3,-5.8091157E-3,1.2455413E-2,3.2429606E-1,9.94519E-3,2.5595844E-2,-1.0121135E-2,-2.0233743E-2,3.1750528E-3,1.2095332E-1,1.2093491E-3,2.5484595E-2,1.8082285E-1,9.285319E-1,7.54281E-1,7.857479E-1,2.5207005E-3,1.8354867E-2,2.8102292E-2,2.1398175E-1,-2.9236928E-3,-6.297603E-4,-8.654555E-3,-1.8955829E-2,3.3819738E-3,-4.111138E-3,-2.2852668E-3,-1.0232877E-2,1.4292464E-3,-7.77468E-3,-1.0540298E-2,-1.7736655E-2,-1.0590711E-2,-2.4857307E-3],"split_indices":[87,50,0,43,60,0,0,66,0,21,74,0,0,0,0,18,24,86,0,0,19,10,1,18,45,0,3,0,0,0,0,0,0,0,0,0,0,0,0,0,0],"split_type":[0,0,0,0,0,0,0,0,0,0,0,0,0,0,0,0,0,0,0,0,0,0,0,0,0,0,0,0,0,0,0,0,0,0,0,0,0,0,0,0,0],"sum_hessian":[2.33E2,2.27E2,6E0,6.6E1,1.61E2,5E0,1E0,6.4E1,2E0,4.3E1,1.18E2,2E0,3E0,4E0,6E1,1.7E1,2.6E1,1.13E2,5E0,3E0,1.4E1,1.8E1,8E0,7E0,1.06E2,1E0,4E0,2E0,1E0,7E0,7E0,2E0,1.6E1,1E0,7E0,1E0,6E0,1.9E1,8.7E1,3E0,1E0],"tree_param":{"num_deleted":"0","num_feature":"90","num_nodes":"41","size_leaf_vector":"0"}},{"base_weights":[4.3810576E-2,3.1534493E-2,5.0861493E-2,4.542634E-2,2.852089E-2,4.5037787E-2,5.7710394E-2,2.926737E-2,8.49545E-4,1.282829E-2,4.6072356E-2,5.8774985E-2,1.647208E-2,3.07552E-2,1.8085502E-2,5.33545E-3,-4.0611327E-3,4.126167E-2,5.5778507E-2,1.2652814E-2,5.932366E-2,3.6781065E-2,2.662471E-2,4.240823E-2,1.518102E-2,5.9822872E-2,2.060096E-2,1.6338587E-2,5.976777E-2,4.0405177E-2,1.5653228E-2,2.027464E-2,3.0712824E-2,4.372054E-2,2.0541048E-2,3.8660128E-2,6.9872245E-2],"categories":[],"categories_nodes":[],"categories_segments":[],"categories_sizes":[],"default_left":[1,1,1,0,1,1,1,1,1,0,1,1,0,1,0,0,0,1,1,0,1,1,1,1,0,1,0,0,0,0,0,0,0,0,0,0,0],"id":19,"left_children":[1,3,5,-1,7,9,11,13,15,-1,17,19,-1,21,-1,-1,-1,23,25,-1,27,29,31,33,-1,35,-1,-1,-1,-1,-1,-1,-1,-1,-1,-1,-1],"loss_changes":[1.8650591E-2,2.3884773E-3,3.2640696E-3,0E0,1.5243515E-3,2.2080988E-3,1.8415749E-3,6.5825135E-4,8.775447E-5,0E0,1.480639E-3,8.183718E-4,0E0,5.8877096E-4,0E0,0E0,0E0,1.0905787E-3,2.1820962E-3,0E0,1.8796325E-4,1.1286307E-3,4.416611E-4,6.80238E-4,0E0,1.7648414E-3,0E0,0E0,0E0,0E0,0E0,0E0,0E0,0E0,0E0,0E0,0E0],"parents":[2147483647,0,0,1,1,2,2,4,4,5,5,6,6,7,7,8,8,10,10,11,11,13,13,17,17,18,18,20,20,21,21,22,22,23,23,25,25],"right_children":[2,4,6,-1,8,10,12,14,16,-1,18,20,-1,22,-1,-1,-1,24,26,-1,28,30,32,34,-1,36,-1,-1,-1,-1,-1,-1,-1,-1,-1,-1,-1],"split_conditions":[8.0906594E-1,5.2985236E-2,9.3158555E-1,1.3627903E-2,8.0377895E-1,3.5266452E-3,9.795241E-1,7.948909E-1,2.9029384E-2,3.8484873E-3,7.5602345E-2,2.5543384E-3,4.9416246E-3,7.6342404E-1,5.4256506E-3,1.6006351E-3,-1.2183399E-3,5.921475E-1,9.2506325E-1,3.7958445E-3,2.6025916E-3,8.054688E-1,7.81461E-1,1.9944866E-1,4.554306E-3,9.0837216E-1,6.1802883E-3,4.9015763E-3,1.7930333E-2,1.21215535E-2,4.6959687E-3,6.082392E-3,9.213848E-3,1.3116162E-2,6.1623147E-3,1.15980385E-2,2.0961674E-2],"split_indices":[85,14,85,0,85,63,79,82,0,0,83,45,0,64,0,0,0,2,85,0,42,49,31,36,0,7,0,0,0,0,0,0,0,0,0,0,0],"split_type":[0,0,0,0,0,0,0,0,0,0,0,0,0,0,0,0,0,0,0,0,0,0,0,0,0,0,0,0,0,0,0,0,0,0,0,0,0],"sum_hessian":[2.33E2,8.7E1,1.46E2,1.3E1,7.4E1,8.3E1,6.3E1,7.2E1,2E0,3E0,8E1,6.1E1,2E0,6.2E1,1E1,1E0,1E0,5.7E1,2.3E1,1E0,6E1,2.2E1,4E1,5.4E1,3E0,2E1,3E0,1E0,5.9E1,1.8E1,4E0,1.8E1,2.2E1,5E1,4E0,8E0,1.2E1],"tree_param":{"num_deleted":"0","num_feature":"90","num_nodes":"37","size_leaf_vector":"0"}},{"base_weights":[-4.4334777E-2,-4.8724573E-2,7.903718E-3,-6.0753904E-2,-4.060929E-2,-2.0368205E-2,2.2519084E-2,-3.1558253E-2,-6.466734E-2,-3.809397E-2,-8.008371E-2,-9.537583E-3,-3.162984E-2,5.2040875E-2,1.5722195E-2,-3.7018515E-2,-2.837956E-3,-3.580299E-2,-6.967651E-2,-3.9519623E-2,7.005635E-2,4.689598E-3,2.0652294E-2,-4.401958E-2,-2.1213537E-2,-3.648296E-3,-6.086379E-4,-8.207639E-3,-4.007418E-2,-7.0995495E-2,-2.0071328E-2,-4.833841E-2,-2.7416835E-2,1.7944177E-3,6.0215793E-3,8.149226E-3,2.346178E-2,-4.3925326E-2,-1.5162677E-2,-9.6361175E-2,-6.639262E-2,-4.3644447E-2,-6.592344E-2,-1.7383717E-2,-3.8761225E-2,2.5929654E-2,5.5612028E-3],"categories":[],"categories_nodes":[],"categories_segments":[],"categories_sizes":[],"default_left":[1,1,1,1,1,1,1,1,1,1,0,0,0,0,1,1,1,1,1,1,0,1,1,0,0,0,0,0,1,1,0,1,1,0,0,0,1,0,0,0,0,0,0,0,0,0,0],"id":20,"left_children":[1,3,5,7,9,11,13,15,17,19,-1,-1,-1,-1,21,23,25,27,29,31,-1,33,35,-1,-1,-1,-1,-1,37,39,-1,41,43,-1,-1,-1,45,-1,-1,-1,-1,-1,-1,-1,-1,-1,-1],"loss_changes":[5.404517E-2,1.8619E-2,8.309559E-3,7.670909E-3,1.0055691E-2,5.521213E-4,1.7903354E-3,1.7767884E-3,8.204818E-3,2.219589E-2,0E0,0E0,0E0,0E0,5.5585057E-4,1.7270539E-4,3.1990257E-6,1.2033284E-3,2.6315749E-3,1.2016207E-2,0E0,8.476403E-6,8.9822104E-5,0E0,0E0,0E0,0E0,0E0,3.8929284E-4,6.0763955E-4,0E0,2.9833913E-3,5.586263E-3,0E0,0E0,0E0,1.2085843E-4,0E0,0E0,0E0,0E0,0E0,0E0,0E0,0E0,0E0,0E0],"parents":[2147483647,0,0,1,1,2,2,3,3,4,4,5,5,6,6,7,7,8,8,9,9,14,14,15,15,16,16,17,17,18,18,19,19,21,21,22,22,28,28,29,29,31,31,32,32,36,36],"right_children":[2,4,6,8,10,12,14,16,18,20,-1,-1,-1,-1,22,24,26,28,30,32,-1,34,36,-1,-1,-1,-1,-1,38,40,-1,42,44,-1,-1,-1,46,-1,-1,-1,-1,-1,-1,-1,-1,-1,-1],"split_conditions":[4.0788117E-1,5.5165052E-2,1.1877531E-1,1.2366523E-3,2.943176E-1,9.3450075E-1,8.0045855E-1,9.529607E-1,8.258953E-1,3.226036E-1,-2.4025114E-2,-2.861275E-3,-9.488953E-3,1.5612263E-2,2.2359473E-1,1.3124503E-3,3.9409652E-2,1.21197835E-1,4.7081804E-1,1.186309E-1,2.1016905E-2,9.133825E-1,1.7972395E-1,-1.3205875E-2,-6.3640615E-3,-1.0944889E-3,-1.8259138E-4,-2.4622916E-3,1.9107102E-1,9.349939E-4,-6.0213986E-3,9.296387E-1,7.330005E-2,5.3832534E-4,1.8064738E-3,2.4447679E-3,1.4117114E-1,-1.3177599E-2,-4.548803E-3,-2.8908353E-2,-1.9917788E-2,-1.3093335E-2,-1.9777032E-2,-5.2151154E-3,-1.1628368E-2,7.7788965E-3,1.6683609E-3],"split_indices":[89,44,45,71,69,4,1,4,31,74,0,0,0,0,42,44,0,5,86,89,0,1,33,0,0,0,0,0,9,17,0,19,33,0,0,0,0,0,0,0,0,0,0,0,0,0,0],"split_type":[0,0,0,0,0,0,0,0,0,0,0,0,0,0,0,0,0,0,0,0,0,0,0,0,0,0,0,0,0,0,0,0,0,0,0,0,0,0,0,0,0,0,0,0,0,0,0],"sum_hessian":[2.33E2,2.15E2,1.8E1,8.4E1,1.31E2,6E0,1.2E1,1.1E1,7.3E1,1.25E2,6E0,4E0,2E0,1E0,1.1E1,9E0,2E0,1.2E1,6.1E1,1.24E2,1E0,4E0,7E0,5E0,4E0,1E0,1E0,2E0,1E1,5.9E1,2E0,7E1,5.4E1,2E0,2E0,2E0,5E0,8E0,2E0,6E0,5.3E1,5.8E1,1.2E1,3E1,2.4E1,4E0,1E0],"tree_param":{"num_deleted":"0","num_feature":"90","num_nodes":"47","size_leaf_vector":"0"}},{"base_weights":[-3.376237E-2,-3.600195E-2,5.7341974E-2,-2.7216582E-2,-4.119287E-2,-3.337832E-2,-1.593555E-2,-2.1281842E-2,-4.447262E-2,-3.71535E-2,-9.535344E-3,-1.2093622E-2,-5.032361E-2,7.962316E-2,-2.987842E-2,-2.7070569E-2,-4.6496525E-2,-3.881182E-2,-9.2090005E-3,-1.3518505E-2,2.9371455E-3,-2.1017248E-2,-5.351478E-3,-7.3075006E-3,-3.8419623E-2,-3.1738423E-2,-1.1387179E-2,-1.5552195E-2,-4.7239613E-2,-4.8225086E-2,-3.195536E-2,-6.039422E-3,-1.7617961E-2,4.0495247E-3,3.5619363E-4,-2.642057E-2,-7.0878146E-3,5.5382443E-3,-1.0803522E-2,-1.2543105E-2,3.8543392E-3,-4.3846034E-2,-1.8797591E-2,-1.0636725E-2,-3.524583E-2,-1.3615634E-2,-1.2366772E-3,9.437427E-3,-2.7027877E-2,-4.3472677E-2,-6.3960224E-2],"categories":[],"categories_nodes":[],"categories_segments":[],"categories_sizes":[],"default_left":[1,1,0,1,1,1,1,1,1,1,1,1,0,0,1,1,1,1,0,1,1,1,1,1,1,1,1,1,1,0,0,0,0,0,0,0,0,0,0,0,0,0,0,0,0,0,0,0,0,0,0],"id":21,"left_children":[1,3,-1,5,7,9,11,13,15,17,19,21,-1,-1,23,25,27,29,-1,31,33,35,37,39,41,43,45,47,49,-1,-1,-1,-1,-1,-1,-1,-1,-1,-1,-1,-1,-1,-1,-1,-1,-1,-1,-1,-1,-1,-1],"loss_changes":[4.980871E-2,9.322226E-3,0E0,5.585052E-3,8.32659E-3,4.6863705E-3,3.7512472E-3,2.1462647E-2,3.0029416E-3,1.8669516E-3,4.8682524E-4,1.752622E-3,0E0,0E0,3.7676878E-3,7.3670596E-4,1.7257184E-3,1.3633221E-3,0E0,1.0821887E-4,7.1705763E-6,7.9118414E-4,1.1878861E-3,4.574182E-4,7.729586E-4,4.3923408E-4,9.626156E-5,1.4021655E-3,3.769964E-3,0E0,0E0,0E0,0E0,0E0,0E0,0E0,0E0,0E0,0E0,0E0,0E0,0E0,0E0,0E0,0E0,0E0,0E0,0E0,0E0,0E0,0E0],"parents":[2147483647,0,0,1,1,3,3,4,4,5,5,6,6,7,7,8,8,9,9,10,10,11,11,14,14,15,15,16,16,17,17,19,19,20,20,21,21,22,22,23,23,24,24,25,25,26,26,27,27,28,28],"right_children":[2,4,-1,6,8,10,12,14,16,18,20,22,-1,-1,24,26,28,30,-1,32,34,36,38,40,42,44,46,48,50,-1,-1,-1,-1,-1,-1,-1,-1,-1,-1,-1,-1,-1,-1,-1,-1,-1,-1,-1,-1,-1,-1],"split_conditions":[6.0493934E-1,2.1114342E-2,1.7202593E-2,8.611156E-2,7.6651317E-1,4.8562998E-1,9.7315E-1,9.286694E-3,7.550478E-1,9.468891E-1,1.3637679E-2,1.3964783E-2,-1.50970835E-2,2.388695E-2,2.079438E-2,2.7664715E-1,7.4005854E-1,4.8765987E-2,-2.7627002E-3,2.6934403E-1,1.5674126E-1,2.9208988E-1,6.2375925E-2,2.3269399E-1,2.3322801E-1,3.2600705E-2,2.4688223E-1,9.427831E-2,2.4982616E-1,-1.4467526E-2,-9.586609E-3,-1.8118267E-3,-5.285389E-3,1.2148574E-3,1.068581E-4,-7.926172E-3,-2.1263445E-3,1.6614733E-3,-3.2410566E-3,-3.7629316E-3,1.1563018E-3,-1.3153811E-2,-5.6392774E-3,-3.1910178E-3,-1.05737485E-2,-4.0846905E-3,-3.7100317E-4,2.831228E-3,-8.1083635E-3,-1.3041804E-2,-1.9188069E-2],"split_indices":[87,69,0,84,34,50,52,15,10,25,27,51,0,0,42,72,64,17,0,0,0,44,53,11,5,66,2,0,72,0,0,0,0,0,0,0,0,0,0,0,0,0,0,0,0,0,0,0,0,0,0],"split_type":[0,0,0,0,0,0,0,0,0,0,0,0,0,0,0,0,0,0,0,0,0,0,0,0,0,0,0,0,0,0,0,0,0,0,0,0,0,0,0,0,0,0,0,0,0,0,0,0,0,0,0],"sum_hessian":[2.33E2,2.28E2,5E0,8.7E1,1.41E2,5.5E1,3.2E1,2.1E1,1.2E2,4.7E1,8E0,3E1,2E0,1E0,2E1,1.4E1,1.06E2,4.4E1,3E0,6E0,2E0,1.2E1,1.8E1,6E0,1.4E1,1E1,4E0,3E0,1.03E2,1.6E1,2.8E1,3E0,3E0,1E0,1E0,8E0,4E0,6E0,1.2E1,4E0,2E0,1E1,4E0,2E0,8E0,3E0,1E0,1E0,2E0,8.7E1,1.6E1],"tree_param":{"num_deleted":"0","num_feature":"90","num_nodes":"51","size_leaf_vector":"0"}},{"base_weights":[3.1306457E-2,2.2659931E-2,3.626964E-2,4.1731566E-2,2.1008248E-2,3.3213068E-2,4.4163145E-2,1.8285194E-2,4.8883453E-2,4.402399E-3,2.1793325E-2,2.9744463E-2,4.0738277E-2,4.8397873E-2,2.2233188E-2,-3.4519732E-3,7.2289854E-3,1.575577E-2,2.4625212E-2,2.2397459E-2,3.25432E-2,2.0558571E-2,4.2886857E-2,4.9921196E-2,1.7539779E-2,5.747825E-3,2.3767123E-2,7.501453E-3,1.8149998E-2,1.2932188E-2,2.6457302E-2,2.3922684E-2,8.409351E-3,7.5081787E-3,3.3346254E-2,1.7130872E-2,4.4209205E-2,1.4458954E-2,5.0671313E-2,8.610447E-3,2.7829807E-3,1.942288E-2,4.0384135E-3,4.4894814E-3,1.4703035E-2,2.7022876E-2,9.720187E-3,1.4250477E-2,2.5929188E-2,3.4109395E-2,9.257495E-3],"categories":[],"categories_nodes":[],"categories_segments":[],"categories_sizes":[],"default_left":[1,1,1,1,1,1,1,0,0,1,1,1,1,1,1,0,0,1,1,1,1,0,1,1,0,0,0,1,1,1,1,1,0,0,1,0,0,0,0,0,0,0,0,0,0,0,0,0,0,0,0],"id":22,"left_children":[1,3,5,7,9,11,13,-1,-1,15,17,19,21,23,25,-1,-1,27,29,31,33,-1,35,37,-1,-1,-1,39,41,43,45,47,-1,-1,49,-1,-1,-1,-1,-1,-1,-1,-1,-1,-1,-1,-1,-1,-1,-1,-1],"loss_changes":[9.220064E-3,1.8953197E-3,2.0798892E-3,1.1227094E-4,9.861141E-4,1.6594753E-3,2.4529174E-3,0E0,0E0,1.3595956E-4,9.627268E-4,8.955449E-4,5.057566E-4,5.816072E-4,6.569037E-5,0E0,0E0,4.1720457E-4,7.71828E-4,3.3220183E-4,8.553751E-4,0E0,1.96293E-4,3.877282E-5,0E0,0E0,0E0,1.789938E-5,2.9877247E-4,6.854767E-5,1.5383959E-4,5.7457946E-5,0E0,0E0,6.5853447E-4,0E0,0E0,0E0,0E0,0E0,0E0,0E0,0E0,0E0,0E0,0E0,0E0,0E0,0E0,0E0,0E0],"parents":[2147483647,0,0,1,1,2,2,3,3,4,4,5,5,6,6,9,9,10,10,11,11,12,12,13,13,14,14,17,17,18,18,19,19,20,20,22,22,23,23,27,27,28,28,29,29,30,30,31,31,34,34],"right_children":[2,4,6,8,10,12,14,-1,-1,16,18,20,22,24,26,-1,-1,28,30,32,34,-1,36,38,-1,-1,-1,40,42,44,46,48,-1,-1,50,-1,-1,-1,-1,-1,-1,-1,-1,-1,-1,-1,-1,-1,-1,-1,-1],"split_conditions":[8.0906594E-1,9.336161E-3,1.3703334E-1,9.969084E-3,3.840318E-2,9.34989E-1,3.2108878E-3,5.4855584E-3,1.4665036E-2,7.748636E-1,7.5776744E-1,2.2686193E-2,8.171236E-3,3.5432017E-1,2.5207005E-3,-1.035592E-3,2.1686957E-3,7.751285E-1,1.3651451E-2,7.3663585E-2,3.5266452E-3,6.1675715E-3,5.4193623E-3,2.6025916E-3,5.261934E-3,1.7243476E-3,7.130137E-3,1.9096345E-1,2.9827523E-1,1.048374E-2,2.368654E-1,8.7232196E-1,2.5228055E-3,2.2524537E-3,9.6170646E-1,5.139262E-3,1.3262762E-2,4.3376866E-3,1.5201394E-2,2.5831342E-3,8.3489425E-4,5.826864E-3,1.2115241E-3,1.3468445E-3,4.410911E-3,8.106863E-3,2.9160562E-3,4.275143E-3,7.778757E-3,1.0232819E-2,2.7772486E-3],"split_indices":[85,3,81,15,86,88,62,0,0,1,88,54,9,36,0,0,0,58,60,53,63,0,45,45,0,0,0,5,21,51,0,88,0,0,46,0,0,0,0,0,0,0,0,0,0,0,0,0,0,0,0],"split_type":[0,0,0,0,0,0,0,0,0,0,0,0,0,0,0,0,0,0,0,0,0,0,0,0,0,0,0,0,0,0,0,0,0,0,0,0,0,0,0,0,0,0,0,0,0,0,0,0,0,0,0],"sum_hessian":[2.33E2,8.7E1,1.46E2,5E0,8.2E1,1.09E2,3.7E1,2E0,3E0,4E0,7.8E1,7.8E1,3.1E1,3E1,7E0,1E0,3E0,2.7E1,5.1E1,2.4E1,5.4E1,4E0,2.7E1,2.8E1,2E0,1E0,6E0,7E0,2E1,8E0,4.3E1,2.1E1,3E0,2E0,5.2E1,2E0,2.5E1,1E0,2.7E1,5E0,2E0,1.8E1,2E0,2E0,6E0,4.1E1,2E0,5E0,1.6E1,5E1,2E0],"tree_param":{"num_deleted":"0","num_feature":"90","num_nodes":"51","size_leaf_vector":"0"}},{"base_weights":[-3.1594627E-2,-3.479519E-2,6.453594E-3,-4.353548E-2,-2.8563092E-2,-1.1858274E-2,2.0849342E-2,-4.687798E-2,-2.4143456E-2,-1.4530692E-3,-3.0829033E-2,-2.0266563E-2,-1.0783315E-3,4.3162446E-2,1.1095047E-2,-2.5013333E-2,-4.914925E-2,-4.535424E-2,-1.5061238E-2,1.4823198E-2,-9.409569E-3,-3.243067E-2,-5.698997E-4,-8.473724E-3,-2.530388E-2,-3.6072333E-3,1.8100142E-3,1.2242794E-2,9.5653534E-4,-3.4162767E-2,-1.0861233E-2,-5.007761E-2,-1.2961108E-2,-8.0528855E-4,-1.78319E-2,1.8516779E-2,1.8712282E-3,-3.915727E-4,-1.0641916E-2,-2.8696647E-2,-4.9393907E-2,5.95479E-2,-2.0514183E-2,-1.3317872E-2,-5.173385E-4,-5.0585322E-2,-9.045906E-3,-2.841875E-3,1.6339421E-3,-1.9124098E-2,-3.1010509E-3,-1.2688978E-2,-3.5538062E-2,-2.3103418E-2,-5.975079E-2,3.840814E-3,-3.3651885E-2],"categories":[],"categories_nodes":[],"categories_segments":[],"categories_sizes":[],"default_left":[1,1,1,1,1,1,1,1,1,1,1,1,1,0,1,1,1,0,1,1,1,1,1,0,0,0,0,0,0,0,1,1,0,1,1,0,0,0,0,1,1,0,1,0,0,0,0,0,0,0,0,0,0,0,0,0,0],"id":23,"left_children":[1,3,5,7,9,11,13,15,17,19,21,23,25,-1,27,29,31,-1,33,35,37,39,41,-1,-1,-1,-1,-1,-1,-1,43,45,-1,47,49,-1,-1,-1,-1,51,53,-1,55,-1,-1,-1,-1,-1,-1,-1,-1,-1,-1,-1,-1,-1,-1],"loss_changes":[2.8720096E-2,1.0522068E-2,5.2558854E-3,4.572183E-3,7.879645E-3,7.939137E-4,1.9152453E-3,2.4454892E-3,2.206524E-3,1.5640033E-3,5.7487413E-3,8.260319E-5,4.305086E-5,0E0,9.3017356E-5,7.943036E-4,1.5682578E-3,0E0,4.5962096E-4,1.5670742E-4,8.473924E-5,5.7401136E-3,9.614622E-3,0E0,0E0,0E0,0E0,0E0,0E0,0E0,1.2016622E-4,8.7566674E-4,0E0,1.9546571E-5,1.310471E-4,0E0,0E0,0E0,0E0,9.953E-3,3.793016E-3,0E0,2.0490626E-3,0E0,0E0,0E0,0E0,0E0,0E0,0E0,0E0,0E0,0E0,0E0,0E0,0E0,0E0],"parents":[2147483647,0,0,1,1,2,2,3,3,4,4,5,5,6,6,7,7,8,8,9,9,10,10,11,11,12,12,14,14,15,15,16,16,18,18,19,19,20,20,21,21,22,22,30,30,31,31,33,33,34,34,39,39,40,40,42,42],"right_children":[2,4,6,8,10,12,14,16,18,20,22,24,26,-1,28,30,32,-1,34,36,38,40,42,-1,-1,-1,-1,-1,-1,-1,44,46,-1,48,50,-1,-1,-1,-1,52,54,-1,56,-1,-1,-1,-1,-1,-1,-1,-1,-1,-1,-1,-1,-1,-1],"split_conditions":[4.0788117E-1,5.6313977E-2,1.4544916E-3,1.2734176E-1,1.2904769E-3,9.486916E-1,1.789492E-1,1.2366523E-3,1.5447114E-3,4.412757E-3,2.9343784E-1,9.2952013E-1,4.6367858E-2,1.2948735E-2,7.3225416E-2,8.0960826E-4,3.6817813E-1,-1.3606273E-2,7.625603E-1,1.7850445E-1,6.024438E-3,9.2542887E-1,1.1854498E-2,-2.5421174E-3,-7.591164E-3,-1.08217E-3,5.430043E-4,3.6728384E-3,2.8696063E-4,-1.0248831E-2,9.6605265E-1,9.889616E-1,-3.8883325E-3,1.1487815E-1,9.30538E-1,5.5550337E-3,5.613685E-4,-1.1747182E-4,-3.192575E-3,5.919353E-2,5.4193623E-3,1.786437E-2,7.735135E-2,-3.9953617E-3,-1.5520156E-4,-1.5175597E-2,-2.713772E-3,-8.5256255E-4,4.9018266E-4,-5.7372297E-3,-9.303153E-4,-3.8066935E-3,-1.06614195E-2,-6.9310255E-3,-1.7925238E-2,1.1522443E-3,-1.0095566E-2],"split_indices":[89,44,17,87,17,85,35,71,2,27,74,1,0,0,5,71,75,0,22,0,6,19,12,0,0,0,0,0,0,0,4,28,0,0,1,0,0,0,0,59,63,0,3,0,0,0,0,0,0,0,0,0,0,0,0,0,0],"split_type":[0,0,0,0,0,0,0,0,0,0,0,0,0,0,0,0,0,0,0,0,0,0,0,0,0,0,0,0,0,0,0,0,0,0,0,0,0,0,0,0,0,0,0,0,0,0,0,0,0,0,0,0,0,0,0,0,0],"sum_hessian":[2.33E2,2.15E2,1.8E1,8.7E1,1.28E2,8E0,1E1,7.3E1,1.4E1,1E1,1.18E2,4E0,4E0,2E0,8E0,8E0,6.5E1,3E0,1.1E1,3E0,7E0,1.12E2,6E0,2E0,2E0,2E0,2E0,7E0,1E0,4E0,4E0,6.3E1,2E0,2E0,9E0,2E0,1E0,1E0,6E0,9.4E1,1.8E1,1E0,5E0,3E0,1E0,6.2E1,1E0,1E0,1E0,8E0,1E0,2.9E1,6.5E1,6E0,1.2E1,2E0,3E0],"tree_param":{"num_deleted":"0","num_feature":"90","num_nodes":"57","size_leaf_vector":"0"}},{"base_weights":[-2.4041178E-2,-2.5692903E-2,4.300646E-2,-2.7717132E-2,-1.4070855E-2,1.505208E-2,5.322063E-2,-2.9120801E-2,-1.2374546E-2,-8.393871E-3,-2.6210016E-2,-5.041121E-2,-2.8078968E-2,6.767967E-2,-2.1064775E-2,-2.2265885E-2,-9.915374E-4,-7.1084574E-3,-3.2484543E-2,-5.853375E-2,-2.0069906E-2,-2.2642197E-2,-3.2190043E-2,-8.6576864E-4,-2.9408881E-2,-5.974531E-3,-2.6067052E-2,3.823787E-3,-9.104731E-3,-8.777161E-3,-1.0511726E-3,-1.0791957E-2,-3.7916746E-2,-1.4161617E-3,-2.3785869E-2,-1.9986637E-2,-3.422835E-2,4.178772E-3,-4.4327322E-3,-1.8321192E-2,-4.1267406E-2,8.359313E-3,-7.3370934E-3,-1.0567588E-2,-1.6379356E-4],"categories":[],"categories_nodes":[],"categories_segments":[],"categories_sizes":[],"default_left":[1,1,1,1,1,0,0,1,1,1,1,1,1,0,1,1,1,1,1,0,0,1,1,1,1,0,0,1,1,0,0,0,0,0,0,0,0,0,0,0,0,0,0,0,0],"id":24,"left_children":[1,3,5,7,9,-1,-1,11,13,15,17,19,21,-1,23,25,27,29,31,-1,-1,33,35,37,39,-1,-1,41,43,-1,-1,-1,-1,-1,-1,-1,-1,-1,-1,-1,-1,-1,-1,-1,-1],"loss_changes":[2.7019083E-2,4.9973726E-3,9.121038E-4,3.817618E-3,2.260894E-3,0E0,0E0,2.5105476E-3,1.3948068E-2,2.6477394E-3,1.0874704E-3,5.503725E-4,3.0931681E-3,0E0,2.8397636E-3,4.01597E-4,7.380324E-4,3.1204952E-5,5.3351186E-4,0E0,0E0,1.8355399E-3,1.6789436E-3,1.2648554E-4,8.217357E-4,0E0,0E0,6.6877867E-4,8.9824316E-5,0E0,0E0,0E0,0E0,0E0,0E0,0E0,0E0,0E0,0E0,0E0,0E0,0E0,0E0,0E0,0E0],"parents":[2147483647,0,0,1,1,2,2,3,3,4,4,7,7,8,8,9,9,10,10,11,11,12,12,14,14,15,15,16,16,17,17,18,18,21,21,22,22,23,23,24,24,27,27,28,28],"right_children":[2,4,6,8,10,-1,-1,12,14,16,18,20,22,-1,24,26,28,30,32,-1,-1,34,36,38,40,-1,-1,42,44,-1,-1,-1,-1,-1,-1,-1,-1,-1,-1,-1,-1,-1,-1,-1,-1],"split_conditions":[6.0493934E-1,1.9107102E-1,1.4856795E-2,2.731679E-1,2.2103417E-1,4.515624E-3,1.596619E-2,8.710612E-4,2.719481E-2,1.9261709E-3,6.3014776E-2,4.0723365E-2,3.279572E-2,2.0303903E-2,9.346041E-3,2.3285365E-3,3.7577653E-1,1.3080257E-1,1.0789072E-3,-1.7560126E-2,-6.020972E-3,7.4161994E-1,7.508894E-1,1.8375547E-1,2.932362E-1,-1.7923594E-3,-7.820116E-3,7.8620814E-2,4.447915E-1,-2.6331483E-3,-3.153518E-4,-3.2375874E-3,-1.1375024E-2,-4.2484852E-4,-7.135761E-3,-5.995991E-3,-1.0268506E-2,1.2536317E-3,-1.3298197E-3,-5.4963576E-3,-1.2380223E-2,2.507794E-3,-2.201128E-3,-3.1702765E-3,-4.913807E-5],"split_indices":[87,87,0,51,77,0,0,11,0,71,41,15,63,0,18,5,50,0,8,0,0,34,76,0,9,0,0,27,2,0,0,0,0,0,0,0,0,0,0,0,0,0,0,0,0],"split_type":[0,0,0,0,0,0,0,0,0,0,0,0,0,0,0,0,0,0,0,0,0,0,0,0,0,0,0,0,0,0,0,0,0,0,0,0,0,0,0,0,0,0,0,0,0],"sum_hessian":[2.33E2,2.28E2,5E0,1.93E2,3.5E1,2E0,3E0,1.76E2,1.7E1,2.5E1,1E1,6E0,1.7E2,1E0,1.6E1,8E0,1.7E1,3E0,7E0,4E0,2E0,7.6E1,9.4E1,5E0,1.1E1,2E0,6E0,1.1E1,6E0,2E0,1E0,2E0,5E0,4E0,7.2E1,1.5E1,7.9E1,2E0,3E0,7E0,4E0,8E0,3E0,5E0,1E0],"tree_param":{"num_deleted":"0","num_feature":"90","num_nodes":"45","size_leaf_vector":"0"}},{"base_weights":[2.2498213E-2,1.4557882E-2,2.5466045E-2,1.5027497E-2,-3.1320253E-4,1.5096591E-2,2.67566E-2,1.295806E-2,2.2149283E-2,2.4643838E-3,-2.9341877E-3,4.633054E-3,1.6583122E-2,2.4824092E-2,3.4944065E-2,5.857176E-3,1.41160125E-2,4.558146E-3,2.3235366E-2,1.8237812E-2,6.2322468E-3,2.7307935E-2,1.7727809E-2,2.6087923E-2,4.6505105E-2,1.60712E-3,6.1875433E-3,1.5373387E-2,7.518066E-3,2.9691111E-2,1.9074723E-2,1.1113423E-2,2.2712901E-2,2.9395103E-2,1.2271667E-2,2.401784E-2,5.2711386E-2,1.6796611E-2,7.07766E-3,3.2372177E-3,9.118955E-3,3.1091977E-2,1.7052988E-2,6.9075525E-3,2.055442E-2,1.8329918E-3,1.1578888E-2,5.0565004E-3,2.3412896E-2],"categories":[],"categories_nodes":[],"categories_segments":[],"categories_sizes":[],"default_left":[1,1,1,1,1,1,1,1,1,0,0,0,1,1,1,1,1,0,0,0,0,1,1,1,1,0,0,1,1,1,1,1,1,0,0,0,0,0,0,0,0,0,0,0,0,0,0,0,0],"id":25,"left_children":[1,3,5,7,9,11,13,15,17,-1,-1,-1,19,21,23,25,27,-1,-1,-1,-1,29,31,33,35,-1,-1,37,39,41,43,45,47,-1,-1,-1,-1,-1,-1,-1,-1,-1,-1,-1,-1,-1,-1,-1,-1],"loss_changes":[5.143605E-3,4.6563055E-4,1.8576831E-3,6.562248E-4,2.9071001E-5,2.4981145E-4,1.4900714E-3,3.4488924E-4,1.4246022E-4,0E0,0E0,0E0,1.9463245E-4,1.7015263E-3,1.4488213E-3,2.692599E-6,2.494501E-4,0E0,0E0,0E0,0E0,1.1995584E-3,9.0164784E-4,4.160516E-4,1.2960657E-4,0E0,0E0,3.061602E-4,3.2158394E-5,6.736815E-4,2.7210452E-4,5.2211108E-5,1.164414E-4,0E0,0E0,0E0,0E0,0E0,0E0,0E0,0E0,0E0,0E0,0E0,0E0,0E0,0E0,0E0,0E0],"parents":[2147483647,0,0,1,1,2,2,3,3,4,4,5,5,6,6,7,7,8,8,12,12,13,13,14,14,15,15,16,16,21,21,22,22,23,23,24,24,27,27,28,28,29,29,30,30,31,31,32,32],"right_children":[2,4,6,8,10,12,14,16,18,-1,-1,-1,20,22,24,26,28,-1,-1,-1,-1,30,32,34,36,-1,-1,38,40,42,44,46,48,-1,-1,-1,-1,-1,-1,-1,-1,-1,-1,-1,-1,-1,-1,-1,-1],"split_conditions":[7.8379714E-1,7.819294E-1,7.833228E-1,7.906455E-1,2.3032403E-2,1.2972135E-2,3.0470642E-1,7.529646E-1,9.268193E-3,7.393152E-4,-8.8025635E-4,1.3899163E-3,2.978481E-1,9.367025E-1,9.3779945E-1,5.8292557E-2,8.28356E-1,1.3674438E-3,6.97061E-3,5.471344E-3,1.8696741E-3,6.468174E-2,9.231481E-1,9.5109296E-1,9.185615E-4,4.8213603E-4,1.856263E-3,7.775872E-1,7.8677166E-1,4.7081804E-1,7.540319E-1,9.399458E-1,4.1412027E-4,8.818531E-3,3.6815002E-3,7.2053527E-3,1.5813416E-2,5.0389837E-3,2.1232981E-3,9.711653E-4,2.7356865E-3,9.327593E-3,5.1158965E-3,2.0722658E-3,6.1663263E-3,5.4989755E-4,3.4736665E-3,1.5169502E-3,7.023869E-3],"split_indices":[79,79,88,85,0,3,80,13,0,0,0,0,80,25,70,0,43,0,0,0,0,27,79,88,14,0,0,82,4,56,31,25,11,0,0,0,0,0,0,0,0,0,0,0,0,0,0,0,0],"split_type":[0,0,0,0,0,0,0,0,0,0,0,0,0,0,0,0,0,0,0,0,0,0,0,0,0,0,0,0,0,0,0,0,0,0,0,0,0,0,0,0,0,0,0,0,0,0,0,0,0],"sum_hessian":[2.33E2,6.5E1,1.68E2,6.3E1,2E0,2E1,1.48E2,5.1E1,1.2E1,1E0,1E0,3E0,1.7E1,1.23E2,2.5E1,8E0,4.3E1,1E0,1.1E1,1.4E1,3E0,8.9E1,3.4E1,1.6E1,9E0,1E0,7E0,3.5E1,8E0,6.7E1,2.2E1,1.6E1,1.8E1,1.2E1,4E0,3E0,6E0,2.9E1,6E0,3E0,5E0,5.9E1,8E0,3E0,1.9E1,1E0,1.5E1,1E0,1.7E1],"tree_param":{"num_deleted":"0","num_feature":"90","num_nodes":"49","size_leaf_vector":"0"}},{"base_weights":[-2.2450317E-2,-2.474742E-2,4.8457305E-3,-2.9321585E-2,-1.7352868E-2,-1.2817659E-2,1.39840385E-2,-1.7765608E-2,-3.3470016E-2,-1.8661195E-2,2.4628498E-2,-5.7988586E-3,-2.0243108E-2,3.7760377E-2,8.855979E-3,-2.8408458E-2,-9.217826E-3,-6.439242E-2,-3.1425647E-2,-2.2827905E-2,-5.272436E-3,5.0615728E-2,-1.3672981E-2,3.5214126E-3,1.2163324E-2,-1.1137835E-2,-3.765705E-2,-1.5205217E-2,-2.961232E-3,-2.7410733E-2,-4.1659124E-2,-1.5798826E-2,-3.5209425E-2,-1.1074419E-2,1.1078258E-2,1.492545E-3,5.0527654E-3,1.6002774E-2,5.283043E-3,-7.9310435E-4,-1.5117106E-2,-1.7197069E-2,-4.396889E-2,-8.827532E-3,-2.1092933E-2,5.042866E-3,-7.593639E-3,-3.0634955E-2,-1.4815811E-2,-7.482039E-3,-4.6185277E-2,-2.6757749E-2,-9.9635245E-3,-1.7370433E-3,-3.8469814E-2,1.5078112E-4,-1.619049E-2,-1.0799369E-3,1.742734E-2],"categories":[],"categories_nodes":[],"categories_segments":[],"categories_sizes":[],"default_left":[1,1,1,1,1,1,1,1,1,1,1,0,0,0,1,1,1,0,1,1,1,0,0,1,1,1,1,1,1,1,1,1,1,1,1,0,0,0,0,0,0,0,0,0,0,0,0,0,0,0,0,0,0,0,0,0,0,0,0],"id":26,"left_children":[1,3,5,7,9,11,13,15,17,19,21,-1,-1,-1,23,25,27,-1,29,31,33,-1,-1,35,37,39,41,43,45,47,49,51,53,55,57,-1,-1,-1,-1,-1,-1,-1,-1,-1,-1,-1,-1,-1,-1,-1,-1,-1,-1,-1,-1,-1,-1,-1,-1],"loss_changes":[1.4792159E-2,6.79715E-3,3.246099E-3,5.733356E-3,5.128255E-3,2.4743727E-4,1.2506391E-3,3.1041289E-3,4.0452406E-3,4.5099724E-3,3.678116E-3,6.151822E-7,0E0,0E0,1.6888691E-4,2.1362454E-3,7.791086E-4,0E0,2.6380569E-3,4.926663E-3,2.1148808E-3,0E0,0E0,1.109999E-5,1.0037224E-4,2.76162E-4,5.352646E-4,2.2685155E-4,4.8323258E-4,2.3481287E-3,3.367018E-3,2.4192408E-3,2.3341011E-3,9.213041E-4,4.8198062E-4,0E0,0E0,0E0,0E0,0E0,0E0,0E0,0E0,0E0,0E0,0E0,0E0,0E0,0E0,0E0,0E0,0E0,0E0,0E0,0E0,0E0,0E0,0E0,0E0],"parents":[2147483647,0,0,1,1,2,2,3,3,4,4,5,5,6,6,7,7,8,8,9,9,10,10,14,14,15,15,16,16,18,18,19,19,20,20,23,23,24,24,25,25,26,26,27,27,28,28,29,29,30,30,31,31,32,32,33,33,34,34],"right_children":[2,4,6,8,10,12,14,16,18,20,22,-1,-1,-1,24,26,28,-1,30,32,34,-1,-1,36,38,40,42,44,46,48,50,52,54,56,58,-1,-1,-1,-1,-1,-1,-1,-1,-1,-1,-1,-1,-1,-1,-1,-1,-1,-1,-1,-1,-1,-1,-1,-1],"split_conditions":[4.0788117E-1,7.3586956E-2,1.1877531E-1,7.8098667E-1,3.005787E-1,9.3450075E-1,8.0045855E-1,7.7519965E-1,8.8665297E-4,9.402917E-1,2.5484595E-2,-1.7396576E-3,-6.072933E-3,1.1328113E-2,2.3695171E-1,7.4860656E-1,6.907359E-2,-1.9317726E-2,5.911493E-2,2.641696E-1,1.1696715E-2,1.5184719E-2,-4.101895E-3,3.220374E-1,2.572784E-1,7.540319E-1,5.658067E-2,7.5669026E-1,1.3399007E-2,5.8605235E-2,7.5104356E-1,7.6191795E-1,4.6404107E-3,1.958332E-3,2.7096543E-2,4.477635E-4,1.5158297E-3,4.8008324E-3,1.5849129E-3,-2.3793131E-4,-4.535132E-3,-5.159121E-3,-1.3190667E-2,-2.6482595E-3,-6.32788E-3,1.5128598E-3,-2.2780919E-3,-9.190487E-3,-4.4447435E-3,-2.2446117E-3,-1.3855584E-2,-8.027325E-3,-2.9890575E-3,-5.21113E-4,-1.1540945E-2,4.5234337E-5,-4.857147E-3,-3.2398108E-4,5.2282023E-3],"split_indices":[89,42,45,73,72,4,1,28,17,58,0,0,0,0,42,31,32,0,41,47,21,0,0,36,45,1,20,73,39,87,16,46,21,86,3,0,0,0,0,0,0,0,0,0,0,0,0,0,0,0,0,0,0,0,0,0,0,0,0],"split_type":[0,0,0,0,0,0,0,0,0,0,0,0,0,0,0,0,0,0,0,0,0,0,0,0,0,0,0,0,0,0,0,0,0,0,0,0,0,0,0,0,0,0,0,0,0,0,0,0,0,0,0,0,0,0,0,0,0,0,0],"sum_hessian":[2.33E2,2.15E2,1.8E1,1.31E2,8.4E1,6E0,1.2E1,3.6E1,9.5E1,8.2E1,2E0,4E0,2E0,1E0,1.1E1,1.5E1,2.1E1,4E0,9.1E1,6.2E1,2E1,1E0,1E0,5E0,6E0,6E0,9E0,1E1,1.1E1,6.8E1,2.3E1,4.1E1,2.1E1,1.5E1,5E0,3E0,2E0,3E0,3E0,2E0,4E0,3E0,6E0,6E0,4E0,4E0,7E0,5.3E1,1.5E1,3E0,2E1,1.3E1,2.8E1,2E0,1.9E1,5E0,1E1,2E0,3E0],"tree_param":{"num_deleted":"0","num_feature":"90","num_nodes":"59","size_leaf_vector":"0"}},{"base_weights":[-1.7062413E-2,-1.8313158E-2,3.3518154E-2,-2.0636298E-2,-1.20013775E-2,1.2041648E-2,4.1245997E-2,-1.8309824E-2,-2.9457845E-2,1.1065177E-2,-1.6477872E-2,-2.082989E-2,-7.0407093E-3,-1.8568192E-2,-3.9867587E-2,5.752772E-2,6.661497E-4,-5.6902026E-3,-2.0111302E-2,-2.170265E-2,-2.2304084E-3,-1.8875508E-2,-7.32159E-4,-2.5178254E-2,-7.1583344E-3,-1.1573163E-2,-4.3082993E-2,-2.236613E-3,8.184801E-3,-1.2273922E-3,-1.2179852E-2,-1.0454307E-3,-2.2805128E-2,-6.3018734E-3,-2.2749078E-2,3.9528906E-3,-6.3102804E-3,-8.13378E-3,-2.0782605E-2,-7.5410986E-3,6.9146804E-3,-1.0365434E-2,-1.3598762E-3,-8.426569E-3,-4.5100674E-2,-4.7927927E-3,2.5565326E-4,-4.2774826E-3,4.417114E-3,-1.3281499E-2,-3.3358112E-3,-6.1803185E-3,3.067093E-3,-2.4630561E-2,-2.5003762E-3],"categories":[],"categories_nodes":[],"categories_segments":[],"categories_sizes":[],"default_left":[1,1,1,1,1,0,0,1,1,1,1,1,1,1,1,0,1,1,1,1,1,1,1,0,1,0,1,1,0,1,1,1,1,0,0,0,0,0,0,0,0,0,0,0,0,0,0,0,0,0,0,0,0,0,0],"id":27,"left_children":[1,3,5,7,9,-1,-1,11,13,15,17,19,21,23,25,-1,27,29,31,33,35,37,39,-1,41,-1,43,45,-1,47,49,51,53,-1,-1,-1,-1,-1,-1,-1,-1,-1,-1,-1,-1,-1,-1,-1,-1,-1,-1,-1,-1,-1,-1],"loss_changes":[1.5417479E-2,3.1101927E-3,4.9913255E-4,2.8674677E-3,6.790799E-3,0E0,0E0,3.6587976E-3,3.0005593E-3,5.2764956E-3,2.0021582E-3,1.7209761E-3,1.927351E-3,1.1773235E-3,9.57042E-4,0E0,2.3655483E-4,4.194817E-4,2.0305663E-3,1.5326813E-3,1.7630628E-4,1.5328405E-5,9.893479E-4,0E0,1.3467416E-4,0E0,5.989149E-4,5.2190735E-5,0E0,1.9105666E-4,1.4153484E-5,1.456597E-4,1.2356881E-3,0E0,0E0,0E0,0E0,0E0,0E0,0E0,0E0,0E0,0E0,0E0,0E0,0E0,0E0,0E0,0E0,0E0,0E0,0E0,0E0,0E0,0E0],"parents":[2147483647,0,0,1,1,2,2,3,3,4,4,7,7,8,8,9,9,10,10,11,11,12,12,13,13,14,14,16,16,17,17,18,18,19,19,20,20,21,21,22,22,24,24,26,26,27,27,29,29,30,30,31,31,32,32],"right_children":[2,4,6,8,10,-1,-1,12,14,16,18,20,22,24,26,-1,28,30,32,34,36,38,40,-1,42,-1,44,46,-1,48,50,52,54,-1,-1,-1,-1,-1,-1,-1,-1,-1,-1,-1,-1,-1,-1,-1,-1,-1,-1,-1,-1,-1,-1],"split_conditions":[6.0493934E-1,1.256129E-1,1.4856795E-2,2.1960309E-1,3.6738332E-2,3.6124946E-3,1.2373799E-2,1.45431E-1,6.4622566E-2,4.183786E-2,2.0211241E-3,2.1173573E-1,4.9555276E-2,1.0519044E-1,1.1191947E-3,1.7258316E-2,9.511819E-1,7.086372E-3,7.480137E-1,4.3193963E-3,7.668986E-1,2.3291133E-2,1.9636583E-1,-7.5534764E-3,1.21197835E-1,-3.471949E-3,7.602577E-1,1.775113E-1,2.4554403E-3,1.5095076E-2,9.542948E-1,7.6510787E-1,6.804606E-1,-1.8905621E-3,-6.8247234E-3,1.1858672E-3,-1.8930841E-3,-2.440134E-3,-6.234782E-3,-2.2623297E-3,2.0744042E-3,-3.1096304E-3,-4.0796289E-4,-2.5279708E-3,-1.3530203E-2,-1.4378378E-3,7.669598E-5,-1.2832448E-3,1.3251342E-3,-3.98445E-3,-1.0007434E-3,-1.8540956E-3,9.201279E-4,-7.3891687E-3,-7.501129E-4],"split_indices":[87,39,0,83,33,0,0,83,41,0,74,75,50,87,26,0,49,60,28,21,1,0,86,0,5,0,7,0,0,21,1,1,32,0,0,0,0,0,0,0,0,0,0,0,0,0,0,0,0,0,0,0,0,0,0],"split_type":[0,0,0,0,0,0,0,0,0,0,0,0,0,0,0,0,0,0,0,0,0,0,0,0,0,0,0,0,0,0,0,0,0,0,0,0,0,0,0,0,0,0,0,0,0,0,0,0,0,0,0,0,0,0,0],"sum_hessian":[2.33E2,2.28E2,5E0,1.65E2,6.3E1,2E0,3E0,1.33E2,3.2E1,1E1,5.3E1,1.08E2,2.5E1,1.7E1,1.5E1,1E0,9E0,1.4E1,3.9E1,1.03E2,5E0,8E0,1.7E1,1E1,7E0,2E0,1.3E1,7E0,2E0,9E0,5E0,5E0,3.4E1,7E0,9.6E1,2E0,3E0,2E0,6E0,9E0,8E0,4E0,3E0,1E0,1.2E1,3E0,4E0,6E0,3E0,4E0,1E0,2E0,3E0,3.1E1,3E0],"tree_param":{"num_deleted":"0","num_feature":"90","num_nodes":"55","size_leaf_vector":"0"}},{"base_weights":[1.6179953E-2,1.0514839E-2,1.8296625E-2,1.3942342E-2,8.605506E-3,2.8309396E-2,1.7351003E-2,1.5168808E-2,4.6310425E-3,6.298806E-3,1.2392726E-2,1.0477215E-2,3.261133E-2,1.6130919E-2,2.5876602E-2,3.9824545E-3,1.5569025E-2,1.3981426E-2,4.5791175E-3,1.7034786E-2,7.904011E-3,3.5718538E-2,1.3454993E-2,1.5415768E-2,3.235686E-2,1.1796345E-2,3.0384673E-2,4.2093694E-3,1.598963E-2,5.143156E-3,-1.4595588E-3,3.957957E-3,1.8554598E-2,2.8529365E-3,8.810163E-3,2.3342427E-2,1.431482E-2,1.4073253E-2,2.0590425E-4,5.0155222E-3,3.208081E-2,1.6623617E-3,5.7561966E-3,-2.494067E-3,3.0472875E-4,6.6655874E-4,2.491452E-2,2.108251E-2,1.3589229E-2,3.345511E-2,8.481741E-3],"categories":[],"categories_nodes":[],"categories_segments":[],"categories_sizes":[],"default_left":[1,1,1,1,1,1,1,1,0,1,1,0,1,1,1,0,1,0,1,1,1,0,0,1,0,1,1,0,0,1,1,0,0,0,0,1,1,0,0,0,1,0,0,0,0,0,0,0,0,0,0],"id":28,"left_children":[1,3,5,7,9,11,13,15,-1,17,19,-1,21,23,25,-1,27,-1,29,31,33,-1,-1,35,-1,37,39,-1,-1,41,43,-1,-1,-1,-1,45,47,-1,-1,-1,49,-1,-1,-1,-1,-1,-1,-1,-1,-1,-1],"loss_changes":[2.6135556E-3,3.1193905E-4,1.1089444E-3,1.809923E-4,3.1505944E-4,6.5559056E-4,1.2156963E-3,2.3059547E-5,0E0,3.3232884E-4,1.9874726E-4,0E0,1.146337E-4,1.1257529E-3,7.841177E-4,0E0,1.8696766E-5,0E0,9.606383E-5,6.568199E-5,2.0635547E-5,0E0,0E0,8.5270405E-4,0E0,1.5544432E-4,3.984822E-4,0E0,0E0,4.1643973E-5,6.235523E-6,0E0,0E0,0E0,0E0,5.181208E-4,3.125947E-4,0E0,0E0,0E0,1.0542944E-4,0E0,0E0,0E0,0E0,0E0,0E0,0E0,0E0,0E0,0E0],"parents":[2147483647,0,0,1,1,2,2,3,3,4,4,5,5,6,6,7,7,9,9,10,10,12,12,13,13,14,14,16,16,18,18,19,19,20,20,23,23,25,25,26,26,29,29,30,30,35,35,36,36,40,40],"right_children":[2,4,6,8,10,12,14,16,-1,18,20,-1,22,24,26,-1,28,-1,30,32,34,-1,-1,36,-1,38,40,-1,-1,42,44,-1,-1,-1,-1,46,48,-1,-1,-1,50,-1,-1,-1,-1,-1,-1,-1,-1,-1,-1],"split_conditions":[7.8379714E-1,7.6342404E-1,3.5982141E-3,8.054688E-1,1.7534038E-1,1.9084348E-3,2.4982616E-1,4.7808014E-2,1.3893128E-3,5.21345E-2,5.9282668E-2,3.1431646E-3,9.380485E-1,9.6710217E-1,2.0530843E-3,1.1947365E-3,1.40148625E-2,4.194428E-3,7.821369E-1,7.360859E-1,7.646158E-1,1.0715562E-2,4.0364983E-3,1.0909156E-3,9.707058E-3,6.051346E-1,1.53471185E-2,1.2628109E-3,4.796889E-3,7.6024586E-1,4.506632E-2,1.1873872E-3,5.5663795E-3,8.5588096E-4,2.6430488E-3,3.484651E-3,7.457309E-1,4.221976E-3,6.177128E-5,1.5046567E-3,5.75009E-1,4.987085E-4,1.726859E-3,-7.4822013E-4,9.1418624E-5,1.9996763E-4,7.4743563E-3,6.324753E-3,4.076769E-3,1.0036534E-2,2.5445223E-3],"split_indices":[79,64,54,49,89,74,48,20,0,23,47,0,19,16,80,0,0,0,76,7,34,0,0,20,0,2,0,0,0,25,0,0,0,0,0,18,52,0,0,0,2,0,0,0,0,0,0,0,0,0,0],"split_type":[0,0,0,0,0,0,0,0,0,0,0,0,0,0,0,0,0,0,0,0,0,0,0,0,0,0,0,0,0,0,0,0,0,0,0,0,0,0,0,0,0,0,0,0,0,0,0,0,0,0,0],"sum_hessian":[2.33E2,6.5E1,1.68E2,2.1E1,4.4E1,1.2E1,1.56E2,1.8E1,3E0,2.9E1,1.5E1,3E0,9E0,1.39E2,1.7E1,1E0,1.7E1,4E0,2.5E1,6E0,9E0,7E0,2E0,1.35E2,4E0,5E0,1.2E1,1E0,1.6E1,2.3E1,2E0,1E0,5E0,2E0,7E0,1.4E1,1.21E2,4E0,1E0,1E0,1.1E1,4E0,1.9E1,1E0,1E0,1E0,1.3E1,9E0,1.12E2,1E1,1E0],"tree_param":{"num_deleted":"0","num_feature":"90","num_nodes":"51","size_leaf_vector":"0"}},{"base_weights":[-1.606546E-2,-1.9709386E-2,-5.63861E-3,-1.7123284E-2,-2.736786E-2,1.9247526E-2,-1.079455E-2,-1.5574318E-2,-3.274606E-2,-2.7116686E-3,-2.919496E-2,6.831487E-3,5.0079804E-2,-1.8925497E-2,1.1533546E-3,1.5270188E-2,-1.5955431E-2,-4.6375535E-2,-1.3658912E-2,-4.0831366E-3,7.0136786E-4,-5.7728505E-3,-3.1706832E-2,-1.9244372E-3,1.4221114E-2,-1.93542E-3,-2.211838E-2,5.985381E-3,-1.0056042E-2,-1.840135E-2,-9.155538E-3,1.56793E-3,-8.000028E-3,-4.1490547E-2,-2.2294521E-2,-5.4882965E-3,2.280901E-3,-1.0642089E-2,1.9343316E-3,-3.7644617E-2,-1.758431E-2,1.633294E-2,2.341103E-3,-1.3927802E-2,-3.6702715E-3,-1.9967148E-2,-8.698777E-3,-5.0713597E-3,-2.7369812E-2,-2.4911076E-2,-4.676203E-2,-2.3107445E-2,-3.4244806E-3,2.5779381E-3,-3.2004714E-4,-9.816052E-3,-2.2207253E-2,-2.753693E-3,4.9114227E-3],"categories":[],"categories_nodes":[],"categories_segments":[],"categories_sizes":[],"default_left":[1,1,1,1,1,1,1,1,1,1,1,1,0,1,1,0,1,0,0,0,0,1,1,1,0,1,1,1,1,1,1,0,0,1,1,0,0,0,1,0,1,0,1,0,0,0,0,0,0,0,0,0,0,0,0,0,0,0,0],"id":29,"left_children":[1,3,5,7,9,11,13,15,17,19,21,23,-1,25,27,-1,29,-1,-1,-1,-1,31,33,35,-1,37,39,41,43,45,47,-1,-1,49,51,-1,-1,-1,53,-1,55,-1,57,-1,-1,-1,-1,-1,-1,-1,-1,-1,-1,-1,-1,-1,-1,-1,-1],"loss_changes":[8.779619E-3,2.957739E-3,8.163077E-3,2.6842915E-3,1.8129013E-3,3.868843E-3,5.073513E-3,1.6777832E-3,2.2281865E-3,2.1587264E-5,2.1114647E-3,6.096947E-4,0E0,1.6388586E-3,1.2517995E-3,0E0,1.8439963E-3,0E0,0E0,0E0,0E0,9.4289586E-5,2.298046E-3,8.745442E-5,0E0,2.227412E-4,1.1683693E-3,5.651129E-4,1.21950405E-4,1.1632275E-3,2.3904694E-3,0E0,0E0,2.334807E-4,2.2766739E-4,0E0,0E0,0E0,8.079725E-6,0E0,5.720812E-4,0E0,1.8376284E-4,0E0,0E0,0E0,0E0,0E0,0E0,0E0,0E0,0E0,0E0,0E0,0E0,0E0,0E0,0E0,0E0],"parents":[2147483647,0,0,1,1,2,2,3,3,4,4,5,5,6,6,7,7,8,8,9,9,10,10,11,11,13,13,14,14,16,16,21,21,22,22,23,23,25,25,26,26,27,27,28,28,29,29,30,30,33,33,34,34,38,38,40,40,42,42],"right_children":[2,4,6,8,10,12,14,16,18,20,22,24,-1,26,28,-1,30,-1,-1,-1,-1,32,34,36,-1,38,40,42,44,46,48,-1,-1,50,52,-1,-1,-1,54,-1,56,-1,58,-1,-1,-1,-1,-1,-1,-1,-1,-1,-1,-1,-1,-1,-1,-1,-1],"split_conditions":[1.4428502E-1,9.286406E-1,2.1353137E-1,2.865193E-1,3.8617952E-3,2.937597E-1,3.0187947E-1,7.061823E-1,7.9467154E-1,4.5069676E-2,3.5982141E-3,7.8155386E-1,1.5023942E-2,2.2320237E-3,3.165893E-1,4.5810565E-3,1.17980614E-1,-1.3912661E-2,-4.0976736E-3,-1.224941E-3,2.1041036E-4,9.568424E-1,4.6992086E-2,6.753639E-2,4.266334E-3,8.7719387E-1,1.0064654E-2,2.2251941E-2,1.3256753E-2,3.0702972E-1,9.405921E-2,4.7037902E-4,-2.4000085E-3,3.8037985E-3,1.9136389E-1,-1.646489E-3,6.842703E-4,-3.1926269E-3,9.408815E-2,-1.1293385E-2,2.514066E-1,4.899882E-3,1.578097E-1,-4.178341E-3,-1.1010815E-3,-5.990145E-3,-2.6096334E-3,-1.521408E-3,-8.210944E-3,-7.473323E-3,-1.402861E-2,-6.932234E-3,-1.0273443E-3,7.733815E-4,-9.601415E-5,-2.944816E-3,-6.662176E-3,-8.261079E-4,1.4734269E-3],"split_indices":[39,37,41,69,57,54,89,88,46,0,21,43,0,5,32,0,87,0,0,0,0,1,18,2,0,1,57,78,15,8,36,0,0,41,0,0,0,0,0,0,35,0,33,0,0,0,0,0,0,0,0,0,0,0,0,0,0,0,0],"split_type":[0,0,0,0,0,0,0,0,0,0,0,0,0,0,0,0,0,0,0,0,0,0,0,0,0,0,0,0,0,0,0,0,0,0,0,0,0,0,0,0,0,0,0,0,0,0,0,0,0,0,0,0,0,0,0,0,0,0,0],"sum_hessian":[2.33E2,1.72E2,6.1E1,1.31E2,4.1E1,1E1,5.1E1,1.21E2,1E1,3E0,3.8E1,8E0,2E0,3E1,2.1E1,1E0,1.2E2,5E0,5E0,2E0,1E0,4E0,3.4E1,4E0,4E0,5E0,2.5E1,1.5E1,6E0,8.7E1,3.3E1,1E0,3E0,1.5E1,1.9E1,2E0,2E0,1E0,4E0,4E0,2.1E1,3E0,1.2E1,3E0,3E0,7.4E1,1.3E1,2.8E1,5E0,5E0,1E1,1.8E1,1E0,3E0,1E0,9E0,1.2E1,4E0,8E0],"tree_param":{"num_deleted":"0","num_feature":"90","num_nodes":"59","size_leaf_vector":"0"}},{"base_weights":[-1.2065757E-2,-1.3013754E-2,2.612708E-2,-1.532921E-2,-9.058306E-3,9.633303E-3,3.1965643E-2,-3.6614116E-2,-1.3964443E-2,-1.030081E-2,4.8898548E-2,-4.456759E-2,-1.7518748E-2,-1.1063229E-2,-1.829911E-2,-5.0022355E-3,-1.401574E-2,-1.4352434E-2,-5.5449908E-3,-3.043567E-2,-1.54651515E-2,-2.185082E-3,-1.3523927E-2,-8.918105E-3,-1.916659E-2,-7.4875336E-3,-1.6224716E-2,-1.0270345E-3,-1.4487537E-2,-1.24933E-2,-3.7324637E-2,-1.7562509E-2,-3.5695601E-3,-1.12493755E-2,1.2103465E-3,-1.3482422E-3,-1.6810087E-2,-1.5718002E-2,-4.644934E-3,-2.0847302E-2,-4.5250854E-4],"categories":[],"categories_nodes":[],"categories_segments":[],"categories_sizes":[],"default_left":[1,1,1,1,1,0,0,1,1,1,0,0,0,1,1,1,1,1,1,1,1,1,1,1,1,0,0,0,0,0,0,0,0,0,0,0,0,0,0,0,0],"id":30,"left_children":[1,3,5,7,9,-1,-1,11,13,15,-1,-1,-1,17,19,21,23,25,27,29,31,33,35,37,39,-1,-1,-1,-1,-1,-1,-1,-1,-1,-1,-1,-1,-1,-1,-1,-1],"loss_changes":[8.812375E-3,1.9584782E-3,2.6986515E-4,3.6427043E-3,6.7687086E-3,0E0,0E0,4.342273E-4,1.5078615E-3,1.6227001E-3,0E0,0E0,0E0,1.4450671E-3,1.3522152E-3,8.587049E-4,1.1419281E-3,5.468754E-4,1.3183879E-3,6.4613204E-4,1.0600286E-3,9.061533E-4,3.3743738E-4,7.1153324E-4,7.4543804E-4,0E0,0E0,0E0,0E0,0E0,0E0,0E0,0E0,0E0,0E0,0E0,0E0,0E0,0E0,0E0,0E0],"parents":[2147483647,0,0,1,1,2,2,3,3,4,4,7,7,8,8,9,9,13,13,14,14,15,15,16,16,17,17,18,18,19,19,20,20,21,21,22,22,23,23,24,24],"right_children":[2,4,6,8,10,-1,-1,12,14,16,-1,-1,-1,18,20,22,24,26,28,30,32,34,36,38,40,-1,-1,-1,-1,-1,-1,-1,-1,-1,-1,-1,-1,-1,-1,-1,-1],"split_conditions":[6.0493934E-1,1.3263676E-1,1.4856795E-2,9.349939E-4,3.005787E-1,2.8899908E-3,9.5896935E-3,9.429105E-1,1.2080166E-1,1.9157337E-2,1.4669565E-2,-1.3370277E-2,-5.2556247E-3,1.087567E-1,7.4005854E-1,2.7885965E-1,1.6600692E-1,8.2351705E-3,2.1757695E-1,5.354902E-2,1.0519044E-1,1.3964786E-1,6.9988472E-3,1.9064146E-3,9.4966996E-1,-2.2462602E-3,-4.867415E-3,-3.0811035E-4,-4.3462613E-3,-3.7479901E-3,-1.1197392E-2,-5.2687526E-3,-1.0708681E-3,-3.374813E-3,3.6310396E-4,-4.0447267E-4,-5.0430265E-3,-4.7154007E-3,-1.3934802E-3,-6.254191E-3,-1.3575256E-4],"split_indices":[87,44,0,17,72,0,0,64,66,24,0,0,0,15,1,0,50,30,15,0,87,45,15,23,43,0,0,0,0,0,0,0,0,0,0,0,0,0,0,0,0],"split_type":[0,0,0,0,0,0,0,0,0,0,0,0,0,0,0,0,0,0,0,0,0,0,0,0,0,0,0,0,0,0,0,0,0,0,0,0,0,0,0,0,0],"sum_hessian":[2.33E2,2.28E2,5E0,1.42E2,8.6E1,2E0,3E0,7E0,1.35E2,8.5E1,1E0,4E0,3E0,8.3E1,5.2E1,3.6E1,4.9E1,5.1E1,3.2E1,8E0,4.4E1,2.8E1,8E0,2.6E1,2.3E1,1.2E1,3.9E1,2.2E1,1E1,3E0,5E0,3.7E1,7E0,7E0,2.1E1,2E0,6E0,9E0,1.7E1,2.1E1,2E0],"tree_param":{"num_deleted":"0","num_feature":"90","num_nodes":"41","size_leaf_vector":"0"}},{"base_weights":[1.1705055E-2,6.771665E-3,1.3112226E-2,1.3591513E-2,5.4667615E-3,1.2127379E-2,2.0871062E-2,5.4396987E-3,1.7394662E-2,8.2589025E-3,4.2734877E-3,1.114098E-2,1.8623078E-2,2.7099753E-2,1.2555266E-2,9.348062E-3,1.5123487E-3,1.4816268E-3,4.8000235E-3,1.0581036E-2,2.4591232E-2,2.3821445E-2,7.847846E-3,2.9412845E-2,3.1409562E-3,3.0943553E-3,1.4533699E-2,-3.0517578E-5,2.092588E-3,6.956989E-3,3.2986214E-3,9.058974E-3,1.4428176E-2,3.616552E-2,1.650167E-2,8.918958E-3,1.7502904E-4,7.394552E-3,3.1240813E-2,1.7074931E-2,7.723734E-3,8.227885E-3,2.6759505E-3,3.763476E-3,-4.3509403E-4,5.4863733E-3,1.0194055E-2,8.725531E-3,1.7767921E-2],"categories":[],"categories_nodes":[],"categories_segments":[],"categories_sizes":[],"default_left":[1,1,1,1,1,1,1,0,0,1,1,1,1,1,1,0,0,1,1,1,0,1,1,1,0,0,1,0,0,1,1,1,1,0,0,0,0,0,0,0,0,0,0,0,0,0,0,0,0],"id":31,"left_children":[1,3,5,7,9,11,13,-1,-1,15,17,19,21,23,25,-1,-1,27,29,31,-1,33,35,37,-1,-1,39,-1,-1,41,43,45,47,-1,-1,-1,-1,-1,-1,-1,-1,-1,-1,-1,-1,-1,-1,-1,-1],"loss_changes":[1.5356652E-3,4.0625758E-4,1.1299569E-3,1.5339884E-4,1.2129976E-4,8.3692E-4,6.438894E-4,0E0,0E0,8.138741E-5,4.4338696E-5,8.243192E-4,9.333249E-4,4.6180421E-4,1.4220539E-4,0E0,5.39374E-7,6.5308923E-6,7.096719E-5,6.890781E-4,0E0,5.778349E-4,6.418652E-5,1.3122708E-4,0E0,0E0,6.5633794E-6,3.5295788E-8,0E0,3.7830847E-5,3.461451E-5,3.6175642E-4,5.686898E-4,0E0,0E0,0E0,0E0,0E0,0E0,0E0,0E0,0E0,0E0,0E0,0E0,0E0,0E0,0E0,0E0],"parents":[2147483647,0,0,1,1,2,2,3,3,4,4,5,5,6,6,9,9,10,10,11,11,12,12,13,13,14,14,17,17,18,18,19,19,21,21,22,22,23,23,26,26,29,29,30,30,31,31,32,32],"right_children":[2,4,6,8,10,12,14,-1,-1,16,18,20,22,24,26,-1,-1,28,30,32,-1,34,36,38,-1,-1,40,-1,-1,42,44,46,48,-1,-1,-1,-1,-1,-1,-1,-1,-1,-1,-1,-1,-1,-1,-1,-1],"split_conditions":[7.752886E-1,1.1953324E-2,3.296336E-1,1.1971927E-1,6.287231E-2,2.731679E-1,9.4398963E-1,1.6319096E-3,5.2183988E-3,8.409202E-1,2.0644903E-2,9.6710217E-1,1.0792235E-2,7.252835E-2,2.7758933E-3,2.8044186E-3,4.5370462E-4,5.310674E-2,4.427177E-2,9.350482E-1,7.37737E-3,8.8436437E-1,3.5432017E-1,6.834788E-4,9.4228686E-4,9.2830666E-4,9.4173455E-1,-9.155274E-6,6.2777643E-4,8.49751E-1,2.0786774E-1,1.8309072E-2,7.990942E-3,1.0849657E-2,4.9505015E-3,2.6756874E-3,5.2508713E-5,2.2183657E-3,9.372245E-3,5.1224795E-3,2.3171203E-3,2.4683655E-3,8.027852E-4,1.1290428E-3,-1.3052822E-4,1.6459121E-3,3.0582165E-3,2.6176595E-3,5.3303763E-3],"split_indices":[88,48,80,26,23,45,37,0,0,31,6,16,15,5,0,0,0,2,81,88,0,67,0,2,0,0,1,0,0,4,32,63,57,0,0,0,0,0,0,0,0,0,0,0,0,0,0,0,0],"split_type":[0,0,0,0,0,0,0,0,0,0,0,0,0,0,0,0,0,0,0,0,0,0,0,0,0,0,0,0,0,0,0,0,0,0,0,0,0,0,0,0,0,0,0,0,0,0,0,0,0],"sum_hessian":[2.33E2,5.3E1,1.8E2,7E0,4.6E1,1.62E2,1.8E1,3E0,4E0,1.2E1,3.4E1,1.43E2,1.9E1,9E0,9E0,1E1,2E0,6E0,2.8E1,1.39E2,4E0,1.2E1,7E0,8E0,1E0,2E0,7E0,2E0,4E0,1E1,1.8E1,1.02E2,3.7E1,3E0,9E0,6E0,1E0,1E0,7E0,4E0,3E0,7E0,3E0,1.6E1,2E0,2.6E1,7.6E1,1.5E1,2.2E1],"tree_param":{"num_deleted":"0","num_feature":"90","num_nodes":"49","size_leaf_vector":"0"}},{"base_weights":[-1.15406355E-2,-1.55603755E-2,-5.99858E-3,-3.2799255E-2,-1.4361381E-2,-8.4102955E-3,6.2709926E-3,-8.732929E-3,-3.9365873E-2,-1.2189887E-2,-2.2032892E-2,-3.5032532E-3,-1.398244E-2,2.1436572E-2,2.8198103E-3,-1.5578158E-2,-7.551897E-3,-3.743512E-2,-1.683079E-2,-5.159388E-3,3.5511404E-2,-1.7669125E-2,-2.99187E-3,-3.0504912E-3,6.0600103E-3,3.40346E-3,-1.631685E-2,-3.294604E-3,-1.4370109E-2,-4.92087E-3,-1.8452311E-2,6.984102E-3,-7.973767E-3,-1.3903906E-2,-3.29614E-2,3.9895102E-3,-6.1085764E-3,-2.6413202E-4,-8.491144E-3,7.4412423E-4,7.295966E-3,1.13303065E-2,-6.2251166E-3,2.5899336E-3,-1.67077E-2,1.141264E-2,-4.8067197E-3,-1.8122835E-2,2.3569614E-3,-4.976392E-3,-2.0668022E-2,1.0979791E-2,1.591593E-3,1.0285035E-3,-1.1346034E-2,-1.4955163E-3,-1.6196193E-2,6.7412853E-3,8.2515675E-4,-6.8433667E-3,-4.8252195E-4,5.8823824E-4,-1.0284582E-3,1.2637079E-3,-1.475215E-4,2.9756874E-3,9.292996E-3],"categories":[],"categories_nodes":[],"categories_segments":[],"categories_sizes":[],"default_left":[1,1,1,1,1,1,1,0,0,1,1,1,1,0,1,1,1,0,1,1,0,1,1,1,1,1,1,1,1,0,1,1,1,1,0,1,1,1,0,1,1,0,0,0,0,0,0,0,0,0,0,0,0,0,0,0,0,0,0,0,0,0,0,0,0,0,0],"id":32,"left_children":[1,3,5,7,9,11,13,-1,-1,15,17,19,21,-1,23,25,27,-1,29,31,-1,33,35,37,39,41,43,45,47,-1,49,51,53,55,-1,57,59,61,-1,63,65,-1,-1,-1,-1,-1,-1,-1,-1,-1,-1,-1,-1,-1,-1,-1,-1,-1,-1,-1,-1,-1,-1,-1,-1,-1,-1],"loss_changes":[5.1196255E-3,2.3193173E-3,3.0118132E-3,9.2049595E-4,1.8637255E-3,2.2478076E-3,8.2931895E-4,0E0,0E0,1.4852611E-3,1.5332848E-3,3.1554394E-3,1.5273681E-3,0E0,3.0380028E-4,8.6878333E-4,1.2588766E-3,0E0,3.3406634E-4,1.5936269E-3,0E0,1.2114914E-3,2.6371825E-4,8.871488E-5,6.0272898E-5,2.9950525E-4,4.570959E-4,6.997901E-4,1.1098408E-3,0E0,4.644636E-4,1.764457E-4,1.1349176E-3,6.868681E-4,0E0,2.9267743E-5,2.9769697E-5,3.8624235E-6,0E0,1.5762778E-6,4.1368767E-5,0E0,0E0,0E0,0E0,0E0,0E0,0E0,0E0,0E0,0E0,0E0,0E0,0E0,0E0,0E0,0E0,0E0,0E0,0E0,0E0,0E0,0E0,0E0,0E0,0E0,0E0],"parents":[2147483647,0,0,1,1,2,2,3,3,4,4,5,5,6,6,9,9,10,10,11,11,12,12,14,14,15,15,16,16,18,18,19,19,21,21,22,22,23,23,24,24,25,25,26,26,27,27,28,28,30,30,31,31,32,32,33,33,35,35,36,36,37,37,39,39,40,40],"right_children":[2,4,6,8,10,12,14,-1,-1,16,18,20,22,-1,24,26,28,-1,30,32,-1,34,36,38,40,42,44,46,48,-1,50,52,54,56,-1,58,60,62,-1,64,66,-1,-1,-1,-1,-1,-1,-1,-1,-1,-1,-1,-1,-1,-1,-1,-1,-1,-1,-1,-1,-1,-1,-1,-1,-1,-1],"split_conditions":[1.260969E-1,9.349939E-4,2.823082E-1,9.905731E-3,1.453621E-1,2.5936717E-1,1.9450697E-1,-2.6198789E-3,-1.1809763E-2,1.0208905E-1,7.8145504E-1,3.0572248E-1,9.4916594E-1,6.430972E-3,1.4544916E-3,7.4155074E-1,6.3778505E-2,-1.1230537E-2,1.0759692E-3,3.616891E-2,1.0653421E-2,3.8442022E-1,3.5937638E-3,9.498775E-1,1.2610255E-2,6.8545505E-2,4.070559E-3,7.461855E-1,1.5771419E-1,-1.4762611E-3,7.606728E-1,9.4544035E-1,7.6946E-1,7.6385224E-3,-9.88842E-3,1.0233175E-1,3.6996555E-1,9.3448496E-1,-2.5473433E-3,9.867884E-3,2.4582124E-3,3.399092E-3,-1.8675351E-3,7.7698013E-4,-5.01231E-3,3.423792E-3,-1.442016E-3,-5.4368507E-3,7.0708845E-4,-1.4929177E-3,-6.200407E-3,3.2939375E-3,4.7747794E-4,3.0855107E-4,-3.4038103E-3,-4.486549E-4,-4.858858E-3,2.0223856E-3,2.4754702E-4,-2.05301E-3,-1.4475659E-4,1.7647148E-4,-3.0853748E-4,3.7911237E-4,-4.425645E-5,8.927063E-4,2.7878988E-3],"split_indices":[44,17,87,9,53,44,38,0,0,89,4,54,58,0,17,40,41,0,86,74,0,2,15,1,0,0,66,82,24,0,49,49,70,57,0,0,0,10,0,0,8,0,0,0,0,0,0,0,0,0,0,0,0,0,0,0,0,0,0,0,0,0,0,0,0,0,0],"split_type":[0,0,0,0,0,0,0,0,0,0,0,0,0,0,0,0,0,0,0,0,0,0,0,0,0,0,0,0,0,0,0,0,0,0,0,0,0,0,0,0,0,0,0,0,0,0,0,0,0,0,0,0,0,0,0,0,0,0,0,0,0,0,0,0,0,0,0],"sum_hessian":[2.33E2,1.34E2,9.9E1,7E0,1.27E2,8.3E1,1.6E1,2E0,5E0,1.01E2,2.6E1,4.5E1,3.8E1,2E0,1.4E1,5.7E1,4.4E1,5E0,2.1E1,4.4E1,1E0,2.8E1,1E1,5E0,9E0,2E0,5.5E1,2.8E1,1.6E1,3E0,1.8E1,8E0,3.6E1,2.4E1,4E0,3E0,7E0,4E0,1E0,2E0,7E0,1E0,1E0,1E0,5.4E1,2E0,2.6E1,1.3E1,3E0,3E0,1.5E1,4E0,4E0,1E1,2.6E1,4E0,2E1,1E0,2E0,6E0,1E0,2E0,2E0,1E0,1E0,3E0,4E0],"tree_param":{"num_deleted":"0","num_feature":"90","num_nodes":"67","size_leaf_vector":"0"}},{"base_weights":[-8.640422E-3,-9.362761E-3,2.0368913E-2,-1.7861934E-2,-8.640466E-3,3.7055612E-3,2.2960473E-2,-1.28070675E-2,-2.1947777E-2,-6.517477E-3,-1.2884324E-2,-6.20988E-3,-2.3308922E-2,-8.342678E-3,-5.949188E-4,-5.739781E-3,-1.5067672E-2,-5.725869E-3,-1.2606919E-2,-3.0573446E-3,4.156378E-2,-1.6252099E-2,-3.4099855E-3,-1.845243E-2,-9.031259E-3,-7.6850257E-3,-7.885495E-4,-2.7972575E-2,-1.065772E-2,1.8218745E-3,-7.4956436E-3,2.1388412E-3,-5.437831E-3,-1.3407027E-2,-2.6164632E-2,-2.1575026E-3,-1.0521702E-2],"categories":[],"categories_nodes":[],"categories_segments":[],"categories_sizes":[],"default_left":[1,1,1,1,1,0,0,0,1,1,1,0,0,1,1,1,1,1,1,1,0,0,1,1,1,0,0,0,0,0,0,0,0,0,0,0,0],"id":33,"left_children":[1,3,5,7,9,-1,-1,-1,11,13,15,-1,-1,17,19,21,23,25,27,29,-1,-1,31,33,35,-1,-1,-1,-1,-1,-1,-1,-1,-1,-1,-1,-1],"loss_changes":[5.0940793E-3,1.2514722E-3,1.7402298E-4,7.002056E-5,1.8350855E-3,0E0,0E0,0E0,2.6626745E-5,1.551656E-3,1.0054456E-3,0E0,0E0,1.1552717E-3,3.760518E-3,3.8542855E-4,9.16237E-4,6.7104865E-4,9.298553E-4,7.4994087E-4,0E0,0E0,1.9166527E-4,9.3327835E-4,1.9244314E-4,0E0,0E0,0E0,0E0,0E0,0E0,0E0,0E0,0E0,0E0,0E0,0E0],"parents":[2147483647,0,0,1,1,2,2,3,3,4,4,8,8,9,9,10,10,13,13,14,14,15,15,16,16,17,17,18,18,19,19,22,22,23,23,24,24],"right_children":[2,4,6,8,10,-1,-1,-1,12,14,16,-1,-1,18,20,22,24,26,28,30,-1,-1,32,34,36,-1,-1,-1,-1,-1,-1,-1,-1,-1,-1,-1,-1],"split_conditions":[6.0493934E-1,7.457309E-1,4.638227E-2,2.4371069E-2,9.29362E-1,1.1116684E-3,6.8881423E-3,-3.8421203E-3,7.49079E-1,1.2524234E-1,1.9925113E-3,-1.8629641E-3,-6.9926768E-3,7.404194E-2,2.0763102E-1,7.835316E-3,9.363764E-1,2.6384807E-1,7.536643E-1,1.2990046E-1,1.2469134E-2,-4.8756297E-3,9.3880737E-1,2.4479693E-3,9.7531703E-4,-2.305508E-3,-2.3656485E-4,-8.391773E-3,-3.1973163E-3,5.4656237E-4,-2.2486933E-3,6.416524E-4,-1.6313493E-3,-4.0221084E-3,-7.84939E-3,-6.472508E-4,-3.1565106E-3],"split_indices":[87,58,2,87,82,0,0,0,4,39,74,0,0,47,69,36,61,8,1,32,0,0,79,50,38,0,0,0,0,0,0,0,0,0,0,0,0],"split_type":[0,0,0,0,0,0,0,0,0,0,0,0,0,0,0,0,0,0,0,0,0,0,0,0,0,0,0,0,0,0,0,0,0,0,0,0,0],"sum_hessian":[2.33E2,2.28E2,5E0,1.6E1,2.12E2,1E0,4E0,9E0,7E0,1.43E2,6.9E1,1E0,6E0,1.09E2,3.4E1,1.7E1,5.2E1,6.9E1,4E1,3.3E1,1E0,2E0,1.5E1,3.2E1,2E1,4.9E1,2E1,3E0,3.7E1,1.6E1,1.7E1,4E0,1.1E1,2.1E1,1.1E1,4E0,1.6E1],"tree_param":{"num_deleted":"0","num_feature":"90","num_nodes":"37","size_leaf_vector":"0"}},{"base_weights":[8.51173E-3,7.7765905E-3,1.434643E-2,1.3266087E-2,7.096456E-3,2.040676E-2,8.945759E-3,1.9009367E-2,5.794682E-3,6.8165064E-3,2.2181153E-2,1.1734044E-2,2.3686307E-2,1.306653E-3,1.0020494E-2,2.2645686E-2,6.0753077E-3,-2.7315617E-3,6.920463E-3,6.286763E-3,1.2913563E-2,2.9253364E-3,3.0346394E-2,1.3275529E-2,5.33396E-3,1.2169434E-2,5.929951E-3,1.4868219E-2,7.904172E-4,1.7208468E-2,4.696512E-3,4.2892527E-3,6.996997E-3,5.576074E-3,1.6169041E-2],"categories":[],"categories_nodes":[],"categories_segments":[],"categories_sizes":[],"default_left":[1,1,1,1,1,1,1,1,1,1,1,0,0,0,1,0,0,0,0,1,1,0,0,0,0,1,1,1,0,0,0,0,0,0,0],"id":34,"left_children":[1,3,5,7,9,11,13,15,17,19,21,-1,-1,-1,23,-1,-1,-1,-1,25,27,-1,-1,-1,-1,29,31,33,-1,-1,-1,-1,-1,-1,-1],"loss_changes":[8.921344E-4,6.899135E-4,6.3569285E-4,8.338748E-4,6.469395E-4,3.4932047E-5,1.1005695E-4,4.2680884E-4,1.2448913E-4,5.2280165E-4,3.8291165E-4,0E0,0E0,0E0,1.2750167E-4,0E0,0E0,0E0,0E0,2.9306347E-4,3.200001E-4,0E0,0E0,0E0,0E0,2.5808706E-4,2.6060408E-4,5.4889126E-5,0E0,0E0,0E0,0E0,0E0,0E0,0E0],"parents":[2147483647,0,0,1,1,2,2,3,3,4,4,5,5,6,6,7,7,8,8,9,9,10,10,14,14,19,19,20,20,25,25,26,26,27,27],"right_children":[2,4,6,8,10,12,14,16,18,20,22,-1,-1,-1,24,-1,-1,-1,-1,26,28,-1,-1,-1,-1,30,32,34,-1,-1,-1,-1,-1,-1,-1],"split_conditions":[3.2271516E-1,1.0909156E-3,6.58314E-3,9.8189935E-3,6.8435484E-1,1.4544916E-3,2.969598E-3,1.3964786E-1,4.814625E-3,9.532572E-1,1.53471185E-2,3.5202133E-3,7.105892E-3,3.919959E-4,2.2359473E-1,6.793706E-3,1.8225923E-3,-8.194685E-4,2.076139E-3,7.3643965E-1,4.1219243E-1,8.776009E-4,9.103918E-3,3.982659E-3,1.6001881E-3,5.0593E-2,7.9698986E-1,7.3958067E-3,2.3712516E-4,5.162541E-3,1.4089537E-3,1.2867758E-3,2.0990993E-3,1.6728223E-3,4.8507126E-3],"split_indices":[83,35,48,72,87,5,57,57,0,49,0,0,0,0,39,0,0,0,0,70,2,0,0,0,0,27,76,51,0,0,0,0,0,0,0],"split_type":[0,0,0,0,0,0,0,0,0,0,0,0,0,0,0,0,0,0,0,0,0,0,0,0,0,0,0,0,0,0,0,0,0,0,0],"sum_hessian":[2.33E2,2.09E2,2.4E1,2.1E1,1.88E2,1E1,1.4E1,1.1E1,1E1,1.86E2,2E0,4E0,6E0,2E0,1.2E1,8E0,3E0,1E0,9E0,1.73E2,1.3E1,1E0,1E0,6E0,6E0,8E0,1.65E2,1.1E1,2E0,4E0,4E0,6.7E1,9.8E1,2E0,9E0],"tree_param":{"num_deleted":"0","num_feature":"90","num_nodes":"35","size_leaf_vector":"0"}},{"base_weights":[-8.23361E-3,-1.1054047E-2,-3.91536E-3,-2.4763182E-2,-1.0153099E-2,-5.3216214E-3,1.1867151E-2,-6.9863386E-3,-2.9524406E-2,-6.912355E-3,-1.2687319E-2,-4.0034307E-3,-1.6301114E-2,3.4369033E-2,-1.3616489E-3,-1.119862E-2,-1.460735E-3,-2.1795414E-2,-1.0923626E-2,-7.20582E-3,2.4310155E-3,-2.6293738E-2,-9.689831E-3,1.8908778E-3,-3.4606317E-3,-1.2290096E-2,-2.410038E-3,-5.0957524E-3,8.263778E-3,-9.35576E-3,-3.0602498E-2,-1.20675815E-2,-1.4074892E-3,-1.8702962E-3,-1.3106795E-2,7.7699814E-3,-2.259165E-4,-1.07101565E-2,-1.7839391E-3,-1.2537837E-4,2.9616952E-3,-1.2800631E-2,-3.4284093E-3,-6.855905E-3,2.8391753E-3,-1.1555704E-2,-2.3149756E-4,4.561382E-3,1.2913977E-2,-1.1216408E-2,-2.6263297E-5,-1.1029051E-2,-2.0662492E-2,-5.370426E-3,3.8980544E-3,1.5149553E-2,-3.6921203E-3,-1.727517E-2,-6.23112E-3,1.1170846E-2,7.261876E-4,-6.8836845E-3,1.4526453E-3],"categories":[],"categories_nodes":[],"categories_segments":[],"categories_sizes":[],"default_left":[1,1,1,1,1,1,1,0,0,1,1,1,1,0,1,1,1,1,1,1,1,0,1,1,0,1,1,1,1,1,0,1,1,1,1,1,1,0,0,0,0,0,0,0,0,0,0,0,0,0,0,0,0,0,0,0,0,0,0,0,0,0,0],"id":35,"left_children":[1,3,5,7,9,11,13,-1,-1,15,17,19,21,-1,23,25,27,29,31,33,35,-1,37,39,-1,41,43,45,47,49,-1,51,53,55,57,59,61,-1,-1,-1,-1,-1,-1,-1,-1,-1,-1,-1,-1,-1,-1,-1,-1,-1,-1,-1,-1,-1,-1,-1,-1,-1,-1],"loss_changes":[2.8066877E-3,1.4900994E-3,2.1494199E-3,4.7084922E-4,1.0128105E-3,1.1938959E-3,2.4281815E-3,7.554627E-7,0E0,1.409034E-3,9.5064193E-4,1.64536E-3,3.3979467E-4,0E0,4.750562E-5,2.9652612E-4,1.031876E-3,9.1881864E-4,6.797211E-4,1.6441806E-3,3.8475764E-4,0E0,3.735983E-5,6.848458E-6,0E0,9.184051E-5,1.3615163E-4,6.572047E-4,7.882947E-5,1.0385882E-4,0E0,2.80899E-4,1.8913849E-4,9.551421E-4,6.088661E-4,2.0748278E-4,2.2233358E-4,0E0,0E0,0E0,0E0,0E0,0E0,0E0,0E0,0E0,0E0,0E0,0E0,0E0,0E0,0E0,0E0,0E0,0E0,0E0,0E0,0E0,0E0,0E0,0E0,0E0,0E0],"parents":[2147483647,0,0,1,1,2,2,3,3,4,4,5,5,6,6,9,9,10,10,11,11,12,12,14,14,15,15,16,16,17,17,18,18,19,19,20,20,22,22,23,23,25,25,26,26,27,27,28,28,29,29,31,31,32,32,33,33,34,34,35,35,36,36],"right_children":[2,4,6,8,10,12,14,-1,-1,16,18,20,22,-1,24,26,28,30,32,34,36,-1,38,40,-1,42,44,46,48,50,-1,52,54,56,58,60,62,-1,-1,-1,-1,-1,-1,-1,-1,-1,-1,-1,-1,-1,-1,-1,-1,-1,-1,-1,-1,-1,-1,-1,-1,-1,-1],"split_conditions":[1.296192E-1,9.349939E-4,2.3508719E-1,9.905731E-3,7.051551E-2,9.5652425E-1,6.9292486E-2,-2.0959016E-3,-8.857322E-3,1.1281934E-1,7.4005854E-1,1.150102E-1,2.0992656E-3,1.031071E-2,3.0529901E-2,3.9190717E-2,5.895029E-2,7.3260736E-1,2.2354478E-1,5.958408E-2,1.2822388E-1,-7.8881215E-3,9.742272E-1,1.7996715E-2,-1.0381895E-3,2.165097E-1,2.0530843E-3,8.024449E-1,1.807774E-1,7.0787215E-1,-9.18075E-3,1.2822895E-1,7.93373E-1,7.4161994E-1,1.513583E-1,1.8764925E-1,2.5247258E-1,-3.213047E-3,-5.351817E-4,-3.7613514E-5,8.8850857E-4,-3.8401894E-3,-1.0285228E-3,-2.0567717E-3,8.5175264E-4,-3.4667114E-3,-6.944927E-5,1.3684146E-3,3.8741932E-3,-3.3649225E-3,-7.878989E-6,-3.3087153E-3,-6.198748E-3,-1.6111279E-3,1.1694164E-3,4.5448663E-3,-1.1076361E-3,-5.182551E-3,-1.869336E-3,3.3512542E-3,2.1785629E-4,-2.0651054E-3,4.357936E-4],"split_indices":[44,17,71,9,62,1,11,0,0,11,1,84,8,0,0,57,65,1,78,83,83,0,4,0,0,33,5,58,15,1,0,84,34,34,59,36,83,0,0,0,0,0,0,0,0,0,0,0,0,0,0,0,0,0,0,0,0,0,0,0,0,0,0],"split_type":[0,0,0,0,0,0,0,0,0,0,0,0,0,0,0,0,0,0,0,0,0,0,0,0,0,0,0,0,0,0,0,0,0,0,0,0,0,0,0,0,0,0,0,0,0,0,0,0,0,0,0,0,0,0,0,0,0,0,0,0,0,0,0],"sum_hessian":[2.33E2,1.4E2,9.3E1,7E0,1.33E2,8.6E1,7E0,2E0,5E0,6E1,7.3E1,7.8E1,8E0,2E0,5E0,3.3E1,2.7E1,1E1,6.3E1,5.2E1,2.6E1,2E0,6E0,2E0,3E0,2.9E1,4E0,2E1,7E0,5E0,5E0,5.6E1,7E0,2.8E1,2.4E1,8E0,1.8E1,5E0,1E0,1E0,1E0,2.7E1,2E0,2E0,2E0,8E0,1.2E1,5E0,2E0,4E0,1E0,5.2E1,4E0,4E0,3E0,2E0,2.6E1,1.4E1,1E1,5E0,3E0,3E0,1.5E1],"tree_param":{"num_deleted":"0","num_feature":"90","num_nodes":"63","size_leaf_vector":"0"}},{"base_weights":[-6.174803E-3,-6.7181354E-3,1.5591532E-2,-2.511244E-2,-6.4454437E-3,5.0400295E-3,1.9607276E-2,-1.3250281E-2,-5.8666393E-3,-9.770463E-3,-1.8001536E-2,-6.345185E-4,-6.730336E-3,-2.5793696E-3,-1.0189711E-2,-1.9490484E-2,-5.2783974E-3,3.5329223E-2,-3.0109505E-3,-6.9463206E-3,8.400181E-3,2.949182E-3,-5.3123254E-3,-6.2295427E-3,-1.3410352E-2,1.0618433E-2,1.9818386E-3],"categories":[],"categories_nodes":[],"categories_segments":[],"categories_sizes":[],"default_left":[1,1,1,0,1,0,0,1,1,1,1,1,1,0,0,0,0,0,1,1,1,0,0,0,0,0,0],"id":36,"left_children":[1,3,5,-1,7,-1,-1,9,11,13,15,17,19,-1,-1,-1,-1,-1,21,23,25,-1,-1,-1,-1,-1,-1],"loss_changes":[2.872115E-3,9.867977E-4,1.5541154E-4,0E0,8.163424E-4,0E0,0E0,1.05186366E-4,9.49231E-4,9.8950695E-6,1.0786112E-5,2.7558017E-3,6.498499E-4,0E0,0E0,0E0,0E0,0E0,4.2716193E-4,7.458171E-4,2.1668486E-5,0E0,0E0,0E0,0E0,0E0,0E0],"parents":[2147483647,0,0,1,1,2,2,4,4,7,7,8,8,9,9,10,10,11,11,12,12,18,18,19,19,20,20],"right_children":[2,4,6,-1,8,-1,-1,10,12,14,16,18,20,-1,-1,-1,-1,-1,22,24,26,-1,-1,-1,-1,-1,-1],"split_conditions":[6.0493934E-1,2.2919822E-4,1.4856795E-2,-7.5337323E-3,7.457309E-1,1.512009E-3,5.882183E-3,3.4849133E-2,7.66276E-1,7.4985176E-1,9.1355674E-2,8.810084E-3,9.822515E-1,-7.738109E-4,-3.0569134E-3,-5.8471453E-3,-1.5835193E-3,1.0598768E-2,2.2394843E-2,4.4224885E-1,1.6880202E-1,8.8475464E-4,-1.5936977E-3,-1.8688629E-3,-4.023106E-3,3.1855302E-3,5.945516E-4],"split_indices":[87,68,0,0,58,0,0,87,34,1,0,15,13,0,0,0,0,0,48,2,0,0,0,0,0,0,0],"split_type":[0,0,0,0,0,0,0,0,0,0,0,0,0,0,0,0,0,0,0,0,0,0,0,0,0,0,0],"sum_hessian":[2.33E2,2.28E2,5E0,2E0,2.26E2,2E0,3E0,1.6E1,2.1E2,1.1E1,5E0,3E1,1.8E2,1E0,1E1,4E0,1E0,1E0,2.9E1,1.78E2,2E0,8E0,2.1E1,1.62E2,1.6E1,1E0,1E0],"tree_param":{"num_deleted":"0","num_feature":"90","num_nodes":"27","size_leaf_vector":"0"}},{"base_weights":[6.1854427E-3,5.936426E-3,1.9019783E-2,1.3417304E-2,5.5013946E-3,2.486527E-3,2.3702025E-2,4.8876405E-3,1.5717454E-2,5.249229E-3,1.5294671E-2,1.2215972E-3,5.702456E-3,7.645607E-3,1.8479109E-2,4.356315E-3,7.4466937E-3,1.9338628E-2,6.1524906E-3,4.6775327E-3,-1.4099611E-3,5.119492E-3,9.838106E-3,1.3129306E-2,4.351585E-3,-2.7364579E-3,2.1551847E-3,-2.7658045E-3,6.0002147E-3,1.0714522E-2,3.4884096E-3],"categories":[],"categories_nodes":[],"categories_segments":[],"categories_sizes":[],"default_left":[1,1,1,1,1,0,0,1,1,1,1,0,0,0,0,1,1,0,0,1,1,1,1,0,0,0,0,0,0,0,0],"id":37,"left_children":[1,3,5,7,9,-1,-1,11,13,15,17,-1,-1,-1,-1,19,21,-1,-1,23,25,27,29,-1,-1,-1,-1,-1,-1,-1,-1],"loss_changes":[6.349459E-4,6.7795627E-4,2.5071518E-4,1.5861262E-4,4.630112E-4,0E0,0E0,4.9824885E-6,5.934108E-5,3.913832E-4,6.58721E-5,0E0,0E0,0E0,0E0,2.9554265E-4,2.8911722E-4,0E0,0E0,3.5058195E-4,4.845996E-5,2.4577265E-4,1.2400746E-4,0E0,0E0,0E0,0E0,0E0,0E0,0E0,0E0],"parents":[2147483647,0,0,1,1,2,2,3,3,4,4,7,7,8,8,9,9,10,10,15,15,16,16,19,19,20,20,21,21,22,22],"right_children":[2,4,6,8,10,-1,-1,12,14,16,18,-1,-1,-1,-1,20,22,-1,-1,24,26,28,30,-1,-1,-1,-1,-1,-1,-1,-1],"split_conditions":[8.364214E-1,3.520412E-3,1.53471185E-2,1.9084348E-3,9.69296E-1,7.459581E-4,7.110608E-3,1.6316444E-2,2.3948587E-3,9.2856157E-1,1.7806002E-1,3.664792E-4,1.7107369E-3,2.2936822E-3,5.543733E-3,9.5183414E-1,2.7365275E-3,5.8015888E-3,1.8457472E-3,5.5747577E-3,9.344019E-1,9.547005E-3,9.4940317E-1,3.938792E-3,1.3054756E-3,-8.209374E-4,6.4655545E-4,-8.297414E-4,1.8000645E-3,3.2143567E-3,1.0465229E-3],"split_indices":[87,54,0,74,16,0,0,0,47,88,0,0,0,0,0,10,59,0,0,60,1,75,25,0,0,0,0,0,0,0,0],"split_type":[0,0,0,0,0,0,0,0,0,0,0,0,0,0,0,0,0,0,0,0,0,0,0,0,0,0,0,0,0,0,0],"sum_hessian":[2.33E2,2.3E2,3E0,1.1E1,2.19E2,1E0,2E0,3E0,8E0,2.15E2,4E0,1E0,2E0,3E0,5E0,1.55E2,6E1,2E0,2E0,1.47E2,8E0,3.2E1,2.8E1,4E0,1.43E2,6E0,2E0,3E0,2.9E1,2.4E1,4E0],"tree_param":{"num_deleted":"0","num_feature":"90","num_nodes":"31","size_leaf_vector":"0"}},{"base_weights":[-5.938788E-3,-8.146802E-3,-2.8985813E-3,-2.4084957E-2,-7.476286E-3,3.5106475E-3,-4.646739E-3,-1.000558E-2,-4.6720933E-3,-8.37009E-3,1.0897504E-2,-7.2172172E-3,3.398955E-5,-2.4454836E-2,-8.720395E-3,-1.3456974E-3,-9.180646E-3,-1.4380666E-2,-2.9680238E-3,5.839948E-3,2.7495226E-2,-1.8553946E-2,-5.5816174E-3,-4.2876047E-3,3.8132602E-3,-1.1282441E-2,-4.541926E-3,2.1738051E-3,-5.3770225E-3,-1.5163436E-2,-7.131675E-3,1.8896784E-4,-4.5937616E-3,1.26132965E-2,2.180688E-3,-2.1683339E-2,-1.4534872E-3,-3.0995042E-3,-1.1033626E-2,-1.4042258E-3,-1.1144996E-2,5.903679E-3,-6.5471727E-4,-1.257937E-2,-2.0527712E-3,-9.796517E-4,-7.088951E-3,-4.177413E-3,4.9927863E-3,-3.6016555E-4,-6.7846845E-3,-8.059792E-3,-2.364117E-3,-3.6439486E-4,3.513962E-3,-1.407381E-3,-1.2293917E-2,-1.3627567E-2,-1.1418816E-3,2.8963287E-3,-2.681719E-3,3.6794096E-3,7.83692E-3,-2.644688E-3,2.722144E-4],"categories":[],"categories_nodes":[],"categories_segments":[],"categories_sizes":[],"default_left":[1,1,1,0,1,1,1,1,1,1,1,1,1,0,1,1,1,0,1,1,0,1,1,1,1,1,1,1,1,0,1,0,0,0,1,0,0,1,1,1,0,1,1,0,0,0,0,0,0,0,0,0,0,0,0,0,0,0,0,0,0,0,0,0,0],"id":38,"left_children":[1,3,5,-1,7,9,11,13,15,17,19,21,23,-1,25,27,29,-1,31,33,-1,35,37,39,41,43,45,47,49,-1,51,-1,-1,-1,53,-1,-1,55,57,59,-1,61,63,-1,-1,-1,-1,-1,-1,-1,-1,-1,-1,-1,-1,-1,-1,-1,-1,-1,-1,-1,-1,-1,-1],"loss_changes":[1.5471857E-3,1.2626499E-3,1.1367472E-3,0E0,8.823876E-4,2.0219616E-3,9.5075055E-4,1.0495018E-3,9.4746845E-4,2.4954363E-4,1.0146439E-3,8.420986E-4,4.899915E-4,0E0,6.339038E-4,5.5084244E-4,2.2284058E-4,0E0,3.1662712E-5,2.699196E-4,0E0,2.8956798E-4,5.8829633E-4,2.6116427E-4,1.5330434E-4,4.410157E-4,2.2895855E-4,3.9684022E-4,1.2467313E-4,0E0,7.829256E-5,2.198279E-7,0E0,0E0,3.182011E-5,0E0,0E0,4.961144E-4,3.4365954E-4,6.820036E-5,0E0,1.8465274E-5,1.1787323E-5,0E0,0E0,0E0,0E0,0E0,0E0,0E0,0E0,0E0,0E0,0E0,0E0,0E0,0E0,0E0,0E0,0E0,0E0,0E0,0E0,0E0,0E0],"parents":[2147483647,0,0,1,1,2,2,4,4,5,5,6,6,7,7,8,8,9,9,10,10,11,11,12,12,14,14,15,15,16,16,18,18,19,19,21,21,22,22,23,23,24,24,25,25,26,26,27,27,28,28,30,30,34,34,37,37,38,38,39,39,41,41,42,42],"right_children":[2,4,6,-1,8,10,12,14,16,18,20,22,24,-1,26,28,30,-1,32,34,-1,36,38,40,42,44,46,48,50,-1,52,-1,-1,-1,54,-1,-1,56,58,60,-1,62,64,-1,-1,-1,-1,-1,-1,-1,-1,-1,-1,-1,-1,-1,-1,-1,-1,-1,-1,-1,-1,-1,-1],"split_conditions":[1.260969E-1,3.7159934E-3,7.7124476E-1,-7.2254874E-3,1.4245936E-1,6.0760483E-2,1.5180159E-1,7.395051E-1,2.2358048E-1,2.2394843E-2,2.521882E-1,2.0046774E-3,1.9261709E-3,-7.336451E-3,8.958995E-2,2.867781E-2,7.8463316E-1,-4.3142E-3,7.7722156E-1,7.4161994E-1,8.2485685E-3,1.3561492E-2,3.6621608E-2,9.3606216E-1,9.540161E-1,9.5266426E-1,7.891928E-1,7.749328E-1,7.8167444E-1,-4.5490307E-3,4.853984E-2,5.6690355E-5,-1.3781285E-3,3.783989E-3,6.9308534E-2,-6.505002E-3,-4.360462E-4,9.596964E-1,8.4711045E-1,8.477537E-3,-3.3434988E-3,9.3989843E-1,9.406673E-1,-3.7738113E-3,-6.1583135E-4,-2.9389551E-4,-2.1266853E-3,-1.253224E-3,1.497836E-3,-1.08049666E-4,-2.0354055E-3,-2.4179379E-3,-7.092351E-4,-1.0931846E-4,1.0541887E-3,-4.2221433E-4,-3.6881752E-3,-4.0882705E-3,-3.4256448E-4,8.6889864E-4,-8.0451573E-4,1.103823E-3,2.351076E-3,-7.934064E-4,8.166433E-5],"split_indices":[44,69,34,0,17,2,87,1,15,9,53,11,71,0,66,60,79,0,7,34,0,9,15,4,37,1,73,19,88,0,86,0,0,0,2,0,0,10,13,24,0,55,4,0,0,0,0,0,0,0,0,0,0,0,0,0,0,0,0,0,0,0,0,0,0],"split_type":[0,0,0,0,0,0,0,0,0,0,0,0,0,0,0,0,0,0,0,0,0,0,0,0,0,0,0,0,0,0,0,0,0,0,0,0,0,0,0,0,0,0,0,0,0,0,0,0,0,0,0,0,0,0,0,0,0,0,0,0,0,0,0,0,0],"sum_hessian":[2.33E2,1.34E2,9.9E1,4E0,1.3E2,2.1E1,7.8E1,6.7E1,6.3E1,8E0,1.3E1,5E1,2.8E1,4E0,6.3E1,3.7E1,2.6E1,3E0,5E0,1.1E1,2E0,5E0,4.5E1,1.3E1,1.5E1,3.8E1,2.5E1,2E1,1.7E1,5E0,2.1E1,2E0,3E0,3E0,8E0,4E0,1E0,3.2E1,1.3E1,1E1,3E0,1E1,5E0,3.3E1,5E0,1.1E1,1.4E1,6E0,1.4E1,4E0,1.3E1,1.7E1,4E0,3E0,5E0,2.8E1,4E0,1E1,3E0,2E0,8E0,6E0,4E0,1E0,4E0],"tree_param":{"num_deleted":"0","num_feature":"90","num_nodes":"65","size_leaf_vector":"0"}},{"base_weights":[-4.3378444E-3,-4.8566405E-3,9.171686E-3,-5.6870836E-3,-7.2894985E-4,1.5195623E-2,3.627114E-3,-1.12176E-2,-4.4807107E-3,1.774152E-2,-2.7609756E-3,4.1892887E-3,4.0812045E-4,-2.3799006E-2,-8.120956E-3,6.5651484E-4,-6.1406353E-3,-1.6439743E-3,2.4751343E-2,-3.5085256E-4,-1.115255E-2,-1.802353E-3,-1.2747261E-2,-4.7250716E-3,4.2168843E-3,-5.2796043E-3,-1.4911811E-2,3.0029833E-2,7.097181E-3,2.9244262E-3,-2.51488E-3,-1.299661E-2,-3.746912E-3,-3.7145934E-3,3.4288364E-3,-1.6772093E-2,-8.655152E-3,-9.107896E-3,7.962402E-4,-3.464546E-3,5.9263976E-3,-1.1098027E-2,-4.305331E-3,8.8080764E-5,-1.6588252E-2,7.187297E-3,1.3531225E-3,2.019122E-3,-5.5837105E-3],"categories":[],"categories_nodes":[],"categories_segments":[],"categories_sizes":[],"default_left":[1,1,1,1,1,0,1,1,1,1,1,0,0,0,1,1,1,0,1,1,1,1,1,1,1,1,1,0,0,1,1,0,0,0,0,0,0,0,0,0,0,0,0,0,0,0,0,0,0],"id":39,"left_children":[1,3,5,7,9,-1,11,13,15,17,19,-1,-1,-1,21,23,25,-1,27,29,31,33,35,37,39,41,43,-1,-1,45,47,-1,-1,-1,-1,-1,-1,-1,-1,-1,-1,-1,-1,-1,-1,-1,-1,-1,-1],"loss_changes":[1.6845777E-3,7.7054E-4,2.4548505E-4,1.2040478E-3,1.5127503E-3,0E0,9.148083E-6,1.0924139E-3,1.334307E-3,5.84246E-4,7.241773E-4,0E0,0E0,0E0,7.955149E-4,7.671821E-4,8.124374E-4,0E0,6.6434965E-5,2.1290059E-4,6.055436E-5,1.4277952E-4,1.183555E-4,3.9443513E-4,3.356885E-4,5.701112E-4,2.5292556E-4,0E0,0E0,7.065389E-5,2.617277E-4,0E0,0E0,0E0,0E0,0E0,0E0,0E0,0E0,0E0,0E0,0E0,0E0,0E0,0E0,0E0,0E0,0E0,0E0],"parents":[2147483647,0,0,1,1,2,2,3,3,4,4,6,6,7,7,8,8,9,9,10,10,14,14,15,15,16,16,18,18,19,19,20,20,21,21,22,22,23,23,24,24,25,25,26,26,29,29,30,30],"right_children":[2,4,6,8,10,-1,12,14,16,18,20,-1,-1,-1,22,24,26,-1,28,30,32,34,36,38,40,42,44,-1,-1,46,48,-1,-1,-1,-1,-1,-1,-1,-1,-1,-1,-1,-1,-1,-1,-1,-1,-1,-1],"split_conditions":[3.3768708E-1,1.8534364E-1,1.5651423E-2,1.0452814E-2,7.550478E-1,4.558687E-3,9.4915605E-1,5.4822518E-3,1.2210004E-2,1.6671339E-2,4.921253E-2,1.2567866E-3,1.2243615E-4,-7.139702E-3,5.0058924E-2,2.7088495E-3,3.122646E-1,-4.9319235E-4,2.719481E-2,1.9603523E-3,8.550874E-1,9.3490595E-1,8.234376E-2,9.392936E-1,5.228295E-2,7.5624555E-1,3.0389756E-3,