{"learner":{"attributes":{"best_iteration":"99","best_ntree_limit":"100","scikit_learn":"{\"n_estimators\": 100, \"objective\": \"reg:squarederror\", \"max_depth\": null, \"max_leaves\": null, \"max_bin\": null, \"grow_policy\": null, \"learning_rate\": null, \"verbosity\": null, \"booster\": null, \"tree_method\": null, \"gamma\": null, \"min_child_weight\": null, \"max_delta_step\": null, \"subsample\": null, \"sampling_method\": null, \"colsample_bytree\": null, \"colsample_bylevel\": null, \"colsample_bynode\": null, \"reg_alpha\": null, \"reg_lambda\": null, \"scale_pos_weight\": null, \"base_score\": null, \"missing\": NaN, \"num_parallel_tree\": null, \"random_state\": 42, \"n_jobs\": null, \"monotone_constraints\": null, \"interaction_constraints\": null, \"importance_type\": null, \"gpu_id\": null, \"validate_parameters\": null, \"predictor\": null, \"enable_categorical\": false, \"max_cat_to_onehot\": null, \"eval_metric\": null, \"early_stopping_rounds\": null, \"callbacks\": null, \"_estimator_type\": \"regressor\"}"},"feature_names":[],"feature_types":[],"gradient_booster":{"model":{"gbtree_model_param":{"num_parallel_tree":"1","num_trees":"300","size_leaf_vector":"0"},"tree_info":[0,1,2,0,1,2,0,1,2,0,1,2,0,1,2,0,1,2,0,1,2,0,1,2,0,1,2,0,1,2,0,1,2,0,1,2,0,1,2,0,1,2,0,1,2,0,1,2,0,1,2,0,1,2,0,1,2,0,1,2,0,1,2,0,1,2,0,1,2,0,1,2,0,1,2,0,1,2,0,1,2,0,1,2,0,1,2,0,1,2,0,1,2,0,1,2,0,1,2,0,1,2,0,1,2,0,1,2,0,1,2,0,1,2,0,1,2,0,1,2,0,1,2,0,1,2,0,1,2,0,1,2,0,1,2,0,1,2,0,1,2,0,1,2,0,1,2,0,1,2,0,1,2,0,1,2,0,1,2,0,1,2,0,1,2,0,1,2,0,1,2,0,1,2,0,1,2,0,1,2,0,1,2,0,1,2,0,1,2,0,1,2,0,1,2,0,1,2,0,1,2,0,1,2,0,1,2,0,1,2,0,1,2,0,1,2,0,1,2,0,1,2,0,1,2,0,1,2,0,1,2,0,1,2,0,1,2,0,1,2,0,1,2,0,1,2,0,1,2,0,1,2,0,1,2,0,1,2,0,1,2,0,1,2,0,1,2,0,1,2,0,1,2,0,1,2,0,1,2,0,1,2,0,1,2,0,1,2,0,1,2,0,1,2,0,1,2,0,1,2],"trees":[{"base_weights":[-4.1406107E-1,-4.4621468E-1,-2.533703E-1,-4.720952E-1,-3.9555907E-1,-2.7756986E-1,2.2634566E-1,-8.61862E-2,-4.7404143E-1,-8.0722734E-2,-2.9810423E-1,-8.99046E-2,-1.7406702E-2,-3.175479E-1,-1.872069E-1,-3.2674864E-1,-1.074234E-1,-9.166023E-2,-3.3109495E-1,-2.9503837E-2,-1.3163127E-1],"categories":[],"categories_nodes":[],"categories_segments":[],"categories_sizes":[],"default_left":[1,1,1,1,0,1,0,0,0,1,1,0,0,1,0,1,1,0,0,0,0],"id":0,"left_children":[1,3,5,7,-1,9,-1,-1,-1,11,13,-1,-1,15,-1,17,19,-1,-1,-1,-1],"loss_changes":[1.3956413E0,1.3051987E-1,6.54881E-1,7.555771E-2,0E0,1.7400074E-1,0E0,0E0,0E0,1.9232109E-3,3.5428047E-2,0E0,0E0,3.4498215E-2,0E0,4.3919086E-3,1.7751679E-3,0E0,0E0,0E0,0E0],"parents":[2147483647,0,0,1,1,2,2,3,3,5,5,9,9,10,10,13,13,15,15,16,16],"right_children":[2,4,6,8,-1,10,-1,-1,-1,12,14,-1,-1,16,-1,18,20,-1,-1,-1,-1],"split_conditions":[1.8029082E-1,4.115144E-2,7.577528E-1,8.9450297E-4,-1.1866773E-1,2.7759228E-2,6.79037E-2,-2.5855862E-2,-1.4221244E-1,1.9062944E-3,3.6100003E-1,-2.6971381E-2,-5.222011E-3,1.3503686E-1,-5.616207E-2,2.4940807E-3,4.75289E-2,-2.749807E-2,-9.932849E-2,-8.851152E-3,-3.948938E-2],"split_indices":[54,54,54,39,0,50,0,0,0,5,54,0,0,38,0,0,0,0,0,0,0],"split_type":[0,0,0,0,0,0,0,0,0,0,0,0,0,0,0,0,0,0,0,0,0],"sum_hessian":[2.91E2,2.41E2,5E1,1.54E2,8.7E1,4.8E1,2E0,1E0,1.53E2,5E0,4.3E1,4E0,1E0,3.5E1,8E0,3.3E1,2E0,1E0,3.2E1,1E0,1E0],"tree_param":{"num_deleted":"0","num_feature":"57","num_nodes":"21","size_leaf_vector":"0"}},{"base_weights":[3.2566044E-1,2.4240346E-1,3.470497E-1,1.6969812E-1,2.5452E-1,3.1835473E-1,3.6523154E-1],"categories":[],"categories_nodes":[],"categories_segments":[],"categories_sizes":[],"default_left":[1,1,1,0,0,0,0],"id":1,"left_children":[1,3,5,-1,-1,-1,-1],"loss_changes":[4.3586922E-1,1.23074055E-2,3.7250519E-3,0E0,0E0,0E0,0E0],"parents":[2147483647,0,0,1,1,2,2],"right_children":[2,4,6,-1,-1,-1,-1],"split_conditions":[7.7437305E-1,6.979885E-1,8.4053016E-1,5.0909437E-2,7.6356E-2,9.550642E-2,1.0956947E-1],"split_indices":[55,55,55,0,0,0,0],"split_type":[0,0,0,0,0,0,0],"sum_hessian":[2.91E2,6.2E1,2.29E2,1.1E1,5.1E1,9.6E1,1.33E2],"tree_param":{"num_deleted":"0","num_feature":"57","num_nodes":"7","size_leaf_vector":"0"}},{"base_weights":[-4.1706797E-1,-4.4114155E-1,-1.4231652E-1,-4.6929625E-1,-3.989914E-1,-1.893959E-1,2.6606426E-1,-1.3540342E-1,-4.7058514E-1,-4.027501E-1,-1.256689E-1,-2.5716436E-1,-9.208811E-2,-2.1089949E-1,-4.0974408E-1,-1.5653908E-2,-1.7284945E-1,-1.2301839E-1,-2.851063E-1,1.8048784E-3,-1.1315376E-1,-2.3284838E-2,2.5992155E-2],"categories":[],"categories_nodes":[],"categories_segments":[],"categories_sizes":[],"default_left":[1,1,1,1,1,1,0,0,0,1,1,1,1,0,0,0,0,0,0,1,0,0,0],"id":2,"left_children":[1,3,5,7,9,11,-1,-1,-1,13,15,17,19,-1,-1,-1,-1,-1,-1,21,-1,-1,-1],"loss_changes":[1.8685799E0,1.3079834E-1,5.310493E-1,2.986908E-3,6.6503525E-2,1.2798935E-1,0E0,0E0,0E0,6.386757E-2,1.2865931E-2,1.365459E-2,2.1961316E-2,0E0,0E0,0E0,0E0,0E0,0E0,2.4257787E-3,0E0,0E0,0E0],"parents":[2147483647,0,0,1,1,2,2,3,3,4,4,5,5,9,9,10,10,11,11,12,12,19,19],"right_children":[2,4,6,8,10,12,-1,-1,-1,14,16,18,20,-1,-1,-1,-1,-1,-1,22,-1,-1,-1],"split_conditions":[2.6431268E-1,4.115144E-2,1.6876945E-1,8.9450297E-4,9.2292476E-1,1.3909331E-1,7.981928E-2,-4.0621027E-2,-1.4117555E-1,9.3590945E-4,3.0685378E-2,8.883717E-4,1.9177272E-3,-6.3269846E-2,-1.2292323E-1,-4.6961727E-3,-5.1854838E-2,-3.690552E-2,-8.553189E-2,1.427239E-3,-3.394613E-2,-6.9854516E-3,7.797647E-3],"split_indices":[56,54,36,39,1,21,0,0,0,11,0,2,39,0,0,0,0,0,0,0,0,0,0],"split_type":[0,0,0,0,0,0,0,0,0,0,0,0,0,0,0,0,0,0,0,0,0,0,0],"sum_hessian":[2.91E2,2.67E2,2.4E1,1.54E2,1.13E2,2.2E1,2E0,1E0,1.53E2,1.11E2,2E0,1.2E1,1E1,5E0,1.06E2,1E0,1E0,3E0,9E0,2E0,8E0,1E0,1E0],"tree_param":{"num_deleted":"0","num_feature":"57","num_nodes":"23","size_leaf_vector":"0"}},{"base_weights":[-2.9149464E-1,-3.0617374E-1,-1.2247507E-1,-3.2877868E-1,-2.6224843E-1,-1.5674375E-1,1.8107653E-1,-3.3246833E-1,-1.7067209E-1,-2.363949E-1,-3.1382743E-1,-1.7124054E-1,-4.5073852E-2,2.1604815E-1,5.556664E-2,-7.3258266E-2,-3.335818E-1,-3.9952204E-2,-1.8882562E-1,-2.3917457E-1,-2.5078267E-2,-3.2638398E-1,-1.5375303E-1,-9.772077E-2,-3.3441398E-1,-9.1946594E-2,-2.4463922E-1,-3.8645E-2,-1.2592569E-1,-2.4626409E-1,-7.1136385E-2],"categories":[],"categories_nodes":[],"categories_segments":[],"categories_sizes":[],"default_left":[1,1,1,1,1,1,1,1,1,1,1,0,0,0,0,0,1,0,0,1,0,0,0,0,0,1,1,0,0,0,0],"id":3,"left_children":[1,3,5,7,9,11,13,15,17,19,21,-1,-1,-1,-1,-1,23,-1,-1,25,-1,-1,-1,-1,-1,27,29,-1,-1,-1,-1],"loss_changes":[6.8696976E-1,1.7988396E-1,2.8844047E-1,4.417801E-2,5.3828716E-2,2.9515207E-2,1.1627823E-3,2.4049759E-2,6.694168E-3,3.3944607E-2,8.1067085E-3,0E0,0E0,0E0,0E0,0E0,9.918213E-5,0E0,0E0,3.141117E-2,0E0,0E0,0E0,0E0,0E0,2.378162E-3,5.245209E-4,0E0,0E0,0E0,0E0],"parents":[2147483647,0,0,1,1,2,2,3,3,4,4,5,5,6,6,7,7,8,8,9,9,10,10,16,16,19,19,25,25,26,26],"right_children":[2,4,6,8,10,12,14,16,18,20,22,-1,-1,-1,-1,-1,24,-1,-1,26,-1,-1,-1,-1,-1,28,30,-1,-1,-1,-1],"split_conditions":[2.6431268E-1,5.6013525E-2,1.6876945E-1,3.4881747E-1,1.2214582E-1,2.850805E-1,4.017661E-2,8.9450297E-4,1.6807321E-3,1.1684427E-1,4.3532288E-1,-5.1372163E-2,-1.35221565E-2,6.481445E-2,1.6669992E-2,-2.197748E-2,2.680816E-4,-1.1985661E-2,-5.664769E-2,9.3590945E-4,-7.5234803E-3,-9.7915195E-2,-4.612591E-2,-2.9316233E-2,-1.003242E-1,4.6311237E-2,2.2961462E-1,-1.15935E-2,-3.7777707E-2,-7.387923E-2,-2.1340916E-2],"split_indices":[56,54,36,26,50,21,0,39,0,50,12,0,0,0,0,0,8,0,0,11,0,0,0,0,0,0,56,0,0,0,0],"split_type":[0,0,0,0,0,0,0,0,0,0,0,0,0,0,0,0,0,0,0,0,0,0,0,0,0,0,0,0,0,0,0],"sum_hessian":[2.91E2,2.67E2,2.4E1,1.72E2,9.5E1,2.2E1,2E0,1.67E2,5E0,6.7E1,2.8E1,1.9E1,3E0,1E0,1E0,1E0,1.66E2,1E0,4E0,6.6E1,1E0,2.5E1,3E0,1E0,1.65E2,3E0,6.3E1,2E0,1E0,6.2E1,1E0],"tree_param":{"num_deleted":"0","num_feature":"57","num_nodes":"31","size_leaf_vector":"0"}},{"base_weights":[2.2910045E-1,1.8019827E-1,2.4864118E-1,1.31369E-1,1.9470404E-1,5.1053584E-2,1.9615087E-1],"categories":[],"categories_nodes":[],"categories_segments":[],"categories_sizes":[],"default_left":[1,1,0,0,1,0,0],"id":4,"left_children":[1,3,-1,-1,5,-1,-1],"loss_changes":[2.3422623E-1,3.6044598E-2,0E0,0E0,3.4952164E-3,0E0,0E0],"parents":[2147483647,0,0,1,1,4,4],"right_children":[2,4,-1,-1,6,-1,-1],"split_conditions":[8.0645704E-1,7.296276E-1,7.459236E-2,3.94107E-2,6.2319916E-4,1.5316076E-2,5.8845263E-2],"split_indices":[52,55,0,0,26,0,0],"split_type":[0,0,0,0,0,0,0],"sum_hessian":[2.91E2,8.6E1,2.05E2,2.2E1,6.4E1,1E0,6.3E1],"tree_param":{"num_deleted":"0","num_feature":"57","num_nodes":"7","size_leaf_vector":"0"}},{"base_weights":[-2.936609E-1,-3.1038317E-1,-1.0265165E-1,-3.2449952E-1,-2.6581842E-1,-1.393411E-1,2.128514E-1,-6.886233E-2,-3.2544282E-1,-8.705731E-2,-2.7252328E-1,-1.894333E-1,-6.747386E-2,-2.7722052E-1,-1.292364E-1,-9.380874E-2,-2.0873982E-1,-7.863991E-2,2.2093326E-2,-6.860886E-2,-2.794428E-1,-1.3305828E-2,-1.6344465E-1,-8.922866E-2,-2.2746402E-1,-1.979211E-2,-8.2979426E-2,-1.1035852E-1,-2.8317738E-1],"categories":[],"categories_nodes":[],"categories_segments":[],"categories_sizes":[],"default_left":[1,1,1,1,1,1,0,0,0,0,1,1,1,1,1,0,1,1,0,0,1,0,0,0,0,0,0,0,0],"id":5,"left_children":[1,3,5,7,9,11,-1,-1,-1,-1,13,15,17,19,21,-1,23,25,-1,-1,27,-1,-1,-1,-1,-1,-1,-1,-1],"loss_changes":[9.008198E-1,8.2336426E-2,3.1904987E-1,2.5577545E-2,6.0174465E-2,7.0017904E-2,0E0,0E0,0E0,0E0,9.267807E-3,4.418701E-3,1.2738645E-2,1.049757E-2,1.3688356E-2,0E0,2.0811856E-3,9.1137365E-4,0E0,0E0,8.531094E-3,0E0,0E0,0E0,0E0,0E0,0E0,0E0,0E0],"parents":[2147483647,0,0,1,1,2,2,3,3,4,4,5,5,10,10,11,11,12,12,13,13,14,14,16,16,17,17,20,20],"right_children":[2,4,6,8,10,12,-1,-1,-1,-1,14,16,18,20,22,-1,24,26,-1,-1,28,-1,-1,-1,-1,-1,-1,-1,-1],"split_conditions":[2.6431268E-1,7.3110946E-2,1.6876945E-1,6.660185E-1,1.4098331E-3,1.3909331E-1,6.3855425E-2,-2.0658698E-2,-9.763285E-2,-2.6117193E-2,9.226901E-1,3.9243326E-3,1.8393924E-3,4.0470378E-4,3.0685378E-2,-2.8142624E-2,8.883717E-4,1.0393215E-3,6.627998E-3,-2.0582657E-2,1.2954745E-3,-3.9917487E-3,-4.90334E-2,-2.6768599E-2,-6.823921E-2,-5.937633E-3,-2.489383E-2,-3.3107556E-2,-8.495322E-2],"split_indices":[56,56,36,43,50,21,0,0,0,0,4,36,2,26,0,0,2,0,0,0,47,0,0,0,0,0,0,0,0],"split_type":[0,0,0,0,0,0,0,0,0,0,0,0,0,0,0,0,0,0,0,0,0,0,0,0,0,0,0,0,0],"sum_hessian":[2.91E2,2.67E2,2.4E1,1.98E2,6.9E1,2.2E1,2E0,1E0,1.97E2,3E0,6.6E1,1.2E1,1E1,6.3E1,3E0,3E0,9E0,9E0,1E0,1E0,6.2E1,1E0,2E0,2E0,7E0,1E0,8E0,2E0,6E1],"tree_param":{"num_deleted":"0","num_feature":"57","num_nodes":"29","size_leaf_vector":"0"}},{"base_weights":[-2.0575795E-1,-2.1624848E-1,-8.506894E-2,-2.2767963E-1,-1.7189617E-1,-1.12542115E-1,1.5391505E-1,-1.8990321E-1,-2.3654865E-1,-1.4120491E-1,-2.170949E-1,-6.2115006E-2,-1.4052276E-1,1.8364093E-1,4.7231644E-2,-2.0065391E-1,-1.15099475E-1,-3.0916005E-2,-1.4647329E-1,-7.413878E-2,-2.5544636E-2,-3.3959374E-2,-1.21839575E-1,-1.548896E-1,-6.331426E-2,-1.5867618E-1,-1.875268E-2],"categories":[],"categories_nodes":[],"categories_segments":[],"categories_sizes":[],"default_left":[1,1,1,1,1,1,1,1,0,1,0,1,0,0,0,0,1,0,1,0,0,0,0,1,0,0,0],"id":6,"left_children":[1,3,5,7,9,11,13,15,-1,17,-1,19,-1,-1,-1,-1,21,-1,23,-1,-1,-1,-1,25,-1,-1,-1],"loss_changes":[3.513031E-1,9.673786E-2,1.8146317E-1,2.5437355E-2,5.1190376E-2,2.372402E-2,8.4011257E-4,1.3093591E-2,0E0,1.7551303E-2,0E0,2.5032908E-3,0E0,0E0,0E0,0E0,2.3753941E-4,0E0,1.5389442E-2,0E0,0E0,0E0,0E0,1.3520181E-2,0E0,0E0,0E0],"parents":[2147483647,0,0,1,1,2,2,3,3,4,4,5,5,6,6,7,7,9,9,11,11,16,16,18,18,23,23],"right_children":[2,4,6,8,10,12,14,16,-1,18,-1,20,-1,-1,-1,-1,22,-1,24,-1,-1,-1,-1,26,-1,-1,-1],"split_conditions":[2.6431268E-1,1.16750926E-1,1.6876945E-1,1.1449048E-2,1.2214582E-1,1.8013945E-1,4.017661E-2,3.0810577E-1,-7.09646E-2,1.4728846E-3,-6.5128475E-2,2.2010513E-1,-4.215683E-2,5.509228E-2,1.4169494E-2,-6.0196176E-2,2.1304307E-3,-9.274802E-3,7.5076655E-2,-2.2241635E-2,-7.663391E-3,-1.0187812E-2,-3.6551874E-2,2.5248146E-1,-1.899428E-2,-4.7602855E-2,-5.625804E-3],"split_indices":[56,54,36,39,50,48,0,23,0,5,0,14,0,0,0,0,0,0,41,0,0,0,0,3,0,0,0],"split_type":[0,0,0,0,0,0,0,0,0,0,0,0,0,0,0,0,0,0,0,0,0,0,0,0,0,0,0],"sum_hessian":[2.91E2,2.67E2,2.4E1,2.09E2,5.8E1,2.2E1,2E0,4.4E1,1.65E2,3.7E1,2.1E1,9E0,1.3E1,1E0,1E0,3.7E1,7E0,2E0,3.5E1,6E0,3E0,1E0,6E0,3.1E1,4E0,3E1,1E0],"tree_param":{"num_deleted":"0","num_feature":"57","num_nodes":"27","size_leaf_vector":"0"}},{"base_weights":[1.610147E-1,1.3139254E-1,1.7819628E-1,9.450493E-2,1.4048217E-1,1.6770603E-1,2.0475969E-1,3.7409008E-2,9.784332E-2,4.066533E-2,1.4116998E-1,7.150656E-2,1.6933829E-1,2.0676827E-1,5.6182444E-2,4.3822795E-2,1.6995718E-1],"categories":[],"categories_nodes":[],"categories_segments":[],"categories_sizes":[],"default_left":[1,1,1,1,1,1,1,0,0,0,0,0,1,0,0,0,0],"id":7,"left_children":[1,3,5,7,9,11,13,-1,-1,-1,-1,-1,15,-1,-1,-1,-1],"loss_changes":[1.2520123E-1,2.3941517E-2,1.6376019E-2,1.1049807E-3,2.322197E-4,9.246349E-3,2.4094582E-3,0E0,0E0,0E0,0E0,0E0,2.8834343E-3,0E0,0E0,0E0,0E0],"parents":[2147483647,0,0,1,1,2,2,3,3,4,4,5,5,6,6,12,12],"right_children":[2,4,6,8,10,12,14,-1,-1,-1,-1,-1,16,-1,-1,-1,-1],"split_conditions":[8.1821775E-1,7.2167087E-1,8.8240355E-1,8.173813E-4,6.646775E-1,7.5036883E-1,3.5547E-1,1.1222702E-2,2.9352996E-2,1.2199599E-2,4.2350996E-2,2.1451969E-2,9.5806667E-4,6.2030483E-2,1.6854733E-2,1.3146839E-2,5.0987154E-2],"split_indices":[55,19,55,44,46,25,27,0,0,0,0,0,3,0,0,0,0],"split_type":[0,0,0,0,0,0,0,0,0,0,0,0,0,0,0,0,0],"sum_hessian":[2.91E2,1.1E2,1.81E2,2.4E1,8.6E1,1.35E2,4.6E1,2E0,2.2E1,1E0,8.5E1,3E0,1.32E2,4.5E1,1E0,1E0,1.31E2],"tree_param":{"num_deleted":"0","num_feature":"57","num_nodes":"17","size_leaf_vector":"0"}},{"base_weights":[-2.0699953E-1,-2.1852224E-1,-7.519609E-2,-2.228973E-1,-1.40814E-1,-1.03945464E-1,1.7028113E-1,-2.2456664E-1,-9.551931E-2,-8.020568E-2,-1.6658166E-1,-1.4207642E-1,-4.9432017E-2,-4.772026E-2,-2.2508942E-1,-3.9061666E-2,-1.4740585E-1,-5.8131088E-2,1.8779337E-2,-2.3470879E-1,-2.0123835E-1,-7.491929E-2,-1.6324367E-1,-2.6595414E-2,-6.784703E-2,-6.627647E-2,-2.3531327E-1,-2.2113904E-2,-2.0327745E-1],"categories":[],"categories_nodes":[],"categories_segments":[],"categories_sizes":[],"default_left":[1,1,1,1,1,1,0,1,0,0,0,1,1,0,1,0,1,1,0,1,1,0,0,0,0,0,0,0,0],"id":8,"left_children":[1,3,5,7,9,11,-1,13,-1,-1,-1,15,17,-1,19,-1,21,23,-1,25,27,-1,-1,-1,-1,-1,-1,-1,-1],"loss_changes":[4.270382E-1,5.9726715E-2,1.9413286E-1,3.2134056E-2,1.318869E-2,4.078582E-2,0E0,1.2187004E-2,0E0,0E0,0E0,1.3792217E-3,7.6187905E-3,0E0,9.437561E-3,0E0,1.5462339E-3,1.2595691E-3,0E0,1.7127991E-3,2.3994446E-2,0E0,0E0,0E0,0E0,0E0,0E0,0E0,0E0],"parents":[2147483647,0,0,1,1,2,2,3,3,4,4,5,5,7,7,11,11,12,12,14,14,16,16,17,17,19,19,20,20],"right_children":[2,4,6,8,10,12,-1,14,-1,-1,-1,16,18,-1,20,-1,22,24,-1,26,28,-1,-1,-1,-1,-1,-1,-1,-1],"split_conditions":[2.6431268E-1,3.448425E-1,1.6876945E-1,4.7741053E-1,1.7520845E-3,1.3909331E-1,5.108434E-2,6.543963E-1,-2.8655795E-2,-2.4061704E-2,-4.99745E-2,5.7824366E-3,1.8393924E-3,-1.4316079E-2,6.4096004E-2,-1.17185E-2,8.883717E-4,1.3881528E-3,5.633801E-3,8.9450297E-4,1.248847E-3,-2.2475788E-2,-4.8973102E-2,-7.978625E-3,-2.0354109E-2,-1.9882942E-2,-7.059398E-2,-6.6341716E-3,-6.0983237E-2],"split_indices":[56,23,36,12,5,21,0,55,0,0,0,0,2,0,56,0,2,5,0,39,50,0,0,0,0,0,0,0,0],"split_type":[0,0,0,0,0,0,0,0,0,0,0,0,0,0,0,0,0,0,0,0,0,0,0,0,0,0,0,0,0],"sum_hessian":[2.91E2,2.67E2,2.4E1,2.51E2,1.6E1,2.2E1,2E0,2.47E2,4E0,6E0,1E1,1.2E1,1E1,1E0,2.46E2,1E0,1.1E1,9E0,1E0,1.69E2,7.7E1,3E0,8E0,3E0,6E0,1E0,1.68E2,1E0,7.6E1],"tree_param":{"num_deleted":"0","num_feature":"57","num_nodes":"29","size_leaf_vector":"0"}},{"base_weights":[-1.4515153E-1,-1.4750597E-1,1.3082778E-1,-1.5999345E-1,-1.10884845E-1,1.5609479E-1,4.0146887E-2,-2.3202986E-2,-1.6052672E-1,-7.595161E-2,-1.2929665E-1,-8.82596E-2,-1.6219504E-1,-3.7010778E-2,-8.665957E-2,-1.4329208E-1,-7.4203044E-2,-3.4021318E-2,-1.626521E-1,-4.202917E-3,-4.1097198E-2,-9.2257425E-2,-2.045401E-2,-1.531774E-1,-6.5040916E-2,-2.8411776E-2,-8.052012E-2,-3.6755905E-2,-1.6308694E-1,-9.902694E-2,-4.0422633E-2,-1.594356E-1,-6.794652E-2,-7.332134E-2,-1.1819392E-2],"categories":[],"categories_nodes":[],"categories_segments":[],"categories_sizes":[],"default_left":[1,1,1,1,1,0,0,0,1,1,1,0,1,1,1,1,1,0,1,0,0,1,0,1,1,0,0,0,0,0,0,0,0,0,0],"id":9,"left_children":[1,3,5,7,9,-1,-1,-1,11,13,15,-1,17,19,21,23,25,-1,27,-1,-1,29,-1,31,33,-1,-1,-1,-1,-1,-1,-1,-1,-1,-1],"loss_changes":[2.0903206E-1,1.1487818E-1,6.069839E-4,1.1885643E-2,3.970492E-2,0E0,0E0,0E0,1.1364937E-2,8.884981E-3,2.71492E-2,0E0,6.5932274E-3,8.998057E-4,6.2663555E-3,1.9431531E-2,1.18348E-3,0E0,5.282402E-3,0E0,0E0,3.0150115E-3,0E0,6.7688823E-3,1.7775688E-3,0E0,0E0,0E0,0E0,0E0,0E0,0E0,0E0,0E0,0E0],"parents":[2147483647,0,0,1,1,2,2,3,3,4,4,8,8,9,9,10,10,12,12,13,13,14,14,15,15,16,16,18,18,21,21,23,23,24,24],"right_children":[2,4,6,8,10,-1,-1,-1,12,14,16,-1,18,20,22,24,26,-1,28,-1,-1,30,-1,32,34,-1,-1,-1,-1,-1,-1,-1,-1,-1,-1],"split_conditions":[7.577528E-1,1.2182298E-1,4.017661E-2,3.6175014E-4,7.574952E-2,4.6828438E-2,1.2044067E-2,-6.960896E-3,1.9681181E-3,2.0106293E-3,3.4836304E-1,-2.647788E-2,6.543963E-1,6.957892E-1,1.2555914E-1,1.0076767E-1,7.203746E-1,-1.0206396E-2,1.3779092E-3,-1.2608753E-3,-1.232916E-2,8.022512E-2,-6.136203E-3,8.871262E-1,8.8074964E-1,-8.523533E-3,-2.4156038E-2,-1.1026772E-2,-4.892608E-2,-2.9708084E-2,-1.212679E-2,-4.7830682E-2,-2.0383958E-2,-2.1996403E-2,-3.545818E-3],"split_indices":[54,54,0,41,50,0,0,0,39,2,56,0,55,1,11,38,1,0,36,0,0,45,0,55,1,0,0,0,0,0,0,0,0,0,0],"split_type":[0,0,0,0,0,0,0,0,0,0,0,0,0,0,0,0,0,0,0,0,0,0,0,0,0,0,0,0,0,0,0,0,0,0,0],"sum_hessian":[2.91E2,2.89E2,2E0,2.13E2,7.6E1,1E0,1E0,1E0,2.12E2,2.8E1,4.8E1,6E0,2.06E2,7E0,2.1E1,3.7E1,1.1E1,1E0,2.05E2,1E0,6E0,1.9E1,2E0,3.2E1,5E0,2E0,9E0,1E0,2.04E2,1.6E1,3E0,2.9E1,3E0,4E0,1E0],"tree_param":{"num_deleted":"0","num_feature":"57","num_nodes":"35","size_leaf_vector":"0"}},{"base_weights":[1.13599315E-1,9.382586E-2,1.2665837E-1,6.665104E-2,9.992529E-2,1.3866073E-1,1.1097236E-1,4.247725E-2,7.204922E-2,9.022574E-2,1.1650483E-1,1.2458824E-1,1.569727E-1,5.3972006E-3,1.1224043E-1,5.2553486E-2,9.2489205E-2,8.187309E-2,1.2649669E-1,3.6464185E-2,1.2549455E-1,1.1473123E-1,5.243045E-2,1.271602E-1,5.3126257E-2,1.1625892E-1,3.9313734E-2,5.5417597E-2,1.1807472E-1],"categories":[],"categories_nodes":[],"categories_segments":[],"categories_sizes":[],"default_left":[1,1,1,1,1,1,1,0,0,1,1,1,0,0,1,0,0,0,0,0,1,1,0,0,0,1,0,0,0],"id":10,"left_children":[1,3,5,7,9,11,13,-1,-1,15,17,19,-1,-1,21,-1,-1,-1,-1,-1,23,25,-1,-1,-1,27,-1,-1,-1],"loss_changes":[6.351733E-2,1.3229966E-2,1.7183065E-2,2.0191073E-4,4.926443E-3,4.6663284E-3,1.0104358E-2,0E0,0E0,6.8193674E-4,7.16418E-4,5.6266785E-5,0E0,0E0,5.753517E-3,0E0,0E0,0E0,0E0,0E0,1.1521578E-4,4.0705204E-3,0E0,0E0,0E0,1.521349E-3,0E0,0E0,0E0],"parents":[2147483647,0,0,1,1,2,2,3,3,4,4,5,5,6,6,9,9,10,10,11,11,14,14,20,20,21,21,25,25],"right_children":[2,4,6,8,10,12,14,-1,-1,16,18,20,-1,-1,22,-1,-1,-1,-1,-1,24,26,-1,-1,-1,28,-1,-1,-1],"split_conditions":[8.192638E-1,7.23593E-1,4.55016E-2,6.637851E-3,6.975646E-2,8.6701083E-1,8.9450297E-4,1.2743176E-2,2.1614768E-2,9.810406E-4,7.792343E-1,7.271557E-1,4.7091816E-2,1.6191603E-3,9.1817534E-1,1.5766047E-2,2.7746763E-2,2.4561929E-2,3.7949007E-2,1.0939255E-2,6.1871447E-2,4.1097128E-1,1.5729137E-2,3.8148064E-2,1.5937878E-2,7.5036883E-1,1.1794121E-2,1.662528E-2,3.542242E-2],"split_indices":[55,22,56,15,56,4,24,0,0,23,19,31,0,0,40,0,0,0,0,0,54,6,0,0,0,25,0,0,0],"split_type":[0,0,0,0,0,0,0,0,0,0,0,0,0,0,0,0,0,0,0,0,0,0,0,0,0,0,0,0,0],"sum_hessian":[2.91E2,1.19E2,1.72E2,2.4E1,9.5E1,9.3E1,7.9E1,6E0,1.8E1,6.4E1,3.1E1,5.7E1,3.6E1,1E0,7.8E1,5E0,5.9E1,9E0,2.2E1,1E0,5.6E1,7.4E1,4E0,5.4E1,2E0,7.2E1,2E0,3E0,6.9E1],"tree_param":{"num_deleted":"0","num_feature":"57","num_nodes":"29","size_leaf_vector":"0"}},{"base_weights":[-1.4602941E-1,-1.4844573E-1,1.3622491E-1,-1.5774444E-1,-9.949203E-2,-1.3205652E-1,-1.6424921E-1,-1.23879686E-1,-5.4465212E-2,-1.3597247E-1,-4.911395E-2,-1.8243538E-1,-1.5459214E-1,-1.3054469E-1,-1.8157989E-2,-1.6332256E-2,-7.080871E-2,-3.5936423E-2,-1.3725448E-1,-8.5632056E-2,-1.4967598E-1,1.9181669E-2,-4.6418652E-2,-2.4375105E-2,1.5962422E-2,-3.7509937E-2,-8.144039E-2,-7.378717E-2,-1.411693E-1,-4.3810643E-2,-1.5312347E-1],"categories":[],"categories_nodes":[],"categories_segments":[],"categories_sizes":[],"default_left":[1,1,0,1,1,1,1,1,1,1,0,0,0,1,1,1,1,0,1,0,1,0,0,0,0,0,0,0,0,0,0],"id":11,"left_children":[1,3,-1,5,7,9,11,13,15,17,-1,-1,-1,19,21,23,25,-1,27,-1,29,-1,-1,-1,-1,-1,-1,-1,-1,-1,-1],"loss_changes":[2.1937084E-1,1.16315365E-1,0E0,1.8746853E-2,4.7059685E-2,1.0861039E-2,4.990101E-3,1.9473314E-2,1.06848255E-2,1.6080737E-3,0E0,0E0,0E0,1.2100786E-2,4.0561175E-3,2.2072745E-3,1.5474632E-3,0E0,2.0067096E-3,0E0,2.2596121E-4,0E0,0E0,0E0,0E0,0E0,0E0,0E0,0E0,0E0,0E0],"parents":[2147483647,0,0,1,1,3,3,4,4,5,5,6,6,7,7,8,8,9,9,13,13,14,14,15,15,16,16,18,18,20,20],"right_children":[2,4,-1,6,8,10,12,14,16,18,-1,-1,-1,20,22,24,26,-1,28,-1,30,-1,-1,-1,-1,-1,-1,-1,-1,-1,-1],"split_conditions":[7.577528E-1,1.8029082E-1,4.0867474E-2,1.1449048E-2,1.8467334E-1,1.1006005E-2,1.0909857E-2,1.3503686E-1,8.1121767E-1,1.5298097E-3,-1.4734186E-2,-5.4730617E-2,-4.6377644E-2,7.8748155E-1,4.75289E-2,7.731662E-1,1.655233E-2,-1.0780927E-2,6.957892E-1,-2.5689619E-2,7.445555E-1,5.7545006E-3,-1.3925596E-2,-7.312532E-3,4.7887266E-3,-1.1252982E-2,-2.4432117E-2,-2.2136152E-2,-4.235079E-2,-1.3143194E-2,-4.5937043E-2],"split_indices":[54,54,0,39,18,39,20,38,19,9,0,0,0,13,0,1,8,0,52,0,16,0,0,0,0,0,0,0,0,0,0],"split_type":[0,0,0,0,0,0,0,0,0,0,0,0,0,0,0,0,0,0,0,0,0,0,0,0,0,0,0,0,0,0,0],"sum_hessian":[2.91E2,2.89E2,2E0,2.41E2,4.8E1,5.3E1,1.88E2,3E1,1.8E1,5E1,3E0,5.9E1,1.29E2,2.8E1,2E0,6E0,1.2E1,1E0,4.9E1,1E1,1.8E1,1E0,1E0,5E0,1E0,4E0,8E0,4E0,4.5E1,1E0,1.7E1],"tree_param":{"num_deleted":"0","num_feature":"57","num_nodes":"31","size_leaf_vector":"0"}},{"base_weights":[-1.0240307E-1,-1.0425968E-1,1.1120361E-1,-1.1537422E-1,-8.502337E-2,1.3268057E-1,3.412485E-2,-1.1770478E-1,-6.8656184E-2,-7.558038E-2,-1.17456414E-1,-1.8932492E-2,-1.1817442E-1,-2.4135653E-2,-8.233443E-2,-7.9111725E-2,-3.0377997E-2,-1.2074813E-1,-2.2519328E-2,-1.18885726E-1,-3.894992E-2,-4.402429E-3,-2.9245919E-2,-9.462242E-2,-6.167147E-2,-3.620609E-2,5.2093193E-3,-1.1933831E-1,-2.1651722E-2,2.9868558E-3,-6.141174E-2,-2.443178E-2,-9.759548E-2,-8.831146E-2,-5.2537184E-2,-4.1855052E-2,-1.4722452E-2],"categories":[],"categories_nodes":[],"categories_segments":[],"categories_sizes":[],"default_left":[1,1,1,1,1,0,0,1,1,1,1,0,1,1,0,1,1,0,0,1,1,0,0,1,1,1,0,0,0,0,0,0,0,0,0,0,0],"id":12,"left_children":[1,3,5,7,9,-1,-1,11,13,15,17,-1,19,21,-1,23,25,-1,-1,27,29,-1,-1,31,33,35,-1,-1,-1,-1,-1,-1,-1,-1,-1,-1,-1],"loss_changes":[1.2739658E-1,5.2193165E-2,4.3854862E-4,1.1625767E-2,2.4811745E-2,0E0,0E0,5.6951046E-3,4.711397E-3,1.1643708E-2,4.468471E-3,0E0,4.949093E-3,2.746149E-4,0E0,1.607585E-2,1.8478581E-3,0E0,0E0,4.809618E-3,3.009357E-3,0E0,0E0,6.1715245E-3,5.3371936E-3,2.3331214E-4,0E0,0E0,0E0,0E0,0E0,0E0,0E0,0E0,0E0,0E0,0E0],"parents":[2147483647,0,0,1,1,2,2,3,3,4,4,7,7,8,8,9,9,10,10,12,12,13,13,15,15,16,16,19,19,20,20,23,23,24,24,25,25],"right_children":[2,4,6,8,10,-1,-1,12,14,16,18,-1,20,22,-1,24,26,-1,-1,28,30,-1,-1,32,34,36,-1,-1,-1,-1,-1,-1,-1,-1,-1,-1,-1],"split_conditions":[7.577528E-1,6.4096004E-2,4.017661E-2,3.448425E-1,1.0928424E-1,3.980417E-2,1.0237455E-2,8.9450297E-4,1.3713427E-3,9.060726E-1,8.710942E-1,-5.6797476E-3,9.439788E-1,2.1304307E-3,-2.470033E-2,5.84909E-2,8.65196E-1,-3.622444E-2,-6.7557986E-3,9.6005094E-1,5.730414E-3,-1.3207287E-3,-8.773776E-3,8.766151E-4,1.171232E-2,8.3455145E-1,1.5627958E-3,-3.5801496E-2,-6.495517E-3,8.9605676E-4,-1.8423522E-2,-7.3295343E-3,-2.9278645E-2,-2.649344E-2,-1.5761156E-2,-1.2556517E-2,-4.416736E-3],"split_indices":[54,56,0,23,44,0,0,39,5,22,1,0,37,0,0,24,4,0,0,22,0,0,0,29,12,4,0,0,0,0,0,0,0,0,0,0,0],"split_type":[0,0,0,0,0,0,0,0,0,0,0,0,0,0,0,0,0,0,0,0,0,0,0,0,0,0,0,0,0,0,0,0,0,0,0,0,0],"sum_hessian":[2.91E2,2.89E2,2E0,1.8E2,1.09E2,1E0,1E0,1.7E2,1E1,8.7E1,2.2E1,1E0,1.69E2,3E0,7E0,8E1,7E0,2.1E1,1E0,1.67E2,2E0,1E0,2E0,4E1,4E1,6E0,1E0,1.66E2,1E0,1E0,1E0,2E0,3.8E1,8E0,3.2E1,4E0,2E0],"tree_param":{"num_deleted":"0","num_feature":"57","num_nodes":"37","size_leaf_vector":"0"}},{"base_weights":[8.066229E-2,6.2388647E-2,8.774208E-2,5.1064022E-2,7.132022E-2,8.230122E-2,1.05114214E-1,3.9590113E-2,5.8322296E-2,3.1110382E-2,7.448435E-2,6.381085E-2,8.534457E-2,1.09426774E-1,4.7865868E-2,7.639006E-2,2.488198E-2,6.994401E-2,2.2836138E-2,1.2047857E-2,8.5794926E-2,1.1076663E-1,2.7246505E-2,1.4061779E-2,5.2801445E-2,1.7745703E-2,7.746634E-2,7.274038E-2,2.7054707E-2,2.6806623E-2,3.4770966E-3,1.4457136E-2,8.621626E-2,2.7889818E-2,1.12141296E-1,2.9405335E-2,7.931958E-2,1.7725259E-2,7.460488E-2,1.976496E-2,8.6564675E-2,3.1116426E-2,1.13421E-1],"categories":[],"categories_nodes":[],"categories_segments":[],"categories_sizes":[],"default_left":[1,1,1,1,1,1,1,0,0,0,1,1,1,1,1,1,0,1,1,0,1,1,0,0,0,0,1,1,0,0,0,0,1,0,1,0,0,0,0,0,0,0,0],"id":13,"left_children":[1,3,5,7,9,11,13,-1,-1,-1,15,17,19,21,23,25,-1,27,29,-1,31,33,-1,-1,-1,-1,35,37,-1,-1,-1,-1,39,-1,41,-1,-1,-1,-1,-1,-1,-1,-1],"loss_changes":[3.2302976E-2,4.95559E-3,1.1008978E-2,1.1055246E-3,3.4080744E-3,3.7264824E-3,6.119013E-3,0E0,0E0,0E0,1.9748956E-3,5.187966E-3,3.4886599E-3,1.6065836E-3,9.173155E-5,1.0869056E-3,0E0,7.9052895E-4,2.9111467E-4,0E0,2.8414726E-3,1.5434623E-3,0E0,0E0,0E0,0E0,1.0522008E-3,8.3168596E-4,0E0,0E0,0E0,0E0,1.4145374E-3,0E0,6.182194E-4,0E0,0E0,0E0,0E0,0E0,0E0,0E0,0E0],"parents":[2147483647,0,0,1,1,2,2,3,3,4,4,5,5,6,6,10,10,11,11,12,12,13,13,14,14,15,15,17,17,18,18,20,20,21,21,26,26,27,27,32,32,34,34],"right_children":[2,4,6,8,10,12,14,-1,-1,-1,16,18,20,22,24,26,-1,28,30,-1,32,34,-1,-1,-1,-1,36,38,-1,-1,-1,-1,40,-1,42,-1,-1,-1,-1,-1,-1,-1,-1],"split_conditions":[8.03205E-1,3.3606283E-2,8.7900627E-1,7.470162E-1,9.1743696E-4,1.7849567E-3,1.4502709E-1,1.1877035E-2,1.749669E-2,9.333115E-3,8.0042243E-1,8.4909034E-1,7.126056E-1,2.891805E-1,8.866613E-1,9.759442E-4,7.464594E-3,1.5765349E-3,8.3619416E-1,3.6143572E-3,4.8027385E-4,7.693442E-1,8.173952E-3,4.2185336E-3,1.5840434E-2,5.3237113E-3,6.015154E-1,1.3325169E-3,8.116412E-3,8.041987E-3,1.043129E-3,4.3371413E-3,7.312458E-1,8.366946E-3,7.953266E-1,8.821601E-3,2.3795875E-2,5.317578E-3,2.2381464E-2,5.929488E-3,2.5969403E-2,9.334928E-3,3.4026302E-2],"split_indices":[55,56,4,55,26,35,56,0,0,0,55,10,7,48,1,21,0,35,1,0,50,31,0,0,0,0,7,33,0,0,0,0,52,0,28,0,0,0,0,0,0,0,0],"split_type":[0,0,0,0,0,0,0,0,0,0,0,0,0,0,0,0,0,0,0,0,0,0,0,0,0,0,0,0,0,0,0,0,0,0,0,0,0,0,0,0,0,0,0],"sum_hessian":[2.91E2,8.4E1,2.07E2,4E1,4.4E1,1.62E2,4.5E1,1.8E1,2.2E1,4E0,4E1,2.6E1,1.36E2,4.1E1,4E0,3.8E1,2E0,2.2E1,4E0,1E0,1.35E2,4E1,1E0,1E0,3E0,1E0,3.7E1,2E1,2E0,3E0,1E0,1E0,1.34E2,1E0,3.9E1,2E0,3.5E1,1E0,1.9E1,1E0,1.33E2,1E0,3.8E1],"tree_param":{"num_deleted":"0","num_feature":"57","num_nodes":"43","size_leaf_vector":"0"}},{"base_weights":[-1.0318425E-1,-1.0502325E-1,1.0897994E-1,-1.1121081E-1,-7.232094E-2,3.128314E-2,1.3218677E-1,-1.2904537E-1,-1.0514747E-1,-9.103979E-2,-4.0626615E-2,-1.3049196E-1,-2.4018079E-2,-8.7293245E-2,-1.10226534E-1,-9.7291216E-2,-2.608275E-2,-1.1793124E-2,-5.2141458E-2,-1.3317509E-1,-6.231749E-2,-2.0936808E-2,-8.983361E-2,-1.1092086E-1,-4.1313693E-2,-3.7028626E-2,-1.0616173E-1,1.6304418E-2,-4.564661E-2,-1.8281326E-2,1.3568044E-2,-3.1026876E-2,-6.042435E-2,-9.099763E-2,-1.9890286E-2,-1.1133335E-1,-2.6998736E-2,-2.0357594E-2,-1.0913657E-1],"categories":[],"categories_nodes":[],"categories_segments":[],"categories_sizes":[],"default_left":[1,1,1,1,1,0,0,1,1,1,1,1,0,1,1,1,1,1,1,0,0,0,1,1,0,0,1,0,0,0,0,0,0,0,0,0,0,0,0],"id":14,"left_children":[1,3,5,7,9,-1,-1,11,13,15,17,19,-1,21,23,25,27,29,31,-1,-1,-1,33,35,-1,-1,37,-1,-1,-1,-1,-1,-1,-1,-1,-1,-1,-1,-1],"loss_changes":[1.253748E-1,5.063796E-2,1.2740716E-3,1.26001835E-2,2.5372148E-2,0E0,0E0,5.525887E-3,7.245064E-3,9.644598E-3,6.0253516E-3,1.9444227E-3,0E0,5.873382E-3,2.1641254E-3,1.05021E-2,4.0612686E-3,1.3998805E-3,5.736798E-4,0E0,0E0,0E0,1.7723441E-3,1.8057823E-3,0E0,0E0,3.6490858E-3,0E0,0E0,0E0,0E0,0E0,0E0,0E0,0E0,0E0,0E0,0E0,0E0],"parents":[2147483647,0,0,1,1,2,2,3,3,4,4,7,7,8,8,9,9,10,10,11,11,13,13,14,14,15,15,16,16,17,17,18,18,22,22,23,23,26,26],"right_children":[2,4,6,8,10,-1,-1,12,14,16,18,20,-1,22,24,26,28,30,32,-1,-1,-1,34,36,-1,-1,38,-1,-1,-1,-1,-1,-1,-1,-1,-1,-1,-1,-1],"split_conditions":[7.577528E-1,1.8029082E-1,4.017661E-2,1.7514128E-2,1.7868705E-1,9.384942E-3,3.9656032E-2,4.7741053E-1,1.1449048E-2,1.1114201E-1,8.03138E-1,8.7417865E-1,-7.205424E-3,5.625646E-3,1.3366587E-1,9.911569E-4,4.75289E-2,7.731662E-1,1.9991472E-3,-3.9952528E-2,-1.8695248E-2,-6.2810425E-3,2.440041E-1,6.3041824E-1,-1.2394109E-2,-1.1108588E-2,4.9608583E-3,4.8913257E-3,-1.3693984E-2,-5.484398E-3,4.0704133E-3,-9.308063E-3,-1.8127305E-2,-2.729929E-2,-5.967086E-3,-3.3400007E-2,-8.099621E-3,-6.1072786E-3,-3.2740973E-2],"split_indices":[54,54,0,29,18,0,0,12,39,38,19,13,0,21,56,8,0,1,38,0,0,0,3,21,0,0,0,0,0,0,0,0,0,0,0,0,0,0,0],"split_type":[0,0,0,0,0,0,0,0,0,0,0,0,0,0,0,0,0,0,0,0,0,0,0,0,0,0,0,0,0,0,0,0,0,0,0,0,0,0,0],"sum_hessian":[2.91E2,2.89E2,2E0,2.41E2,4.8E1,1E0,1E0,5.6E1,1.85E2,2.9E1,1.9E1,5.5E1,1E0,4.5E1,1.4E2,2.6E1,3E0,6E0,1.3E1,5.2E1,3E0,2E0,4.3E1,1.38E2,2E0,4E0,2.2E1,1E0,2E0,5E0,1E0,5E0,8E0,4.2E1,1E0,1.37E2,1E0,1E0,2.1E1],"tree_param":{"num_deleted":"0","num_feature":"57","num_nodes":"39","size_leaf_vector":"0"}},{"base_weights":[-7.23243E-2,-7.3800914E-2,9.452307E-2,-8.6753085E-2,-6.4539894E-2,1.12778485E-1,2.9006124E-2,-2.205961E-2,-8.767832E-2,-4.903545E-2,-7.275827E-2,-1.1017367E-2,-8.824913E-2,-5.5732105E-2,-2.3890674E-2,-4.4175535E-2,-7.745754E-2,-1.2300231E-2,-8.8807456E-2,-3.4317054E-2,-7.19104E-2,-3.7133284E-2,-7.661727E-3,-6.5223664E-2,-2.4851847E-2,-7.980652E-2,-1.9684296E-2,-3.7610997E-2,-8.938587E-2,-4.684269E-2,-1.3349453E-2,-8.5213594E-2,-5.3470753E-2,-2.3964446E-2,6.912795E-3,-1.7726347E-2,-6.947666E-2,-1.2725848E-2,-2.9963013E-2,-8.1526384E-2,-2.2448007E-2,-2.3522422E-2,-2.1658987E-3],"categories":[],"categories_nodes":[],"categories_segments":[],"categories_sizes":[],"default_left":[1,1,1,1,1,0,0,0,1,1,1,0,1,1,1,1,1,0,1,1,1,0,1,1,1,1,1,0,0,0,0,0,0,0,0,0,0,0,0,0,0,0,0],"id":15,"left_children":[1,3,5,7,9,-1,-1,-1,11,13,15,-1,17,19,21,23,25,-1,27,29,31,-1,33,35,37,39,41,-1,-1,-1,-1,-1,-1,-1,-1,-1,-1,-1,-1,-1,-1,-1,-1],"loss_changes":[7.8915596E-2,2.9186606E-2,3.1684898E-4,5.1289797E-3,1.8476129E-2,0E0,0E0,0E0,4.10378E-3,9.276822E-3,1.1487603E-2,0E0,3.78412E-3,1.4508754E-2,2.9392E-3,5.7001673E-3,1.1185646E-2,0E0,1.3947487E-5,5.4152235E-3,2.0668358E-3,0E0,2.066496E-3,3.8447976E-4,3.0045304E-4,7.0482492E-3,2.8524175E-4,0E0,0E0,0E0,0E0,0E0,0E0,0E0,0E0,0E0,0E0,0E0,0E0,0E0,0E0,0E0,0E0],"parents":[2147483647,0,0,1,1,2,2,3,3,4,4,8,8,9,9,10,10,12,12,13,13,14,14,15,15,16,16,18,18,19,19,20,20,22,22,23,23,24,24,25,25,26,26],"right_children":[2,4,6,8,10,-1,-1,-1,12,14,16,-1,18,20,22,24,26,-1,28,30,32,-1,34,36,38,40,42,-1,-1,-1,-1,-1,-1,-1,-1,-1,-1,-1,-1,-1,-1,-1,-1],"split_conditions":[7.577528E-1,2.0299569E-2,4.017661E-2,2.2256079E-3,3.5891708E-2,3.383355E-2,8.701838E-3,-6.617883E-3,6.543963E-1,8.626123E-1,7.662599E-1,-3.3052103E-3,1.13752176E-4,2.2728653E-3,8.49772E-1,7.560011E-1,9.2127085E-1,-3.6900693E-3,1.3325169E-3,1.7282891E-1,8.299048E-1,-1.1139985E-2,8.7280405E-1,5.7824366E-3,6.1941735E-2,9.205445E-1,4.3217536E-2,-1.1283299E-2,-2.681576E-2,-1.4052807E-2,-4.004836E-3,-2.556408E-2,-1.6041227E-2,-7.189334E-3,2.0738386E-3,-5.317904E-3,-2.0842997E-2,-3.8177546E-3,-8.988904E-3,-2.4457917E-2,-6.7344024E-3,-7.0567266E-3,-6.497696E-4],"split_indices":[54,54,0,39,47,0,0,0,55,37,13,0,44,5,4,16,4,0,45,24,34,0,16,0,3,22,5,0,0,0,0,0,0,0,0,0,0,0,0,0,0,0,0],"split_type":[0,0,0,0,0,0,0,0,0,0,0,0,0,0,0,0,0,0,0,0,0,0,0,0,0,0,0,0,0,0,0,0,0,0,0,0,0,0,0,0,0,0,0],"sum_hessian":[2.91E2,2.89E2,2E0,1.17E2,1.72E2,1E0,1E0,2E0,1.15E2,6.2E1,1.1E2,1E0,1.14E2,4.8E1,1.4E1,1.7E1,9.3E1,1E0,1.13E2,2.2E1,2.6E1,7E0,7E0,7E0,1E1,8.9E1,4E0,2E0,1.11E2,1.3E1,9E0,1.3E1,1.3E1,3E0,4E0,1E0,6E0,4E0,6E0,8.6E1,3E0,3E0,1E0],"tree_param":{"num_deleted":"0","num_feature":"57","num_nodes":"43","size_leaf_vector":"0"}},{"base_weights":[5.7315737E-2,5.1410913E-2,7.020639E-2,3.574214E-2,5.455576E-2,6.0759656E-2,8.128595E-2,2.8071841E-2,4.227902E-2,4.2378645E-2,5.721847E-2,7.7355325E-2,5.1940992E-2,8.558766E-2,3.5777174E-2,1.2102589E-2,3.0178027E-2,1.3689399E-2,4.374393E-2,3.6144037E-2,5.9358124E-2,5.4608986E-2,1.627782E-2,1.2696892E-2,8.741172E-2,6.292641E-3,3.1277575E-2,4.467557E-2,7.4315667E-3,4.0833637E-2,1.3039231E-2,5.4345462E-2,7.058624E-2,5.6558214E-2,1.5614192E-2,5.9347663E-2,9.703314E-2,2.1858603E-2,4.633958E-2,1.5415291E-2,2.955526E-3,-8.397073E-3,5.516316E-2,3.34122E-2,7.584341E-2,1.8101037E-2,5.851866E-2,9.904669E-2,2.6367545E-2],"categories":[],"categories_nodes":[],"categories_segments":[],"categories_sizes":[],"default_left":[1,1,1,1,1,1,1,1,0,1,1,0,1,1,0,0,1,0,1,1,1,1,0,0,1,0,0,1,0,0,1,1,1,1,0,0,1,0,0,0,0,0,0,0,0,0,0,0,0],"id":16,"left_children":[1,3,5,7,9,11,13,15,-1,17,19,-1,21,23,-1,-1,25,-1,27,29,31,33,-1,-1,35,-1,-1,37,-1,-1,39,41,43,45,-1,-1,47,-1,-1,-1,-1,-1,-1,-1,-1,-1,-1,-1,-1],"loss_changes":[1.8616736E-2,8.102357E-3,4.376352E-3,6.6832826E-4,3.0223727E-3,3.5923868E-3,4.3770075E-3,3.074538E-4,0E0,7.3291734E-4,3.941953E-3,0E0,2.6315972E-3,3.410682E-3,0E0,0E0,2.4965405E-4,0E0,7.5054914E-4,1.0928437E-3,2.9741824E-3,1.7012209E-3,0E0,0E0,3.1518638E-3,0E0,0E0,1.6408041E-4,0E0,0E0,5.0277682E-5,4.978001E-3,4.110545E-3,1.3533309E-3,0E0,0E0,6.610155E-4,0E0,0E0,0E0,0E0,0E0,0E0,0E0,0E0,0E0,0E0,0E0,0E0],"parents":[2147483647,0,0,1,1,2,2,3,3,4,4,5,5,6,6,7,7,9,9,10,10,12,12,13,13,16,16,18,18,19,19,20,20,21,21,24,24,27,27,30,30,31,31,32,32,33,33,36,36],"right_children":[2,4,6,8,10,12,14,16,-1,18,20,-1,22,24,-1,-1,26,-1,28,30,32,34,-1,-1,36,-1,-1,38,-1,-1,40,42,44,46,-1,-1,48,-1,-1,-1,-1,-1,-1,-1,-1,-1,-1,-1,-1],"split_conditions":[8.61573E-1,7.5655985E-1,8.657525E-1,3.267721E-2,7.6689133E-3,1.4403427E-2,9.2470163E-1,1.1288181E-3,1.2683706E-2,6.2189214E-3,1.1457565E-3,2.3206599E-2,9.223772E-1,9.052417E-3,1.0733153E-2,3.630777E-3,6.646775E-1,4.1068196E-3,8.9826113E-1,6.85679E-2,1.11274466E-1,3.7599775E-1,4.883346E-3,3.8090677E-3,8.257342E-1,1.8877924E-3,9.383272E-3,7.820097E-4,2.22947E-3,1.2250092E-2,1.3957483E-2,1.5562169E-3,2.7374104E-2,1.1510049E-3,4.684258E-3,1.78043E-2,2.633313E-1,6.557581E-3,1.3901874E-2,4.6245875E-3,8.8665786E-4,-2.5191219E-3,1.6548948E-2,1.002366E-2,2.2753023E-2,5.430311E-3,1.7555598E-2,2.9714009E-2,7.910264E-3],"split_indices":[55,52,37,24,21,54,46,5,0,42,35,0,52,2,0,0,55,0,4,11,50,45,0,0,19,0,0,23,0,0,0,24,56,29,0,0,27,0,0,0,0,0,0,0,0,0,0,0,0],"split_type":[0,0,0,0,0,0,0,0,0,0,0,0,0,0,0,0,0,0,0,0,0,0,0,0,0,0,0,0,0,0,0,0,0,0,0,0,0,0,0,0,0,0,0,0,0,0,0,0,0],"sum_hessian":[2.91E2,2.03E2,8.8E1,3.6E1,1.67E2,5.1E1,3.7E1,1.9E1,1.7E1,3.3E1,1.34E2,1.5E1,3.6E1,3.3E1,4E0,3E0,1.6E1,2E0,3.1E1,1.4E1,1.2E2,3.3E1,3E0,1E0,3.2E1,1E0,1.5E1,3E1,1E0,1.1E1,3E0,8.7E1,3.3E1,3.1E1,2E0,1E1,2.2E1,3E0,2.7E1,2E0,1E0,1E0,8.6E1,5E0,2.8E1,2E0,2.9E1,2.1E1,1E0],"tree_param":{"num_deleted":"0","num_feature":"57","num_nodes":"49","size_leaf_vector":"0"}},{"base_weights":[-7.290658E-2,-7.4367665E-2,9.263295E-2,-8.191223E-2,-6.1088037E-2,2.6590675E-2,1.1235875E-1,-9.9388175E-3,-8.225496E-2,-4.4152014E-2,-7.321451E-2,-9.290458E-2,-7.634322E-2,-7.046562E-2,-3.7127655E-2,-7.914338E-2,-4.1915584E-2,-9.466647E-2,-2.7873054E-2,-3.554331E-2,-7.814716E-2,-2.602328E-2,-8.834957E-2,-4.4801865E-2,-1.9675419E-2,-8.0825426E-2,2.4793893E-3,-1.6711704E-2,-4.846002E-2,-2.0666543E-2,-9.560215E-2,-6.2453076E-3,-3.9385427E-2,-2.2888198E-2,-7.891584E-2,-4.7591068E-2,1.385875E-2,1.1532843E-2,-2.2963196E-2,-8.233827E-2,-3.3478066E-3],"categories":[],"categories_nodes":[],"categories_segments":[],"categories_sizes":[],"default_left":[1,1,1,1,1,0,0,0,1,1,1,1,1,1,1,1,1,1,0,1,1,0,0,1,1,1,0,0,0,0,0,0,0,0,0,0,0,0,0,0,0],"id":17,"left_children":[1,3,5,7,9,-1,-1,-1,11,13,15,17,19,21,23,25,27,29,-1,31,33,-1,-1,35,37,39,-1,-1,-1,-1,-1,-1,-1,-1,-1,-1,-1,-1,-1,-1,-1],"loss_changes":[7.7513576E-2,2.405107E-2,9.2051364E-4,3.6718845E-3,1.9153208E-2,0E0,0E0,0E0,4.30274E-3,6.2559173E-3,8.18783E-3,4.2360425E-3,6.2016845E-3,4.854098E-3,4.4757873E-3,7.202357E-3,1.1694934E-3,2.0401478E-3,0E0,5.419906E-4,3.1210184E-3,0E0,0E0,5.077198E-3,1.7013121E-3,5.584955E-3,0E0,0E0,0E0,0E0,0E0,0E0,0E0,0E0,0E0,0E0,0E0,0E0,0E0,0E0,0E0],"parents":[2147483647,0,0,1,1,2,2,3,3,4,4,8,8,9,9,10,10,11,11,12,12,13,13,14,14,15,15,16,16,17,17,19,19,20,20,23,23,24,24,25,25],"right_children":[2,4,6,8,10,-1,-1,-1,12,14,16,18,20,22,24,26,28,30,-1,32,34,-1,-1,36,38,40,-1,-1,-1,-1,-1,-1,-1,-1,-1,-1,-1,-1,-1,-1,-1],"split_conditions":[7.577528E-1,6.312747E-2,4.017661E-2,2.4987423E-4,5.3802244E-2,7.977203E-3,3.3707626E-2,-2.9816453E-3,4.505293E-3,7.6622635E-1,2.850805E-1,3.5729828E-1,1.4801908E-3,9.3590945E-4,1.6975883E-1,9.3727374E-1,6.1907605E-3,1.13752176E-4,-8.361917E-3,2.1304307E-3,7.569407E-4,-7.8069842E-3,-2.6504872E-2,9.148451E-1,1.7266667E-3,9.2560685E-1,7.4381684E-4,-5.0135115E-3,-1.4538007E-2,-6.1999634E-3,-2.8680645E-2,-1.8735924E-3,-1.1815629E-2,-6.8664597E-3,-2.3674754E-2,-1.4277321E-2,4.157625E-3,3.4598531E-3,-6.888959E-3,-2.4701484E-2,-1.004342E-3],"split_indices":[54,54,0,2,45,0,0,0,56,28,15,26,5,5,17,19,0,44,0,0,8,0,0,1,39,4,0,0,0,0,0,0,0,0,0,0,0,0,0,0,0],"split_type":[0,0,0,0,0,0,0,0,0,0,0,0,0,0,0,0,0,0,0,0,0,0,0,0,0,0,0,0,0,0,0,0,0,0,0,0,0,0,0,0,0],"sum_hessian":[2.91E2,2.89E2,2E0,1.81E2,1.08E2,1E0,1E0,1E0,1.8E2,4.7E1,6.1E1,5.9E1,1.21E2,8E0,3.9E1,5E1,1.1E1,5.7E1,2E0,6E0,1.15E2,3E0,5E0,2.6E1,1.3E1,4.9E1,1E0,3E0,8E0,1E0,5.6E1,1E0,5E0,2E0,1.13E2,2.5E1,1E0,1E0,1.2E1,4.8E1,1E0],"tree_param":{"num_deleted":"0","num_feature":"57","num_nodes":"41","size_leaf_vector":"0"}},{"base_weights":[-5.1185098E-2,-5.236925E-2,8.0344595E-2,-6.604134E-2,-4.7292747E-2,9.58617E-2,2.4655193E-2,-6.8986595E-2,-2.7154375E-2,-5.045924E-2,-2.1209035E-2,-1.0455195E-2,-6.968335E-2,-1.1478488E-2,-3.1129032E-2,-5.4131653E-2,-3.6959775E-2,-7.3285755E-3,-3.345803E-2,-7.053522E-2,-2.7430445E-2,-2.1048741E-2,-5.5624787E-2,-2.6669564E-2,-5.710526E-2,-1.1524899E-2,4.9943775E-3,-4.5168795E-2,-1.2267341E-2,-7.143105E-2,-2.7613796E-2,2.15137E-3,-2.4670381E-2,-1.7495107E-2,-5.689797E-2,-8.132746E-3,-3.5109345E-2,-1.7033618E-2,9.965822E-4,-6.993115E-5,6.7057908E-3,-5.1876996E-2,-1.669613E-2],"categories":[],"categories_nodes":[],"categories_segments":[],"categories_sizes":[],"default_left":[1,1,1,1,1,0,0,1,1,1,1,0,1,0,0,1,1,1,1,1,0,1,1,1,0,1,1,1,0,0,0,0,0,0,0,0,0,0,0,0,0,0,0],"id":18,"left_children":[1,3,5,7,9,-1,-1,11,13,15,17,-1,19,-1,-1,21,23,25,27,29,-1,31,33,35,-1,37,39,41,-1,-1,-1,-1,-1,-1,-1,-1,-1,-1,-1,-1,-1,-1,-1],"loss_changes":[4.968691E-2,1.700461E-2,2.2892654E-4,6.8311393E-3,1.6687483E-2,0E0,0E0,2.126217E-3,7.882994E-5,7.4682534E-3,4.0053427E-3,0E0,5.4875016E-4,0E0,0E0,6.139964E-3,7.5982884E-3,7.2980404E-4,2.6719682E-3,6.0370564E-4,0E0,7.252551E-4,5.84957E-3,4.5643114E-3,0E0,7.067487E-4,3.513744E-5,6.618593E-4,0E0,0E0,0E0,0E0,0E0,0E0,0E0,0E0,0E0,0E0,0E0,0E0,0E0,0E0,0E0],"parents":[2147483647,0,0,1,1,2,2,3,3,4,4,7,7,8,8,9,9,10,10,12,12,15,15,16,16,17,17,18,18,19,19,21,21,22,22,23,23,25,25,26,26,27,27],"right_children":[2,4,6,8,10,-1,-1,12,14,16,18,-1,20,-1,-1,22,24,26,28,30,-1,32,34,36,-1,38,40,42,-1,-1,-1,-1,-1,-1,-1,-1,-1,-1,-1,-1,-1,-1,-1],"split_conditions":[7.577528E-1,1.9684337E-2,4.017661E-2,3.3727676E-1,1.7362481E-1,2.8758513E-2,7.3965583E-3,3.1308443E-3,8.978128E-4,7.00752E-2,8.35546E-1,-3.1365587E-3,8.8286173E-1,-3.4435466E-3,-9.33871E-3,2.5929287E-3,1.4821576E-1,8.0974925E-1,8.526888E-1,8.79241E-1,-8.229134E-3,8.310537E-4,6.086735E-4,8.414912E-1,-1.713158E-2,1.8506839E-3,1.3242898E-2,8.349314E-1,-3.6802024E-3,-2.1429315E-2,-8.284139E-3,6.45411E-4,-7.401115E-3,-5.248532E-3,-1.7069392E-2,-2.439824E-3,-1.0532804E-2,-5.1100855E-3,2.989747E-4,-2.0979345E-5,2.0117373E-3,-1.55631E-2,-5.0088395E-3],"split_indices":[54,26,0,51,56,0,0,9,26,8,49,0,7,0,0,39,8,40,22,10,0,11,5,52,0,5,3,16,0,0,0,0,0,0,0,0,0,0,0,0,0,0,0],"split_type":[0,0,0,0,0,0,0,0,0,0,0,0,0,0,0,0,0,0,0,0,0,0,0,0,0,0,0,0,0,0,0,0,0,0,0,0,0,0,0,0,0,0,0],"sum_hessian":[2.91E2,2.89E2,2E0,7.5E1,2.14E2,1E0,1E0,6.9E1,6E0,1.9E2,2.4E1,1E0,6.8E1,2E0,4E0,1.47E2,4.3E1,1.2E1,1.2E1,6.6E1,2E0,7E0,1.4E2,3E1,1.3E1,9E0,3E0,7E0,5E0,6.4E1,2E0,1E0,6E0,5E0,1.35E2,1E1,2E1,6E0,3E0,1E0,2E0,5E0,2E0],"tree_param":{"num_deleted":"0","num_feature":"57","num_nodes":"43","size_leaf_vector":"0"}},{"base_weights":[4.095897E-2,3.6577098E-2,5.102977E-2,3.2238636E-2,4.5161366E-2,5.9639644E-2,4.3637868E-2,3.0333914E-2,4.8659444E-2,5.0109267E-2,2.766111E-2,6.362438E-2,2.8447738E-2,4.501002E-2,7.1374974E-3,3.133663E-2,8.381342E-3,2.521423E-2,5.6277957E-2,-4.540056E-3,5.1293056E-2,3.8405206E-2,1.3843556E-2,6.490914E-2,1.1898518E-2,4.6758976E-2,1.4081746E-2,8.608252E-3,2.097994E-3,-7.137507E-3,3.1710494E-2,1.2560499E-2,-1.3777018E-3,1.50719285E-2,5.954472E-2,5.544557E-2,2.9138427E-2,4.951054E-2,1.9618833E-2,1.6275635E-2,6.73455E-3,7.250342E-2,4.4510137E-2,1.8963814E-2,4.900817E-2,2.9160103E-2,4.0909592E-2,1.3861597E-2,3.6780536E-3,-2.9354095E-3,8.688569E-4,5.6621406E-2,4.206091E-3,3.364241E-2,1.397185E-2,2.7179977E-2,7.584378E-2,-3.1418502E-3,2.5275692E-2,1.2698631E-2,5.054459E-2],"categories":[],"categories_nodes":[],"categories_segments":[],"categories_sizes":[],"default_left":[1,1,1,1,1,1,1,1,1,1,1,1,0,1,1,1,1,0,1,0,1,1,1,1,0,1,0,0,0,0,1,1,1,0,0,1,1,0,0,0,0,1,0,1,1,0,0,0,0,0,0,0,0,0,0,0,0,0,0,0,0],"id":19,"left_children":[1,3,5,7,9,11,13,15,17,19,21,23,-1,25,27,29,31,-1,33,-1,35,37,39,41,-1,43,-1,-1,-1,-1,45,47,49,-1,-1,51,53,-1,-1,-1,-1,55,-1,57,59,-1,-1,-1,-1,-1,-1,-1,-1,-1,-1,-1,-1,-1,-1,-1,-1],"loss_changes":[1.1019111E-2,6.2532723E-3,2.8707683E-3,2.9340237E-3,4.4154227E-3,2.7888268E-3,2.1829456E-3,2.5769323E-3,9.0302527E-4,3.5322309E-3,1.9921064E-3,1.3542324E-3,0E0,1.937978E-3,4.175541E-6,1.9955859E-3,3.0279666E-4,0E0,3.1403825E-4,0E0,2.9842705E-3,9.063212E-4,4.599779E-5,1.5752614E-3,0E0,1.8838644E-3,0E0,0E0,0E0,0E0,1.6693622E-3,6.800983E-6,1.3048897E-5,0E0,0E0,2.2320598E-3,2.1305401E-4,0E0,0E0,0E0,0E0,1.1179E-3,0E0,7.7705376E-4,1.6454086E-3,0E0,0E0,0E0,0E0,0E0,0E0,0E0,0E0,0E0,0E0,0E0,0E0,0E0,0E0,0E0,0E0],"parents":[2147483647,0,0,1,1,2,2,3,3,4,4,5,5,6,6,7,7,8,8,9,9,10,10,11,11,13,13,14,14,15,15,16,16,18,18,20,20,21,21,22,22,23,23,25,25,30,30,31,31,32,32,35,35,36,36,41,41,43,43,44,44],"right_children":[2,4,6,8,10,12,14,16,18,20,22,24,-1,26,28,30,32,-1,34,-1,36,38,40,42,-1,44,-1,-1,-1,-1,46,48,50,-1,-1,52,54,-1,-1,-1,-1,56,-1,58,60,-1,-1,-1,-1,-1,-1,-1,-1,-1,-1,-1,-1,-1,-1,-1,-1],"split_conditions":[8.6014485E-1,8.4631884E-1,1.955169E-2,8.716508E-1,8.4387153E-1,8.893881E-1,9.439788E-1,8.4065306E-1,2.4804933E-2,7.512405E-1,5.4272074E-2,9.2876935E-1,8.534322E-3,1.6602242E-1,9.709673E-3,6.7939644E-4,8.511242E-1,7.5642695E-3,1.1247821E-2,-1.3620169E-3,1.8882084E-1,8.2549953E-1,2.4936661E-1,8.9810467E-1,3.5695555E-3,3.1658176E-2,4.224524E-3,2.5824755E-3,6.293983E-4,-2.1412522E-3,1.7577241E-1,1.3218951E-1,4.8972636E-2,4.5215786E-3,1.7863417E-2,1.6178337E-1,1.68202E-2,1.4853162E-2,5.8856504E-3,4.8826905E-3,2.020365E-3,4.2104777E-3,1.3353041E-2,8.751732E-1,8.942903E-3,8.748031E-3,1.2272879E-2,4.158479E-3,1.1034161E-3,-8.806229E-4,2.6065708E-4,1.6986422E-2,1.2618274E-3,1.0092724E-2,4.191555E-3,8.153994E-3,2.2753134E-2,-9.425551E-4,7.582708E-3,3.8095894E-3,1.5163378E-2],"split_indices":[1,25,30,46,1,13,31,25,18,31,38,16,0,45,0,24,10,0,0,0,6,40,18,37,0,29,0,0,0,0,18,0,0,0,0,2,33,0,0,0,0,27,0,1,5,0,0,0,0,0,0,0,0,0,0,0,0,0,0,0,0],"split_type":[0,0,0,0,0,0,0,0,0,0,0,0,0,0,0,0,0,0,0,0,0,0,0,0,0,0,0,0,0,0,0,0,0,0,0,0,0,0,0,0,0,0,0,0,0,0,0,0,0,0,0,0,0,0,0,0,0,0,0,0,0],"sum_hessian":[2.91E2,2.06E2,8.5E1,1.4E2,6.6E1,3.6E1,4.9E1,1.28E2,1.2E1,5E1,1.6E1,3.1E1,5E0,4.7E1,2E0,1.22E2,6E0,4E0,8E0,1E0,4.9E1,8E0,8E0,3E1,1E0,4.4E1,3E0,1E0,1E0,1E0,1.21E2,4E0,2E0,1E0,7E0,4E1,9E0,4E0,4E0,5E0,3E0,2E1,1E1,4E0,4E1,9.8E1,2.3E1,3E0,1E0,1E0,1E0,3.9E1,1E0,6E0,3E0,2E0,1.8E1,1E0,3E0,2E0,3.8E1],"tree_param":{"num_deleted":"0","num_feature":"57","num_nodes":"61","size_leaf_vector":"0"}},{"base_weights":[-5.151798E-2,-5.2687805E-2,7.873801E-2,-5.5769622E-2,-3.6392152E-2,2.2602081E-2,9.550494E-2,-6.520164E-2,-5.1143255E-2,-4.3861985E-2,-2.2289148E-2,-6.5771095E-2,-1.1246309E-2,-4.6035197E-2,-6.0979836E-2,-9.493634E-3,-4.720525E-2,-2.5831212E-3,-2.9142505E-2,-1.7566562E-2,-6.6185124E-2,-4.7360074E-2,-7.680832E-3,-6.2884785E-2,-7.6341233E-3,-5.0447233E-2,-1.5141556E-2,-7.0209084E-3,9.802908E-3,-1.5702864E-2,-3.486421E-2,-1.7904645E-2,-4.8592195E-2,3.3542712E-3,-1.6155658E-2,-2.8456375E-3,-6.4006224E-2,-1.2371637E-2,9.204522E-4,-3.3124283E-2,-5.6650724E-2,-2.1875186E-2,2.5296658E-3,-8.547358E-3,-3.7085395E-2],"categories":[],"categories_nodes":[],"categories_segments":[],"categories_sizes":[],"default_left":[1,1,1,1,1,0,0,1,1,1,1,1,0,1,1,0,1,1,1,0,0,1,1,1,1,1,1,0,0,0,1,0,0,0,0,0,0,0,0,0,0,0,0,0,0],"id":20,"left_children":[1,3,5,7,9,-1,-1,11,13,15,17,19,-1,21,23,-1,25,27,29,-1,-1,31,33,35,37,39,41,-1,-1,-1,43,-1,-1,-1,-1,-1,-1,-1,-1,-1,-1,-1,-1,-1,-1],"loss_changes":[4.8642635E-2,1.2534261E-2,6.650705E-4,7.225275E-3,4.1843653E-3,0E0,0E0,1.5954077E-3,5.5838525E-3,3.1138249E-3,2.490717E-3,3.3423305E-4,0E0,5.429119E-3,5.007446E-3,0E0,2.1467544E-3,3.9862472E-4,5.2909926E-4,0E0,0E0,3.122151E-3,5.217933E-4,3.3190548E-3,1.3296973E-4,8.100495E-4,5.313028E-4,0E0,0E0,0E0,2.0910986E-4,0E0,0E0,0E0,0E0,0E0,0E0,0E0,0E0,0E0,0E0,0E0,0E0,0E0,0E0],"parents":[2147483647,0,0,1,1,2,2,3,3,4,4,7,7,8,8,9,9,10,10,11,11,13,13,14,14,16,16,17,17,18,18,21,21,22,22,23,23,24,24,25,25,26,26,30,30],"right_children":[2,4,6,8,10,-1,-1,12,14,16,18,20,-1,22,24,-1,26,28,30,-1,-1,32,34,36,38,40,42,-1,-1,-1,44,-1,-1,-1,-1,-1,-1,-1,-1,-1,-1,-1,-1,-1,-1],"split_conditions":[7.577528E-1,1.4395851E-1,4.017661E-2,2.6258802E-2,1.8309134E-1,6.780625E-3,2.8651483E-2,3.936236E-1,1.3238572E-1,1.3104258E-3,1.2431776E-3,1.13752176E-4,-3.3738927E-3,1.1758671E-1,6.630515E-1,-2.8480904E-3,1.4242357E-1,7.8778327E-1,3.3087865E-2,-5.269969E-3,-1.9855538E-2,1.027589E-3,7.659513E-2,2.0692006E-2,1.8486284E-2,1.6129278E-3,6.98999E-2,-2.1062726E-3,2.9408725E-3,-4.7108596E-3,1.2799643E-1,-5.3713936E-3,-1.4577659E-2,1.0062814E-3,-4.8466977E-3,-8.536913E-4,-1.9201867E-2,-3.7114911E-3,2.7613566E-4,-9.937285E-3,-1.6995218E-2,-6.562556E-3,7.588998E-4,-2.5642077E-3,-1.1125619E-2],"split_indices":[54,23,0,56,54,0,0,45,45,47,35,44,0,45,9,0,11,1,8,0,0,14,0,48,0,41,0,0,0,0,18,0,0,0,0,0,0,0,0,0,0,0,0,0,0],"split_type":[0,0,0,0,0,0,0,0,0,0,0,0,0,0,0,0,0,0,0,0,0,0,0,0,0,0,0,0,0,0,0,0,0,0,0,0,0,0,0,0,0,0,0,0,0],"sum_hessian":[2.91E2,2.89E2,2E0,2.41E2,4.8E1,1E0,1E0,7.5E1,1.66E2,3E1,1.8E1,7.4E1,1E0,1.13E2,5.3E1,3E0,2.7E1,5E0,1.3E1,1E0,7.3E1,1.09E2,4E0,5.1E1,2E0,2.4E1,3E0,4E0,1E0,5E0,8E0,5E0,1.04E2,2E0,2E0,1E0,5E1,1E0,1E0,8E0,1.6E1,2E0,1E0,1E0,7E0],"tree_param":{"num_deleted":"0","num_feature":"57","num_nodes":"45","size_leaf_vector":"0"}},{"base_weights":[-3.6185585E-2,-3.714162E-2,6.829289E-2,-3.8809747E-2,-1.3925626E-2,8.148244E-2,2.0956904E-2,-4.8781604E-2,-3.5344433E-2,-3.403843E-2,-7.1909404E-3,-1.3294804E-2,-4.9668968E-2,-1.0194043E-2,-3.645294E-2,-1.4285461E-2,2.5760774E-3,-8.886915E-3,-5.016733E-2,2.4214014E-3,-1.5946576E-2,-3.956674E-2,-2.71291E-2,-1.6155086E-2,-4.53797E-3,6.885526E-3,-3.4547523E-3,-2.818939E-2,-5.155208E-2,5.5783093E-3,-4.903376E-4,-1.0362546E-2,-2.4725378E-2,-3.4681357E-2,-4.5645513E-2,-2.9289002E-2,-9.682357E-4,8.636504E-3,2.8393716E-3,-5.867526E-3,-6.946524E-4],"categories":[],"categories_nodes":[],"categories_segments":[],"categories_sizes":[],"default_left":[1,1,1,1,1,0,0,1,1,0,1,0,1,1,1,1,1,0,1,1,1,1,1,0,0,1,1,0,0,0,0,0,0,0,0,0,0,0,0,0,0],"id":21,"left_children":[1,3,5,7,9,-1,-1,11,13,-1,15,-1,17,19,21,23,25,-1,27,29,31,33,35,-1,-1,37,39,-1,-1,-1,-1,-1,-1,-1,-1,-1,-1,-1,-1,-1,-1],"loss_changes":[3.1702936E-2,1.0690451E-2,1.654001E-4,7.6058805E-3,2.5997534E-3,0E0,0E0,1.4494807E-3,5.3157806E-3,0E0,1.2147696E-3,0E0,8.752346E-4,7.643207E-4,4.5879483E-3,1.08930515E-4,2.3170415E-4,0E0,4.9455464E-4,3.9503626E-5,8.692988E-5,2.6933402E-3,2.9098913E-3,0E0,0E0,1.0901407E-5,2.256209E-5,0E0,0E0,0E0,0E0,0E0,0E0,0E0,0E0,0E0,0E0,0E0,0E0,0E0,0E0],"parents":[2147483647,0,0,1,1,2,2,3,3,4,4,7,7,8,8,10,10,12,12,13,13,14,14,15,15,16,16,18,18,19,19,20,20,21,21,22,22,25,25,26,26],"right_children":[2,4,6,8,10,-1,-1,12,14,-1,16,-1,18,20,22,24,26,-1,28,30,32,34,36,-1,-1,38,40,-1,-1,-1,-1,-1,-1,-1,-1,-1,-1,-1,-1,-1,-1],"split_conditions":[7.577528E-1,2.9593995E-1,4.017661E-2,1.6305294E-2,7.424115E-2,2.4444733E-2,6.2870714E-3,3.1513226E-4,8.829495E-4,-1.0211529E-2,2.0570898E-1,-3.9884415E-3,3.1308443E-3,8.3009255E-1,6.874957E-2,3.8599175E-1,2.4379188E-1,-2.6660745E-3,1.1652501E-3,4.815223E-4,8.5206294E-1,8.5457736E-1,9.101739E-1,-4.8465263E-3,-1.361391E-3,9.325324E-3,7.8778327E-1,-8.456818E-3,-1.5465625E-2,1.6734928E-3,-1.471013E-4,-3.1087638E-3,-7.4176136E-3,-1.0404408E-2,-1.3693654E-2,-8.786701E-3,-2.9047072E-4,2.5909515E-3,8.518115E-4,-1.7602579E-3,-2.0839572E-4],"split_indices":[54,15,0,26,54,0,0,26,2,0,23,0,9,22,8,15,12,0,38,2,1,25,37,0,0,0,1,0,0,0,0,0,0,0,0,0,0,0,0,0,0],"split_type":[0,0,0,0,0,0,0,0,0,0,0,0,0,0,0,0,0,0,0,0,0,0,0,0,0,0,0,0,0,0,0,0,0,0,0,0,0,0,0,0,0],"sum_hessian":[2.91E2,2.89E2,2E0,2.69E2,2E1,1E0,1E0,6.6E1,2.03E2,4E0,1.6E1,2E0,6.4E1,9E0,1.94E2,9E0,7E0,1E0,6.3E1,3E0,6E0,1.43E2,5.1E1,7E0,2E0,4E0,3E0,5E0,5.8E1,1E0,2E0,5E0,1E0,8.3E1,6E1,4.7E1,4E0,2E0,2E0,1E0,2E0],"tree_param":{"num_deleted":"0","num_feature":"57","num_nodes":"41","size_leaf_vector":"0"}},{"base_weights":[2.9362014E-2,2.5851388E-2,3.7078932E-2,2.2317521E-2,3.116045E-2,3.1403843E-2,4.386908E-2,2.028652E-2,3.010401E-2,1.8403739E-2,3.4361422E-2,3.4836892E-2,1.5440946E-2,4.6333097E-2,1.8339943E-2,1.1622074E-2,2.2234311E-2,6.9310307E-3,3.439205E-2,2.3790412E-2,1.1715358E-2,2.7131058E-2,4.2729266E-2,2.602893E-2,4.240538E-2,4.5823455E-3,1.8940128E-2,3.2241978E-2,5.3520836E-2,9.4765425E-4,1.2695821E-2,2.29025E-2,-3.218174E-3,1.0690391E-3,8.129269E-3,3.745114E-2,4.573504E-3,5.2464902E-3,1.3738232E-2,2.9197203E-2,3.302589E-3,2.024298E-2,4.6919648E-2,2.8200138E-2,2.877891E-3,4.6173457E-2,1.4847696E-2,3.3711884E-2,6.566614E-3,1.9344598E-2,5.8142174E-2,3.714025E-3,1.4843364E-2,1.0487328E-2,2.4703635E-2,-6.0668886E-3,1.2396276E-3,4.0417455E-2,1.6964674E-2,1.4736106E-2,3.875494E-3,3.2575123E-2,8.567383E-3,-2.49511E-3,6.066859E-3,5.072062E-2,1.7135113E-2,3.2272976E-2,1.3318022E-2,7.3853135E-4,3.5783052E-3,4.738235E-2,1.2811124E-2,5.561789E-3,2.1352708E-2,7.422149E-3,3.528418E-2,1.7508924E-2,6.2127024E-2],"categories":[],"categories_nodes":[],"categories_segments":[],"categories_sizes":[],"default_left":[1,1,1,1,1,1,1,1,1,1,1,1,1,1,0,1,1,1,1,0,1,1,1,1,1,0,0,1,1,0,1,1,1,0,0,1,0,0,1,1,1,0,1,1,1,1,1,1,0,0,1,0,0,0,0,0,0,0,0,0,0,0,0,0,0,0,0,0,0,0,0,0,0,0,0,0,0,0,0],"id":22,"left_children":[1,3,5,7,9,11,13,15,17,19,21,23,25,27,-1,29,31,33,35,-1,37,39,41,43,45,-1,-1,47,49,-1,51,53,55,-1,-1,57,-1,-1,59,61,63,-1,65,67,69,71,73,75,-1,-1,77,-1,-1,-1,-1,-1,-1,-1,-1,-1,-1,-1,-1,-1,-1,-1,-1,-1,-1,-1,-1,-1,-1,-1,-1,-1,-1,-1,-1],"loss_changes":[6.952107E-3,3.131926E-3,2.0519197E-3,1.3819113E-3,2.5935024E-3,2.3117624E-3,1.5406162E-3,1.479879E-3,2.1464285E-3,3.697928E-4,2.5918633E-3,1.69608E-3,3.311683E-4,1.7180145E-3,0E0,2.2866274E-4,1.4852844E-3,2.6429814E-5,1.6530696E-3,0E0,5.877961E-5,1.6759653E-3,1.5943125E-3,1.0246905E-3,1.4950596E-3,0E0,0E0,3.0699093E-4,2.1920055E-3,0E0,3.113586E-4,1.5521981E-3,4.5617693E-5,0E0,0E0,4.081782E-4,0E0,0E0,1.1782628E-5,2.020549E-3,7.9243095E-5,0E0,1.621522E-3,7.8243576E-4,1.8526225E-6,1.18944794E-4,1.2286054E-4,2.7547497E-4,0E0,0E0,1.8267334E-3,0E0,0E0,0E0,0E0,0E0,0E0,0E0,0E0,0E0,0E0,0E0,0E0,0E0,0E0,0E0,0E0,0E0,0E0,0E0,0E0,0E0,0E0,0E0,0E0,0E0,0E0,0E0,0E0],"parents":[2147483647,0,0,1,1,2,2,3,3,4,4,5,5,6,6,7,7,8,8,9,9,10,10,11,11,12,12,13,13,15,15,16,16,17,17,18,18,20,20,21,21,22,22,23,23,24,24,27,27,28,28,30,30,31,31,32,32,35,35,38,38,39,39,40,40,42,42,43,43,44,44,45,45,46,46,47,47,50,50],"right_children":[2,4,6,8,10,12,14,16,18,20,22,24,26,28,-1,30,32,34,36,-1,38,40,42,44,46,-1,-1,48,50,-1,52,54,56,-1,-1,58,-1,-1,60,62,64,-1,66,68,70,72,74,76,-1,-1,78,-1,-1,-1,-1,-1,-1,-1,-1,-1,-1,-1,-1,-1,-1,-1,-1,-1,-1,-1,-1,-1,-1,-1,-1,-1,-1,-1,-1],"split_conditions":[8.61573E-1,8.352219E-1,8.657525E-1,1.8458246E-1,8.316724E-3,1.0844776E-1,9.2470163E-1,7.142752E-1,2.236979E-3,8.217112E-1,5.0308242E-2,8.666979E-1,8.061888E-1,8.4370387E-1,5.501983E-3,9.314533E-4,8.87153E-1,1.5327364E-3,5.9548296E-2,7.137124E-3,8.459166E-1,9.254928E-1,7.7625716E-1,1.6178337E-1,1.16443E-1,1.3747037E-3,5.6820386E-3,1.4163747E-1,1.6305294E-2,2.842963E-4,9.216313E-4,1.382849E-3,1.4648579E-2,3.2071176E-4,2.4387809E-3,3.5642892E-1,1.3720512E-3,1.5739471E-3,3.100926E-1,1.6689795E-1,7.5322622E-3,6.072894E-3,8.7880516E-1,8.539627E-1,1.4292116E-1,2.421115E-1,8.5533726E-1,7.693442E-1,1.9699843E-3,5.8033797E-3,8.15006E-1,1.1142076E-3,4.4530095E-3,3.1461986E-3,7.4110907E-3,-1.8200666E-3,3.718883E-4,1.2125237E-2,5.089402E-3,4.420832E-3,1.1626482E-3,9.772537E-3,2.570215E-3,-7.4853306E-4,1.8200577E-3,1.5216187E-2,5.140534E-3,9.6818935E-3,3.995407E-3,2.2155941E-4,1.0734916E-3,1.4214706E-2,3.8433375E-3,1.6685368E-3,6.4058127E-3,2.226645E-3,1.0585254E-2,5.2526775E-3,1.8638108E-2],"split_indices":[55,46,37,18,21,47,46,1,3,22,47,16,7,22,0,50,52,2,38,0,10,31,13,29,42,0,0,17,5,0,5,35,0,0,0,15,0,0,0,6,0,0,46,16,0,18,4,19,0,0,43,0,0,0,0,0,0,0,0,0,0,0,0,0,0,0,0,0,0,0,0,0,0,0,0,0,0,0,0],"split_type":[0,0,0,0,0,0,0,0,0,0,0,0,0,0,0,0,0,0,0,0,0,0,0,0,0,0,0,0,0,0,0,0,0,0,0,0,0,0,0,0,0,0,0,0,0,0,0,0,0,0,0,0,0,0,0,0,0,0,0,0,0,0,0,0,0,0,0,0,0,0,0,0,0,0,0,0,0,0,0],"sum_hessian":[2.91E2,2.03E2,8.8E1,1.25E2,7.8E1,5.1E1,3.7E1,1.02E2,2.3E1,1.7E1,6.1E1,4.1E1,1E1,3.3E1,4E0,2E1,8.2E1,4E0,1.9E1,8E0,9E0,3.5E1,2.6E1,2.1E1,2E1,3E0,7E0,1.3E1,2E1,2E0,1.8E1,8E1,2E0,1E0,3E0,1.7E1,2E0,3E0,6E0,3.2E1,3E0,5E0,2.1E1,1.9E1,2E0,1.7E1,3E0,1.2E1,1E0,3E0,1.7E1,4E0,1.4E1,1.1E1,6.9E1,1E0,1E0,1.4E1,3E0,5E0,1E0,2.7E1,5E0,1E0,2E0,1.8E1,3E0,1.4E1,5E0,1E0,1E0,1.6E1,1E0,2E0,1E0,1E0,1.1E1,2E0,1.5E1],"tree_param":{"num_deleted":"0","num_feature":"57","num_nodes":"79","size_leaf_vector":"0"}},{"base_weights":[-3.6382783E-2,-3.732605E-2,6.6927314E-2,-3.437617E-2,-4.7205683E-2,1.921177E-2,8.11792E-2,-3.5863716E-2,-1.8884791E-2,-4.7651507E-2,-9.559363E-3,-4.4963423E-2,-3.3041045E-2,-2.2871863E-2,-7.543683E-4,-4.872654E-2,-2.5435833E-2,-7.023949E-3,-4.5650437E-2,-4.0586516E-2,-2.8962374E-2,-2.6910359E-2,-6.9897026E-3,8.332461E-3,-5.109191E-3,-4.9088515E-2,-1.386594E-2,-1.3081893E-2,-4.6093315E-2,-4.3947186E-2,-2.1404848E-2,-4.2625647E-3,-3.2005448E-2,-3.8067214E-3,-2.8394738E-2,-6.7873597E-3,-2.287348E-3,-4.9462862E-2,-1.3875373E-2],"categories":[],"categories_nodes":[],"categories_segments":[],"categories_sizes":[],"default_left":[1,1,1,1,1,0,0,1,1,1,0,1,1,1,1,1,0,0,1,1,1,1,0,0,1,1,0,0,0,0,0,0,0,0,0,0,0,0,0],"id":23,"left_children":[1,3,5,7,9,-1,-1,11,13,15,-1,17,19,21,23,25,-1,-1,27,29,31,33,-1,-1,35,37,-1,-1,-1,-1,-1,-1,-1,-1,-1,-1,-1,-1,-1],"loss_changes":[3.0953288E-2,6.828904E-3,4.805131E-4,4.5537353E-3,6.186366E-4,0E0,0E0,3.8055778E-3,1.5730672E-3,2.6521087E-4,0E0,8.7833405E-4,3.7793666E-3,9.6642505E-4,2.4042977E-4,6.3836575E-5,0E0,0E0,4.608929E-5,2.540335E-3,7.981218E-3,3.7203263E-4,8.9526293E-7,0E0,3.4170662E-6,7.8231096E-5,0E0,0E0,0E0,0E0,0E0,0E0,0E0,0E0,0E0,0E0,0E0,0E0,0E0],"parents":[2147483647,0,0,1,1,2,2,3,3,4,4,7,7,8,8,9,9,11,11,12,12,13,13,14,14,15,15,18,18,19,19,20,20,21,21,24,24,25,25],"right_children":[2,4,6,8,10,-1,-1,12,14,16,-1,18,20,22,24,26,-1,-1,28,30,32,34,-1,-1,36,38,-1,-1,-1,-1,-1,-1,-1,-1,-1,-1,-1,-1,-1],"split_conditions":[7.577528E-1,1.14391536E-1,4.017661E-2,2.6348487E-1,1.4904769E-1,5.7635307E-3,2.4353761E-2,2.6080595E-2,2.0358959E-1,9.1524744E-1,-2.867809E-3,4.3147407E-4,8.1017834E-1,1.5492815E-1,3.3600808E-3,9.182343E-1,-7.63075E-3,-2.1071848E-3,4.4709182E-4,3.208428E-1,8.080394E-1,1.1698846E-3,-2.096911E-3,2.4997385E-3,4.7733397E-3,2.314345E-1,-4.159782E-3,-3.924568E-3,-1.3827995E-2,-1.3184156E-2,-6.4214547E-3,-1.2787695E-3,-9.601635E-3,-1.1420165E-3,-8.518422E-3,-2.036208E-3,-6.862044E-4,-1.4838859E-2,-4.162612E-3],"split_indices":[54,41,0,21,26,0,0,56,56,49,0,2,16,30,0,36,0,0,8,48,22,3,0,0,3,15,0,0,0,0,0,0,0,0,0,0,0,0,0],"split_type":[0,0,0,0,0,0,0,0,0,0,0,0,0,0,0,0,0,0,0,0,0,0,0,0,0,0,0,0,0,0,0,0,0,0,0,0,0,0,0],"sum_hessian":[2.91E2,2.89E2,2E0,2.26E2,6.3E1,1E0,1E0,2.05E2,2.1E1,6.2E1,1E0,4.5E1,1.6E2,1.7E1,4E0,5.8E1,4E0,1E0,4.4E1,5.3E1,1.07E2,1.3E1,4E0,1E0,3E0,5.7E1,1E0,1E0,4.3E1,4.4E1,9E0,1.2E1,9.5E1,1E0,1.2E1,1E0,2E0,5.6E1,1E0],"tree_param":{"num_deleted":"0","num_feature":"57","num_nodes":"39","size_leaf_vector":"0"}},{"base_weights":[-2.5524996E-2,-2.6301539E-2,5.8048945E-2,-2.8116453E-2,-1.5795518E-2,6.926006E-2,1.7813355E-2,-3.400486E-2,-2.543519E-2,-1.25967935E-2,-3.8865954E-2,-3.5631098E-2,-1.6134517E-2,-3.2769427E-2,-2.1148067E-2,-2.067482E-2,-4.680552E-3,-3.0864011E-2,-4.6049837E-2,-2.004416E-2,-7.2138347E-3,-3.4139242E-2,-4.3722983E-3,-9.823034E-3,-2.4457693E-2,-4.7577254E-2,-1.5042479E-2,-7.2162785E-3,1.3784473E-2,-3.1556174E-2,-9.732141E-3,-4.9934857E-2,-8.68477E-3,-5.8549545E-3,-3.5028957E-2,6.962523E-3,-1.0471413E-2,-2.5951248E-2,1.1906944E-3,-5.2344013E-2,-2.2459045E-2,-1.4615387E-3,-1.8818352E-2,4.7872243E-3,-1.0516356E-2],"categories":[],"categories_nodes":[],"categories_segments":[],"categories_sizes":[],"default_left":[1,1,1,1,1,0,0,1,1,1,0,1,1,1,1,1,1,1,1,0,0,1,1,1,1,0,1,1,0,0,0,0,0,0,0,0,0,0,0,0,0,0,0,0,0],"id":24,"left_children":[1,3,5,7,9,-1,-1,11,13,15,-1,17,19,21,23,25,27,29,31,-1,-1,33,35,37,39,-1,41,43,-1,-1,-1,-1,-1,-1,-1,-1,-1,-1,-1,-1,-1,-1,-1,-1,-1],"loss_changes":[2.047716E-2,5.085483E-3,1.1950359E-4,3.01902E-3,2.8312318E-3,0E0,0E0,1.5756488E-3,4.7465935E-3,2.5250823E-3,0E0,1.9064099E-3,1.3441825E-4,2.2624582E-3,3.9576963E-3,2.3147939E-3,1.129562E-3,4.0959567E-4,2.3244396E-3,0E0,0E0,1.2796372E-3,3.4943694E-4,4.8269574E-3,3.6176145E-3,0E0,8.955342E-4,8.4259396E-4,0E0,0E0,0E0,0E0,0E0,0E0,0E0,0E0,0E0,0E0,0E0,0E0,0E0,0E0,0E0,0E0,0E0],"parents":[2147483647,0,0,1,1,2,2,3,3,4,4,7,7,8,8,9,9,11,11,12,12,13,13,14,14,15,15,16,16,17,17,18,18,21,21,22,22,23,23,24,24,26,26,27,27],"right_children":[2,4,6,8,10,-1,-1,12,14,16,-1,18,20,22,24,26,28,30,32,-1,-1,34,36,38,40,-1,42,44,-1,-1,-1,-1,-1,-1,-1,-1,-1,-1,-1,-1,-1,-1,-1,-1,-1],"split_conditions":[7.577528E-1,1.5561359E-1,4.017661E-2,1.9684337E-2,6.716926E-2,2.0778019E-2,5.3440067E-3,3.2010794E-1,1.5792374E-2,8.220464E-1,-1.1659786E-2,4.1323632E-2,1.6516054E-2,4.4879265E-2,1.1823034E-2,1.402441E-3,1.471648E-1,8.7082607E-1,7.78324E-2,-6.013248E-3,-2.1641506E-3,2.114898E-3,8.7637794E-1,5.8675585E-3,2.0080558E-3,-1.4273177E-2,1.3713427E-3,8.3284163E-1,4.135342E-3,-9.466853E-3,-2.9196425E-3,-1.4980458E-2,-2.6054312E-3,-1.7564864E-3,-1.0508687E-2,2.088757E-3,-3.141424E-3,-7.7853748E-3,3.5720834E-4,-1.5703205E-2,-6.7377137E-3,-4.3846163E-4,-5.645506E-3,1.4361674E-3,-3.154907E-3],"split_indices":[54,23,0,26,41,0,0,51,51,28,0,54,0,50,42,53,6,13,36,0,0,39,1,42,41,0,35,28,0,0,0,0,0,0,0,0,0,0,0,0,0,0,0,0,0],"split_type":[0,0,0,0,0,0,0,0,0,0,0,0,0,0,0,0,0,0,0,0,0,0,0,0,0,0,0,0,0,0,0,0,0,0,0,0,0,0,0,0,0,0,0,0,0],"sum_hessian":[2.91E2,2.89E2,2E0,2.45E2,4.4E1,1E0,1E0,7.3E1,1.72E2,4E1,4E0,6.6E1,7E0,6.1E1,1.11E2,1.9E1,2.1E1,4.8E1,1.8E1,4E0,3E0,5.8E1,3E0,2.6E1,8.5E1,2E0,1.7E1,1.9E1,2E0,4.6E1,2E0,1.6E1,2E0,2E0,5.6E1,1E0,2E0,1E1,1.6E1,4E0,8.1E1,4E0,1.3E1,4E0,1.5E1],"tree_param":{"num_deleted":"0","num_feature":"57","num_nodes":"45","size_leaf_vector":"0"}},{"base_weights":[2.1199256E-2,1.32961795E-2,2.3185844E-2,1.6823258E-2,7.5442553E-3,1.106019E-2,2.421555E-2,9.87168E-3,1.9765148E-2,3.4335668E-3,1.1074617E-2,4.735696E-3,1.580426E-2,2.184654E-2,3.031588E-2,2.1187265E-3,1.1088696E-2,4.206121E-3,-5.4365396E-4,1.2036318E-2,3.8568377E-3,7.1716807E-3,8.65376E-4,9.086728E-4,1.720295E-2,9.792068E-4,2.3259426E-2,3.5153627E-2,1.7881116E-2,2.646625E-3,1.2670643E-2,2.6921034E-3,6.182626E-3,-9.699464E-4,1.5446544E-4,1.8600821E-3,7.861984E-3,1.6061465E-4,1.2816787E-3,-1.07693225E-2,6.7310706E-3,2.823929E-2,1.8853124E-2,4.3090608E-2,2.5062118E-2,2.671796E-2,9.828762E-3,3.404528E-3,1.3403341E-2,-1.2231767E-2,-3.1909943E-3,8.67406E-3,-3.4349263E-3,2.9302683E-2,4.1651577E-3,2.918603E-2,1.644851E-2,4.8254464E-2,2.2138556E-2,1.1510397E-2,3.0047825E-2,1.1366069E-2,1.9405881E-3],"categories":[],"categories_nodes":[],"categories_segments":[],"categories_sizes":[],"default_left":[1,1,1,1,1,1,1,1,0,1,1,1,1,1,1,0,1,1,1,0,0,1,1,0,0,1,1,1,1,0,1,0,0,0,0,0,0,0,0,1,1,1,1,1,1,0,1,0,0,0,0,0,0,0,0,0,0,0,0,0,0,0,0],"id":25,"left_children":[1,3,5,7,9,11,13,15,-1,17,19,21,23,25,27,-1,29,31,33,-1,-1,35,37,-1,-1,39,41,43,45,-1,47,-1,-1,-1,-1,-1,-1,-1,-1,49,51,53,55,57,59,-1,61,-1,-1,-1,-1,-1,-1,-1,-1,-1,-1,-1,-1,-1,-1,-1,-1],"loss_changes":[4.2761564E-3,1.1106171E-3,2.6288927E-3,5.6156423E-4,3.247799E-4,5.252324E-4,2.4159253E-3,9.916723E-5,0E0,4.223072E-5,4.3815468E-5,8.80742E-5,2.1354575E-4,4.606083E-3,2.8003193E-3,0E0,1.1336955E-4,1.6272825E-5,1.0426322E-6,0E0,0E0,7.3757546E-6,1.2611138E-6,0E0,0E0,8.1582443E-4,2.6931912E-3,2.1239035E-3,1.0182285E-3,0E0,1.5471363E-5,2.7033093E-7,0E0,0E0,0E0,0E0,0E0,1.1629495E-7,0E0,5.3000404E-6,1.8781415E-4,1.5931688E-3,1.5325118E-3,1.2037717E-3,1.0054363E-3,0E0,1.1133507E-4,0E0,0E0,0E0,0E0,0E0,0E0,0E0,0E0,0E0,0E0,0E0,0E0,0E0,0E0,0E0,0E0],"parents":[2147483647,0,0,1,1,2,2,3,3,4,4,5,5,6,6,7,7,9,9,10,10,11,11,12,12,13,13,14,14,16,16,17,17,18,18,21,21,22,22,25,25,26,26,27,27,28,28,30,30,39,39,40,40,41,41,42,42,43,43,44,44,46,46],"right_children":[2,4,6,8,10,12,14,16,-1,18,20,22,24,26,28,-1,30,32,34,-1,-1,36,38,-1,-1,40,42,44,46,-1,48,-1,-1,-1,-1,-1,-1,-1,-1,50,52,54,56,58,60,-1,62,-1,-1,-1,-1,-1,-1,-1,-1,-1,-1,-1,-1,-1,-1,-1,-1],"split_conditions":[4.505293E-3,1.8574112E-3,7.3025346E-1,7.554647E-1,8.157771E-1,1.2419739E-1,1.5282202E-1,4.2988945E-4,5.9295446E-3,2.5817126E-1,3.2714608E-1,1.0721236E-2,1.722595E-3,7.7427244E-1,1.8013945E-1,6.35618E-4,2.4874527E-3,8.1765455E-1,4.3073826E-2,3.6108955E-3,1.1570514E-3,6.817613E-3,8.459495E-2,2.7260184E-4,5.160885E-3,2.9640473E-2,3.439703E-2,1.8029082E-1,8.133365E-1,7.9398754E-4,1.4558116E-3,8.0763106E-4,1.8547878E-3,-2.9098394E-4,4.633963E-5,5.580247E-4,2.3585954E-3,4.81844E-5,3.8450363E-4,3.139267E-2,8.7342095E-1,1.3642953E-1,8.100443E-1,9.002615E-1,1.9074932E-1,8.015389E-3,8.7880516E-1,1.0213584E-3,4.0210024E-3,-3.6695304E-3,-9.572983E-4,2.6022182E-3,-1.0304779E-3,8.790805E-3,1.2495473E-3,8.75581E-3,4.9345535E-3,1.4476339E-2,6.641567E-3,3.4531194E-3,9.014348E-3,3.4098208E-3,5.8217644E-4],"split_indices":[56,53,7,55,52,26,48,17,0,36,6,0,3,31,42,0,18,10,0,0,0,0,6,0,0,12,50,54,28,0,0,0,0,0,0,0,0,0,0,0,19,56,25,37,48,0,16,0,0,0,0,0,0,0,0,0,0,0,0,0,0,0,0],"split_type":[0,0,0,0,0,0,0,0,0,0,0,0,0,0,0,0,0,0,0,0,0,0,0,0,0,0,0,0,0,0,0,0,0,0,0,0,0,0,0,0,0,0,0,0,0,0,0,0,0,0,0,0,0,0,0,0,0,0,0,0,0,0,0],"sum_hessian":[2.91E2,6E1,2.31E2,3.6E1,2.4E1,1.9E1,2.12E2,1.2E1,2.4E1,1.2E1,1.2E1,9E0,1E1,1.56E2,5.6E1,2E0,1E1,1E1,2E0,1E1,2E0,5E0,4E0,1E0,9E0,1E1,1.46E2,3.9E1,1.7E1,2E0,8E0,7E0,3E0,1E0,1E0,1E0,4E0,2E0,2E0,3E0,7E0,6.6E1,8E1,2E1,1.9E1,7E0,1E1,1E0,7E0,2E0,1E0,6E0,1E0,6.3E1,3E0,1.3E1,6.7E1,1.5E1,5E0,6E0,1.3E1,8E0,2E0],"tree_param":{"num_deleted":"0","num_feature":"57","num_nodes":"63","size_leaf_vector":"0"}},{"base_weights":[-2.5693523E-2,-2.6459219E-2,5.6888223E-2,-2.219484E-2,-3.0747483E-2,1.6330004E-2,6.900233E-2,-2.5433907E-2,-9.045039E-3,-1.0512289E-2,-3.1877104E-2,-4.6100177E-2,-2.3114981E-2,-2.3468724E-2,-1.0590596E-3,-2.3634428E-2,4.7123074E-3,-2.9258108E-2,-4.7129627E-2,-5.2222878E-2,-1.2365353E-2,-2.795095E-2,-1.5335686E-2,-7.4412227E-3,-4.121348E-2,-4.093702E-3,1.8513361E-2,-1.985535E-3,6.883152E-3,-3.1212581E-2,-1.5925163E-2,-1.2162427E-2,-5.0740376E-2,-2.9544799E-2,-1.2702452E-2,-1.10119395E-2,-3.6616642E-2,-9.967874E-3,3.8593411E-3,5.0759288E-3,-6.877332E-3,-3.2357126E-3,-3.1459995E-2,2.9292912E-3,-2.1951865E-2],"categories":[],"categories_nodes":[],"categories_segments":[],"categories_sizes":[],"default_left":[1,1,1,1,1,0,0,1,1,1,1,1,1,1,1,0,1,1,1,0,0,1,1,1,0,1,0,0,0,1,1,0,0,0,0,0,0,0,0,0,0,0,0,0,0],"id":26,"left_children":[1,3,5,7,9,-1,-1,11,13,15,17,19,21,23,25,-1,27,29,31,-1,-1,33,35,37,-1,39,-1,-1,-1,41,43,-1,-1,-1,-1,-1,-1,-1,-1,-1,-1,-1,-1,-1,-1],"loss_changes":[1.996909E-2,4.620731E-3,3.4717098E-4,6.1163157E-3,2.910763E-3,0E0,0E0,4.637301E-3,3.54595E-3,1.909386E-3,3.9738715E-3,1.6262755E-3,3.6719814E-3,2.8217663E-3,1.3230895E-3,0E0,8.636661E-5,2.5518239E-3,1.6555153E-3,0E0,0E0,1.2287572E-3,3.6453716E-3,2.3833747E-4,0E0,5.1988114E-4,0E0,0E0,0E0,5.9729815E-4,1.9960161E-3,0E0,0E0,0E0,0E0,0E0,0E0,0E0,0E0,0E0,0E0,0E0,0E0,0E0,0E0],"parents":[2147483647,0,0,1,1,2,2,3,3,4,4,7,7,8,8,9,9,10,10,11,11,12,12,13,13,14,14,16,16,17,17,18,18,21,21,22,22,23,23,25,25,29,29,30,30],"right_children":[2,4,6,8,10,-1,-1,12,14,16,18,20,22,24,26,-1,28,30,32,-1,-1,34,36,38,-1,40,-1,-1,-1,42,44,-1,-1,-1,-1,-1,-1,-1,-1,-1,-1,-1,-1,-1,-1],"split_conditions":[7.577528E-1,3.4968123E-2,4.017661E-2,1.7173472E-1,7.377989E-1,4.899001E-3,2.07007E-2,9.118147E-3,1.0174993E-2,7.0937824E-1,2.1731526E-1,1.8945369E-1,1.5722957E-2,1.0170272E-3,8.9942336E-1,-7.0903287E-3,1.835775E-2,1.3326779E-1,3.8513135E-2,-1.5666865E-2,-3.7096061E-3,2.6348487E-1,1.4758244E-1,1.9984273E-2,-1.2364044E-2,2.2411405E-3,5.5540083E-3,-5.9566053E-4,2.0649456E-3,9.724053E-4,1.3517787E-1,-3.6487284E-3,-1.5222114E-2,-8.86344E-3,-3.8107357E-3,-3.303582E-3,-1.0984993E-2,-2.9903622E-3,1.1578024E-3,1.5227786E-3,-2.0631996E-3,-9.7071385E-4,-9.437999E-3,8.787874E-4,-6.58556E-3],"split_indices":[54,42,0,54,43,0,0,32,27,1,51,21,51,29,4,0,0,54,42,0,0,21,51,0,0,33,0,0,0,3,51,0,0,0,0,0,0,0,0,0,0,0,0,0,0],"split_type":[0,0,0,0,0,0,0,0,0,0,0,0,0,0,0,0,0,0,0,0,0,0,0,0,0,0,0,0,0,0,0,0,0,0,0,0,0,0,0,0,0,0,0,0,0],"sum_hessian":[2.91E2,2.89E2,2E0,1.48E2,1.41E2,1E0,1E0,1.18E2,3E1,8E0,1.33E2,1E1,1.08E2,1E1,2E1,4E0,4E0,1.16E2,1.7E1,8E0,2E0,6.5E1,4.3E1,6E0,4E0,1.8E1,2E0,1E0,3E0,1E2,1.6E1,2E0,1.5E1,5.8E1,7E0,3.7E1,6E0,5E0,1E0,4E0,1.4E1,1E0,9.9E1,4E0,1.2E1],"tree_param":{"num_deleted":"0","num_feature":"57","num_nodes":"45","size_leaf_vector":"0"}},{"base_weights":[-1.815796E-2,-1.8793618E-2,4.93416E-2,-1.9642826E-2,-6.9803065E-3,5.887106E-2,1.5141338E-2,-2.0574013E-2,-1.0112676E-2,-2.0370092E-2,-2.631528E-3,-2.5976656E-2,-1.8351661E-2,5.167432E-4,-2.2556726E-2,-2.4094913E-2,-2.7354062E-3,-7.082183E-3,3.2607317E-3,-1.8629431E-5,-2.7573787E-2,-2.21049E-2,-1.3072951E-2,-1.5661437E-2,1.0171978E-2,-2.8135289E-2,-4.3657804E-3,-9.087312E-3,-1.8026605E-3,6.027636E-3,-1.0130815E-3,2.9111616E-3,-5.868897E-3,-3.9342355E-2,-2.387506E-2,-9.6586365E-3,-2.3975229E-2,-7.811292E-3,-2.8446807E-2,-3.2327985E-3,-1.7500605E-2,-6.558956E-3,1.5174581E-2,-2.3435901E-3,-8.993596E-5,6.7234375E-3,1.6222149E-3,-3.409952E-3,9.2252594E-4],"categories":[],"categories_nodes":[],"categories_segments":[],"categories_sizes":[],"default_left":[1,1,1,1,1,0,0,1,1,1,1,1,1,1,1,0,0,1,1,1,1,1,1,1,1,0,0,0,1,1,1,0,0,0,0,0,0,0,0,0,0,0,0,0,0,0,0,0,0],"id":27,"left_children":[1,3,5,7,9,-1,-1,11,13,15,17,19,21,23,25,-1,-1,27,29,31,33,35,37,39,41,-1,-1,-1,43,45,47,-1,-1,-1,-1,-1,-1,-1,-1,-1,-1,-1,-1,-1,-1,-1,-1,-1,-1],"loss_changes":[1.3456039E-2,2.7721524E-3,8.634338E-5,2.188012E-3,1.1692091E-3,0E0,0E0,2.464898E-3,3.4507543E-3,2.6252074E-4,4.6890814E-4,2.8601103E-3,3.217794E-3,2.5023695E-3,1.0949192E-3,0E0,0E0,8.947996E-5,1.0070835E-4,1.0278562E-4,1.8900633E-3,2.1428503E-3,5.9255837E-3,8.0574304E-5,9.365117E-4,0E0,0E0,0E0,3.495079E-6,4.419635E-6,2.170337E-5,0E0,0E0,0E0,0E0,0E0,0E0,0E0,0E0,0E0,0E0,0E0,0E0,0E0,0E0,0E0,0E0,0E0,0E0],"parents":[2147483647,0,0,1,1,2,2,3,3,4,4,7,7,8,8,9,9,10,10,11,11,12,12,13,13,14,14,17,17,18,18,19,19,20,20,21,21,22,22,23,23,24,24,28,28,29,29,30,30],"right_children":[2,4,6,8,10,-1,-1,12,14,16,18,20,22,24,26,-1,-1,28,30,32,34,36,38,40,42,-1,-1,-1,44,46,48,-1,-1,-1,-1,-1,-1,-1,-1,-1,-1,-1,-1,-1,-1,-1,-1,-1,-1],"split_conditions":[7.577528E-1,2.9593995E-1,4.017661E-2,9.052568E-1,7.424115E-2,1.7661318E-2,4.5424015E-3,2.5567736E-2,8.723347E-1,1.2728956E-2,2.0570898E-1,1.0878175E-3,3.095168E-2,8.5843277E-1,1.0548177E-1,-7.228474E-3,-8.206219E-4,1.9824132E-3,8.283157E-1,7.688078E-1,4.515549E-3,1.7089066E-3,1.14801675E-1,9.1045326E-1,2.0486899E-2,-8.440587E-3,-1.3097342E-3,-2.7261938E-3,1.1868354E-2,8.143691E-1,8.534782E-3,8.733485E-4,-1.7606692E-3,-1.1802707E-2,-7.1625183E-3,-2.897591E-3,-7.192569E-3,-2.3433878E-3,-8.534042E-3,-9.698396E-4,-5.250182E-3,-1.967687E-3,4.5523746E-3,-7.0307706E-4,-2.6980788E-5,2.0170314E-3,4.866645E-4,-1.0229857E-3,2.7675778E-4],"split_indices":[54,15,0,1,54,0,0,32,34,0,23,11,51,46,14,0,0,41,37,1,33,41,53,1,18,0,0,0,0,1,0,0,0,0,0,0,0,0,0,0,0,0,0,0,0,0,0,0,0],"split_type":[0,0,0,0,0,0,0,0,0,0,0,0,0,0,0,0,0,0,0,0,0,0,0,0,0,0,0,0,0,0,0,0,0,0,0,0,0,0,0,0,0,0,0,0,0,0,0,0,0],"sum_hessian":[2.91E2,2.89E2,2E0,2.69E2,2E1,1E0,1E0,2.44E2,2.5E1,4E0,1.6E1,6.8E1,1.76E2,1.4E1,1.1E1,3E0,1E0,9E0,7E0,4E0,6.4E1,1.01E2,7.5E1,5E0,9E0,8E0,3E0,6E0,3E0,4E0,3E0,3E0,1E0,1.3E1,5.1E1,1.4E1,8.7E1,5.7E1,1.8E1,1E0,4E0,2E0,7E0,2E0,1E0,3E0,1E0,1E0,2E0],"tree_param":{"num_deleted":"0","num_feature":"57","num_nodes":"49","size_leaf_vector":"0"}},{"base_weights":[1.5163587E-2,1.280936E-2,1.9296138E-2,1.1637213E-2,2.163239E-2,1.6989568E-2,2.8720815E-2,9.015801E-3,1.48025025E-2,2.60224E-2,6.3202977E-3,1.868067E-2,1.0043016E-2,1.4250576E-3,3.0158076E-2,6.156941E-3,1.4451779E-2,9.792807E-3,1.8718036E-2,2.7231935E-2,3.939688E-3,8.57316E-3,1.209716E-3,6.2006647E-3,2.0241326E-2,-1.6670425E-4,1.3701252E-2,1.4192E-2,3.2405157E-2,4.69377E-3,1.4577012E-2,6.0554477E-3,1.6998246E-2,9.2458725E-4,1.0907267E-2,2.2647452E-2,8.5125705E-3,9.18142E-3,2.9302675E-2,2.3867607E-3,8.774435E-3,1.4054179E-3,2.1208033E-2,-6.7937374E-3,4.8452467E-3,2.0985007E-3,1.5460168E-2,9.3403235E-3,2.2469729E-3,3.489852E-3,1.9538948E-2,3.7850937E-4,7.623357E-3,2.2346864E-2,8.645621E-3,1.5679598E-3,-8.2445145E-4,1.2330979E-2,5.2727237E-3,4.3157637E-3,2.4596654E-2,3.4085447E-3,1.5997302E-2,7.7571273E-3,3.045171E-2,-3.4698844E-4,2.1052163E-3,1.0853162E-2,2.372815E-2,7.626116E-4,5.951921E-3,3.1526983E-3,-4.9471855E-6,1.7959237E-2,8.369625E-3],"categories":[],"categories_nodes":[],"categories_segments":[],"categories_sizes":[],"default_left":[1,1,1,1,1,1,1,1,1,1,1,1,1,0,1,1,1,1,1,1,0,0,0,1,1,1,1,0,0,1,1,1,1,1,1,1,1,0,1,0,0,1,1,0,1,1,1,0,0,0,0,0,0,0,0,0,0,0,0,0,0,0,0,0,0,0,0,0,0,0,0,0,0,0,0],"id":28,"left_children":[1,3,5,7,9,11,13,15,17,19,21,23,25,-1,27,29,31,33,35,37,-1,-1,-1,39,41,43,45,-1,-1,47,49,51,53,55,57,59,61,-1,63,-1,-1,65,67,-1,69,71,73,-1,-1,-1,-1,-1,-1,-1,-1,-1,-1,-1,-1,-1,-1,-1,-1,-1,-1,-1,-1,-1,-1,-1,-1,-1,-1,-1,-1],"loss_changes":[2.5936887E-3,1.7028768E-3,1.7728694E-3,1.2688264E-3,1.2471555E-3,8.226596E-4,7.0241466E-4,1.387388E-3,1.2878682E-3,3.2007135E-4,5.8709513E-5,1.1989269E-3,7.119258E-4,0E0,1.8589385E-4,7.2005903E-4,5.812594E-4,3.3583026E-4,1.451375E-3,2.9162783E-4,0E0,0E0,6.386422E-7,6.740255E-5,1.0627229E-3,2.3220353E-4,2.5327248E-4,0E0,0E0,6.156863E-4,4.269363E-4,7.722285E-5,8.7899715E-4,6.9191237E-6,1.836631E-4,9.300802E-4,4.4210185E-4,0E0,8.561835E-5,0E0,0E0,5.6358103E-6,1.2299176E-3,0E0,1.3533587E-5,6.667946E-6,6.232504E-5,0E0,0E0,0E0,0E0,0E0,0E0,0E0,0E0,0E0,0E0,0E0,0E0,0E0,0E0,0E0,0E0,0E0,0E0,0E0,0E0,0E0,0E0,0E0,0E0,0E0,0E0,0E0,0E0],"parents":[2147483647,0,0,1,1,2,2,3,3,4,4,5,5,6,6,7,7,8,8,9,9,10,10,11,11,12,12,14,14,15,15,16,16,17,17,18,18,19,19,23,23,24,24,25,25,26,26,29,29,30,30,31,31,32,32,33,33,34,34,35,35,36,36,38,38,41,41,42,42,44,44,45,45,46,46],"right_children":[2,4,6,8,10,12,14,16,18,20,22,24,26,-1,28,30,32,34,36,38,-1,-1,-1,40,42,44,46,-1,-1,48,50,52,54,56,58,60,62,-1,64,-1,-1,66,68,-1,70,72,74,-1,-1,-1,-1,-1,-1,-1,-1,-1,-1,-1,-1,-1,-1,-1,-1,-1,-1,-1,-1,-1,-1,-1,-1,-1,-1,-1,-1],"split_conditions":[8.5231996E-1,8.748156E-1,8.854767E-1,4.3417826E-2,1.6602242E-1,8.892003E-1,3.7382324E-3,1.7015295E-1,1.1896352E-2,2.3341905E-1,8.609762E-1,4.612935E-3,8.736288E-1,4.275173E-4,8.194984E-1,8.5936034E-1,7.5660455E-1,6.967614E-1,4.9149334E-2,7.0435926E-3,1.1819066E-3,2.5719479E-3,3.629148E-4,1.8458246E-1,7.7695453E-1,3.418263E-2,7.776646E-3,4.2576003E-3,9.721547E-3,3.278797E-2,8.0970454E-1,1.1053988E-2,8.1884134E-1,7.2313714E-1,8.199343E-1,1.3140859E-2,6.3785255E-2,2.754426E-3,9.961909E-3,7.160282E-4,2.6323306E-3,8.3549017E-1,1.3209473E-2,-2.0381212E-3,7.691143E-2,1.14105396E-1,9.1215634E-1,2.8020972E-3,6.7409186E-4,1.0469556E-3,5.8616847E-3,1.13552815E-4,2.2870072E-3,6.7040594E-3,2.5936863E-3,4.7038795E-4,-2.4733544E-4,3.6992938E-3,1.5818172E-3,1.2947292E-3,7.3789963E-3,1.0225634E-3,4.799191E-3,2.3271383E-3,9.135514E-3,-1.04096536E-4,6.315649E-4,3.2559487E-3,7.1184454E-3,2.287835E-4,1.7855763E-3,9.4580953E-4,-1.4841557E-6,5.3877714E-3,2.5108876E-3],"split_indices":[22,43,4,30,24,43,27,48,54,18,13,3,46,0,46,1,16,49,14,27,0,0,0,21,49,44,21,0,0,50,19,3,28,1,22,27,2,0,9,0,0,1,24,0,0,0,49,0,0,0,0,0,0,0,0,0,0,0,0,0,0,0,0,0,0,0,0,0,0,0,0,0,0,0,0],"split_type":[0,0,0,0,0,0,0,0,0,0,0,0,0,0,0,0,0,0,0,0,0,0,0,0,0,0,0,0,0,0,0,0,0,0,0,0,0,0,0,0,0,0,0,0,0,0,0,0,0,0,0,0,0,0,0,0,0,0,0,0,0,0,0,0,0,0,0,0,0,0,0,0,0,0,0],"sum_hessian":[2.91E2,1.88E2,1.03E2,1.68E2,2E1,8.5E1,1.8E1,9.4E1,7.4E1,1.5E1,5E0,6.7E1,1.8E1,1E0,1.7E1,6.3E1,3.1E1,3.4E1,4E1,1.4E1,1E0,3E0,2E0,8E0,5.9E1,5E0,1.3E1,3E0,1.4E1,5.5E1,8E0,8E0,2.3E1,4E0,3E1,2.8E1,1.2E1,2E0,1.2E1,4E0,4E0,3E0,5.6E1,2E0,3E0,2E0,1.1E1,1.8E1,3.7E1,3E0,5E0,2E0,6E0,1.3E1,1E1,3E0,1E0,2.3E1,7E0,3E0,2.5E1,8E0,4E0,1E0,1.1E1,1E0,2E0,1.2E1,4.4E1,1E0,2E0,1E0,1E0,7E0,4E0],"tree_param":{"num_deleted":"0","num_feature":"57","num_nodes":"75","size_leaf_vector":"0"}},{"base_weights":[-1.8227007E-2,-1.8852934E-2,4.8354983E-2,-2.4332918E-2,-1.6828135E-2,1.3880491E-2,5.8651984E-2,-2.6127813E-2,-2.9078487E-3,-1.4414691E-2,-2.5625264E-2,-2.90426E-2,-1.4475244E-2,-1.2937993E-2,3.6918074E-3,-1.6387118E-2,-4.598046E-3,-3.6601666E-2,-2.0997554E-2,-2.3063125E-2,-3.7625413E-2,-1.9351095E-3,-1.612847E-2,-1.6877055E-3,5.458612E-3,-3.131292E-2,-1.4894777E-2,-1.1253818E-3,-2.1736292E-2,-4.848066E-2,-2.7255265E-2,-8.7469444E-4,-2.1580832E-2,-3.5858601E-3,-2.3530519E-2,-8.879591E-3,-3.8618725E-2,-3.1409673E-3,2.383031E-4,-2.1968212E-3,-1.8267343E-2,-4.354146E-2,-1.6358042E-2,-1.3260901E-2,-2.8705275E-2,-3.3697563E-3,1.7204741E-2,-2.7926639E-3,-2.5774034E-2,-4.9873865E-3,-2.2490494E-2],"categories":[],"categories_nodes":[],"categories_segments":[],"categories_sizes":[],"default_left":[1,1,1,1,1,0,0,1,1,1,1,1,1,0,1,1,1,1,1,1,1,1,1,0,0,1,1,1,1,0,0,0,1,0,0,0,0,0,0,0,0,0,0,0,0,0,0,0,0,0,0],"id":29,"left_children":[1,3,5,7,9,-1,-1,11,13,15,17,19,21,-1,23,25,27,29,31,33,35,37,39,-1,-1,41,43,45,47,-1,-1,-1,49,-1,-1,-1,-1,-1,-1,-1,-1,-1,-1,-1,-1,-1,-1,-1,-1,-1,-1],"loss_changes":[1.308088E-2,2.808325E-3,2.5083357E-4,2.8466545E-3,4.1953623E-3,0E0,0E0,1.9571371E-3,5.1113305E-4,3.2356605E-3,1.5172567E-3,1.954876E-3,3.0049635E-4,0E0,5.6735276E-5,2.6965663E-3,1.7609997E-3,1.0957941E-5,3.8018916E-4,2.3424812E-4,2.5670603E-4,8.61098E-6,3.7704222E-4,0E0,0E0,1.4822623E-3,2.575308E-3,1.1276071E-3,3.104692E-4,0E0,0E0,0E0,3.859466E-4,0E0,0E0,0E0,0E0,0E0,0E0,0E0,0E0,0E0,0E0,0E0,0E0,0E0,0E0,0E0,0E0,0E0,0E0],"parents":[2147483647,0,0,1,1,2,2,3,3,4,4,7,7,8,8,9,9,10,10,11,11,12,12,14,14,15,15,16,16,17,17,18,18,19,19,20,20,21,21,22,22,25,25,26,26,27,27,28,28,32,32],"right_children":[2,4,6,8,10,-1,-1,12,14,16,18,20,22,-1,24,26,28,30,32,34,36,38,40,-1,-1,42,44,46,48,-1,-1,-1,50,-1,-1,-1,-1,-1,-1,-1,-1,-1,-1,-1,-1,-1,-1,-1,-1,-1,-1],"split_conditions":[7.577528E-1,1.9684337E-2,4.017661E-2,3.3727676E-1,1.5153518E-1,4.1641477E-3,1.7595597E-2,8.4909034E-1,7.120602E-1,1.9609961E-1,8.10089E-1,3.6949497E-2,2.0075229E-3,-3.881398E-3,1.2274627E-2,8.984126E-3,8.665281E-1,5.8885634E-2,7.8587234E-1,3.337045E-3,1.3410219E-3,1.73099E-1,8.09072E-1,-5.0631166E-4,1.6375837E-3,5.0213784E-3,1.7599688E-1,1.2363021E-1,8.637388E-1,-1.4544198E-2,-8.17658E-3,-2.6240834E-4,6.086735E-4,-1.0757581E-3,-7.059156E-3,-2.6638773E-3,-1.1585617E-2,-9.4229024E-4,7.149093E-5,-6.5904635E-4,-5.480203E-3,-1.3062439E-2,-4.907413E-3,-3.9782706E-3,-8.611583E-3,-1.0109269E-3,5.1614223E-3,-8.377992E-4,-7.73221E-3,-1.496216E-3,-6.7471485E-3],"split_indices":[54,26,0,51,33,0,0,10,1,54,31,15,24,0,0,32,7,2,37,9,1,0,40,0,0,3,51,36,1,0,0,0,8,0,0,0,0,0,0,0,0,0,0,0,0,0,0,0,0,0,0],"split_type":[0,0,0,0,0,0,0,0,0,0,0,0,0,0,0,0,0,0,0,0,0,0,0,0,0,0,0,0,0,0,0,0,0,0,0,0,0,0,0,0,0,0,0,0,0,0,0,0,0,0,0],"sum_hessian":[2.91E2,2.89E2,2E0,7.5E1,2.14E2,1E0,1E0,6.9E1,6E0,1.7E2,4.4E1,5.4E1,1.5E1,2E0,4E0,1.41E2,2.9E1,1.1E1,3.3E1,3.4E1,2E1,2E0,1.3E1,1E0,3E0,1.1E1,1.3E2,2.5E1,4E0,3E0,8E0,1E0,3.2E1,1E0,3.3E1,1E0,1.9E1,1E0,1E0,2E0,1.1E1,5E0,6E0,1.18E2,1.2E1,2.3E1,2E0,1E0,3E0,2E0,3E1],"tree_param":{"num_deleted":"0","num_feature":"57","num_nodes":"51","size_leaf_vector":"0"}},{"base_weights":[-1.2853552E-2,-1.3376063E-2,4.194035E-2,-2.98971E-2,-1.28617715E-2,5.0040394E-2,1.2870133E-2,-1.6185911E-2,-4.7353778E-2,-1.419313E-2,-4.8843827E-3,-1.2895266E-2,-2.1500628E-2,-6.175408E-3,1.3957421E-2,-1.5658615E-2,-8.088931E-3,-2.741958E-2,-9.3747405E-3,-9.8372055E-3,-1.1533666E-3,-1.672862E-2,-1.0387081E-3,-1.1941211E-2,3.6797416E-3,-1.8910598E-2,-4.416717E-2,-1.5245714E-2,3.0679603E-3,-1.568309E-2,-3.1715531E-3,3.4924662E-3,-5.21928E-3],"categories":[],"categories_nodes":[],"categories_segments":[],"categories_sizes":[],"default_left":[1,1,1,1,1,0,0,0,0,1,1,1,1,1,0,1,1,1,1,1,1,0,0,0,0,0,0,0,0,0,0,0,0],"id":30,"left_children":[1,3,5,7,9,-1,-1,-1,-1,11,13,15,17,19,-1,21,23,25,27,29,31,-1,-1,-1,-1,-1,-1,-1,-1,-1,-1,-1,-1],"loss_changes":[8.921076E-3,2.0794868E-3,6.2383246E-5,1.1483501E-3,2.936352E-3,0E0,0E0,0E0,0E0,2.017904E-3,1.1078534E-3,2.6359074E-3,2.2549871E-3,7.2424195E-4,0E0,2.0319037E-3,3.5801656E-3,2.442386E-3,9.964332E-4,8.4649306E-4,3.582401E-4,0E0,0E0,0E0,0E0,0E0,0E0,0E0,0E0,0E0,0E0,0E0,0E0],"parents":[2147483647,0,0,1,1,2,2,3,3,4,4,9,9,10,10,11,11,12,12,13,13,15,15,16,16,17,17,18,18,19,19,20,20],"right_children":[2,4,6,8,10,-1,-1,-1,-1,12,14,16,18,20,-1,22,24,26,28,30,32,-1,-1,-1,-1,-1,-1,-1,-1,-1,-1,-1,-1],"split_conditions":[7.577528E-1,6.03661E-1,4.017661E-2,2.2107036E-1,1.6178337E-1,1.5012119E-2,3.86104E-3,-4.8557734E-3,-1.4206134E-2,1.2054028E-1,8.7739706E-1,8.5077775E-1,7.6084584E-2,1.14093356E-1,4.1872268E-3,9.0717894E-1,7.2073445E-2,6.750022E-2,2.1506298E-1,8.343302E-1,2.3172427E-2,-5.018586E-3,-3.1161244E-4,-3.5823635E-3,1.1039225E-3,-5.6731794E-3,-1.3250151E-2,-4.5737145E-3,9.203881E-4,-4.704927E-3,-9.51466E-4,1.0477399E-3,-1.565784E-3],"split_indices":[54,4,0,18,20,0,0,0,0,18,16,4,6,53,0,22,56,50,15,31,6,0,0,0,0,0,0,0,0,0,0,0,0],"split_type":[0,0,0,0,0,0,0,0,0,0,0,0,0,0,0,0,0,0,0,0,0,0,0,0,0,0,0,0,0,0,0,0,0],"sum_hessian":[2.91E2,2.89E2,2E0,7E0,2.82E2,1E0,1E0,5E0,2E0,2.41E2,4.1E1,2.07E2,3.4E1,3.9E1,2E0,1.3E2,7.7E1,2.2E1,1.2E1,2.2E1,1.7E1,1.21E2,9E0,5.8E1,1.9E1,1.6E1,6E0,8E0,4E0,1.1E1,1.1E1,8E0,9E0],"tree_param":{"num_deleted":"0","num_feature":"57","num_nodes":"33","size_leaf_vector":"0"}},{"base_weights":[1.0949762E-2,9.878719E-3,1.6462753E-2,8.533209E-3,1.4882386E-2,1.8930485E-2,4.2142402E-3,7.0080445E-3,1.1665968E-2,1.7435202E-2,7.5932783E-3,5.246023E-3,2.0844918E-2,8.104135E-3,-2.6741624E-3,7.4560666E-3,-6.1317445E-3,9.076532E-3,1.9347064E-2,7.7388957E-3,1.943971E-2,-1.5287846E-3,1.0001193E-2,8.872569E-3,1.2146086E-3,1.6670221E-2,3.0125193E-2,9.143675E-3,1.4532208E-3,-5.403906E-3,3.7054222E-5,1.5430602E-2,6.6694883E-3,-8.729473E-3,2.1295846E-3,1.0180796E-2,-2.6771426E-3,2.539445E-2,2.1734E-3,6.699562E-5,8.8253105E-3,2.2247396E-2,1.0416514E-2,4.7010183E-4,-2.3517807E-3,5.343251E-3,1.5453661E-2,1.6617378E-3,-6.338954E-5,2.3440719E-3,1.7814059E-2,2.3002163E-2,9.715997E-3,3.5665253E-5,7.2668088E-3,5.766128E-3,1.29103465E-2,1.4196237E-3,-5.881528E-3,6.806925E-3,3.1513907E-2,-1.9767482E-3,5.5990815E-3,2.5687814E-3,9.439935E-3,9.36086E-3,2.5486914E-2,1.2596837E-2,1.8569231E-3,6.126804E-3,-7.081032E-5,2.9381216E-3,5.7798624E-4,6.997168E-3,1.851104E-2],"categories":[],"categories_nodes":[],"categories_segments":[],"categories_sizes":[],"default_left":[1,1,1,1,1,1,1,1,1,1,1,1,1,1,1,1,1,1,1,1,1,1,1,0,1,1,0,0,0,0,0,1,1,0,0,1,1,1,1,0,1,1,1,0,0,1,0,0,0,1,1,0,0,0,0,0,0,0,0,0,0,0,0,0,0,0,0,0,0,0,0,0,0,0,0],"id":31,"left_children":[1,3,5,7,9,11,13,15,17,19,21,23,25,27,29,31,33,35,37,39,41,43,45,-1,47,49,-1,-1,-1,-1,-1,51,53,-1,-1,55,57,59,61,-1,63,65,67,-1,-1,69,-1,-1,-1,71,73,-1,-1,-1,-1,-1,-1,-1,-1,-1,-1,-1,-1,-1,-1,-1,-1,-1,-1,-1,-1,-1,-1,-1,-1],"loss_changes":[1.5615262E-3,1.5359279E-3,1.3106205E-3,8.5950457E-4,8.16606E-4,8.861702E-4,2.6282825E-4,8.404525E-4,1.077448E-3,5.687019E-4,3.4476683E-4,7.694395E-5,7.76303E-4,2.8195529E-5,2.9803943E-5,7.187957E-4,1.258936E-4,6.6323346E-4,1.5026443E-3,6.608767E-5,5.282881E-4,7.685879E-6,2.2219459E-4,0E0,2.3910575E-6,3.6791153E-4,0E0,0E0,0E0,0E0,3.0643936E-9,2.5246455E-4,4.792055E-4,0E0,0E0,4.678103E-4,7.398764E-5,1.0366882E-3,8.2153405E-5,0E0,2.668763E-6,6.798366E-4,1.4457264E-4,0E0,0E0,3.437148E-5,0E0,0E0,0E0,1.4492343E-6,4.3876003E-5,0E0,0E0,0E0,0E0,0E0,0E0,0E0,0E0,0E0,0E0,0E0,0E0,0E0,0E0,0E0,0E0,0E0,0E0,0E0,0E0,0E0,0E0,0E0,0E0],"parents":[2147483647,0,0,1,1,2,2,3,3,4,4,5,5,6,6,7,7,8,8,9,9,10,10,11,11,12,12,13,13,14,14,15,15,16,16,17,17,18,18,19,19,20,20,21,21,22,22,24,24,25,25,31,31,32,32,35,35,36,36,37,37,38,38,40,40,41,41,42,42,45,45,49,49,50,50],"right_children":[2,4,6,8,10,12,14,16,18,20,22,24,26,28,30,32,34,36,38,40,42,44,46,-1,48,50,-1,-1,-1,-1,-1,52,54,-1,-1,56,58,60,62,-1,64,66,68,-1,-1,70,-1,-1,-1,72,74,-1,-1,-1,-1,-1,-1,-1,-1,-1,-1,-1,-1,-1,-1,-1,-1,-1,-1,-1,-1,-1,-1,-1,-1],"split_conditions":[8.801529E-1,8.715167E-1,9.128783E-1,1.1857128E-1,8.8323057E-1,8.096978E-1,1.0827668E-1,1.03482634E-1,8.371217E-1,1.1080708E-2,3.3282243E-2,1.12662E-2,6.967346E-2,8.9669216E-1,1.4864233E-1,2.469604E-3,1.03121564E-1,8.600979E-1,8.6221004E-1,1.2256627E-2,9.1254306E-1,2.3322023E-2,9.145769E-1,2.6617707E-3,1.228264E-1,2.5312562E-2,9.037558E-3,2.7431026E-3,4.3596627E-4,-1.621172E-3,1.1116267E-5,7.915174E-3,6.6884058E-3,-2.6188418E-3,6.388754E-4,1.6196275E-2,8.160118E-1,7.896607E-1,4.8858188E-2,2.0098687E-5,7.944616E-1,7.968687E-1,8.729717E-1,1.4103056E-4,-7.0553424E-4,1.4649215E-1,4.6360986E-3,4.985214E-4,-1.9016863E-5,5.5246055E-2,6.5591233E-3,6.900649E-3,2.9147991E-3,1.0699576E-5,2.1800427E-3,1.7298386E-3,3.873104E-3,4.2588715E-4,-1.7644585E-3,2.0420775E-3,9.454172E-3,-5.930245E-4,1.6797245E-3,7.7063445E-4,2.8319806E-3,2.8082582E-3,7.6460745E-3,3.7790514E-3,5.5707694E-4,1.8380412E-3,-2.1243097E-5,8.814365E-4,1.7339588E-4,2.0991506E-3,5.553312E-3],"split_indices":[16,46,40,51,25,4,5,53,1,36,2,2,48,4,0,48,0,10,7,6,49,0,46,0,0,32,0,0,0,0,0,9,30,0,0,3,4,16,8,0,1,19,19,0,0,8,0,0,0,0,21,0,0,0,0,0,0,0,0,0,0,0,0,0,0,0,0,0,0,0,0,0,0,0,0],"split_type":[0,0,0,0,0,0,0,0,0,0,0,0,0,0,0,0,0,0,0,0,0,0,0,0,0,0,0,0,0,0,0,0,0,0,0,0,0,0,0,0,0,0,0,0,0,0,0,0,0,0,0,0,0,0,0,0,0,0,0,0,0,0,0,0,0,0,0,0,0,0,0,0,0,0,0],"sum_hessian":[2.91E2,2.46E2,4.5E1,1.96E2,5E1,3.7E1,8E0,1.34E2,6.2E1,3.6E1,1.4E1,5E0,3.2E1,5E0,3E0,1.3E2,4E0,4.8E1,1.4E1,7E0,2.9E1,3E0,1.1E1,2E0,3E0,2.4E1,8E0,4E0,1E0,1E0,2E0,1E1,1.2E2,3E0,1E0,4.4E1,4E0,1E1,4E0,1E0,6E0,2.1E1,8E0,1E0,2E0,7E0,4E0,2E0,1E0,2E0,2.2E1,3E0,7E0,1E1,1.1E2,1.8E1,2.6E1,2E0,2E0,3E0,7E0,2E0,2E0,1E0,5E0,5E0,1.6E1,6E0,2E0,6E0,1E0,1E0,1E0,2E0,2E1],"tree_param":{"num_deleted":"0","num_feature":"57","num_nodes":"75","size_leaf_vector":"0"}},{"base_weights":[-1.3021202E-2,-1.3536193E-2,4.1101735E-2,-1.2007004E-2,-1.7999476E-2,1.1798412E-2,4.985419E-2,-3.2434814E-2,-1.1378153E-2,-1.996205E-2,-8.442954E-3,-1.3271648E-2,-3.8698483E-2,-1.4462108E-2,-6.79815E-3,-1.5406489E-2,-2.5963638E-2,-1.51983965E-2,3.0973677E-3,1.3061389E-3,-1.485413E-2,1.4091526E-3,-1.0856132E-2,-1.6652243E-2,-1.2774048E-3,-2.7664537E-2,-4.8358464E-3,-8.759793E-3,-1.859732E-2,6.1255805E-3,-1.9727051E-3,-3.315245E-3,7.5851455E-3,-1.8096214E-2,-1.2640181E-2,7.621592E-3,-4.503081E-3,-6.3657262E-3,-2.157562E-2,-1.7396852E-2,-3.4072E-3,-7.5476505E-3,3.3285606E-3,-1.9417427E-2,-3.4146424E-2,-5.814176E-3,-1.4395937E-3],"categories":[],"categories_nodes":[],"categories_segments":[],"categories_sizes":[],"default_left":[1,1,1,1,1,0,0,1,1,1,1,0,0,1,1,1,1,1,1,1,1,1,1,1,1,1,1,0,0,0,0,0,0,0,0,0,0,0,0,0,0,0,0,0,0,0,0],"id":32,"left_children":[1,3,5,7,9,-1,-1,11,13,15,17,-1,-1,19,21,23,25,27,29,31,33,35,37,39,41,43,45,-1,-1,-1,-1,-1,-1,-1,-1,-1,-1,-1,-1,-1,-1,-1,-1,-1,-1,-1,-1],"loss_changes":[8.695237E-3,1.7631873E-3,1.8122746E-4,2.4442337E-3,1.1818483E-3,0E0,0E0,2.0659762E-4,2.9243324E-3,1.2130868E-3,1.1385146E-3,0E0,0E0,8.044541E-4,2.9461454E-3,6.1237626E-4,7.286873E-4,3.4050317E-5,1.04203515E-4,1.4121742E-4,6.613098E-4,1.1362024E-3,2.7026124E-3,2.661841E-4,1.4064494E-4,5.130153E-4,1.5979167E-6,0E0,0E0,0E0,0E0,0E0,0E0,0E0,0E0,0E0,0E0,0E0,0E0,0E0,0E0,0E0,0E0,0E0,0E0,0E0,0E0],"parents":[2147483647,0,0,1,1,2,2,3,3,4,4,7,7,8,8,9,9,10,10,13,13,14,14,15,15,16,16,17,17,18,18,19,19,20,20,21,21,22,22,23,23,24,24,25,25,26,26],"right_children":[2,4,6,8,10,-1,-1,12,14,16,18,-1,-1,20,22,24,26,28,30,32,34,36,38,40,42,44,46,-1,-1,-1,-1,-1,-1,-1,-1,-1,-1,-1,-1,-1,-1,-1,-1,-1,-1,-1,-1],"split_conditions":[7.577528E-1,1.0758762E-1,4.017661E-2,6.03661E-1,8.809575E-1,3.5395236E-3,1.4956257E-2,1.6684261E-1,6.0821727E-2,8.2126415E-1,4.724446E-2,-3.981495E-3,-1.1609545E-2,6.96415E-1,1.994828E-2,3.3535305E-1,1.0913479E-1,3.2335103E-2,4.144685E-2,3.153355E-2,2.8050713E-2,5.7704218E-2,8.659984E-1,8.659649E-1,2.092511E-2,4.6807416E-2,1.0429683E-1,-2.627938E-3,-5.579196E-3,1.8376742E-3,-5.9181155E-4,-9.945736E-4,2.2755438E-3,-5.4288646E-3,-3.7920545E-3,2.2864777E-3,-1.3509244E-3,-1.9097179E-3,-6.4726863E-3,-5.219056E-3,-1.02216E-3,-2.2642952E-3,9.985683E-4,-5.8252285E-3,-1.0243928E-2,-1.7442529E-3,-4.3187814E-4],"split_indices":[54,44,0,4,52,0,0,18,54,55,14,0,0,7,45,11,26,29,0,0,2,21,40,49,0,54,0,0,0,0,0,0,0,0,0,0,0,0,0,0,0,0,0,0,0,0,0],"split_type":[0,0,0,0,0,0,0,0,0,0,0,0,0,0,0,0,0,0,0,0,0,0,0,0,0,0,0,0,0,0,0,0,0,0,0,0,0,0,0,0,0,0,0,0,0,0,0],"sum_hessian":[2.91E2,2.89E2,2E0,2.18E2,7.1E1,1E0,1E0,5E0,2.13E2,5.8E1,1.3E1,2E0,3E0,1.26E2,8.7E1,3.5E1,2.3E1,8E0,5E0,3E0,1.23E2,2.9E1,5.8E1,3.2E1,3E0,2.1E1,2E0,4E0,4E0,3E0,2E0,2E0,1E0,4.7E1,7.6E1,1.4E1,1.5E1,4.2E1,1.6E1,3E1,2E0,1E0,2E0,1.1E1,1E1,1E0,1E0],"tree_param":{"num_deleted":"0","num_feature":"57","num_nodes":"47","size_leaf_vector":"0"}},{"base_weights":[-9.108997E-3,-9.5406035E-3,3.564928E-2,-2.331071E-2,-9.11763E-3,4.253432E-2,1.0939598E-2,-1.2139434E-2,-3.788302E-2,-1.0285111E-2,-4.0908875E-3,-9.115564E-3,-1.869745E-2,3.2161782E-4,-1.1250259E-2,-1.2340325E-2,-6.4379624E-3,-2.1840371E-2,-5.005185E-4,7.310602E-3,-5.2856505E-3,-4.4764993E-3,-2.4158278E-2,2.7440225E-3,-1.3437385E-2,-1.1682612E-2,-4.913529E-4,-1.0907926E-2,-2.9410873E-2,8.4578496E-4,-1.6799824E-3,1.0781257E-2,-2.481091E-3,-1.4324293E-2,-3.88783E-4,-1.9827807E-2,1.013645E-3],"categories":[],"categories_nodes":[],"categories_segments":[],"categories_sizes":[],"default_left":[1,1,1,1,1,0,0,0,0,1,1,1,1,1,1,1,1,1,1,1,1,1,0,0,0,0,0,0,0,0,0,0,0,0,0,0,0],"id":33,"left_children":[1,3,5,7,9,-1,-1,-1,-1,11,13,15,17,19,21,23,25,27,29,31,33,35,-1,-1,-1,-1,-1,-1,-1,-1,-1,-1,-1,-1,-1,-1,-1],"loss_changes":[5.980959E-3,1.4765337E-3,4.507322E-5,8.424525E-4,1.6187467E-3,0E0,0E0,0E0,0E0,2.0826086E-3,1.7411102E-3,1.6733836E-3,1.5332391E-3,1.4102601E-3,1.7280078E-3,1.5427796E-3,3.5184897E-3,1.5827641E-3,9.360485E-6,5.704867E-4,8.7965163E-4,1.2843118E-3,0E0,0E0,0E0,0E0,0E0,0E0,0E0,0E0,0E0,0E0,0E0,0E0,0E0,0E0,0E0],"parents":[2147483647,0,0,1,1,2,2,3,3,4,4,9,9,10,10,11,11,12,12,13,13,14,14,15,15,16,16,17,17,18,18,19,19,20,20,21,21],"right_children":[2,4,6,8,10,-1,-1,-1,-1,12,14,16,18,20,22,24,26,28,30,32,34,36,-1,-1,-1,-1,-1,-1,-1,-1,-1,-1,-1,-1,-1,-1,-1],"split_conditions":[7.577528E-1,6.03661E-1,4.017661E-2,2.2107036E-1,1.2594873E-1,1.2760297E-2,3.2818795E-3,-3.6418303E-3,-1.1364907E-2,1.14801675E-1,2.440041E-1,8.3077645E-1,1.4590654E-1,8.283894E-1,8.193308E-1,1.0224849E-3,2.0299569E-2,3.482671E-2,5.682592E-2,2.9514068E-1,5.6435643E-3,3.6949497E-2,-7.247484E-3,8.232068E-4,-4.031216E-3,-3.5047836E-3,-1.4740588E-4,-3.272378E-3,-8.8232625E-3,2.537355E-4,-5.0399476E-4,3.2343774E-3,-7.443274E-4,-4.297288E-3,-1.166349E-4,-5.9483424E-3,3.040935E-4],"split_indices":[54,4,0,18,56,0,0,0,0,53,48,37,17,52,40,5,54,17,3,18,36,18,0,0,0,0,0,0,0,0,0,0,0,0,0,0,0],"split_type":[0,0,0,0,0,0,0,0,0,0,0,0,0,0,0,0,0,0,0,0,0,0,0,0,0,0,0,0,0,0,0,0,0,0,0,0,0],"sum_hessian":[2.91E2,2.89E2,2E0,7E0,2.82E2,1E0,1E0,5E0,2E0,2.28E2,5.4E1,2.02E2,2.6E1,3.4E1,2E1,9E1,1.12E2,2.2E1,4E0,1.5E1,1.9E1,1.4E1,6E0,6E0,8.4E1,5.9E1,5.3E1,1E1,1.2E1,2E0,2E0,1.1E1,4E0,6E0,1.3E1,3E0,1.1E1],"tree_param":{"num_deleted":"0","num_feature":"57","num_nodes":"37","size_leaf_vector":"0"}},{"base_weights":[7.91699E-3,6.546672E-3,1.0331154E-2,2.0053769E-2,6.1462275E-3,1.5075797E-2,7.913562E-3,4.7812182E-3,8.652242E-3,1.0283918E-2,2.5547916E-2,4.5741643E-3,1.0858571E-2,3.5789122E-3,9.303009E-3,6.154289E-3,1.5196331E-2,1.5415641E-2,4.361125E-3,3.9324164E-3,2.7512703E-2,2.2028992E-3,1.3744525E-2,1.1846123E-2,-2.50265E-4,2.5483125E-3,9.580488E-3,6.4229304E-3,1.4620312E-2,1.0872334E-2,3.680258E-3,1.8411156E-2,1.4536083E-4,4.8199655E-3,1.9589279E-2,-2.5121272E-3,5.14324E-3,7.086533E-3,-3.4906267E-4,2.1332204E-3,1.5324205E-2,8.147693E-3,1.5065277E-2,8.62658E-4,-1.794517E-3,4.52448E-3,3.1719412E-4,1.278758E-3,1.4050477E-2,7.3136613E-3,-4.6861172E-4,3.2833815E-3,1.5770819E-2,-5.5315095E-4,1.2544057E-2,8.079156E-3,2.1852027E-3,6.578952E-3,2.1040034E-2,-2.9271245E-3,2.1452308E-3,4.5114756E-4,5.799383E-3,2.293694E-3,6.2813014E-3,2.9774667E-3,9.329666E-3,-2.9749572E-3,3.1909149E-3,1.0642375E-2,-4.6695472E-4,5.735648E-3,1.7494729E-2],"categories":[],"categories_nodes":[],"categories_segments":[],"categories_sizes":[],"default_left":[1,1,1,0,1,1,1,1,1,1,1,1,1,1,1,1,1,1,1,0,0,1,1,1,1,1,1,1,1,1,1,1,1,1,0,0,1,1,1,0,0,1,1,0,0,0,0,0,0,0,0,0,0,0,0,0,0,0,0,0,0,0,0,0,0,0,0,0,0,0,0,0,0],"id":34,"left_children":[1,3,5,-1,7,9,11,13,15,17,19,21,23,25,27,29,31,33,35,-1,-1,37,39,41,43,45,47,49,51,53,55,57,59,61,-1,-1,63,65,67,-1,-1,69,71,-1,-1,-1,-1,-1,-1,-1,-1,-1,-1,-1,-1,-1,-1,-1,-1,-1,-1,-1,-1,-1,-1,-1,-1,-1,-1,-1,-1,-1,-1],"loss_changes":[8.983519E-4,8.99015E-4,1.0736408E-3,0E0,5.9146713E-4,1.4434257E-3,6.485847E-4,6.2996754E-4,9.526741E-4,6.9262367E-4,3.1650718E-4,7.308095E-4,4.088753E-4,5.8173784E-4,2.889512E-4,5.2027137E-4,8.198903E-4,4.8047304E-4,8.280424E-5,0E0,0E0,3.638963E-4,9.570515E-5,2.820501E-4,8.422589E-6,3.7333526E-4,5.0155376E-4,1.1392048E-4,5.2564195E-5,3.1254254E-4,1.9937314E-4,2.9705418E-4,3.0857642E-5,1.8778112E-5,0E0,0E0,2.4508103E-5,6.439304E-5,1.9540498E-4,0E0,0E0,3.9180403E-4,2.8497656E-4,0E0,0E0,0E0,0E0,0E0,0E0,0E0,0E0,0E0,0E0,0E0,0E0,0E0,0E0,0E0,0E0,0E0,0E0,0E0,0E0,0E0,0E0,0E0,0E0,0E0,0E0,0E0,0E0,0E0,0E0],"parents":[2147483647,0,0,1,1,2,2,4,4,5,5,6,6,7,7,8,8,9,9,10,10,11,11,12,12,13,13,14,14,15,15,16,16,17,17,18,18,21,21,22,22,23,23,24,24,25,25,26,26,27,27,28,28,29,29,30,30,31,31,32,32,33,33,36,36,37,37,38,38,41,41,42,42],"right_children":[2,4,6,-1,8,10,12,14,16,18,20,22,24,26,28,30,32,34,36,-1,-1,38,40,42,44,46,48,50,52,54,56,58,60,62,-1,-1,64,66,68,-1,-1,70,72,-1,-1,-1,-1,-1,-1,-1,-1,-1,-1,-1,-1,-1,-1,-1,-1,-1,-1,-1,-1,-1,-1,-1,-1,-1,-1,-1,-1,-1,-1],"split_conditions":[8.5231996E-1,1.5299962E-3,1.3510799E-2,6.016131E-3,6.746571E-2,1.90088E-2,8.555496E-1,8.592597E-1,6.977245E-2,2.7042234E-2,8.209289E-1,2.2383434E-1,1.600394E-1,2.980351E-1,1.5387166E-1,1.8503666E-2,8.817889E-1,7.7262974E-1,1.7707305E-2,1.1797249E-3,8.253811E-3,2.766946E-2,7.713457E-4,2.130297E-2,6.8637826E-2,6.5932915E-2,7.624715E-1,1.6428088E-1,8.6767465E-1,7.486143E-1,7.361763E-1,7.7300966E-1,3.65279E-2,7.549953E-1,5.8767837E-3,-7.5363816E-4,8.437374E-1,8.367909E-1,8.643556E-1,6.3996617E-4,4.5972615E-3,8.606231E-1,3.2304075E-2,2.5879743E-4,-5.3835515E-4,1.3573441E-3,9.515824E-5,3.8362743E-4,4.215143E-3,2.1940984E-3,-1.4058352E-4,9.850145E-4,4.731246E-3,-1.659453E-4,3.7632172E-3,2.423747E-3,6.555608E-4,1.9736858E-3,6.3120103E-3,-8.7813736E-4,6.435693E-4,1.3534428E-4,1.739815E-3,6.8810827E-4,1.8843905E-3,8.9324004E-4,2.7989E-3,-8.924872E-4,9.572745E-4,3.1927126E-3,-1.4008643E-4,1.7206945E-3,5.248419E-3],"split_indices":[22,30,30,0,32,36,10,1,56,38,1,30,45,48,6,39,7,1,2,0,0,50,2,15,0,17,16,56,1,31,28,16,0,1,0,0,55,7,28,0,0,34,38,0,0,0,0,0,0,0,0,0,0,0,0,0,0,0,0,0,0,0,0,0,0,0,0,0,0,0,0,0,0],"split_type":[0,0,0,0,0,0,0,0,0,0,0,0,0,0,0,0,0,0,0,0,0,0,0,0,0,0,0,0,0,0,0,0,0,0,0,0,0,0,0,0,0,0,0,0,0,0,0,0,0,0,0,0,0,0,0,0,0,0,0,0,0,0,0,0,0,0,0,0,0,0,0,0,0],"sum_hessian":[2.91E2,1.88E2,1.03E2,4E0,1.84E2,3.3E1,7E1,1.21E2,6.3E1,2.4E1,9E0,3.4E1,3.6E1,9.7E1,2.4E1,4.7E1,1.6E1,1.2E1,1.2E1,1E0,8E0,2.8E1,6E0,3.3E1,3E0,8.4E1,1.3E1,1.7E1,7E0,1.5E1,3.2E1,1.3E1,3E0,4E0,8E0,1E0,1.1E1,9E0,1.9E1,1E0,5E0,1.7E1,1.6E1,2E0,1E0,4.4E1,4E1,5E0,8E0,1.5E1,2E0,1E0,6E0,2E0,1.3E1,7E0,2.5E1,3E0,1E1,1E0,2E0,1E0,3E0,4E0,7E0,4E0,5E0,1.1E1,8E0,1.3E1,4E0,4E0,1.2E1],"tree_param":{"num_deleted":"0","num_feature":"57","num_nodes":"73","size_leaf_vector":"0"}},{"base_weights":[-9.269619E-3,-9.69496E-3,3.4936488E-2,-1.0045548E-2,5.913883E-3,1.002866E-2,4.237607E-2,-1.0639635E-2,-2.0986586E-3,-5.645654E-3,1.599495E-2,-1.34473555E-2,-8.845614E-3,-6.420586E-3,3.2975196E-3,-7.16256E-3,-5.4746866E-4,-1.240025E-2,-2.277329E-2,-6.5122033E-3,-1.3888032E-2,-1.0328492E-4,-1.0918189E-2,-1.1333997E-3,7.955119E-3,-1.3000159E-2,-1.5348778E-3,-2.7926032E-2,-9.350857E-3,-1.0405233E-2,-2.2943292E-3,-2.2005826E-2,-1.05317915E-2,-4.217908E-3,3.0085035E-3,-1.6094198E-3,-1.4319812E-2,1.0944009E-3,-2.5209002E-3],"categories":[],"categories_nodes":[],"categories_segments":[],"categories_sizes":[],"default_left":[1,1,1,1,1,0,0,1,1,1,0,1,1,1,1,0,0,1,1,1,1,1,1,1,0,0,0,0,0,0,0,0,0,0,0,0,0,0,0],"id":35,"left_children":[1,3,5,7,9,-1,-1,11,13,15,-1,17,19,21,23,-1,-1,25,27,29,31,33,35,37,-1,-1,-1,-1,-1,-1,-1,-1,-1,-1,-1,-1,-1,-1,-1],"loss_changes":[5.829079E-3,1.646366E-3,1.3093627E-4,1.3184771E-3,9.0602925E-4,0E0,0E0,1.210846E-3,5.109317E-4,2.701259E-5,0E0,7.038936E-4,1.8391879E-3,3.3982482E-4,2.1539078E-4,0E0,0E0,5.862415E-4,3.6132848E-4,1.848042E-3,1.1577476E-3,8.951261E-5,1.9860797E-4,2.1305323E-5,0E0,0E0,0E0,0E0,0E0,0E0,0E0,0E0,0E0,0E0,0E0,0E0,0E0,0E0,0E0],"parents":[2147483647,0,0,1,1,2,2,3,3,4,4,7,7,8,8,9,9,11,11,12,12,13,13,14,14,17,17,18,18,19,19,20,20,21,21,22,22,23,23],"right_children":[2,4,6,8,10,-1,-1,12,14,16,-1,18,20,22,24,-1,-1,26,28,30,32,34,36,38,-1,-1,-1,-1,-1,-1,-1,-1,-1,-1,-1,-1,-1,-1,-1],"split_conditions":[7.577528E-1,9.460686E-1,4.017661E-2,2.9593995E-1,3.2188874E-2,3.0085982E-3,1.2712822E-2,1.7771352E-2,8.190291E-1,7.429791E-2,4.798485E-3,3.6080667E-1,1.5153518E-1,7.658003E-2,8.085244E-1,-2.148768E-3,-1.642406E-4,3.2167637E-1,3.6960095E-1,3.622129E-2,8.0831206E-1,1.6999794E-2,1.8148766E-3,7.5613517E-1,2.3865358E-3,-3.9000476E-3,-4.6046337E-4,-8.37781E-3,-2.8052572E-3,-3.12157E-3,-6.882988E-4,-6.601748E-3,-3.1595377E-3,-1.2653724E-3,9.0255105E-4,-4.8282597E-4,-4.295944E-3,3.2832028E-4,-7.562701E-4],"split_indices":[54,40,0,15,11,0,0,27,37,0,0,14,33,45,7,0,0,14,9,5,31,6,35,7,0,0,0,0,0,0,0,0,0,0,0,0,0,0,0],"split_type":[0,0,0,0,0,0,0,0,0,0,0,0,0,0,0,0,0,0,0,0,0,0,0,0,0,0,0,0,0,0,0,0,0,0,0,0,0,0,0],"sum_hessian":[2.91E2,2.89E2,2E0,2.83E2,6E0,1E0,1E0,2.63E2,2E1,3E0,3E0,1E2,1.63E2,1.1E1,9E0,2E0,1E0,9.2E1,8E0,1.13E2,5E1,5E0,6E0,5E0,4E0,8.7E1,5E0,5E0,3E0,5.8E1,5.5E1,1.3E1,3.7E1,2E0,3E0,2E0,4E0,2E0,3E0],"tree_param":{"num_deleted":"0","num_feature":"57","num_nodes":"39","size_leaf_vector":"0"}},{"base_weights":[-6.4892652E-3,-6.8474864E-3,3.030189E-2,-6.4641773E-3,-1.955111E-2,3.615418E-2,9.298652E-3,-1.0677846E-2,-5.258269E-3,-2.1721583E-2,-2.1789018E-3,-1.9025713E-2,-4.523186E-3,-3.7665698E-3,-1.0314384E-2,-3.3347584E-2,-1.3061773E-2,2.3112483E-3,-1.1865715E-2,-8.722335E-3,-1.9561653E-3,-1.172665E-2,3.62053E-5,-8.1192255E-3,-3.6199108E-2,4.3558497E-3,-1.4207745E-2,9.156351E-3,-5.8087584E-4,-1.4737083E-2,7.4034906E-3,-9.463106E-3,5.049759E-3,7.452511E-4,-7.313506E-3,-8.794371E-3,-1.804252E-2,6.787916E-3,-4.0220623E-3],"categories":[],"categories_nodes":[],"categories_segments":[],"categories_sizes":[],"default_left":[1,1,1,1,1,0,0,1,1,0,0,1,1,1,1,1,1,1,1,1,1,1,1,0,0,0,0,0,0,0,0,0,0,0,0,0,0,0,0],"id":36,"left_children":[1,3,5,7,9,-1,-1,11,13,-1,-1,15,17,19,21,23,25,27,29,31,33,35,37,-1,-1,-1,-1,-1,-1,-1,-1,-1,-1,-1,-1,-1,-1,-1,-1],"loss_changes":[4.0558698E-3,1.2857486E-3,3.2566022E-5,1.3818601E-3,2.5431812E-4,0E0,0E0,3.0993973E-3,1.6355193E-3,0E0,0E0,1.7852057E-3,1.8841596E-3,1.5350834E-3,7.3131453E-4,2.0966586E-4,4.6108896E-4,4.0125643E-4,1.1050277E-3,5.170775E-4,1.8579187E-3,6.5620244E-4,2.1910314E-4,0E0,0E0,0E0,0E0,0E0,0E0,0E0,0E0,0E0,0E0,0E0,0E0,0E0,0E0,0E0,0E0],"parents":[2147483647,0,0,1,1,2,2,3,3,4,4,7,7,8,8,11,11,12,12,13,13,14,14,15,15,16,16,17,17,18,18,19,19,20,20,21,21,22,22],"right_children":[2,4,6,8,10,-1,-1,12,14,-1,-1,16,18,20,22,24,26,28,30,32,34,36,38,-1,-1,-1,-1,-1,-1,-1,-1,-1,-1,-1,-1,-1,-1,-1,-1],"split_conditions":[7.577528E-1,9.3533146E-1,4.017661E-2,8.208469E-3,1.8300284E-2,1.0846254E-2,2.7895959E-3,6.8941385E-2,1.4821576E-1,-6.516475E-3,-6.536706E-4,2.1027417E-3,2.0054916E-3,1.1453902E-2,4.770075E-1,1.114043E-3,6.086735E-4,1.3108143E-1,8.674936E-1,1.4710177E-1,1.03502475E-1,8.427652E-1,2.238343E-1,-2.4357678E-3,-1.08597325E-2,1.306755E-3,-4.2623235E-3,2.7469054E-3,-1.7426276E-4,-4.421125E-3,2.2210472E-3,-2.838932E-3,1.5149278E-3,2.2357533E-4,-2.1940519E-3,-2.6383114E-3,-5.412756E-3,2.036375E-3,-1.2066187E-3],"split_indices":[54,28,0,6,0,0,0,26,8,0,0,41,41,54,11,2,8,21,28,9,42,13,17,0,0,0,0,0,0,0,0,0,0,0,0,0,0,0,0],"split_type":[0,0,0,0,0,0,0,0,0,0,0,0,0,0,0,0,0,0,0,0,0,0,0,0,0,0,0,0,0,0,0,0,0,0,0,0,0,0,0],"sum_hessian":[2.91E2,2.89E2,2E0,2.82E2,7E0,1E0,1E0,6.1E1,2.21E2,6E0,1E0,2.5E1,3.6E1,1.72E2,4.9E1,6E0,1.9E1,1.9E1,1.7E1,4.5E1,1.27E2,4.3E1,6E0,1E0,5E0,1E0,1.8E1,5E0,1.4E1,1.5E1,2E0,4.3E1,2E0,8.5E1,4.2E1,3.1E1,1.2E1,2E0,4E0],"tree_param":{"num_deleted":"0","num_feature":"57","num_nodes":"39","size_leaf_vector":"0"}},{"base_weights":[5.7895244E-3,4.765571E-3,7.5946944E-3,1.6802967E-2,4.481081E-3,1.11120045E-2,5.803381E-3,1.2610291E-2,4.14005E-3,2.0656325E-2,7.872502E-3,1.3536404E-2,5.012449E-3,3.5521388E-4,1.4593601E-2,-8.030772E-3,4.321918E-3,3.8346648E-4,2.3497667E-2,3.9611366E-3,1.0737519E-2,3.1043321E-3,7.6536424E-3,-1.0422915E-2,-1.6232431E-3,3.1866718E-3,6.61576E-3,1.7641849E-3,7.123423E-3,1.2124401E-2,1.1485219E-3,6.3172914E-3,9.2386483E-4,5.6598387E-3,1.2541677E-2,4.2213844E-3,-1.1711841E-3,9.966163E-3,2.9216963E-3,-2.1353066E-3,2.5185347E-3,1.5585433E-2,8.013077E-3,2.0408332E-3,9.416666E-3,4.580802E-3,-1.4194623E-3,-1.5370647E-3,6.4983056E-3],"categories":[],"categories_nodes":[],"categories_segments":[],"categories_sizes":[],"default_left":[1,1,1,0,1,1,1,1,1,1,1,0,1,0,0,1,1,0,0,1,1,1,1,0,0,1,1,1,0,1,0,1,1,1,0,0,0,0,0,0,0,0,0,0,0,0,0,0,0],"id":37,"left_children":[1,3,5,-1,7,9,11,13,15,17,19,-1,21,-1,-1,23,25,-1,-1,27,29,31,33,-1,-1,35,37,39,-1,41,-1,43,45,47,-1,-1,-1,-1,-1,-1,-1,-1,-1,-1,-1,-1,-1,-1,-1],"loss_changes":[5.0354283E-4,5.719387E-4,5.907756E-4,0E0,4.6344264E-4,8.8862376E-4,3.6640652E-4,1.649555E-4,4.3313438E-4,4.5180647E-4,2.600326E-4,0E0,3.0886126E-4,0E0,0E0,2.906425E-5,4.4244318E-4,0E0,0E0,7.7749035E-5,1.8555694E-4,2.7439377E-4,1.9215222E-4,0E0,0E0,5.5054866E-4,6.887249E-4,3.185207E-5,0E0,6.0095335E-5,8.9946707E-7,1.928517E-4,2.2073726E-4,1.3671E-4,0E0,0E0,0E0,0E0,0E0,0E0,0E0,0E0,0E0,0E0,0E0,0E0,0E0,0E0,0E0],"parents":[2147483647,0,0,1,1,2,2,4,4,5,5,6,6,7,7,8,8,9,9,10,10,12,12,15,15,16,16,19,19,20,20,21,21,22,22,25,25,26,26,27,27,29,29,31,31,32,32,33,33],"right_children":[2,4,6,-1,8,10,12,14,16,18,20,-1,22,-1,-1,24,26,-1,-1,28,30,32,34,-1,-1,36,38,40,-1,42,-1,44,46,48,-1,-1,-1,-1,-1,-1,-1,-1,-1,-1,-1,-1,-1,-1,-1],"split_conditions":[8.5231996E-1,1.2546144E-3,1.3510799E-2,5.04089E-3,1.5763337E-3,8.463189E-1,6.9413707E-3,1.934147E-3,9.5806667E-4,7.688078E-1,2.6080595E-2,4.0609213E-3,1.3585861E-1,1.0656417E-4,4.3780804E-3,3.1455476E-2,9.881204E-2,1.1503995E-4,7.0493002E-3,3.1062637E-2,9.072125E-1,8.445085E-1,5.2321803E-2,-3.1268748E-3,-4.8697295E-4,4.2685222E-2,1.0193047E-1,1.7707305E-2,2.137027E-3,3.2086693E-2,3.4455658E-4,8.6384606E-1,3.4583636E-2,8.0692637E-1,3.7625032E-3,1.2664153E-3,-3.5135524E-4,2.989849E-3,8.7650894E-4,-6.40592E-4,7.555604E-4,4.67563E-3,2.4039233E-3,6.1225E-4,2.8249999E-3,1.3742406E-3,-4.258387E-4,-4.6111943E-4,1.9494918E-3],"split_indices":[22,30,30,0,0,40,51,3,36,1,32,0,33,0,0,0,54,0,0,21,1,34,56,0,0,54,20,2,0,6,0,19,53,4,0,0,0,0,0,0,0,0,0,0,0,0,0,0,0],"split_type":[0,0,0,0,0,0,0,0,0,0,0,0,0,0,0,0,0,0,0,