{"learner":{"attributes":{"best_iteration":"199","best_ntree_limit":"200","scikit_learn":"{\"n_estimators\": 200, \"objective\": \"reg:squarederror\", \"max_depth\": null, \"max_leaves\": null, \"max_bin\": null, \"grow_policy\": null, \"learning_rate\": null, \"verbosity\": null, \"booster\": null, \"tree_method\": null, \"gamma\": null, \"min_child_weight\": null, \"max_delta_step\": null, \"subsample\": null, \"sampling_method\": null, \"colsample_bytree\": null, \"colsample_bylevel\": null, \"colsample_bynode\": null, \"reg_alpha\": null, \"reg_lambda\": null, \"scale_pos_weight\": null, \"base_score\": null, \"missing\": NaN, \"num_parallel_tree\": null, \"random_state\": 42, \"n_jobs\": null, \"monotone_constraints\": null, \"interaction_constraints\": null, \"importance_type\": null, \"gpu_id\": null, \"validate_parameters\": null, \"predictor\": null, \"enable_categorical\": false, \"max_cat_to_onehot\": null, \"eval_metric\": null, \"early_stopping_rounds\": null, \"callbacks\": null, \"_estimator_type\": \"regressor\"}"},"feature_names":[],"feature_types":[],"gradient_booster":{"model":{"gbtree_model_param":{"num_parallel_tree":"1","num_trees":"600","size_leaf_vector":"0"},"tree_info":[0,1,2,0,1,2,0,1,2,0,1,2,0,1,2,0,1,2,0,1,2,0,1,2,0,1,2,0,1,2,0,1,2,0,1,2,0,1,2,0,1,2,0,1,2,0,1,2,0,1,2,0,1,2,0,1,2,0,1,2,0,1,2,0,1,2,0,1,2,0,1,2,0,1,2,0,1,2,0,1,2,0,1,2,0,1,2,0,1,2,0,1,2,0,1,2,0,1,2,0,1,2,0,1,2,0,1,2,0,1,2,0,1,2,0,1,2,0,1,2,0,1,2,0,1,2,0,1,2,0,1,2,0,1,2,0,1,2,0,1,2,0,1,2,0,1,2,0,1,2,0,1,2,0,1,2,0,1,2,0,1,2,0,1,2,0,1,2,0,1,2,0,1,2,0,1,2,0,1,2,0,1,2,0,1,2,0,1,2,0,1,2,0,1,2,0,1,2,0,1,2,0,1,2,0,1,2,0,1,2,0,1,2,0,1,2,0,1,2,0,1,2,0,1,2,0,1,2,0,1,2,0,1,2,0,1,2,0,1,2,0,1,2,0,1,2,0,1,2,0,1,2,0,1,2,0,1,2,0,1,2,0,1,2,0,1,2,0,1,2,0,1,2,0,1,2,0,1,2,0,1,2,0,1,2,0,1,2,0,1,2,0,1,2,0,1,2,0,1,2,0,1,2,0,1,2,0,1,2,0,1,2,0,1,2,0,1,2,0,1,2,0,1,2,0,1,2,0,1,2,0,1,2,0,1,2,0,1,2,0,1,2,0,1,2,0,1,2,0,1,2,0,1,2,0,1,2,0,1,2,0,1,2,0,1,2,0,1,2,0,1,2,0,1,2,0,1,2,0,1,2,0,1,2,0,1,2,0,1,2,0,1,2,0,1,2,0,1,2,0,1,2,0,1,2,0,1,2,0,1,2,0,1,2,0,1,2,0,1,2,0,1,2,0,1,2,0,1,2,0,1,2,0,1,2,0,1,2,0,1,2,0,1,2,0,1,2,0,1,2,0,1,2,0,1,2,0,1,2,0,1,2,0,1,2,0,1,2,0,1,2,0,1,2,0,1,2,0,1,2,0,1,2,0,1,2,0,1,2,0,1,2,0,1,2,0,1,2,0,1,2,0,1,2,0,1,2,0,1,2,0,1,2,0,1,2,0,1,2,0,1,2,0,1,2,0,1,2,0,1,2,0,1,2,0,1,2,0,1,2,0,1,2,0,1,2,0,1,2,0,1,2,0,1,2,0,1,2,0,1,2,0,1,2,0,1,2,0,1,2,0,1,2,0,1,2,0,1,2,0,1,2,0,1,2,0,1,2,0,1,2,0,1,2,0,1,2,0,1,2],"trees":[{"base_weights":[-4.006356E-1,-4.3605438E-1,-2.3947136E-1,-4.548327E-1,-3.577876E-1,-2.657846E-1,2.2627974E-1,-4.6033633E-1,-2.9547337E-1,-1.6586147E-1,-3.732195E-1,-1.4102767E-1,-3.1930357E-1,-3.7798807E-1,-9.600644E-2,-1.591994E-1,-1.5274326E-2,-3.249986E-1,-7.707398E-2,-1.8434754E-1,-5.652918E-2,-8.844027E-2,-3.3028853E-1,-5.4701537E-2,-1.9267471E-1],"categories":[],"categories_nodes":[],"categories_segments":[],"categories_sizes":[],"default_left":[1,1,1,1,1,1,0,0,0,0,1,1,1,0,0,1,0,1,0,1,0,0,0,0,0],"id":0,"left_children":[1,3,5,7,9,11,-1,-1,-1,-1,13,15,17,-1,-1,19,-1,21,-1,23,-1,-1,-1,-1,-1],"loss_changes":[1.2826805E0,1.2827301E-1,6.238909E-1,8.010864E-4,6.5454006E-2,2.4875116E-1,0E0,0E0,0E0,0E0,1.5265465E-2,3.184566E-2,1.6336203E-2,0E0,0E0,2.3144543E-2,0E0,7.0791245E-3,0E0,2.5621057E-4,0E0,0E0,0E0,0E0,0E0],"parents":[2147483647,0,0,1,1,2,2,3,3,4,4,5,5,10,10,11,11,12,12,15,15,17,17,19,19],"right_children":[2,4,6,8,10,12,-1,-1,-1,-1,14,16,18,-1,-1,20,-1,22,-1,24,-1,-1,-1,-1,-1],"split_conditions":[1.8272918E-1,8.332673E-2,7.576035E-1,3.448425E-1,4.6917563E-3,2.0748319E-3,6.788392E-2,-1.381009E-1,-8.8642016E-2,-4.9758445E-2,9.7485244E-1,2.154471E-1,3.856134E-1,-1.1339643E-1,-2.8801933E-2,8.488703E-1,-4.582298E-3,7.4551506E-3,-2.3122193E-2,7.4551506E-3,-1.6958755E-2,-2.6532082E-2,-9.908656E-2,-1.6410463E-2,-5.7802416E-2],"split_indices":[45,45,45,14,36,38,0,0,0,0,25,44,6,0,0,7,0,0,0,3,0,0,0,0,0],"split_type":[0,0,0,0,0,0,0,0,0,0,0,0,0,0,0,0,0,0,0,0,0,0,0,0,0],"sum_hessian":[2.42E2,1.97E2,4.5E1,1.55E2,4.2E1,4.3E1,2E0,1.48E2,7E0,4E0,3.8E1,1.4E1,2.9E1,3.7E1,1E0,1.2E1,2E0,2.8E1,1E0,9E0,3E0,1E0,2.7E1,1E0,8E0],"tree_param":{"num_deleted":"0","num_feature":"48","num_nodes":"25","size_leaf_vector":"0"}},{"base_weights":[3.4468725E-1,2.6108217E-1,3.7188303E-1,2.0053126E-1,2.758266E-1],"categories":[],"categories_nodes":[],"categories_segments":[],"categories_sizes":[],"default_left":[1,1,0,0,0],"id":1,"left_children":[1,3,-1,-1,-1],"loss_changes":[4.5541763E-1,9.3364716E-4,0E0,0E0,0E0],"parents":[2147483647,0,0,1,1],"right_children":[2,4,-1,-1,-1],"split_conditions":[8.0463177E-1,7.272004E-1,1.1156491E-1,6.015938E-2,8.274798E-2],"split_indices":[46,46,0,0,0],"split_type":[0,0,0,0,0],"sum_hessian":[2.42E2,6.2E1,1.8E2,1.5E1,4.7E1],"tree_param":{"num_deleted":"0","num_feature":"48","num_nodes":"5","size_leaf_vector":"0"}},{"base_weights":[-4.0227157E-1,-4.2938423E-1,-1.2426418E-1,-4.4163445E-1,-2.6669377E-1,-1.7410804E-1,2.6606426E-1,-4.6224752E-1,-3.773873E-1,-3.0322602E-1,-1.11064725E-1,-2.484099E-1,-6.753501E-2,-1.1029319E-1,-3.9067554E-1,-3.144687E-1,-7.85356E-2,-1.2689053E-1,-2.3880765E-2,-1.2376795E-1,-2.762052E-1,2.6664503E-2,-1.1171545E-1,-7.553996E-2,-3.953735E-1,-7.3385686E-3,4.044505E-2],"categories":[],"categories_nodes":[],"categories_segments":[],"categories_sizes":[],"default_left":[1,1,1,1,1,1,0,0,1,1,1,1,1,0,1,0,0,0,0,0,0,1,0,0,0,0,0],"id":2,"left_children":[1,3,5,7,9,11,-1,-1,13,15,17,19,21,-1,23,-1,-1,-1,-1,-1,-1,25,-1,-1,-1,-1,-1],"loss_changes":[1.7782593E0,3.226738E-1,4.9379987E-1,9.5718384E-2,6.8660855E-2,1.4951366E-1,0E0,0E0,1.521182E-1,1.0668755E-2,3.8685352E-3,7.388234E-3,4.4596594E-2,0E0,4.711914E-2,0E0,0E0,0E0,0E0,0E0,0E0,2.1711325E-3,0E0,0E0,0E0,0E0,0E0],"parents":[2147483647,0,0,1,1,2,2,3,3,4,4,5,5,8,8,9,9,10,10,11,11,12,12,14,14,21,21],"right_children":[2,4,6,8,10,12,-1,-1,14,16,18,20,22,-1,24,-1,-1,-1,-1,-1,-1,26,-1,-1,-1,-1,-1],"split_conditions":[2.6431268E-1,3.448425E-1,1.8584299E-1,7.4687935E-2,1.719589E-1,1.2380612E-1,7.981928E-2,-1.3867426E-1,4.9457327E-3,9.303348E-1,8.1162107E-1,3.3105381E-3,4.37089E-3,-3.3087958E-2,5.031439E-4,-9.4340615E-2,-2.3560682E-2,-3.806716E-2,-7.1642296E-3,-3.7130386E-2,-8.2861565E-2,2.1996893E-2,-3.3514638E-2,-2.266199E-2,-1.1861205E-1,-2.2015707E-3,1.2133515E-2],"split_indices":[47,14,24,47,47,12,0,0,39,16,1,27,33,0,2,0,0,0,0,0,0,0,0,0,0,0,0],"split_type":[0,0,0,0,0,0,0,0,0,0,0,0,0,0,0,0,0,0,0,0,0,0,0,0,0,0,0],"sum_hessian":[2.42E2,2.2E2,2.2E1,2.03E2,1.7E1,2E1,2E0,1.49E2,5.4E1,1.3E1,4E0,1.1E1,9E0,3E0,5.1E1,1.2E1,1E0,3E0,1E0,3E0,8E0,3E0,6E0,1E0,5E1,1E0,2E0],"tree_param":{"num_deleted":"0","num_feature":"48","num_nodes":"27","size_leaf_vector":"0"}},{"base_weights":[-2.8289476E-1,-3.0843157E-1,-1.7549528E-1,-3.419889E-1,-2.793919E-1,-1.9451787E-1,1.8102379E-1,2.3723438E-1,-2.8630805E-1,-1.10323004E-1,-2.3441449E-1,5.547765E-2,2.1605805E-1,-2.9116964E-1,-1.2695298E-1,-1.3717371E-1,-6.296924E-2,-2.5127098E-1,-1.4072493E-1,-7.2525665E-2,-2.9257464E-1,-7.784925E-2,-1.2219469E-2,-2.9389372E-1,-7.835507E-2,-3.048867E-3,-1.5280336E-2],"categories":[],"categories_nodes":[],"categories_segments":[],"categories_sizes":[],"default_left":[1,1,1,0,1,1,1,0,1,1,1,0,0,1,0,0,1,0,0,0,1,0,1,0,0,0,0],"id":3,"left_children":[1,3,5,-1,7,9,11,-1,13,15,17,-1,-1,19,-1,-1,21,-1,-1,-1,23,-1,25,-1,-1,-1,-1],"loss_changes":[6.123333E-1,9.44767E-2,3.675263E-1,0E0,4.6095943E-1,1.3201582E-1,1.2088567E-3,0E0,4.747963E-2,1.2977466E-2,1.3597608E-2,0E0,0E0,1.1035919E-2,0E0,0E0,5.0899796E-3,0E0,0E0,0E0,6.3591003E-3,0E0,3.762226E-5,0E0,0E0,0E0,0E0],"parents":[2147483647,0,0,1,1,2,2,4,4,5,5,6,6,8,8,9,9,10,10,13,13,16,16,20,20,22,22],"right_children":[2,4,6,-1,8,10,12,-1,14,16,18,-1,-1,20,-1,-1,22,-1,-1,-1,24,-1,26,-1,-1,-1,-1],"split_conditions":[1.797857E-1,1.7970812E-2,7.576035E-1,-1.0259667E-1,1.8640023E-2,2.3111772E-2,1.0037655E-1,7.1170315E-2,4.2012852E-1,2.6243988E-1,3.659585E-1,1.6643295E-2,6.481741E-2,4.2039523E-4,-3.8085893E-2,-4.1152116E-2,2.511847E-2,-7.5381294E-2,-4.221748E-2,-2.17577E-2,9.707007E-1,-2.3354774E-2,4.7224417E-2,-8.816812E-2,-2.350652E-2,-9.146601E-4,-4.584101E-3],"split_indices":[45,45,45,0,45,38,0,0,14,12,47,0,0,0,0,0,39,0,0,0,10,0,0,0,0,0,0],"split_type":[0,0,0,0,0,0,0,0,0,0,0,0,0,0,0,0,0,0,0,0,0,0,0,0,0,0,0],"sum_hessian":[2.42E2,1.94E2,4.8E1,8.5E1,1.09E2,4.6E1,2E0,1E0,1.08E2,1.6E1,3E1,1E0,1E0,1.04E2,4E0,9E0,7E0,2.4E1,6E0,1E0,1.03E2,5E0,2E0,1.02E2,1E0,1E0,1E0],"tree_param":{"num_deleted":"0","num_feature":"48","num_nodes":"27","size_leaf_vector":"0"}},{"base_weights":[2.4232827E-1,1.7466737E-1,2.58952E-1,2.3299643E-1,2.793695E-1],"categories":[],"categories_nodes":[],"categories_segments":[],"categories_sizes":[],"default_left":[1,0,1,0,0],"id":4,"left_children":[1,-1,3,-1,-1],"loss_changes":[2.2809029E-1,0E0,3.7187576E-2,0E0,0E0],"parents":[2147483647,0,0,2,2],"right_children":[2,-1,4,-1,-1],"split_conditions":[7.9312557E-1,5.2400213E-2,8.6669827E-1,6.989893E-2,8.381085E-2],"split_indices":[46,0,46,0,0],"split_type":[0,0,0,0,0],"sum_hessian":[2.42E2,5E1,1.92E2,9E1,1.02E2],"tree_param":{"num_deleted":"0","num_feature":"48","num_nodes":"5","size_leaf_vector":"0"}},{"base_weights":[-2.83812E-1,-3.0272356E-1,-8.975689E-2,-3.2491994E-1,-2.5954095E-1,-1.287125E-1,2.128514E-1,-1.258173E-1,-2.7684695E-1,-4.0674783E-2,-1.7976075E-1,-1.343393E-1,-2.0298645E-2,-8.730949E-2,-2.8113762E-1,-6.616302E-2,3.2356024E-2,-2.1039882E-1,-8.8660076E-2,-7.0764445E-2,-2.8322133E-1,-6.23779E-3,-7.511092E-2,-8.315363E-2,-2.8499275E-1],"categories":[],"categories_nodes":[],"categories_segments":[],"categories_sizes":[],"default_left":[1,1,1,0,1,1,0,1,1,1,1,0,0,0,1,1,0,0,0,0,1,0,0,0,0],"id":5,"left_children":[1,3,5,-1,7,9,-1,11,13,15,17,-1,-1,-1,19,21,-1,-1,-1,-1,23,-1,-1,-1,-1],"loss_changes":[8.646107E-1,1.2749672E-1,2.985274E-1,0E0,1.5030527E-1,8.7065876E-2,0E0,7.1646273E-3,3.2381058E-2,1.889361E-2,1.7630935E-2,0E0,0E0,0E0,9.766102E-3,3.2849107E-3,0E0,0E0,0E0,0E0,4.720688E-5,0E0,0E0,0E0,0E0],"parents":[2147483647,0,0,1,1,2,2,4,4,5,5,7,7,8,8,9,9,10,10,14,14,15,15,20,20],"right_children":[2,4,6,-1,8,10,-1,12,14,16,18,-1,-1,-1,20,22,-1,-1,-1,-1,24,-1,-1,-1,-1],"split_conditions":[2.6431268E-1,6.255016E-2,1.8584299E-1,-9.747598E-2,7.376797E-3,1.2291078E-1,6.3855425E-2,8.58232E-1,8.7859144E-4,2.0106293E-3,2.3894659E-1,-4.0301792E-2,-6.0895937E-3,-2.6192848E-2,2.927624E-4,9.239045E-3,9.706807E-3,-6.311965E-2,-2.6598023E-2,-2.1229334E-2,7.102586E-1,-1.8713371E-3,-2.2533277E-2,-2.494609E-2,-8.549783E-2],"split_indices":[47,45,24,0,36,39,0,1,2,29,11,0,0,0,17,3,0,0,0,0,31,0,0,0,0],"split_type":[0,0,0,0,0,0,0,0,0,0,0,0,0,0,0,0,0,0,0,0,0,0,0,0,0],"sum_hessian":[2.42E2,2.2E2,2.2E1,1.41E2,7.9E1,2E1,2E0,1E1,6.9E1,8E0,1.2E1,9E0,1E0,2E0,6.7E1,6E0,2E0,8E0,4E0,1E0,6.6E1,1E0,5E0,1E0,6.5E1],"tree_param":{"num_deleted":"0","num_feature":"48","num_nodes":"25","size_leaf_vector":"0"}},{"base_weights":[-1.9929829E-1,-2.0286761E-1,1.5387022E-1,-2.249422E-1,-1.5563071E-1,4.7156006E-2,1.8364933E-1,-2.3846197E-1,-1.8326508E-1,-1.8085597E-1,-1.050326E-1,-4.4170946E-2,-2.3973417E-1,2.0164922E-1,-1.9690609E-1,-8.373659E-2,-1.894062E-1,-1.2423284E-1,-6.747951E-2,-2.4066599E-1,-6.535619E-2,-1.1096239E-2,-2.0106594E-1,-3.6214728E-2,-9.844384E-2,-1.9289465E-1,-1.4468819E-2,-4.2265482E-2,-1.3780862E-1,-3.9087728E-2,-1.1449116E-1,-2.4157616E-1,-6.75426E-2,-2.0351888E-1,-5.0247535E-2,-1.9567862E-1,-3.380791E-2,-1.4581639E-1,-5.717206E-2,-1.505661E-2,-4.8593853E-2],"categories":[],"categories_nodes":[],"categories_segments":[],"categories_sizes":[],"default_left":[1,1,1,1,1,0,0,1,1,1,1,0,1,0,1,1,1,1,1,1,0,0,1,0,0,1,0,0,1,1,0,0,0,0,0,0,0,0,0,0,0],"id":6,"left_children":[1,3,5,7,9,-1,-1,11,13,15,17,-1,19,-1,21,23,25,27,29,31,-1,-1,33,-1,-1,35,-1,-1,37,39,-1,-1,-1,-1,-1,-1,-1,-1,-1,-1,-1],"loss_changes":[3.3753395E-1,2.1629143E-1,8.733943E-4,4.7579765E-2,8.311224E-2,0E0,0E0,1.8824577E-2,2.7073336E-1,2.7320147E-2,1.2526631E-2,0E0,3.4446716E-3,0E0,3.1005383E-2,6.2837824E-4,2.5891185E-2,1.4205337E-2,1.1541739E-2,2.1190643E-3,0E0,0E0,5.311489E-3,0E0,0E0,1.3757706E-2,0E0,0E0,1.3491809E-3,1.3243267E-3,0E0,0E0,0E0,0E0,0E0,0E0,0E0,0E0,0E0,0E0,0E0],"parents":[2147483647,0,0,1,1,2,2,3,3,4,4,7,7,8,8,9,9,10,10,12,12,14,14,15,15,16,16,17,17,18,18,19,19,22,22,25,25,28,28,29,29],"right_children":[2,4,6,8,10,-1,-1,12,14,16,18,-1,20,-1,22,24,26,28,30,32,-1,-1,34,-1,-1,36,-1,-1,38,40,-1,-1,-1,-1,-1,-1,-1,-1,-1,-1,-1],"split_conditions":[7.576035E-1,7.784239E-2,1.0037655E-1,7.40976E-2,1.2430745E-1,1.4146802E-2,5.50948E-2,1.4183524E-3,7.5076655E-2,1.1402182E-3,2.6424497E-1,-1.3251284E-2,9.853538E-1,6.049477E-2,8.7859144E-4,7.988636E-1,9.364054E-1,9.280472E-2,2.600293E-3,9.577222E-1,-1.9606857E-2,-3.328872E-3,9.508841E-1,-1.0864419E-2,-2.9533153E-2,9.461392E-1,-4.340646E-3,-1.2679645E-2,4.2493504E-1,3.2925147E-1,-3.4347348E-2,-7.2472855E-2,-2.026278E-2,-6.1055668E-2,-1.5074261E-2,-5.870359E-2,-1.0142374E-2,-4.3744918E-2,-1.7151618E-2,-4.5169834E-3,-1.4578156E-2],"split_indices":[45,47,0,14,14,0,0,30,14,2,12,0,28,0,44,10,4,11,32,4,0,0,1,0,0,1,0,0,45,17,0,0,0,0,0,0,0,0,0,0,0],"split_type":[0,0,0,0,0,0,0,0,0,0,0,0,0,0,0,0,0,0,0,0,0,0,0,0,0,0,0,0,0,0,0,0,0,0,0,0,0,0,0,0,0],"sum_hessian":[2.42E2,2.4E2,2E0,1.61E2,7.9E1,1E0,1E0,1.18E2,4.3E1,5.1E1,2.8E1,1E0,1.17E2,1E0,4.2E1,5E0,4.6E1,1.7E1,1.1E1,1.16E2,1E0,1E0,4.1E1,2E0,3E0,4.5E1,1E0,3E0,1.4E1,8E0,3E0,1.15E2,1E0,4E1,1E0,4.4E1,1E0,1.2E1,2E0,3E0,5E0],"tree_param":{"num_deleted":"0","num_feature":"48","num_nodes":"41","size_leaf_vector":"0"}},{"base_weights":[1.7047797E-1,1.3712929E-1,1.9023997E-1,1.0415697E-1,1.5246731E-1,4.0445834E-2,1.9097385E-1,2.9428273E-2,1.0557261E-1,3.69353E-2,1.5375578E-1,1.8304034E-1,2.2845183E-1,4.478107E-2,1.08132675E-1],"categories":[],"categories_nodes":[],"categories_segments":[],"categories_sizes":[],"default_left":[1,1,1,1,1,0,1,0,1,0,0,0,0,0,0],"id":7,"left_children":[1,3,5,7,9,-1,11,-1,13,-1,-1,-1,-1,-1,-1],"loss_changes":[1.3405848E-1,3.1658053E-2,8.765221E-3,3.8421154E-4,3.5504103E-3,0E0,2.4867058E-3,0E0,1.3789535E-4,0E0,0E0,0E0,0E0,0E0,0E0],"parents":[2147483647,0,0,1,1,2,2,3,3,4,4,6,6,8,8],"right_children":[2,4,6,8,10,-1,12,-1,14,-1,-1,-1,-1,-1,-1],"split_conditions":[8.381456E-1,7.699783E-1,2.7884197E-4,7.1634346E-4,3.1513226E-4,1.2133751E-2,9.1473967E-1,8.828483E-3,1.5049703E-1,1.108059E-2,4.612674E-2,5.49121E-2,6.853555E-2,1.3434322E-2,3.2439806E-2],"split_indices":[43,46,15,32,32,0,13,0,4,0,0,0,0,0,0],"split_type":[0,0,0,0,0,0,0,0,0,0,0,0,0,0,0],"sum_hessian":[2.42E2,9.3E1,1.49E2,3.2E1,6.1E1,1E0,1.48E2,1E0,3.1E1,1E0,6E1,1.27E2,2.1E1,2E0,2.9E1],"tree_param":{"num_deleted":"0","num_feature":"48","num_nodes":"15","size_leaf_vector":"0"}},{"base_weights":[-2.0007701E-1,-2.1362586E-1,-6.754273E-2,-2.4599402E-1,-1.9447662E-1,-9.690314E-2,1.7028113E-1,-7.18589E-2,-2.4732228E-1,-7.461548E-2,-2.0009731E-1,-2.7106384E-2,-1.3485083E-1,-1.127233E-1,9.606962E-2,-2.0777458E-1,-1.2431561E-1,1.6762562E-2,-5.1834617E-2,-1.7908172E-1,-7.929244E-2,-3.7664384E-2,-1.3521399E-1,-1.15812466E-1,-2.1153286E-1,-5.3021163E-3,2.5884828E-2,-8.5066974E-2,-1.9435346E-2,-5.3662635E-2,-2.1243902E-1],"categories":[],"categories_nodes":[],"categories_segments":[],"categories_sizes":[],"default_left":[1,1,1,1,1,1,0,0,0,1,1,1,1,1,0,1,0,1,0,0,1,0,0,0,1,0,0,0,0,0,0],"id":8,"left_children":[1,3,5,7,9,11,-1,-1,-1,13,15,17,19,21,-1,23,-1,25,-1,-1,27,-1,-1,-1,29,-1,-1,-1,-1,-1,-1],"loss_changes":[4.2192268E-1,8.852196E-2,1.8408328E-1,2.6893616E-4,8.140898E-2,5.4614455E-2,0E0,0E0,0E0,6.286477E-2,5.3295135E-2,1.0632095E-2,2.020374E-2,6.724134E-3,0E0,1.7667294E-2,0E0,9.4236375E-4,0E0,0E0,1.1118688E-3,0E0,0E0,0E0,5.194187E-3,0E0,0E0,0E0,0E0,0E0,0E0],"parents":[2147483647,0,0,1,1,2,2,3,3,4,4,5,5,9,9,10,10,11,11,12,12,13,13,15,15,17,17,20,20,24,24],"right_children":[2,4,6,8,10,12,-1,-1,-1,14,16,18,20,22,-1,24,-1,26,-1,-1,28,-1,-1,-1,30,-1,-1,-1,-1,-1,-1],"split_conditions":[2.5831988E-1,2.6350638E-2,1.8584299E-1,2.7659594E-3,7.3468983E-1,1.1020351E-2,5.108434E-2,-2.155767E-2,-7.419669E-2,3.520307E-2,1.6278607E-1,4.9379338E-3,3.6404335E-1,1.0136692E-3,2.8820887E-2,2.0819837E-3,-3.7294686E-2,2.1996893E-2,-1.5550385E-2,-5.372452E-2,3.568582E-1,-1.1299316E-2,-4.0564198E-2,-3.474374E-2,8.8927185E-4,-1.5906349E-3,7.7654487E-3,-2.5520094E-2,-5.830604E-3,-1.6098792E-2,-6.373171E-2],"split_indices":[45,14,24,27,16,36,0,0,0,0,47,33,47,26,0,30,0,0,0,0,6,0,0,0,44,0,0,0,0,0,0],"split_type":[0,0,0,0,0,0,0,0,0,0,0,0,0,0,0,0,0,0,0,0,0,0,0,0,0,0,0,0,0,0,0],"sum_hessian":[2.42E2,2.19E2,2.3E1,7.7E1,1.42E2,2.1E1,2E0,1E0,7.6E1,7E0,1.35E2,8E0,1.3E1,6E0,1E0,1.21E2,1.4E1,3E0,5E0,6E0,7E0,2E0,4E0,6E0,1.15E2,1E0,2E0,6E0,1E0,1E0,1.14E2],"tree_param":{"num_deleted":"0","num_feature":"48","num_nodes":"31","size_leaf_vector":"0"}},{"base_weights":[-1.4080888E-1,-1.436055E-1,1.307897E-1,-1.7737994E-1,-1.2666641E-1,4.0082604E-2,1.5610194E-1,-1.7851508E-1,-4.498697E-2,-1.3990323E-1,-8.488557E-2,-3.289992E-2,-1.4510939E-1,-3.357801E-2,-9.25041E-2,-9.551719E-2,1.7140183E-1,-1.5093143E-1,-8.1588835E-2,-3.906333E-2,-3.3304095E-4,-1.013132E-1,-4.900809E-2,-1.0710587E-1,-1.8786862E-2,-1.5716991E-1,-1.09025836E-1,-3.4473244E-2,-1.0083747E-1,-1.0365559E-1,-1.7863192E-2,-1.5336464E-2,-5.7675887E-2],"categories":[],"categories_nodes":[],"categories_segments":[],"categories_sizes":[],"default_left":[1,1,1,1,1,0,0,0,0,1,1,1,1,1,1,1,0,1,1,0,0,1,1,0,0,0,0,0,0,0,0,0,0],"id":9,"left_children":[1,3,5,7,9,-1,-1,-1,-1,11,13,15,17,19,21,23,-1,25,27,-1,-1,29,31,-1,-1,-1,-1,-1,-1,-1,-1,-1,-1],"loss_changes":[2.0335484E-1,1.1541033E-1,6.3103065E-4,3.6911964E-3,7.8823805E-2,0E0,0E0,0E0,0E0,6.3746214E-2,1.3311207E-2,1.05921544E-1,3.0954838E-2,1.2635058E-3,8.82861E-3,3.323041E-3,0E0,1.0575771E-2,7.406734E-3,0E0,0E0,3.8170815E-3,1.4503282E-3,0E0,0E0,0E0,0E0,0E0,0E0,0E0,0E0,0E0,0E0],"parents":[2147483647,0,0,1,1,2,2,3,3,4,4,9,9,10,10,11,11,12,12,13,13,14,14,15,15,17,17,18,18,21,21,22,22],"right_children":[2,4,6,8,10,-1,-1,-1,-1,12,14,16,18,20,22,24,-1,26,28,-1,-1,30,32,-1,-1,-1,-1,-1,-1,-1,-1,-1,-1],"split_conditions":[7.576035E-1,2.6350638E-2,1.0037655E-1,4.770885E-1,1.4003848E-1,1.2024782E-2,4.6830583E-2,-5.3554524E-2,-1.3496092E-2,7.3468983E-1,4.37089E-3,3.354992E-2,3.4856576E-1,3.8297874E-1,2.110873E-1,7.286099E-1,5.142055E-2,1.12990886E-1,3.6966196E-1,-1.1719E-2,-9.991229E-5,1.4904769E-1,1.4364582E-3,-3.2131765E-2,-5.6360587E-3,-4.7150973E-2,-3.270775E-2,-1.0341974E-2,-3.0251242E-2,-3.1096678E-2,-5.3589577E-3,-4.6009393E-3,-1.7302766E-2],"split_indices":[45,14,0,39,47,0,0,0,0,16,33,0,17,9,15,1,0,2,17,0,0,32,35,0,0,0,0,0,0,0,0,0,0],"split_type":[0,0,0,0,0,0,0,0,0,0,0,0,0,0,0,0,0,0,0,0,0,0,0,0,0,0,0,0,0,0,0,0,0],"sum_hessian":[2.42E2,2.4E2,2E0,7.7E1,1.63E2,1E0,1E0,7.6E1,1E0,1.22E2,4.1E1,6E0,1.16E2,6E0,3.5E1,5E0,1E0,1.05E2,1.1E1,5E0,1E0,2.8E1,7E0,4E0,1E0,8.9E1,1.6E1,4E0,7E0,2.7E1,1E0,2E0,5E0],"tree_param":{"num_deleted":"0","num_feature":"48","num_nodes":"33","size_leaf_vector":"0"}},{"base_weights":[1.2035307E-1,9.523218E-2,1.3302554E-1,7.21965E-2,1.0528135E-1,1.2247612E-1,1.5420838E-1,7.359988E-2,1.6450882E-2,1.9228011E-2,1.0647466E-1,1.23066016E-1,2.8794259E-2,1.5582347E-1,3.834206E-2,1.0815014E-1,4.0824514E-2,9.560238E-2,1.2810679E-1,1.5746611E-1,3.930962E-2,2.8199464E-2,1.09126575E-1,3.4378946E-2,1.2877363E-1,4.5319736E-2,1.5891887E-1,3.041491E-2,1.10055365E-1],"categories":[],"categories_nodes":[],"categories_segments":[],"categories_sizes":[],"default_left":[1,1,1,1,1,1,1,0,0,0,1,1,0,1,0,1,0,0,1,1,0,0,1,0,0,0,0,0,0],"id":10,"left_children":[1,3,5,7,9,11,13,-1,-1,-1,15,17,-1,19,-1,21,-1,-1,23,25,-1,-1,27,-1,-1,-1,-1,-1,-1],"loss_changes":[6.468916E-2,1.2075663E-2,1.664424E-2,1.0579526E-3,3.8059354E-3,2.5904179E-3,3.1949282E-3,0E0,0E0,0E0,1.7445683E-3,2.9809475E-3,0E0,2.9968023E-3,0E0,1.1383295E-3,0E0,0E0,1.1980534E-3,4.5502186E-4,0E0,0E0,5.273223E-4,0E0,0E0,0E0,0E0,0E0,0E0],"parents":[2147483647,0,0,1,1,2,2,3,3,4,4,5,5,6,6,10,10,11,11,13,13,15,15,18,18,19,19,22,22],"right_children":[2,4,6,8,10,12,14,-1,-1,-1,16,18,-1,20,-1,22,-1,-1,24,26,-1,-1,28,-1,-1,-1,-1,-1,-1],"split_conditions":[8.318448E-1,7.5928843E-1,9.0586406E-1,3.9962262E-1,6.2319916E-4,8.394196E-1,6.3850784E-1,2.2079965E-2,4.9352646E-3,5.7684034E-3,8.292514E-1,8.182613E-3,8.638278E-3,3.743175E-1,1.1502618E-2,1.0408293E-3,1.2247355E-2,2.8680714E-2,3.6014686E-4,7.5678575E-1,1.1792887E-2,8.45984E-3,6.832317E-1,1.0313684E-2,3.863209E-2,1.3595921E-2,4.7675665E-2,9.124473E-3,3.301661E-2],"split_indices":[43,46,46,0,17,21,30,0,0,0,43,18,0,18,0,12,0,0,15,22,0,0,37,0,0,0,0,0,0],"split_type":[0,0,0,0,0,0,0,0,0,0,0,0,0,0,0,0,0,0,0,0,0,0,0,0,0,0,0,0,0],"sum_hessian":[2.42E2,8.4E1,1.58E2,2.8E1,5.6E1,1.1E2,4.8E1,2.7E1,1E0,1E0,5.5E1,1.09E2,1E0,4.7E1,1E0,5.3E1,2E0,2E1,8.9E1,4.6E1,1E0,1E0,5.2E1,1E0,8.8E1,1E0,4.5E1,1E0,5.1E1],"tree_param":{"num_deleted":"0","num_feature":"48","num_nodes":"29","size_leaf_vector":"0"}},{"base_weights":[-1.4134623E-1,-1.5073933E-1,-4.4945244E-2,-1.7279656E-1,-1.333634E-1,-6.868645E-2,1.3622491E-1,-1.755366E-1,-8.8916674E-2,-9.2623465E-2,-1.4284001E-1,3.4261704E-3,-8.5855655E-2,-4.95241E-2,-1.7639603E-1,-1.0630895E-1,-5.3440392E-2,-1.4435735E-1,-4.464872E-2,-1.4997561E-2,2.0707846E-2,-1.06609285E-1,-4.918167E-2,-4.354777E-2,-1.1535494E-1,-5.7750776E-2,-9.478658E-3,-6.155195E-2,-1.4628379E-1,-1.7989546E-2,-4.5067966E-3,-1.2473455E-1,-5.603248E-2,8.165917E-2,-1.3650872E-1,-1.472345E-1,-2.7507655E-2],"categories":[],"categories_nodes":[],"categories_segments":[],"categories_sizes":[],"default_left":[1,1,1,1,1,1,0,1,0,1,1,1,1,0,0,1,1,1,0,1,0,0,0,0,1,0,0,1,1,0,0,0,0,0,0,0,0],"id":11,"left_children":[1,3,5,7,9,11,-1,13,-1,15,17,19,21,-1,-1,23,25,27,-1,29,-1,-1,-1,-1,31,-1,-1,33,35,-1,-1,-1,-1,-1,-1,-1,-1],"loss_changes":[2.1326256E-1,6.1656952E-2,1.0828433E-1,5.9962273E-3,3.618741E-2,2.6294619E-2,0E0,1.0108948E-3,0E0,8.797273E-3,8.751631E-3,1.902532E-3,7.695794E-3,0E0,0E0,5.7635456E-3,1.1580288E-3,6.947756E-3,0E0,1.30893895E-5,0E0,0E0,0E0,0E0,1.9135475E-3,0E0,0E0,5.4085754E-2,6.90341E-3,0E0,0E0,0E0,0E0,0E0,0E0,0E0,0E0],"parents":[2147483647,0,0,1,1,2,2,3,3,4,4,5,5,7,7,9,9,10,10,11,11,12,12,15,15,16,16,17,17,19,19,24,24,27,27,28,28],"right_children":[2,4,6,8,10,12,-1,14,-1,16,18,20,22,-1,-1,24,26,28,-1,30,-1,-1,-1,-1,32,-1,-1,34,36,-1,-1,-1,-1,-1,-1,-1,-1],"split_conditions":[2.6431268E-1,3.3488058E-2,1.8584299E-1,3.0410755E-1,1.129134E-2,4.37089E-3,4.0867474E-2,8.375356E-4,-2.6675003E-2,1.5485424E-1,9.6019924E-1,2.1996893E-2,2.3894659E-1,-1.485723E-2,-5.291881E-2,3.81681E-3,8.562318E-1,7.371785E-1,-1.33946175E-2,9.668018E-3,6.212354E-3,-3.1982787E-2,-1.4754501E-2,-1.3064331E-2,8.6146504E-1,-1.7325234E-2,-2.8435977E-3,1.9103591E-1,9.901335E-1,-5.396864E-3,-1.352039E-3,-3.7420366E-2,-1.6809745E-2,2.4497751E-2,-4.0952615E-2,-4.417035E-2,-8.252297E-3],"split_indices":[47,47,24,14,38,33,0,42,0,47,1,0,11,0,0,39,1,16,0,0,0,0,0,0,37,0,0,0,28,0,0,0,0,0,0,0,0],"split_type":[0,0,0,0,0,0,0,0,0,0,0,0,0,0,0,0,0,0,0,0,0,0,0,0,0,0,0,0,0,0,0,0,0,0,0,0,0],"sum_hessian":[2.42E2,2.2E2,2.2E1,9.3E1,1.27E2,2E1,2E0,8.9E1,4E0,2.6E1,1.01E2,4E0,1.6E1,1E0,8.8E1,1.8E1,8E0,9.9E1,2E0,2E0,2E0,9E0,7E0,3E0,1.5E1,7E0,1E0,3E0,9.6E1,1E0,1E0,1.2E1,3E0,1E0,2E0,9.5E1,1E0],"tree_param":{"num_deleted":"0","num_feature":"48","num_nodes":"37","size_leaf_vector":"0"}},{"base_weights":[-9.932824E-2,-1.0153642E-1,1.11171246E-1,-1.183891E-1,-8.3264016E-2,3.4070224E-2,1.3268664E-1,-3.018324E-2,-1.2034272E-1,1.4569154E-1,-8.643899E-2,-1.21035464E-1,-1.8953107E-2,-5.5725217E-2,-9.8719195E-2,-5.4411978E-2,-1.2228941E-1,-7.576004E-2,-3.590936E-2,-1.3004144E-1,-8.804471E-2,-1.2287628E-1,-2.739983E-2,-8.015126E-2,-2.750218E-3,-6.3833473E-3,-4.28919E-2,-1.330172E-1,-3.823892E-2,-6.735751E-2,-1.0187941E-1],"categories":[],"categories_nodes":[],"categories_segments":[],"categories_sizes":[],"default_left":[1,1,1,1,1,0,0,0,1,0,1,1,0,1,1,0,1,1,1,1,1,0,0,0,0,0,0,0,0,0,0],"id":12,"left_children":[1,3,5,7,9,-1,-1,-1,11,-1,13,15,-1,17,19,-1,21,23,25,27,29,-1,-1,-1,-1,-1,-1,-1,-1,-1,-1],"loss_changes":[1.2423921E-1,6.435585E-2,4.5591593E-4,1.7563105E-2,9.909785E-2,0E0,0E0,0E0,6.13451E-3,0E0,3.90051E-2,3.2874346E-3,0E0,1.1571765E-2,1.6301513E-2,0E0,3.0931234E-3,5.2298084E-3,3.849538E-3,1.0403991E-4,1.1740744E-2,0E0,0E0,0E0,0E0,0E0,0E0,0E0,0E0,0E0,0E0],"parents":[2147483647,0,0,1,1,2,2,3,3,4,4,8,8,10,10,11,11,13,13,14,14,16,16,17,17,18,18,19,19,20,20],"right_children":[2,4,6,8,10,-1,-1,-1,12,-1,14,16,-1,18,20,-1,22,24,26,28,30,-1,-1,-1,-1,-1,-1,-1,-1,-1,-1],"split_conditions":[7.576035E-1,4.8756834E-2,1.0037655E-1,2.2604573E-3,5.0234124E-2,1.0221068E-2,3.9805993E-2,-9.054973E-3,6.6284394E-1,4.3707464E-2,1.934436E-2,4.6996181E-4,-5.6859325E-3,1.3246918E-1,2.4830928E-2,-1.6323594E-2,3.9324996E-1,1.10919245E-1,1.8407997E-1,4.770885E-1,8.438115E-1,-3.6862884E-2,-8.21995E-3,-2.404538E-2,-8.250654E-4,-1.9150042E-3,-1.2867571E-2,-3.990516E-2,-1.1471677E-2,-2.0207254E-2,-3.0563824E-2],"split_indices":[45,47,0,30,47,0,0,0,18,0,36,35,0,45,14,0,36,0,45,39,31,0,0,0,0,0,0,0,0,0,0],"split_type":[0,0,0,0,0,0,0,0,0,0,0,0,0,0,0,0,0,0,0,0,0,0,0,0,0,0,0,0,0,0,0],"sum_hessian":[2.42E2,2.4E2,2E0,1.22E2,1.18E2,1E0,1E0,3E0,1.19E2,1E0,1.17E2,1.18E2,1E0,3.5E1,8.2E1,3E0,1.15E2,1.6E1,1.9E1,1.8E1,6.4E1,1.14E2,1E0,1.5E1,1E0,4E0,1.5E1,1.7E1,1E0,2.8E1,3.6E1],"tree_param":{"num_deleted":"0","num_feature":"48","num_nodes":"31","size_leaf_vector":"0"}},{"base_weights":[8.53437E-2,6.658653E-2,9.519421E-2,5.0575357E-2,7.372013E-2,8.783448E-2,1.1325458E-1,5.3936318E-2,2.2983301E-2,3.533561E-2,7.590906E-2,7.9013176E-2,9.910376E-2,8.10276E-2,1.2647423E-1,2.4360478E-2,5.6734882E-2,5.2365106E-2,8.417212E-2,1.0385019E-1,5.7145577E-2,2.1057585E-2,5.912998E-2,8.4801085E-2,2.4475127E-2,1.0540843E-1,2.0760357E-2,6.187309E-2,2.2046944E-2,8.544669E-2,2.4646193E-2,1.06809296E-1,2.5387347E-2],"categories":[],"categories_nodes":[],"categories_segments":[],"categories_sizes":[],"default_left":[1,1,1,1,1,1,1,1,0,0,0,1,1,0,0,0,1,0,1,1,0,0,1,1,0,1,0,0,0,0,0,0,0],"id":13,"left_children":[1,3,5,7,9,11,13,15,-1,-1,-1,17,19,-1,-1,-1,21,-1,23,25,-1,-1,27,29,-1,31,-1,-1,-1,-1,-1,-1,-1],"loss_changes":[3.8559914E-2,6.2084794E-3,1.0920763E-2,1.5424415E-3,2.1909475E-3,3.7009716E-3,7.645309E-3,7.6993555E-4,0E0,0E0,0E0,5.215645E-3,3.4255385E-3,0E0,0E0,0E0,7.202253E-4,0E0,6.467104E-5,3.1200945E-3,0E0,0E0,7.720664E-4,6.890297E-5,0E0,1.7723441E-3,0E0,0E0,0E0,0E0,0E0,0E0,0E0],"parents":[2147483647,0,0,1,1,2,2,3,3,4,4,5,5,6,6,7,7,11,11,12,12,16,16,18,18,19,19,22,22,23,23,25,25],"right_children":[2,4,6,8,10,12,14,16,-1,-1,-1,18,20,-1,-1,-1,22,-1,24,26,-1,-1,28,30,-1,32,-1,-1,-1,-1,-1,-1,-1],"split_conditions":[8.2106423E-1,7.5300854E-1,9.0608734E-1,7.440655E-1,2.756766E-3,7.2761245E-2,8.702918E-1,6.2495637E-1,6.894991E-3,1.0600684E-2,2.277272E-2,1.8610755E-3,9.100297E-1,2.4308281E-2,3.794227E-2,7.3081437E-3,2.7293796E-3,1.5709532E-2,6.301905E-1,9.281019E-1,1.7143674E-2,6.317276E-3,3.280084E-1,2.1677494E-1,7.3425383E-3,7.4466E-1,6.2281075E-3,1.8561928E-2,6.6140834E-3,2.563401E-2,7.393858E-3,3.204279E-2,7.616204E-3],"split_indices":[10,13,46,13,0,47,28,13,0,0,0,20,40,0,0,0,3,0,18,4,0,0,3,3,0,0,0,0,0,0,0,0,0],"split_type":[0,0,0,0,0,0,0,0,0,0,0,0,0,0,0,0,0,0,0,0,0,0,0,0,0,0,0,0,0,0,0,0,0],"sum_hessian":[2.42E2,8.6E1,1.56E2,2.9E1,5.7E1,1.15E2,4.1E1,2.5E1,4E0,4E0,5.3E1,6.9E1,4.6E1,1.4E1,2.7E1,3E0,2.2E1,1.3E1,5.6E1,4E1,6E0,2E0,2E1,5.5E1,1E0,3.9E1,1E0,1.8E1,2E0,5.4E1,1E0,3.8E1,1E0],"tree_param":{"num_deleted":"0","num_feature":"48","num_nodes":"33","size_leaf_vector":"0"}},{"base_weights":[-1.0005591E-1,-1.0224284E-1,1.0897994E-1,-1.10963896E-1,-6.670914E-2,1.3218677E-1,3.128314E-2,-1.2506694E-1,-9.977364E-2,-4.6107654E-2,-1.0760556E-1,-1.2641305E-1,-4.7930345E-2,-3.7933376E-2,-1.02916166E-1,-2.3058457E-2,-6.037576E-2,-1.1153297E-1,-2.4347201E-2,-1.2714526E-1,-3.465012E-2,-6.739237E-2,6.9410294E-2,-9.52764E-2,-1.2634328E-1,-3.04289E-2,1.6566277E-2,-7.379098E-2,-4.1471835E-2,-1.18725166E-1,-4.3189134E-2,-7.369855E-2,-1.7930731E-2,-9.9377915E-2,-4.388983E-2,-1.3077016E-1,-5.324069E-2,-3.8307756E-3,-3.2326177E-2,-3.1920765E-2,-7.9548724E-2,-8.056864E-3,-4.4007644E-2],"categories":[],"categories_nodes":[],"categories_segments":[],"categories_sizes":[],"default_left":[1,1,1,1,1,0,0,1,1,1,1,1,0,1,1,1,1,1,0,0,0,1,0,1,1,1,0,1,1,0,0,0,0,0,0,0,0,0,0,0,0,0,0],"id":14,"left_children":[1,3,5,7,9,-1,-1,11,13,15,17,19,-1,21,23,25,27,29,-1,-1,-1,31,-1,33,35,37,-1,39,41,-1,-1,-1,-1,-1,-1,-1,-1,-1,-1,-1,-1,-1,-1],"loss_changes":[1.22229576E-1,6.7281485E-2,1.2740716E-3,1.7822504E-2,3.7164897E-2,0E0,0E0,2.3516417E-3,1.7861485E-2,1.0118224E-2,2.5163144E-3,9.022951E-4,0E0,2.6813379E-2,6.934166E-3,4.8848707E-3,2.265364E-3,2.2455007E-3,0E0,0E0,0E0,5.500149E-4,0E0,1.33423805E-2,4.8086047E-4,5.321987E-4,0E0,1.12600625E-4,5.7751127E-4,0E0,0E0,0E0,0E0,0E0,0E0,0E0,0E0,0E0,0E0,0E0,0E0,0E0,0E0],"parents":[2147483647,0,0,1,1,2,2,3,3,4,4,7,7,8,8,9,9,10,10,11,11,13,13,14,14,15,15,16,16,17,17,21,21,23,23,24,24,25,25,27,27,28,28],"right_children":[2,4,6,8,10,-1,-1,12,14,16,18,20,-1,22,24,26,28,30,-1,-1,-1,32,-1,34,36,38,-1,40,42,-1,-1,-1,-1,-1,-1,-1,-1,-1,-1,-1,-1,-1,-1],"split_conditions":[7.576035E-1,1.4003848E-1,1.0037655E-1,2.9561073E-2,3.3621478E-1,3.9656032E-2,9.384942E-3,3.9570144E-1,7.371785E-1,8.153076E-1,2.3894659E-1,3.9324996E-1,-1.4379104E-2,7.8840864E-1,1.14783004E-1,2.059261E-3,1.6760994E-1,5.606676E-1,-7.3041604E-3,-3.814358E-2,-1.0395037E-2,7.286099E-1,2.082309E-2,1.3407071E-1,1.5909171E-1,7.4551506E-3,4.9698832E-3,1.1836791E-2,1.2318317E-2,-3.5617553E-2,-1.2956741E-2,-2.2109566E-2,-5.3792195E-3,-2.9813375E-2,-1.316695E-2,-3.923105E-2,-1.5972208E-2,-1.1492327E-3,-9.697854E-3,-9.576229E-3,-2.3864618E-2,-2.4170594E-3,-1.3202294E-2],"split_indices":[45,47,0,47,41,0,0,14,16,10,11,36,0,1,44,29,6,41,0,0,0,1,0,45,8,3,0,0,0,0,0,0,0,0,0,0,0,0,0,0,0,0,0],"split_type":[0,0,0,0,0,0,0,0,0,0,0,0,0,0,0,0,0,0,0,0,0,0,0,0,0,0,0,0,0,0,0,0,0,0,0,0,0,0,0,0,0,0,0],"sum_hessian":[2.42E2,2.4E2,2E0,1.91E2,4.9E1,1E0,1E0,8E1,1.11E2,3.4E1,1.5E1,7.8E1,2E0,6E0,1.05E2,1.4E1,2E1,1.4E1,1E0,7.7E1,1E0,5E0,1E0,8.3E1,2.2E1,1.2E1,2E0,1E1,1E1,1.2E1,2E0,4E0,1E0,7.6E1,7E0,2E1,2E0,1E0,1.1E1,2E0,8E0,1E0,9E0],"tree_param":{"num_deleted":"0","num_feature":"48","num_nodes":"43","size_leaf_vector":"0"}},{"base_weights":[-7.004094E-2,-7.179849E-2,9.449556E-2,-8.349146E-2,-5.9109125E-2,2.8959692E-2,1.1278364E-1,-8.671845E-2,-4.951551E-2,1.238378E-1,-6.1708998E-2,-3.751236E-2,-8.820734E-2,1.4170617E-2,-5.600357E-2,-5.166521E-2,-8.601374E-2,-9.442337E-3,-4.216928E-2,-8.8783905E-2,-1.35458335E-2,-1.3296232E-2,-5.867731E-2,-7.89206E-2,-4.430797E-2,-9.3839824E-2,-2.3419743E-2,-8.933605E-2,-1.5404284E-2,-2.4894455E-2,-6.341856E-2,-1.6339988E-2,-8.617535E-2,-5.996161E-2,-3.427902E-2,-9.849885E-2,-2.062861E-2,2.1665096E-3,-3.0357935E-2],"categories":[],"categories_nodes":[],"categories_segments":[],"categories_sizes":[],"default_left":[1,1,1,1,1,0,0,1,1,0,1,1,1,0,1,1,1,0,0,1,0,0,1,1,1,1,1,0,0,0,0,0,0,0,0,0,0,0,0],"id":15,"left_children":[1,3,5,7,9,-1,-1,11,13,-1,15,17,19,-1,21,23,25,-1,-1,27,-1,-1,29,31,33,35,37,-1,-1,-1,-1,-1,-1,-1,-1,-1,-1,-1,-1],"loss_changes":[7.7055454E-2,3.0823588E-2,3.2939762E-4,9.191871E-3,6.424287E-2,0E0,0E0,4.823327E-3,6.165199E-3,0E0,2.4361253E-2,2.5542313E-4,3.4033656E-3,0E0,5.900711E-4,1.3748303E-2,1.3967842E-2,0E0,0E0,2.9185414E-3,0E0,0E0,1.8313155E-4,6.3100085E-3,8.933842E-3,7.859796E-3,9.533821E-4,0E0,0E0,0E0,0E0,0E0,0E0,0E0,0E0,0E0,0E0,0E0,0E0],"parents":[2147483647,0,0,1,1,2,2,3,3,4,4,7,7,8,8,10,10,11,11,12,12,14,14,15,15,16,16,19,19,22,22,23,23,24,24,25,25,26,26],"right_children":[2,4,6,8,10,-1,-1,12,14,-1,16,18,20,-1,22,24,26,-1,-1,28,-1,-1,30,32,34,36,38,-1,-1,-1,-1,-1,-1,-1,-1,-1,-1,-1,-1],"split_conditions":[7.576035E-1,4.8756834E-2,1.0037655E-1,1.8110695E-1,5.0234124E-2,8.687908E-3,3.3835094E-2,5.5903324E-4,8.7859144E-4,3.715134E-2,1.9926807E-1,2.0283652E-3,9.8235345E-1,4.2511853E-3,8.503255E-4,7.665716E-3,3.659585E-1,-2.8327012E-3,-1.2650785E-2,9.577222E-1,-4.06375E-3,-3.9888695E-3,3.198523E-3,7.7711465E-3,4.514844E-2,4.4870076E-1,4.2648606E-2,-2.6800817E-2,-4.6212855E-3,-7.4683367E-3,-1.9025568E-2,-4.9019963E-3,-2.5852608E-2,-1.7988484E-2,-1.0283706E-2,-2.9549656E-2,-6.1885836E-3,6.499529E-4,-9.107381E-3],"split_indices":[45,47,0,14,47,0,0,35,44,0,39,3,28,0,3,3,47,0,0,4,0,0,0,36,15,3,12,0,0,0,0,0,0,0,0,0,0,0,0],"split_type":[0,0,0,0,0,0,0,0,0,0,0,0,0,0,0,0,0,0,0,0,0,0,0,0,0,0,0,0,0,0,0,0,0,0,0,0,0,0,0],"sum_hessian":[2.42E2,2.4E2,2E0,1.22E2,1.18E2,1E0,1E0,1.1E2,1.2E1,1E0,1.17E2,4E0,1.06E2,1E0,1.1E1,8.5E1,3.2E1,1E0,3E0,1.05E2,1E0,1E0,1E1,1.6E1,6.9E1,2.8E1,4E0,1.04E2,1E0,2E0,8E0,2E0,1.4E1,2.5E1,4.4E1,2.6E1,2E0,1E0,3E0],"tree_param":{"num_deleted":"0","num_feature":"48","num_nodes":"39","size_leaf_vector":"0"}},{"base_weights":[6.0812324E-2,5.0906334E-2,7.2723456E-2,4.2076718E-2,5.8170483E-2,6.4162225E-2,8.514883E-2,2.7492594E-2,4.4228513E-2,6.923888E-2,4.8615944E-2,1.888754E-2,6.524801E-2,8.7940186E-2,2.0478308E-2,3.5378825E-2,1.7932057E-2,1.7722238E-2,4.595994E-2,7.102246E-2,7.865727E-3,4.9475484E-2,6.687373E-3,2.6587114E-2,6.666699E-2,9.0202495E-2,3.0724904E-2,1.6761681E-2,4.6809632E-2,3.1903457E-2,7.581371E-2,5.2875172E-2,3.1512678E-2,7.3063724E-2,5.2365556E-2,9.264339E-2,3.1657975E-2,1.2583166E-2,4.7260534E-2,5.0317388E-2,8.6351916E-2,3.0800777E-2,5.6639824E-2,8.010879E-2,4.9362395E-2,1.4698744E-2,5.340956E-2,9.401638E-2,2.298078E-2],"categories":[],"categories_nodes":[],"categories_segments":[],"categories_sizes":[],"default_left":[1,1,1,1,1,1,1,1,1,1,1,0,1,1,0,0,0,0,1,1,0,1,0,0,1,1,0,0,1,0,1,1,0,1,1,1,0,0,0,0,0,0,0,0,0,0,0,0,0],"id":16,"left_children":[1,3,5,7,9,11,13,15,17,19,21,-1,23,25,-1,-1,-1,-1,27,29,-1,31,-1,-1,33,35,-1,-1,37,-1,39,41,-1,43,45,47,-1,-1,-1,-1,-1,-1,-1,-1,-1,-1,-1,-1,-1],"loss_changes":[2.4969876E-2,6.2753856E-3,6.0253143E-3,8.238703E-4,4.2481273E-3,2.1104217E-3,5.600363E-3,1.9494724E-4,1.7096475E-3,2.8347373E-3,1.1827946E-3,0E0,1.848191E-3,2.276659E-3,0E0,0E0,0E0,0E0,4.806742E-4,3.204152E-3,0E0,8.3754957E-4,0E0,0E0,1.9373596E-3,2.354443E-3,0E0,0E0,1.6152114E-4,0E0,2.6408136E-3,9.978265E-4,0E0,2.8917342E-3,1.19403005E-4,1.1870563E-3,0E0,0E0,0E0,0E0,0E0,0E0,0E0,0E0,0E0,0E0,0E0,0E0,0E0],"parents":[2147483647,0,0,1,1,2,2,3,3,4,4,5,5,6,6,7,7,8,8,9,9,10,10,12,12,13,13,18,18,19,19,21,21,24,24,25,25,28,28,30,30,31,31,33,33,34,34,35,35],"right_children":[2,4,6,8,10,12,14,16,18,20,22,-1,24,26,-1,-1,-1,-1,28,30,-1,32,-1,-1,34,36,-1,-1,38,-1,40,42,-1,44,46,48,-1,-1,-1,-1,-1,-1,-1,-1,-1,-1,-1,-1,-1],"split_conditions":[8.609766E-1,8.2099444E-1,8.8857335E-1,4.5639086E-3,8.55227E-1,7.928518E-4,3.467555E-1,1.0945972E-2,6.958846E-1,9.255434E-1,4.216318E-1,5.6662625E-3,4.8164744E-3,9.853538E-1,6.1434926E-3,1.0613648E-2,5.379617E-3,5.3166714E-3,6.848598E-1,7.848733E-1,2.359718E-3,9.0005165E-1,2.006212E-3,7.976134E-3,1.1062603E-1,3.2277542E-1,9.217472E-3,5.0285044E-3,1.8030943E-3,9.571037E-3,1.2283231E-2,6.8770037E-3,9.453803E-3,1.8421265E-1,8.069693E-1,6.3850784E-1,9.497393E-3,3.77495E-3,1.4178161E-2,1.5095217E-2,2.5905576E-2,9.240233E-3,1.6991949E-2,2.403264E-2,1.4808719E-2,4.4096233E-3,1.6022868E-2,2.8204916E-2,6.894234E-3],"split_indices":[43,10,13,21,10,17,36,27,46,16,15,0,0,43,0,0,0,0,37,34,0,28,0,0,30,3,0,0,33,0,45,15,0,45,1,9,0,0,0,0,0,0,0,0,0,0,0,0,0],"split_type":[0,0,0,0,0,0,0,0,0,0,0,0,0,0,0,0,0,0,0,0,0,0,0,0,0,0,0,0,0,0,0,0,0,0,0,0,0,0,0,0,0,0,0,0,0,0,0,0,0],"sum_hessian":[2.42E2,1.35E2,1.07E2,6.4E1,7.1E1,6.7E1,4E1,1E1,5.4E1,3E1,4.1E1,2E0,6.5E1,3.8E1,2E0,4E0,6E0,4E0,5E1,2.9E1,1E0,4E1,1E0,3E0,6.2E1,3.6E1,2E0,2E0,4.8E1,4E0,2.5E1,3.2E1,8E0,4E1,2.2E1,3.4E1,2E0,1E0,4.7E1,9E0,1.6E1,6E0,2.6E1,2.9E1,1.1E1,1E0,2.1E1,3.3E1,1E0],"tree_param":{"num_deleted":"0","num_feature":"48","num_nodes":"49","size_leaf_vector":"0"}},{"base_weights":[-7.098375E-2,-7.272594E-2,9.263295E-2,-8.537422E-2,-6.030533E-2,1.1235875E-1,2.6590675E-2,-1.4568336E-2,-8.585903E-2,-6.576571E-2,-2.6380824E-2,-9.144818E-2,-7.145386E-2,-1.8393347E-2,-6.790756E-2,1.3253014E-2,-3.1823218E-2,-1.5241116E-2,-9.2219904E-2,-2.0577481E-2,-7.377315E-2,-4.5671515E-2,5.899875E-2,-2.2685107E-2,-6.952189E-2,-2.3572905E-2,-5.274351E-2,-4.456316E-2,-9.416742E-2,-2.8146217E-2,-7.717111E-2,-5.347798E-2,-7.2228312E-3,-2.3790598E-3,-7.018956E-2,-1.11331465E-2,-2.7435493E-2],"categories":[],"categories_nodes":[],"categories_segments":[],"categories_sizes":[],"default_left":[1,1,1,1,1,0,0,0,1,1,1,1,1,1,1,0,1,0,1,0,1,1,0,0,1,1,0,0,0,0,0,0,0,0,0,0,0],"id":17,"left_children":[1,3,5,7,9,-1,-1,-1,11,13,15,17,19,21,23,-1,25,-1,27,-1,29,31,-1,-1,33,35,-1,-1,-1,-1,-1,-1,-1,-1,-1,-1,-1],"loss_changes":[7.600403E-2,3.271246E-2,9.2051364E-4,2.765417E-3,2.1420121E-2,0E0,0E0,0E0,2.8051138E-3,9.607643E-3,4.52011E-3,3.299296E-3,2.8478205E-3,1.536125E-2,5.869299E-3,0E0,1.6908646E-3,0E0,3.1357408E-3,0E0,3.2542646E-3,1.1144793E-3,0E0,0E0,4.2262673E-3,3.6725262E-4,0E0,0E0,0E0,0E0,0E0,0E0,0E0,0E0,0E0,0E0,0E0],"parents":[2147483647,0,0,1,1,2,2,3,3,4,4,8,8,9,9,10,10,11,11,12,12,13,13,14,14,16,16,18,18,20,20,21,21,24,24,25,25],"right_children":[2,4,6,8,10,-1,-1,-1,12,14,16,18,20,22,24,-1,26,-1,28,-1,30,32,-1,-1,34,36,-1,-1,-1,-1,-1,-1,-1,-1,-1,-1,-1],"split_conditions":[7.576035E-1,4.3493524E-2,1.0037655E-1,8.285547E-4,2.346941E-1,3.3707626E-2,7.977203E-3,-4.3705013E-3,8.766066E-1,7.3468983E-1,3.0400236E-3,4.2988945E-4,8.246019E-1,3.520307E-2,9.2505885E-4,3.975904E-3,2.0995175E-3,-4.572335E-3,5.031439E-4,-6.1732447E-3,2.2405132E-3,9.745266E-3,1.7699625E-2,-6.805532E-3,4.2039523E-4,7.8100073E-1,-1.5823053E-2,-1.3368948E-2,-2.8250227E-2,-8.443865E-3,-2.3151334E-2,-1.6043395E-2,-2.1668496E-3,-7.1371795E-4,-2.1056868E-2,-3.3399442E-3,-8.230648E-3],"split_indices":[45,14,0,27,47,0,0,0,13,16,33,32,1,0,2,0,29,0,35,0,9,0,0,0,0,10,0,0,0,0,0,0,0,0,0,0,0],"split_type":[0,0,0,0,0,0,0,0,0,0,0,0,0,0,0,0,0,0,0,0,0,0,0,0,0,0,0,0,0,0,0,0,0,0,0,0,0],"sum_hessian":[2.42E2,2.4E2,2E0,1.16E2,1.24E2,1E0,1E0,1E0,1.15E2,1.06E2,1.8E1,7.9E1,3.6E1,5E0,1.01E2,2E0,1.6E1,1E0,7.8E1,2E0,3.4E1,4E0,1E0,4E0,9.7E1,1.3E1,3E0,4E0,7.4E1,3E0,3.1E1,3E0,1E0,1E0,9.6E1,4E0,9E0],"tree_param":{"num_deleted":"0","num_feature":"48","num_nodes":"37","size_leaf_vector":"0"}},{"base_weights":[-4.944326E-2,-5.0853427E-2,8.0321215E-2,-5.382235E-2,-2.7293641E-2,2.4615735E-2,9.5866084E-2,-6.7178465E-2,-4.763463E-2,-1.7150521E-2,-5.1775523E-2,-3.0328706E-3,-6.8133354E-2,-5.7115193E-2,-3.261988E-2,-2.2259306E-3,-2.5519863E-2,-5.977262E-2,-1.8522808E-2,-3.5658479E-3,-6.910164E-2,-2.820755E-2,-5.9978914E-2,1.0526213E-1,-3.6740962E-2,7.039793E-3,-1.5568033E-2,-3.094451E-2,-9.566596E-3,-7.024147E-2,-2.289106E-2,-3.4018394E-2,1.2045026E-2,-2.515547E-3,-6.066576E-2,-3.0705392E-2,-7.137956E-2,1.4495502E-3,9.472527E-3,-3.6080703E-3,-1.8351996E-2,-4.836142E-3,-3.330809E-2,-1.287901E-2,1.8415302E-3],"categories":[],"categories_nodes":[],"categories_segments":[],"categories_sizes":[],"default_left":[1,1,1,1,1,0,0,1,1,1,1,0,1,1,1,1,1,0,0,0,1,1,1,0,1,1,1,1,1,0,0,0,0,0,0,0,0,0,0,0,0,0,0,0,0],"id":18,"left_children":[1,3,5,7,9,-1,-1,11,13,15,17,-1,19,21,23,25,27,-1,-1,-1,29,31,33,-1,35,37,39,41,43,-1,-1,-1,-1,-1,-1,-1,-1,-1,-1,-1,-1,-1,-1,-1,-1],"loss_changes":[4.8551083E-2,1.538825E-2,2.3798831E-4,1.4403164E-2,6.31338E-3,0E0,0E0,3.7747025E-3,1.9346833E-2,2.691192E-3,1.0202453E-3,0E0,3.7548244E-3,5.758643E-3,3.7960857E-2,1.2222137E-3,9.155385E-4,0E0,0E0,0E0,1.7104745E-3,2.7487678E-3,3.0443668E-3,0E0,1.0143019E-2,6.786655E-5,6.696902E-5,4.5601E-4,2.1265927E-4,0E0,0E0,0E0,0E0,0E0,0E0,0E0,0E0,0E0,0E0,0E0,0E0,0E0,0E0,0E0,0E0],"parents":[2147483647,0,0,1,1,2,2,3,3,4,4,7,7,8,8,9,9,10,10,12,12,13,13,14,14,15,15,16,16,20,20,21,21,22,22,24,24,25,25,26,26,27,27,28,28],"right_children":[2,4,6,8,10,-1,-1,12,14,16,18,-1,20,22,24,26,28,-1,-1,-1,30,32,34,-1,36,38,40,42,44,-1,-1,-1,-1,-1,-1,-1,-1,-1,-1,-1,-1,-1,-1,-1,-1],"split_conditions":[7.576035E-1,2.1987641E-1,1.0037655E-1,2.87949E-2,8.5441756E-1,7.3847207E-3,2.8759826E-2,6.356343E-4,4.8756834E-2,3.3130336E-1,9.066316E-1,-9.0986124E-4,3.870013E-4,1.5514003E-3,5.0234124E-2,8.8756156E-1,4.528344E-1,-1.7931787E-2,-5.556843E-3,-1.0697544E-3,3.4334573E-1,8.626512E-1,2.7884197E-4,3.157864E-2,1.4720178E-1,8.938069E-2,8.081293E-2,1.4803571E-2,8.1167924E-1,-2.1072444E-2,-6.867318E-3,-1.0205518E-2,3.6135078E-3,-7.546641E-4,-1.8199729E-2,-9.211618E-3,-2.1413868E-2,4.3486507E-4,2.841758E-3,-1.0824212E-3,-5.505599E-3,-1.4508427E-3,-9.992427E-3,-3.8637032E-3,5.524591E-4],"split_indices":[45,45,0,23,28,0,0,18,47,47,16,0,5,29,47,4,47,0,0,0,42,1,0,0,44,3,0,5,7,0,0,0,0,0,0,0,0,0,0,0,0,0,0,0,0],"split_type":[0,0,0,0,0,0,0,0,0,0,0,0,0,0,0,0,0,0,0,0,0,0,0,0,0,0,0,0,0,0,0,0,0,0,0,0,0,0,0,0,0,0,0,0,0],"sum_hessian":[2.42E2,2.4E2,2E0,2.12E2,2.8E1,1E0,1E0,6.4E1,1.48E2,2.1E1,7E0,1E0,6.3E1,8.9E1,5.9E1,8E0,1.3E1,5E0,2E0,1E0,6.2E1,9E0,8E1,1E0,5.8E1,5E0,3E0,9E0,4E0,6E1,2E0,8E0,1E0,1E0,7.9E1,5.1E1,7E0,2E0,3E0,1E0,2E0,1E0,8E0,3E0,1E0],"tree_param":{"num_deleted":"0","num_feature":"48","num_nodes":"45","size_leaf_vector":"0"}},{"base_weights":[4.367064E-2,3.6504615E-2,5.2003153E-2,3.0069953E-2,4.1958164E-2,4.581869E-2,6.0925175E-2,1.8068051E-2,3.3010315E-2,1.987917E-2,4.4095844E-2,4.7258947E-2,1.7931605E-2,6.274273E-2,1.6382635E-2,3.7263632E-3,1.882629E-2,3.4440644E-2,1.6542742E-2,3.7576318E-2,5.38004E-2,4.42118E-2,6.9853894E-2,7.685165E-2,5.1203318E-2,3.5589885E-2,1.3476148E-2,3.9607618E-2,1.5029418E-2,5.778804E-2,2.7887296E-2,4.5893297E-2,2.1429488E-2,2.3943583E-2,8.2699694E-2,5.431014E-2,2.1314964E-2,2.2121113E-2,3.850453E-2,2.093657E-2,4.1870702E-2,4.7170248E-2,1.7819598E-2,5.81941E-3,2.3387622E-2,8.6050935E-2,1.9566804E-2,1.2265176E-2,5.5728227E-2],"categories":[],"categories_nodes":[],"categories_segments":[],"categories_sizes":[],"default_left":[1,1,1,1,1,1,1,1,1,0,1,1,0,1,0,0,0,1,0,1,1,1,0,1,1,1,0,1,0,0,0,1,1,0,1,1,0,0,0,0,0,0,0,0,0,0,0,0,0],"id":19,"left_children":[1,3,5,7,9,11,13,15,17,-1,19,21,-1,23,-1,-1,-1,25,-1,27,29,31,-1,33,35,37,-1,39,-1,-1,-1,41,43,-1,45,47,-1,-1,-1,-1,-1,-1,-1,-1,-1,-1,-1,-1,-1],"loss_changes":[1.2611449E-2,3.4406185E-3,3.2780468E-3,1.6974136E-3,2.4272576E-3,1.9239336E-3,2.372384E-3,9.296229E-5,6.3151494E-4,0E0,1.9643307E-3,1.3868809E-3,0E0,2.57729E-3,0E0,0E0,0E0,6.2867627E-4,0E0,1.2825057E-3,7.650927E-4,1.3150275E-3,0E0,2.9704124E-3,1.1638254E-3,8.362718E-4,0E0,6.867759E-4,0E0,0E0,0E0,1.1311248E-3,4.729745E-5,0E0,1.2782812E-3,6.281957E-4,0E0,0E0,0E0,0E0,0E0,0E0,0E0,0E0,0E0,0E0,0E0,0E0,0E0],"parents":[2147483647,0,0,1,1,2,2,3,3,4,4,5,5,6,6,7,7,8,8,10,10,11,11,13,13,17,17,19,19,20,20,21,21,23,23,24,24,25,25,27,27,31,31,32,32,34,34,35,35],"right_children":[2,4,6,8,10,12,14,16,18,-1,20,22,-1,24,-1,-1,-1,26,-1,28,30,32,-1,34,36,38,-1,40,-1,-1,-1,42,44,-1,46,48,-1,-1,-1,-1,-1,-1,-1,-1,-1,-1,-1,-1,-1],"split_conditions":[8.596624E-1,3.5632E-2,8.877709E-1,7.466123E-1,6.741607E-1,8.8452625E-1,3.467555E-1,4.497752E-3,8.908411E-1,5.963751E-3,4.415108E-2,9.4465065E-1,5.3794817E-3,2.4352275E-2,4.9147904E-3,1.117909E-3,5.647887E-3,9.084598E-1,4.962823E-3,5.8885634E-2,2.8423518E-1,9.255434E-1,2.095617E-2,2.9274939E-2,1.4630789E-1,5.4711564E-3,4.0428448E-3,3.325425E-2,4.5088255E-3,1.7336413E-2,8.366189E-3,9.521168E-1,8.4489304E-1,7.183075E-3,9.382428E-1,7.5755334E-1,6.394489E-3,6.636334E-3,1.155136E-2,6.280971E-3,1.2561211E-2,1.4151075E-2,5.3458796E-3,1.7458231E-3,7.0162867E-3,2.5815282E-2,5.8700414E-3,3.6795528E-3,1.671847E-2],"split_indices":[43,14,13,46,7,13,36,0,4,0,24,43,0,18,0,0,0,16,0,26,21,43,0,11,0,21,0,47,0,0,0,34,1,0,28,22,0,0,0,0,0,0,0,0,0,0,0,0,0],"split_type":[0,0,0,0,0,0,0,0,0,0,0,0,0,0,0,0,0,0,0,0,0,0,0,0,0,0,0,0,0,0,0,0,0,0,0,0,0,0,0,0,0,0,0,0,0,0,0,0,0],"sum_hessian":[2.42E2,1.33E2,1.09E2,6.4E1,6.9E1,6.8E1,4.1E1,1.4E1,5E1,7E0,6.2E1,6.4E1,4E0,3.9E1,2E0,1E0,1.3E1,4.5E1,5E0,4E1,2.2E1,5.9E1,5E0,1.5E1,2.4E1,4.2E1,3E0,3.6E1,4E0,1.8E1,4E0,5.4E1,5E0,2E0,1.3E1,2.1E1,3E0,9E0,3.3E1,5E0,3.1E1,5.1E1,3E0,1E0,4E0,1.2E1,1E0,1E0,2E1],"tree_param":{"num_deleted":"0","num_feature":"48","num_nodes":"49","size_leaf_vector":"0"}},{"base_weights":[-5.009665E-2,-5.149253E-2,7.873801E-2,-6.471078E-2,-4.5011938E-2,9.550494E-2,2.2602081E-2,-2.1651702E-2,-6.616383E-2,-4.8144914E-2,-2.1236073E-2,-6.0172006E-3,-2.4857469E-2,-6.819601E-2,-3.176638E-2,-8.279898E-3,-4.9806137E-2,-3.5755422E-2,-7.366944E-3,-1.2043931E-2,-6.884467E-2,-3.4645993E-2,-8.684158E-3,-2.6376193E-2,5.0148934E-2,-5.141886E-2,-2.0798028E-2,-1.5364304E-2,-4.2299572E-2,6.195985E-3,-1.2576363E-2,-6.9465995E-2,-1.3607759E-2,-3.0681655E-2,-2.4244413E-3,-1.6949696E-2,-5.2652165E-2,4.0689018E-3,-3.390964E-2,-1.1682779E-2,-4.545524E-2,-3.5116225E-3,1.0602395E-2,-1.5628662E-2,-1.2622128E-3],"categories":[],"categories_nodes":[],"categories_segments":[],"categories_sizes":[],"default_left":[1,1,1,1,1,0,0,1,1,1,1,0,0,1,1,1,1,1,1,0,1,0,0,1,0,1,1,0,1,1,1,0,0,0,0,0,0,0,0,0,0,0,0,0,0],"id":20,"left_children":[1,3,5,7,9,-1,-1,11,13,15,17,-1,-1,19,21,23,25,27,29,-1,31,-1,-1,33,-1,35,37,-1,39,41,43,-1,-1,-1,-1,-1,-1,-1,-1,-1,-1,-1,-1,-1,-1],"loss_changes":[4.7755003E-2,1.7731786E-2,6.650705E-4,3.3850968E-3,1.1268288E-2,0E0,0E0,5.0909817E-5,3.0063987E-3,9.190232E-3,3.965377E-3,0E0,0E0,1.6840398E-3,9.7935554E-5,8.724155E-3,5.433291E-3,6.845221E-4,9.2578266E-4,0E0,1.38852E-3,0E0,0E0,5.4435385E-4,0E0,4.676491E-3,3.0723857E-3,0E0,1.4527142E-4,2.083344E-4,2.910808E-4,0E0,0E0,0E0,0E0,0E0,0E0,0E0,0E0,0E0,0E0,0E0,0E0,0E0,0E0],"parents":[2147483647,0,0,1,1,2,2,3,3,4,4,7,7,8,8,9,9,10,10,13,13,14,14,15,15,16,16,17,17,18,18,20,20,23,23,25,25,26,26,28,28,29,29,30,30],"right_children":[2,4,6,8,10,-1,-1,12,14,16,18,-1,-1,20,22,24,26,28,30,-1,32,-1,-1,34,-1,36,38,-1,40,42,44,-1,-1,-1,-1,-1,-1,-1,-1,-1,-1,-1,-1,-1,-1],"split_conditions":[7.576035E-1,2.6350638E-2,1.0037655E-1,5.163518E-3,2.6212412E-1,2.8651483E-2,6.780625E-3,7.9447925E-1,9.0586406E-1,7.41835E-1,6.443943E-2,-1.8051603E-3,-7.457241E-3,1.3612205E-4,1.8608643E-1,8.194594E-1,9.4788367E-1,2.0292758E-3,4.075838E-3,-3.6131793E-3,1.8539912E-1,-1.0393798E-2,-2.6052475E-3,3.2639682E-1,1.5044681E-2,9.517625E-4,9.0515697E-1,-4.6092914E-3,3.034336E-2,2.5787225E-2,8.972591E-2,-2.08398E-2,-4.0823277E-3,-9.204497E-3,-7.2733243E-4,-5.084909E-3,-1.579565E-2,1.2206705E-3,-1.0172892E-2,-3.5048337E-3,-1.3636572E-2,-1.0534868E-3,3.1807187E-3,-4.6885987E-3,-3.7866386E-4],"split_indices":[45,11,0,27,6,0,0,1,4,16,15,0,0,35,0,1,28,29,33,0,45,0,0,0,0,2,31,0,0,0,0,0,0,0,0,0,0,0,0,0,0,0,0,0,0],"split_type":[0,0,0,0,0,0,0,0,0,0,0,0,0,0,0,0,0,0,0,0,0,0,0,0,0,0,0,0,0,0,0,0,0,0,0,0,0,0,0,0,0,0,0,0,0],"sum_hessian":[2.42E2,2.4E2,2E0,7.6E1,1.64E2,1E0,1E0,3E0,7.3E1,1.44E2,2E1,1E0,2E0,6.8E1,5E0,6E0,1.38E2,9E0,1.1E1,1E0,6.7E1,4E0,1E0,5E0,1E0,1.3E2,8E0,3E0,6E0,3E0,8E0,6.6E1,1E0,4E0,1E0,5E0,1.25E2,3E0,5E0,1E0,5E0,1E0,2E0,6E0,2E0],"tree_param":{"num_deleted":"0","num_feature":"48","num_nodes":"45","size_leaf_vector":"0"}},{"base_weights":[-3.485688E-2,-3.599602E-2,6.827303E-2,-4.5205843E-2,-3.172505E-2,2.0923376E-2,8.1486166E-2,-4.761647E-2,-1.9366104E-2,-3.6250636E-2,-1.9302774E-2,-4.4503957E-2,-7.184305E-2,-2.8948833E-3,-2.437403E-2,-5.949765E-4,-3.8747568E-2,-1.2753929E-2,-4.5536354E-2,-4.749451E-3,-4.507781E-2,1.5652999E-3,-5.907625E-3,-2.303755E-2,8.94728E-2,-4.0060207E-2,-2.120041E-3,1.3180962E-2,-1.8839091E-2,-6.0036097E-2,-1.2402654E-2,-8.125359E-3,-4.5558263E-2,-5.476455E-3,-3.9229527E-2,5.4000393E-3,-4.0952064E-2,-1.3377893E-2,2.1455683E-2,2.1497581E-2,3.891474E-3,-1.0054833E-2,-3.0904174E-2,-1.48182465E-2,-2.5779381E-3],"categories":[],"categories_nodes":[],"categories_segments":[],"categories_sizes":[],"default_left":[1,1,1,1,1,0,0,1,1,1,1,1,0,1,0,1,1,1,1,0,1,0,0,1,0,1,1,1,1,0,1,0,0,0,0,0,0,0,0,0,0,0,0,0,0],"id":21,"left_children":[1,3,5,7,9,-1,-1,11,13,15,17,19,-1,21,-1,23,25,27,29,-1,31,-1,-1,33,-1,35,37,39,41,-1,43,-1,-1,-1,-1,-1,-1,-1,-1,-1,-1,-1,-1,-1,-1],"loss_changes":[3.1005055E-2,8.045554E-3,1.7194636E-4,3.6873221E-3,8.744895E-3,0E0,0E0,1.8548667E-3,5.8933324E-4,1.0838583E-2,7.4938163E-3,1.2003258E-3,0E0,4.9559345E-5,0E0,2.0253409E-2,5.3960383E-3,6.4032204E-3,3.5792626E-3,0E0,7.1281195E-4,0E0,0E0,2.059952E-3,0E0,4.680991E-3,1.6140919E-3,5.3439965E-4,3.0807136E-3,0E0,5.6729536E-5,0E0,0E0,0E0,0E0,0E0,0E0,0E0,0E0,0E0,0E0,0E0,0E0,0E0,0E0],"parents":[2147483647,0,0,1,1,2,2,3,3,4,4,7,7,8,8,9,9,10,10,11,11,13,13,15,15,16,16,17,17,18,18,20,20,23,23,25,25,26,26,27,27,28,28,30,30],"right_children":[2,4,6,8,10,-1,-1,12,14,16,18,20,-1,22,-1,24,26,28,30,-1,32,-1,-1,34,-1,36,38,40,42,-1,44,-1,-1,-1,-1,-1,-1,-1,-1,-1,-1,-1,-1,-1,-1],"split_conditions":[7.576035E-1,1.9684337E-2,1.0037655E-1,2.8368613E-1,1.3407071E-1,6.277013E-3,2.444585E-2,3.368684E-1,3.3105381E-3,7.3468983E-1,9.0351725E-1,2.5165612E-3,-2.1552917E-2,2.4964486E-1,-7.3122093E-3,3.520307E-2,2.797563E-1,1.2873086E-1,9.0235424E-1,-1.4248353E-3,1.2704267E-3,4.6958998E-4,-1.7722875E-3,2.1793559E-1,2.6841842E-2,1.0591035E-3,1.21067956E-1,4.8189163E-2,8.694196E-1,-1.801083E-2,2.1176167E-1,-2.4376079E-3,-1.3667479E-2,-1.6429366E-3,-1.1768859E-2,1.6200119E-3,-1.228562E-2,-4.013368E-3,6.436705E-3,6.4492747E-3,1.1674423E-3,-3.0164502E-3,-9.271253E-3,-4.445474E-3,-7.733815E-4],"split_indices":[45,17,0,47,45,0,0,39,27,16,31,0,0,0,0,0,36,47,43,0,24,0,0,18,0,44,0,11,40,0,0,0,0,0,0,0,0,0,0,0,0,0,0,0,0],"split_type":[0,0,0,0,0,0,0,0,0,0,0,0,0,0,0,0,0,0,0,0,0,0,0,0,0,0,0,0,0,0,0,0,0,0,0,0,0,0,0,0,0,0,0,0,0],"sum_hessian":[2.42E2,2.4E2,2E0,7.3E1,1.67E2,1E0,1E0,6.6E1,7E0,1.21E2,4.6E1,6.1E1,5E0,2E0,5E0,8E0,1.13E2,3.8E1,8E0,1E0,6E1,1E0,1E0,7E0,1E0,1.09E2,4E0,7E0,3.1E1,5E0,3E0,1E0,5.9E1,4E0,3E0,2E0,1.07E2,3E0,1E0,3E0,4E0,1.9E1,1.2E1,2E0,1E0],"tree_param":{"num_deleted":"0","num_feature":"48","num_nodes":"45","size_leaf_vector":"0"}},{"base_weights":[3.1450704E-2,2.7985096E-2,4.1554388E-2,1.980576E-2,3.0339036E-2,4.4114538E-2,1.1160622E-2,1.5047657E-2,2.4763098E-2,2.7361345E-2,3.693435E-2,2.6696619E-2,4.8354503E-2,9.037303E-3,1.7344454E-2,2.7412541E-2,7.3121935E-3,2.953829E-2,1.6411452E-2,4.7924735E-2,2.7152633E-2,2.9549664E-2,7.336577E-3,6.563333E-2,3.954872E-2,1.8590407E-2,8.6475015E-3,8.751631E-3,2.931722E-2,2.5227696E-2,3.530502E-2,1.0293152E-2,1.9925384E-2,5.113803E-2,1.4812251E-2,1.4970612E-2,3.4784745E-2,1.9501051E-2,7.224819E-2,4.0614393E-2,3.789276E-3,1.9133627E-2,2.9550195E-2,3.7929107E-2,1.3024318E-2,3.3219655E-3,1.1810354E-2,3.866464E-3,2.1144629E-2,1.3605118E-2,5.2733216E-2,5.6465147E-3,1.949202E-2,1.80614E-2,3.9667945E-2,4.161606E-2,5.7830215E-3],"categories":[],"categories_nodes":[],"categories_segments":[],"categories_sizes":[],"default_left":[1,1,1,1,1,1,0,1,1,1,1,1,1,0,1,1,0,1,1,1,1,0,0,1,1,0,0,0,0,1,1,1,1,1,0,1,1,0,0,1,0,0,0,0,0,0,0,0,0,0,0,0,0,0,0,0,0],"id":22,"left_children":[1,3,5,7,9,11,-1,13,15,17,19,21,23,-1,25,27,-1,29,31,33,35,-1,-1,37,39,-1,-1,-1,-1,41,43,45,47,49,-1,51,53,-1,-1,55,-1,-1,-1,-1,-1,-1,-1,-1,-1,-1,-1,-1,-1,-1,-1,-1,-1],"loss_changes":[7.3458403E-3,2.9417723E-3,4.176408E-3,6.652232E-4,1.7585009E-3,2.770923E-3,0E0,1.8836698E-4,7.2425697E-4,1.9228086E-3,3.1064153E-3,5.0126296E-4,3.946893E-3,0E0,2.3451634E-5,3.47659E-4,0E0,1.17255E-3,2.0339154E-4,1.1577308E-3,1.7106421E-3,0E0,0E0,2.5581457E-3,1.0274425E-3,0E0,0E0,0E0,0E0,7.780194E-4,1.4353916E-3,5.5956654E-5,1.3362244E-4,2.4050847E-4,0E0,3.5367673E-4,4.26827E-4,0E0,0E0,8.060187E-4,0E0,0E0,0E0,0E0,0E0,0E0,0E0,0E0,0E0,0E0,0E0,0E0,0E0,0E0,0E0,0E0,0E0],"parents":[2147483647,0,0,1,1,2,2,3,3,4,4,5,5,7,7,8,8,9,9,10,10,11,11,12,12,14,14,15,15,17,17,18,18,19,19,20,20,23,23,24,24,29,29,30,30,31,31,32,32,33,33,35,35,36,36,39,39],"right_children":[2,4,6,8,10,12,-1,14,16,18,20,22,24,-1,26,28,-1,30,32,34,36,-1,-1,38,40,-1,-1,-1,-1,42,44,46,48,50,-1,52,54,-1,-1,56,-1,-1,-1,-1,-1,-1,-1,-1,-1,-1,-1,-1,-1,-1,-1,-1,-1],"split_conditions":[8.854892E-1,7.863851E-1,3.4622106E-1,3.1257905E-2,8.842472E-1,3.1526476E-2,3.3481868E-3,7.28261E-1,7.9559565E-1,8.6930794E-1,8.762926E-1,1.8723673E-1,3.6117584E-2,2.7111908E-3,9.767385E-2,6.2654495E-1,2.1936581E-3,8.525685E-1,8.5688066E-1,2.1671537E-1,2.6245277E-2,8.864899E-3,2.2009732E-3,8.007383E-3,3.601239E-1,5.5771223E-3,2.5942505E-3,2.6254894E-3,8.795166E-3,2.6795747E-2,1.3112634E-1,3.3463717E-2,3.3170884E-3,7.5818133E-1,4.4436753E-3,8.741644E-1,8.342869E-1,5.8503156E-3,2.1674458E-2,9.71852E-1,1.1367828E-3,5.7400884E-3,8.865058E-3,1.13787325E-2,3.9072954E-3,9.965897E-4,3.5431064E-3,1.1599392E-3,6.343389E-3,4.0815356E-3,1.5819965E-2,1.6939545E-3,5.8476063E-3,5.41842E-3,1.1900384E-2,1.2484819E-2,1.7349065E-3],"split_indices":[10,43,2,47,19,11,0,43,1,19,16,27,17,0,41,25,0,1,34,32,33,0,0,30,6,0,0,0,0,9,18,6,3,16,0,13,40,0,0,10,0,0,0,0,0,0,0,0,0,0,0,0,0,0,0,0,0],"split_type":[0,0,0,0,0,0,0,0,0,0,0,0,0,0,0,0,0,0,0,0,0,0,0,0,0,0,0,0,0,0,0,0,0,0,0,0,0,0,0,0,0,0,0,0,0,0,0,0,0,0,0,0,0,0,0,0,0],"sum_hessian":[2.42E2,1.83E2,5.9E1,4.3E1,1.4E2,5.4E1,5E0,2.4E1,1.9E1,1E2,4E1,1.2E1,4.2E1,8E0,1.6E1,1.6E1,3E0,8.2E1,1.8E1,1.7E1,2.3E1,1E1,2E0,1.2E1,3E1,1.3E1,3E0,2E0,1.4E1,5E1,3.2E1,8E0,1E1,1.5E1,2E0,1E1,1.3E1,2E0,1E1,2.9E1,1E0,2.3E1,2.7E1,2.8E1,4E0,2E0,6E0,1E0,9E0,1E0,1.4E1,4E0,6E0,4E0,9E0,2.8E1,1E0],"tree_param":{"num_deleted":"0","num_feature":"48","num_nodes":"57","size_leaf_vector":"0"}},{"base_weights":[-3.5334222E-2,-3.646057E-2,6.6927314E-2,-3.869973E-2,-1.5566226E-2,8.11792E-2,1.921177E-2,-4.2856734E-2,-2.9912543E-2,-3.1019151E-3,-2.8810736E-2,-4.4640947E-2,-1.0935181E-2,2.7212899E-3,-3.4544196E-2,-1.0936347E-2,1.3187331E-2,-3.4129925E-2,-1.4765263E-3,-4.5690015E-2,1.663046E-3,-2.612877E-3,-1.7070448E-2,-1.40839275E-2,3.14501E-2,-1.9194437E-2,-3.7367836E-2,-5.618185E-4,-1.3459751E-2,-4.234582E-3,2.0197928E-3,-1.6715465E-3,-4.63443E-2,1.7611839E-2,-9.523831E-3,5.458792E-5,-4.4093826E-3,-2.7647426E-2,-3.1290427E-3,5.921267E-3,3.7985954E-2,-2.3706604E-2,-4.2434502E-3,-1.0095239E-2,-3.9388143E-2,-1.8931031E-3,1.0503754E-3,-1.5315357E-2,-5.2619576E-3],"categories":[],"categories_nodes":[],"categories_segments":[],"categories_sizes":[],"default_left":[1,1,1,1,1,0,0,1,1,1,1,1,1,1,1,1,0,0,1,1,1,1,0,1,1,1,1,1,1,0,0,0,0,0,0,0,0,0,0,0,0,0,0,0,0,0,0,0,0],"id":23,"left_children":[1,3,5,7,9,-1,-1,11,13,15,17,19,21,23,25,27,-1,-1,29,31,33,35,-1,37,39,41,43,45,47,-1,-1,-1,-1,-1,-1,-1,-1,-1,-1,-1,-1,-1,-1,-1,-1,-1,-1,-1,-1],"loss_changes":[3.0429512E-2,1.0672957E-2,4.805131E-4,6.644696E-3,4.0377243E-3,0E0,0E0,7.7703E-3,1.1127852E-2,1.9308592E-3,1.6943561E-3,6.7308843E-3,4.149332E-4,5.2708797E-3,2.0566434E-3,2.542294E-4,0E0,0E0,3.748211E-5,3.7817955E-3,8.8140095E-4,2.420128E-5,0E0,9.5359597E-4,4.4248626E-4,7.089386E-4,2.5226176E-3,8.427336E-6,4.1106134E-5,0E0,0E0,0E0,0E0,0E0,0E0,0E0,0E0,0E0,0E0,0E0,0E0,0E0,0E0,0E0,0E0,0E0,0E0,0E0,0E0],"parents":[2147483647,0,0,1,1,2,2,3,3,4,4,7,7,8,8,9,9,10,10,11,11,12,12,13,13,14,14,15,15,18,18,19,19,20,20,21,21,23,23,24,24,25,25,26,26,27,27,28,28],"right_children":[2,4,6,8,10,-1,-1,12,14,16,18,20,22,24,26,28,-1,-1,30,32,34,36,-1,38,40,42,44,46,48,-1,-1,-1,-1,-1,-1,-1,-1,-1,-1,-1,-1,-1,-1,-1,-1,-1,-1,-1,-1],"split_conditions":[7.576035E-1,2.63031E-1,1.0037655E-1,8.7981635E-1,7.953166E-1,2.4353761E-2,5.7635307E-3,3.5956776E-1,8.3924115E-1,7.5949776E-1,1.4760622E-1,9.2290354E-1,1.8567224E-1,6.826004E-2,2.4981994E-2,4.7145262E-3,3.9561996E-3,-1.0238978E-2,5.8620162E-2,4.2039523E-4,9.300557E-1,2.7063068E-2,-5.1211347E-3,1.1512456E-3,4.144284E-2,9.2669475E-1,8.135632E-1,3.9021191E-3,1.011163E-2,-1.2703747E-3,6.0593785E-4,-5.0146395E-4,-1.390329E-2,5.2835518E-3,-2.8571496E-3,1.6376376E-5,-1.3228148E-3,-8.294228E-3,-9.3871285E-4,1.7763801E-3,1.1395787E-2,-7.1119815E-3,-1.2730351E-3,-3.0285718E-3,-1.1816443E-2,-5.67931E-4,3.1511264E-4,-4.5946073E-3,-1.5785873E-3],"split_indices":[45,12,0,7,31,0,0,47,16,1,42,1,39,17,35,0,0,0,0,0,1,0,0,23,0,40,40,0,0,0,0,0,0,0,0,0,0,0,0,0,0,0,0,0,0,0,0,0,0],"split_type":[0,0,0,0,0,0,0,0,0,0,0,0,0,0,0,0,0,0,0,0,0,0,0,0,0,0,0,0,0,0,0,0,0,0,0,0,0,0,0,0,0,0,0,0,0,0,0,0,0],"sum_hessian":[2.42E2,2.4E2,2E0,2.16E2,2.4E1,1E0,1E0,1.44E2,7.2E1,1.3E1,1.1E1,1.36E2,8E0,9E0,6.3E1,9E0,4E0,9E0,2E0,1.33E2,3E0,4E0,4E0,6E0,3E0,1.1E1,5.2E1,2E0,7E0,1E0,1E0,2E0,1.31E2,1E0,2E0,2E0,2E0,2E0,4E0,1E0,2E0,8E0,3E0,4E0,4.8E1,1E0,1E0,5E0,2E0],"tree_param":{"num_deleted":"0","num_feature":"48","num_nodes":"49","size_leaf_vector":"0"}},{"base_weights":[-2.456314E-2,-2.5489373E-2,5.8032077E-2,-2.6073067E-2,7.275592E-3,1.7784864E-2,6.926325E-2,-2.2286016E-2,-3.2346305E-2,1.5668591E-2,-3.542604E-3,-2.5448872E-2,5.9911376E-3,-3.4026377E-2,2.0121604E-3,-7.4629365E-3,2.1490306E-3,-1.6068192E-2,-3.0222174E-2,-3.355437E-2,2.7016766E-2,-2.6927043E-2,-4.2993262E-2,1.1342276E-2,-1.765415E-2,-2.0239428E-2,-1.977181E-4,-3.1652052E-2,1.3023466E-4,7.605189E-2,1.4508064E-2,-2.8338578E-2,4.162699E-3,-6.2414687E-2,-3.590881E-2],"categories":[],"categories_nodes":[],"categories_segments":[],"categories_sizes":[],"default_left":[1,1,1,1,1,0,0,1,1,0,1,1,1,1,1,0,0,1,1,0,1,1,1,0,0,0,0,0,0,0,0,0,0,0,0],"id":24,"left_children":[1,3,5,7,9,-1,-1,11,13,-1,15,17,19,21,23,-1,-1,25,27,-1,29,31,33,-1,-1,-1,-1,-1,-1,-1,-1,-1,-1,-1,-1],"loss_changes":[2.0069316E-2,4.798755E-3,1.2423284E-4,4.90956E-3,5.0949317E-4,0E0,0E0,1.3657384E-2,5.0905123E-3,0E0,8.297738E-5,5.604036E-3,1.4210036E-2,4.1260123E-3,1.117683E-3,0E0,0E0,3.1735748E-3,3.866747E-3,0E0,5.6436574E-3,2.2682957E-3,2.574414E-3,0E0,0E0,0E0,0E0,0E0,0E0,0E0,0E0,0E0,0E0,0E0,0E0],"parents":[2147483647,0,0,1,1,2,2,3,3,4,4,7,7,8,8,10,10,11,11,12,12,13,13,14,14,17,17,18,18,20,20,21,21,22,22],"right_children":[2,4,6,8,10,-1,-1,12,14,-1,16,18,20,22,24,-1,-1,26,28,-1,30,32,34,-1,-1,-1,-1,-1,-1,-1,-1,-1,-1,-1,-1],"split_conditions":[7.576035E-1,9.568151E-1,1.0037655E-1,8.7330616E-1,2.4214689E-2,5.3354595E-3,2.0778976E-2,9.030869E-1,2.9550612E-1,4.700578E-3,2.6254864E-2,2.3784502E-3,8.4862614E-1,8.8881776E-2,9.157235E-1,-2.238881E-3,6.447092E-4,3.3130336E-1,9.042382E-1,-1.0066312E-2,7.721716E-1,9.853538E-1,2.0094663E-3,3.402683E-3,-5.296245E-3,-6.071829E-3,-5.931543E-5,-9.495616E-3,3.90704E-5,2.2815568E-2,4.352419E-3,-8.5015735E-3,1.2488097E-3,-1.8724406E-2,-1.0772644E-2],"split_indices":[45,1,0,43,0,0,0,25,6,0,0,32,40,9,10,0,0,11,10,0,16,28,29,0,0,0,0,0,0,0,0,0,0,0,0],"split_type":[0,0,0,0,0,0,0,0,0,0,0,0,0,0,0,0,0,0,0,0,0,0,0,0,0,0,0,0,0,0,0,0,0,0,0],"sum_hessian":[2.42E2,2.4E2,2E0,2.36E2,4E0,1E0,1E0,1.5E2,8.6E1,2E0,2E0,1.35E2,1.5E1,8.2E1,4E0,1E0,1E0,4.7E1,8.8E1,5E0,1E1,4.8E1,3.4E1,3E0,1E0,3.7E1,1E1,8.4E1,4E0,1E0,9E0,4.6E1,2E0,7E0,2.7E1],"tree_param":{"num_deleted":"0","num_feature":"48","num_nodes":"35","size_leaf_vector":"0"}},{"base_weights":[2.2727152E-2,1.7271824E-2,2.605285E-2,1.5230141E-2,2.5159575E-2,2.214711E-2,3.2143686E-2,1.224824E-2,1.8728828E-2,8.016676E-3,3.113633E-2,1.7223068E-2,3.159845E-2,1.8947698E-2,3.7409943E-2,1.8960465E-2,9.788735E-3,1.995461E-2,4.546806E-3,9.602058E-3,4.4882298E-5,3.585394E-2,1.155822E-2,2.1650802E-2,1.2935778E-2,4.504378E-2,2.1951327E-2,2.4298947E-2,1.08965635E-2,2.7252553E-2,4.8951715E-2,1.3342454E-2,7.3545133E-3,2.0978495E-2,3.4055114E-3,-4.4173002E-4,6.356895E-3,9.259671E-3,3.7780005E-2,1.8540489E-2,3.3494283E-2,1.4149207E-2,2.8253675E-3,4.9742185E-2,1.4367838E-2,1.1253529E-2,2.8145397E-2,2.9148247E-2,9.737939E-3,1.14534125E-2,3.220886E-3,3.0374086E-2,9.940219E-3,2.8351016E-2,6.05371E-2,2.3089051E-3,1.4069508E-2,8.647167E-3,2.2508006E-3,6.2707067E-3,2.2434367E-2,1.3140455E-2,2.1624481E-2,8.547574E-3,1.6802724E-2,-1.1083484E-4,3.5871267E-3,5.7140687E-3,1.6749337E-2,1.4613579E-2,3.572333E-2,4.6164095E-3,3.15486E-2,1.1418998E-2,2.0125508E-3,3.6025904E-2,1.1669651E-2],"categories":[],"categories_nodes":[],"categories_segments":[],"categories_sizes":[],"default_left":[1,1,1,1,1,1,1,1,1,1,1,1,1,1,1,0,1,1,1,0,0,1,0,1,1,1,1,1,1,1,1,1,1,1,0,0,0,0,0,1,0,1,1,0,0,1,1,0,0,0,0,1,1,1,0,0,0,0,0,0,0,0,0,0,0,0,0,0,0,0,0,0,0,0,0,0,0],"id":25,"left_children":[1,3,5,7,9,11,13,15,17,19,21,23,25,27,29,-1,31,33,35,-1,-1,37,-1,39,41,43,45,47,49,51,53,55,57,59,-1,-1,-1,-1,-1,61,-1,63,65,-1,-1,67,69,-1,-1,-1,-1,71,73,75,-1,-1,-1,-1,-1,-1,-1,-1,-1,-1,-1,-1,-1,-1,-1,-1,-1,-1,-1,-1,-1,-1,-1],"loss_changes":[3.958717E-3,1.1467226E-3,2.8327033E-3,5.8435835E-4,1.5946506E-3,3.8304254E-3,3.1828023E-3,5.5729505E-4,5.0032884E-4,7.539906E-5,7.86297E-4,9.348411E-4,3.032202E-3,5.107303E-4,3.2380745E-3,0E0,2.046416E-4,4.538335E-4,3.8926803E-5,0E0,0E0,1.6239285E-4,0E0,4.84108E-4,3.894125E-4,1.0148492E-3,1.0085227E-3,4.2226352E-4,1.5776604E-6,9.410195E-4,2.3410544E-3,7.180055E-5,1.3227563E-4,4.802877E-4,0E0,0E0,0E0,0E0,0E0,1.4883932E-4,0E0,3.1716237E-4,1.1580974E-5,0E0,0E0,1.7828739E-4,7.08472E-4,0E0,0E0,0E0,0E0,4.2916276E-4,3.563508E-5,6.038118E-4,0E0,0E0,0E0,0E0,0E0,0E0,0E0,0E0,0E0,0E0,0E0,0E0,0E0,0E0,0E0,0E0,0E0,0E0,0E0,0E0,0E0,0E0,0E0],"parents":[2147483647,0,0,1,1,2,2,3,3,4,4,5,5,6,6,7,7,8,8,9,9,10,10,11,11,12,12,13,13,14,14,16,16,17,17,18,18,21,21,23,23,24,24,25,25,26,26,27,27,28,28,29,29,30,30,31,31,32,32,33,33,39,39,41,41,42,42,45,45,46,46,51,51,52,52,53,53],"right_children":[2,4,6,8,10,12,14,16,18,20,22,24,26,28,30,-1,32,34,36,-1,-1,38,-1,40,42,44,46,48,50,52,54,56,58,60,-1,-1,-1,-1,-1,62,-1,64,66,-1,-1,68,70,-1,-1,-1,-1,72,74,76,-1,-1,-1,-1,-1,-1,-1,-1,-1,-1,-1,-1,-1,-1,-1,-1,-1,-1,-1,-1,-1,-1,-1],"split_conditions":[8.3519405E-1,2.0753485E-1,8.880849E-1,6.8982475E-2,7.5253403E-1,7.582611E-2,8.715826E-1,5.58537E-3,6.496808E-2,7.852478E-1,2.5088212E-3,1.5903696E-2,1.15898065E-1,8.5201025E-1,8.874569E-1,5.6881397E-3,8.13709E-3,6.0763553E-2,6.698704E-3,2.8806175E-3,1.346469E-5,6.9169796E-1,3.467466E-3,3.4881747E-1,9.036801E-1,9.093436E-1,8.5335696E-1,1.2797716E-1,1.3796093E-1,2.1190003E-1,4.396284E-2,4.2021256E-3,8.21762E-1,6.273172E-1,1.0216534E-3,-1.3251901E-4,1.9070685E-3,2.7779015E-3,1.1334002E-2,8.427998E-1,1.0048285E-2,8.6206514E-1,8.306935E-1,1.4922656E-2,4.310352E-3,2.1963921E-1,8.398342E-1,8.7444745E-3,2.9213817E-3,3.4360238E-3,9.6626586E-4,8.481376E-1,8.7817657E-1,1.669719E-2,1.8161131E-2,6.926716E-4,4.2208526E-3,2.5941501E-3,6.752402E-4,1.8812121E-3,6.73031E-3,3.9421367E-3,6.487345E-3,2.5642724E-3,5.0408174E-3,-3.3250453E-5,1.0761381E-3,1.7142206E-3,5.0248015E-3,4.384074E-3,1.0716999E-2,1.3849229E-3,9.464581E-3,3.4256997E-3,6.0376525E-4,1.0807771E-2,3.5008953E-3],"split_indices":[22,39,46,17,10,47,28,42,36,4,20,42,47,28,19,0,45,0,0,0,0,22,0,17,43,31,16,14,0,36,36,9,25,13,0,0,0,0,0,37,0,31,13,0,0,45,10,0,0,0,0,16,1,30,0,0,0,0,0,0,0,0,0,0,0,0,0,0,0,0,0,0,0,0,0,0,0],"split_type":[0,0,0,0,0,0,0,0,0,0,0,0,0,0,0,0,0,0,0,0,0,0,0,0,0,0,0,0,0,0,0,0,0,0,0,0,0,0,0,0,0,0,0,0,0,0,0,0,0,0,0,0,0,0,0,0,0,0,0,0,0,0,0,0,0,0,0,0,0,0,0,0,0,0,0,0,0],"sum_hessian":[2.42E2,9.4E1,1.48E2,7.7E1,1.7E1,9.3E1,5.5E1,4.4E1,3.3E1,5E0,1.2E1,6.3E1,3E1,1.7E1,3.8E1,1E1,3.4E1,3E1,3E0,4E0,1E0,9E0,3E0,2.9E1,3.4E1,1.1E1,1.9E1,9E0,8E0,2.2E1,1.6E1,1.2E1,2.2E1,2.8E1,2E0,1E0,2E0,1E0,8E0,2.5E1,4E0,3E1,4E0,9E0,2E0,8E0,1.1E1,6E0,3E0,7E0,1E0,1.8E1,4E0,7E0,9E0,1E0,1.1E1,1.7E1,5E0,3E0,2.5E1,1.1E1,1.4E1,1.1E1,1.9E1,1E0,3E0,5E0,3E0,5E0,6E0,1E0,1.7E1,3E0,1E0,4E0,3E0],"tree_param":{"num_deleted":"0","num_feature":"48","num_nodes":"77","size_leaf_vector":"0"}},{"base_weights":[-2.4820179E-2,-2.573431E-2,5.6888223E-2,-2.8519992E-2,-1.4522597E-2,6.900233E-2,1.6330004E-2,-3.9002586E-2,-2.5324848E-2,-6.4592413E-3,-3.1253528E-2,-8.359969E-3,-4.1091785E-2,-3.212431E-2,-1.913612E-2,-2.2515482E-3,-2.2968363E-2,-4.1944012E-2,-1.5320038E-2,-1.021259E-2,-1.4010519E-3,-3.3856742E-2,-5.351404E-2,-3.259514E-2,1.8149987E-4,1.1278215E-2,-2.1719642E-2,-5.260012E-3,3.9905347E-3,-2.5660072E-3,-3.0616105E-2,-2.1123223E-2,-4.883387E-2,-1.8906007E-2,4.8908666E-3,-3.660904E-2,-1.7663488E-2,-5.8786675E-2,-1.634303E-2,-2.2795623E-2,-3.5123378E-2,-6.110842E-3,2.5847718E-2,-1.7898506E-2,-4.0289067E-2,6.144751E-3,-7.6340735E-3,1.0481641E-2,-4.5968993E-3,-4.614953E-3,7.6594204E-4,-7.0030913E-3,-2.2266554E-2],"categories":[],"categories_nodes":[],"categories_segments":[],"categories_sizes":[],"default_left":[1,1,1,1,1,0,0,1,1,1,1,1,1,1,1,1,1,1,1,0,0,1,1,1,0,1,1,1,1,1,0,0,0,1,0,0,0,0,0,0,0,0,0,0,0,0,0,0,0,0,0,0,0],"id":26,"left_children":[1,3,5,7,9,-1,-1,11,13,15,17,19,21,23,25,27,29,31,33,-1,-1,35,37,39,-1,41,43,45,47,49,-1,-1,-1,51,-1,-1,-1,-1,-1,-1,-1,-1,-1,-1,-1,-1,-1,-1,-1,-1,-1,-1,-1],"loss_changes":[1.9614145E-2,7.112801E-3,3.4717098E-4,5.442992E-3,6.5434976E-3,0E0,0E0,2.4092644E-3,5.6972653E-3,2.3795716E-3,2.0828042E-3,3.7260615E-5,1.7832145E-3,1.0706559E-3,6.6096243E-3,5.655836E-4,1.0136629E-3,2.5954098E-4,6.7227194E-4,0E0,0E0,6.0127676E-4,1.587104E-3,9.088516E-4,0E0,1.9314005E-3,4.600607E-3,5.8842165E-4,6.056025E-4,2.4015735E-5,0E0,0E0,0E0,1.2406753E-4,0E0,0E0,0E0,0E0,0E0,0E0,0E0,0E0,0E0,0E0,0E0,0E0,0E0,0E0,0E0,0E0,0E0,0E0,0E0],"parents":[2147483647,0,0,1,1,2,2,3,3,4,4,7,7,8,8,9,9,10,10,11,11,12,12,13,13,14,14,15,15,16,16,17,17,18,18,21,21,22,22,23,23,25,25,26,26,27,27,28,28,29,29,33,33],"right_children":[2,4,6,8,10,-1,-1,12,14,16,18,20,22,24,26,28,30,32,34,-1,-1,36,38,40,-1,42,44,46,48,50,-1,-1,-1,52,-1,-1,-1,-1,-1,-1,-1,-1,-1,-1,-1,-1,-1,-1,-1,-1,-1,-1,-1],"split_conditions":[7.576035E-1,1.4003848E-1,1.0037655E-1,2.0395951E-2,3.3621478E-1,2.07007E-2,4.899001E-3,9.3590945E-4,1.7970812E-2,8.912016E-1,1.7026457E-3,5.982194E-3,5.549717E-2,3.9985448E-2,7.977704E-1,2.059261E-3,3.5731923E-2,1.4855427E-3,3.2844508E-1,-3.0637772E-3,-4.2031557E-4,8.836192E-1,8.8532877E-1,6.399661E-2,5.4449963E-5,7.4022543E-1,1.6827674E-1,1.4235894E-3,8.9619994E-1,3.6167346E-2,-9.184832E-3,-6.336967E-3,-1.4650161E-2,2.3253802E-3,1.4672601E-3,-1.0982712E-2,-5.2990466E-3,-1.7636003E-2,-4.902909E-3,-6.838687E-3,-1.0537013E-2,-1.8332526E-3,7.7543156E-3,-5.369552E-3,-1.208672E-2,1.8434253E-3,-2.290222E-3,3.1444924E-3,-1.3790699E-3,-1.384486E-3,2.2978261E-4,-2.1009275E-3,-6.6799666E-3],"split_indices":[45,47,0,26,41,0,0,2,45,40,20,0,45,47,16,29,6,26,0,0,0,1,7,29,0,43,42,27,13,0,0,0,0,20,0,0,0,0,0,0,0,0,0,0,0,0,0,0,0,0,0,0,0],"split_type":[0,0,0,0,0,0,0,0,0,0,0,0,0,0,0,0,0,0,0,0,0,0,0,0,0,0,0,0,0,0,0,0,0,0,0,0,0,0,0,0,0,0,0,0,0,0,0,0,0,0,0,0,0],"sum_hessian":[2.42E2,2.4E2,2E0,1.91E2,4.9E1,1E0,1E0,4.2E1,1.49E2,3.4E1,1.5E1,3E0,3.9E1,6.9E1,8E1,2.8E1,6E0,8E0,7E0,2E0,1E0,2.7E1,1.2E1,6.8E1,1E0,6E0,7.4E1,1.9E1,9E0,2E0,4E0,3E0,5E0,6E0,1E0,2.2E1,5E0,1E1,2E0,1.6E1,5.2E1,3E0,3E0,6.3E1,1.1E1,3E0,1.6E1,5E0,4E0,1E0,1E0,2E0,4E0],"tree_param":{"num_deleted":"0","num_feature":"48","num_nodes":"53","size_leaf_vector":"0"}},{"base_weights":[-1.722674E-2,-1.7983735E-2,4.9327273E-2,-2.2637164E-2,-1.4906666E-2,1.5117139E-2,5.8873773E-2,6.9767907E-3,-2.3030613E-2,-2.4956727E-2,-1.0553244E-2,-1.5408836E-2,-2.477933E-2,9.5487665E-4,-2.988473E-2,4.1772354E-2,-1.1974831E-2,-1.744644E-2,-2.8968127E-3,-2.5203822E-2,3.1043142E-3,-8.056452E-3,1.19803175E-2,-1.7113984E-4,-3.2501485E-2,6.46441E-2,-1.9855648E-3,-2.4363527E-3,-1.6436737E-2,-2.158748E-3,-1.8266998E-2,7.107742E-4,-4.3362663E-3,-5.741891E-3,-2.5955876E-2,1.3289353E-3,-1.47563545E-2,1.40456455E-2,2.8921664E-3,4.9399734E-3,-7.7522397E-3,-3.6670536E-2,-1.4368245E-2,-7.1113002E-3,1.6611489E-2,-1.9325074E-2,5.2869995E-3],"categories":[],"categories_nodes":[],"categories_segments":[],"categories_sizes":[],"default_left":[1,1,1,1,1,0,0,0,1,1,1,1,1,1,1,1,1,1,1,1,0,1,1,1,1,0,0,1,1,0,0,0,0,0,0,0,0,0,0,0,0,0,0,0,0,0,0],"id":27,"left_children":[1,3,5,7,9,-1,-1,-1,11,13,15,17,19,21,23,25,27,29,31,33,-1,35,37,39,41,-1,-1,43,45,-1,-1,-1,-1,-1,-1,-1,-1,-1,-1,-1,-1,-1,-1,-1,-1,-1,-1],"loss_changes":[1.3129659E-2,3.1134114E-3,8.9758076E-5,1.2559295E-3,6.2119476E-3,0E0,0E0,0E0,8.5771456E-4,5.6470037E-3,8.310688E-3,4.5935204E-4,9.5413625E-4,8.913498E-4,2.8713048E-3,3.130814E-3,4.343614E-3,1.7382158E-4,2.3853925E-5,9.194277E-4,0E0,3.340161E-4,3.4457655E-5,1.9328728E-4,2.043452E-3,0E0,0E0,3.14575E-3,4.494354E-3,0E0,0E0,0E0,0E0,0E0,0E0,0E0,0E0,0E0,0E0,0E0,0E0,0E0,0E0,0E0,0E0,0E0,0E0],"parents":[2147483647,0,0,1,1,2,2,3,3,4,4,8,8,9,9,10,10,11,11,12,12,13,13,14,14,15,15,16,16,17,17,18,18,19,19,21,21,22,22,23,23,24,24,27,27,28,28],"right_children":[2,4,6,8,10,-1,-1,-1,12,14,16,18,20,22,24,26,28,30,32,34,-1,36,38,40,42,-1,-1,44,46,-1,-1,-1,-1,-1,-1,-1,-1,-1,-1,-1,-1,-1,-1,-1,-1,-1,-1],"split_conditions":[7.576035E-1,3.3488058E-2,1.0037655E-1,8.375356E-4,8.052437E-3,4.535142E-3,1.7662132E-2,2.0930374E-3,9.744109E-4,5.501139E-3,7.415744E-1,8.559247E-1,9.8235345E-1,7.36478E-3,8.377222E-4,1.8629384E-1,8.4625363E-1,2.1725947E-3,4.6637678E-3,8.375356E-4,9.312943E-4,1.6709291E-3,6.697154E-2,8.326821E-1,2.8368613E-1,1.939323E-2,-5.956695E-4,8.943416E-1,2.1858849E-1,-6.4762443E-4,-5.4800995E-3,2.1323227E-4,-1.30088E-3,-1.7225674E-3,-7.7867634E-3,3.986806E-4,-4.4269064E-3,4.213694E-3,8.6765E-4,1.4819921E-3,-2.325672E-3,-1.1001161E-2,-4.310474E-3,-2.1333902E-3,4.9834466E-3,-5.797522E-3,1.5861E-3],"split_indices":[45,47,0,42,24,0,0,0,47,33,16,19,28,27,27,0,13,21,0,0,0,2,0,1,47,0,0,25,0,0,0,0,0,0,0,0,0,0,0,0,0,0,0,0,0,0,0],"split_type":[0,0,0,0,0,0,0,0,0,0,0,0,0,0,0,0,0,0,0,0,0,0,0,0,0,0,0,0,0,0,0,0,0,0,0,0,0,0,0,0,0,0,0,0,0,0,0],"sum_hessian":[2.42E2,2.4E2,2E0,9.3E1,1.47E2,1E0,1E0,1E0,9.2E1,4.3E1,1.04E2,1.9E1,7.3E1,7E0,3.6E1,2E0,1.02E2,1.6E1,3E0,7.2E1,1E0,4E0,3E0,3E0,3.3E1,1E0,1E0,3.3E1,6.9E1,1E0,1.5E1,1E0,2E0,3E0,6.9E1,2E0,2E0,2E0,1E0,2E0,1E0,2.6E1,7E0,2.7E1,6E0,6.1E1,8E0],"tree_param":{"num_deleted":"0","num_feature":"48","num_nodes":"47","size_leaf_vector":"0"}},{"base_weights":[1.6647143E-2,1.3562032E-2,2.0254033E-2,1.2124004E-2,1.934687E-2,1.8755455E-2,3.0929467E-2,1.12603E-2,1.9635016E-2,1.1982432E-2,2.522309E-2,5.7166303E-3,1.95352E-2,4.0264487E-2,2.1228895E-2,1.4496768E-2,9.61991E-3,3.8709443E-3,2.3092166E-2,1.6609013E-2,3.8165848E-3,1.06254965E-2,2.8539818E-2,9.33744E-3,6.6666305E-4,2.0972408E-2,1.0663561E-2,1.0060151E-2,1.8854257E-2,2.9467717E-3,1.0314596E-2,3.8146973E-5,5.7682693E-3,9.767115E-3,2.1009132E-2,4.521513E-3,1.4597178E-4,7.81855E-3,2.9973455E-2,-1.4655888E-3,1.8659433E-3,1.9198628E-2,3.431487E-2,7.272363E-4,1.2136285E-2,3.578484E-3,1.1117919E-2,2.154607E-2,9.049773E-4,1.1781851E-4,3.8701196E-3,8.57266E-3,1.3897359E-2,2.6965775E-2,1.668156E-2,8.26028E-3,3.6856916E-2,-9.420514E-5,1.1850595E-3,6.5597096E-3,1.4801681E-2],"categories":[],"categories_nodes":[],"categories_segments":[],"categories_sizes":[],"default_left":[1,1,1,1,1,1,1,1,1,1,1,1,1,0,0,1,1,1,0,1,1,0,1,0,1,1,1,1,1,1,1,0,0,0,0,0,0,0,0,0,0,1,1,1,1,0,0,0,0,0,0,0,0,0,0,0,0,0,0,0,0],"id":28,"left_children":[1,3,5,7,9,11,13,15,17,19,21,23,25,-1,-1,27,29,31,-1,33,35,-1,37,-1,39,41,43,45,47,49,51,-1,-1,-1,-1,-1,-1,-1,-1,-1,-1,53,55,57,59,-1,-1,-1,-1,-1,-1,-1,-1,-1,-1,-1,-1,-1,-1,-1,-1],"loss_changes":[2.4293363E-3,8.80152E-4,1.1796802E-3,4.925076E-4,7.796418E-4,8.948557E-4,2.3189001E-4,3.9675832E-4,4.5559928E-4,4.277497E-4,3.2616127E-4,1.21769845E-4,9.621456E-4,0E0,0E0,4.2896345E-4,2.9410655E-4,2.1596148E-5,0E0,3.5642646E-5,1.4865102E-5,0E0,6.271899E-5,0E0,1.2963375E-5,1.2108609E-3,2.10676E-4,8.3624385E-5,7.052426E-4,2.0440886E-5,2.7404213E-4,0E0,0E0,0E0,0E0,0E0,0E0,0E0,0E0,0E0,0E0,9.578001E-4,2.2540707E-4,1.2398636E-6,9.6134376E-5,0E0,0E0,0E0,0E0,0E0,0E0,0E0,0E0,0E0,0E0,0E0,0E0,0E0,0E0,0E0,0E0],"parents":[2147483647,0,0,1,1,2,2,3,3,4,4,5,5,6,6,7,7,8,8,9,9,10,10,11,11,12,12,15,15,16,16,17,17,19,19,20,20,22,22,24,24,25,25,26,26,27,27,28,28,29,29,30,30,41,41,42,42,43,43,44,44],"right_children":[2,4,6,8,10,12,14,16,18,20,22,24,26,-1,-1,28,30,32,-1,34,36,-1,38,-1,40,42,44,46,48,50,52,-1,-1,-1,-1,-1,-1,-1,-1,-1,-1,54,56,58,60,-1,-1,-1,-1,-1,-1,-1,-1,-1,-1,-1,-1,-1,-1,-1,-1],"split_conditions":[8.596624E-1,8.859288E-1,9.3389344E-1,3.2516637E-1,8.393806E-1,8.4938656E-4,9.992676E-3,6.236191E-3,7.7052486E-1,8.0836487E-1,8.6205816E-1,1.4330235E-3,1.4502709E-1,1.2079347E-2,6.3686687E-3,1.2337454E-2,7.28261E-1,3.5187468E-1,6.92765E-3,8.715757E-1,8.922018E-1,3.1876492E-3,1.5333893E-3,2.801232E-3,1.5436049E-1,1.8211702E-1,8.507892E-1,6.291314E-1,8.617325E-1,5.6114257E-3,9.2123374E-2,1.1444092E-5,1.7304808E-3,2.9301348E-3,6.30274E-3,1.3564539E-3,4.3791533E-5,2.345565E-3,8.992037E-3,-4.3967666E-4,5.59783E-4,8.3027476E-1,8.236344E-1,1.0790988E-1,1.6948156E-2,1.0735453E-3,3.335376E-3,6.463821E-3,2.7149322E-4,3.5345554E-5,1.161036E-3,2.5717982E-3,4.169208E-3,8.089732E-3,5.004468E-3,2.478084E-3,1.1057075E-2,-2.8261544E-5,3.5551787E-4,1.967913E-3,4.4405046E-3],"split_indices":[43,22,13,39,46,17,21,39,7,46,16,20,20,0,0,45,43,0,0,1,1,0,0,0,0,24,19,4,46,3,26,0,0,0,0,0,0,0,0,0,0,7,1,0,3,0,0,0,0,0,0,0,0,0,0,0,0,0,0,0,0],"split_type":[0,0,0,0,0,0,0,0,0,0,0,0,0,0,0,0,0,0,0,0,0,0,0,0,0,0,0,0,0,0,0,0,0,0,0,0,0,0,0,0,0,0,0,0,0,0,0,0,0,0,0,0,0,0,0,0,0,0,0,0,0],"sum_hessian":[2.42E2,1.33E2,1.09E2,1.09E2,2.4E1,9.8E1,1.1E1,1E2,9E0,1.2E1,1.2E1,6E0,9.2E1,4E0,7E0,3.1E1,6.9E1,2E0,7E0,7E0,5E0,3E0,9E0,3E0,3E0,7.8E1,1.4E1,1.7E1,1.4E1,7E0,6.2E1,1E0,1E0,4E0,3E0,4E0,1E0,1E0,8E0,1E0,2E0,7.1E1,7E0,2E0,1.2E1,3E0,1.4E1,1.2E1,2E0,2E0,5E0,4.4E1,1.8E1,1.5E1,5.6E1,1E0,6E0,1E0,1E0,5E0,7E0],"tree_param":{"num_deleted":"0","num_feature":"48","num_nodes":"61","size_leaf_vector":"0"}},{"base_weights":[-1.7715208E-2,-1.8464152E-2,4.8354983E-2,-2.2558806E-2,-1.4611009E-2,5.8651984E-2,1.3880491E-2,-2.4502557E-2,-1.5316117E-2,-8.810635E-3,-2.1146853E-2,-2.5604388E-2,-7.93761E-3,3.3051535E-2,-1.8447623E-2,-2.0700552E-2,-5.1245363E-3,-2.2857213E-2,1.8964916E-3,-2.2130039E-2,-3.2370076E-2,5.0389804E-3,-1.0940205E-2,-5.0891116E-3,-2.0645121E-2,-4.0719718E-2,-1.0634186E-2,-4.4098895E-4,-9.791751E-3,-3.0146265E-2,-1.577813E-2,-1.0579944E-2,1.3740763E-2,-6.942898E-4,-2.2883205E-2,-2.8636996E-3,-3.343578E-2,-1.2049299E-2,-2.697371E-3,-1.7850427E-3,-9.152694E-3,-2.1273801E-2,-3.7214197E-3,6.2244027E-3,-1.984153E-2,-4.7408366E-3,1.0901235E-2,9.307489E-3,-1.169199E-2,3.4467578E-3,-3.1627856E-2,-3.5236098E-2,-1.0477092E-2,-1.2960054E-2,-2.9098615E-3,2.9563047E-3,1.765484E-2],"categories":[],"categories_nodes":[],"categories_segments":[],"categories_sizes":[],"default_left":[1,1,1,1,1,0,0,1,1,1,1,1,1,0,1,1,1,1,1,1,1,0,1,1,1,0,1,1,1,1,1,1,1,0,0,0,0,0,0,0,0,0,0,0,0,0,0,0,0,0,0,0,0,0,0,0,0],"id":29,"left_children":[1,3,5,7,9,-1,-1,11,13,15,17,19,21,-1,23,25,27,29,31,33,35,-1,37,39,41,-1,43,45,47,49,51,53,55,-1,-1,-1,-1,-1,-1,-1,-1,-1,-1,-1,-1,-1,-1,-1,-1,-1,-1,-1,-1,-1,-1,-1,-1],"loss_changes":[1.2917161E-2,3.4727156E-3,2.5083357E-4,1.2436882E-3,4.628297E-3,0E0,0E0,1.4211722E-3,4.699241E-3,2.91801E-3,2.3686849E-3,1.2346767E-3,3.278716E-4,0E0,6.581731E-4,2.7913032E-3,1.1760746E-3,2.362337E-3,8.8424794E-4,9.2050247E-4,7.218253E-4,0E0,2.2350985E-5,5.079384E-5,1.5490223E-4,0E0,1.9861758E-3,1.4172364E-3,1.0887373E-3,1.4030617E-3,2.7252506E-3,1.7054961E-5,7.44405E-5,0E0,0E0,0E0,0E0,0E0,0E0,0E0,0E0,0E0,0E0,0E0,0E0,0E0,0E0,0E0,0E0,0E0,0E0,0E0,0E0,0E0,0E0,0E0,0E0],"parents":[2147483647,0,0,1,1,2,2,3,3,4,4,7,7,8,8,9,9,10,10,11,11,12,12,14,14,15,15,16,16,17,17,18,18,19,19,20,20,22,22,23,23,24,24,26,26,27,27,28,28,29,29,30,30,31,31,32,32],"right_children":[2,4,6,8,10,-1,-1,12,14,16,18,20,22,-1,24,26,28,30,32,34,36,-1,38,40,42,-1,44,46,48,50,52,54,56,-1,-1,-1,-1,-1,-1,-1,-1,-1,-1,-1,-1,-1,-1,-1,-1,-1,-1,-1,-1,-1,-1,-1,-1],"split_conditions":[7.576035E-1,3.839366E-2,1.0037655E-1,8.965977E-1,7.5330034E-2,1.7595597E-2,4.1641477E-3,1.8365899E-1,7.5678575E-1,7.6213884E-3,9.1718185E-1,3.103474E-2,8.503255E-4,9.915461E-3,8.753855E-1,2.865404E-3,8.6331415E-1,1.4218426E-1,2.15925E-2,1.003125E-3,4.837041E-4,1.5116942E-3,1.9910217E-3,1.3545838E-1,9.791088E-1,-1.2215916E-2,2.389388E-3,8.652097E-1,8.082253E-1,1.1730558E-3,3.0666324E-3,1.4850104E-2,4.5268513E-2,-2.0828695E-4,-6.8649617E-3,-8.591099E-4,-1.0030734E-2,-3.6147898E-3,-8.0921134E-4,-5.355128E-4,-2.745808E-3,-6.382141E-3,-1.116426E-3,1.8673209E-3,-5.9524593E-3,-1.422251E-3,3.2703707E-3,2.7922466E-3,-3.5075971E-3,1.0340274E-3,-9.488357E-3,-1.057083E-2,-3.1431278E-3,-3.8880163E-3,-8.729585E-4,8.8689144E-4,5.296452E-3],"split_indices":[45,45,0,37,41,0,0,14,16,3,1,14,3,0,34,0,13,47,0,29,0,0,2,0,31,0,29,10,40,21,21,0,0,0,0,0,0,0,0,0,0,0,0,0,0,0,0,0,0,0,0,0,0,0,0,0,0],"split_type":[0,0,0,0,0,0,0,0,0,0,0,0,0,0,0,0,0,0,0,0,0,0,0,0,0,0,0,0,0,0,0,0,0,0,0,0,0,0,0,0,0,0,0,0,0,0,0,0,0,0,0,0,0,0,0,0,0],"sum_hessian":[2.42E2,2.4E2,2E0,1.14E2,1.26E2,1E0,1E0,8.8E1,2.6E1,6.8E1,5.8E1,8.2E1,6E0,1E0,2.5E1,1.5E1,5.3E1,5.4E1,4E0,5.7E1,2.5E1,1E0,5E0,4E0,2.1E1,4E0,1.1E1,2.7E1,2.6E1,2.5E1,2.9E1,2E0,2E0,2E0,5.5E1,1E0,2.4E1,4E0,1E0,3E0,1E0,2E1,1E0,4E0,7E0,2E1,7E0,2E0,2.4E1,1E0,2.4E1,5E0,2.4E1,1E0,1E0,1E0,1E0],"tree_param":{"num_deleted":"0","num_feature":"48","num_nodes":"57","size_leaf_vector":"0"}},{"base_weights":[-1.2014147E-2,-1.2635778E-2,4.192819E-2,-1.3075834E-2,1.0750062E-2,1.2849569E-2,5.004272E-2,-1.0547924E-2,-1.7725566E-2,1.4662635E-2,-2.450114E-3,-1.2743495E-2,5.954012E-3,-1.8535893E-2,9.791662E-3,-1.3676739E-2,1.006732E-2,-7.5665875E-3,3.0213123E-2,-1.2315466E-2,-2.3100326E-2,-1.5118489E-2,-3.4196887E-4,1.436799E-2,9.7732E-4,-1.4178483E-2,5.8481423E-3,1.6932812E-2,5.4947495E-2,-1.5721442E-2,1.5706299E-3,-6.7511145E-3,-2.70001E-2],"categories":[],"categories_nodes":[],"categories_segments":[],"categories_sizes":[],"default_left":[1,1,1,1,1,0,0,1,1,0,0,1,1,1,0,1,1,1,1,1,1,0,0,0,0,0,0,0,0,0,0,0,0],"id":30,"left_children":[1,3,5,7,9,-1,-1,11,13,-1,-1,15,17,19,-1,21,23,25,27,29,31,-1,-1,-1,-1,-1,-1,-1,-1,-1,-1,-1,-1],"loss_changes":[8.678116E-3,2.6207194E-3,6.485032E-5,2.598755E-3,2.9415835E-4,0E0,0E0,5.7279393E-3,2.0099282E-3,0E0,0E0,3.0754376E-3,6.460567E-3,1.9869264E-3,0E0,2.5518108E-3,2.2051646E-4,1.235976E-3,1.368945E-3,1.727338E-3,2.6868377E-3,0E0,0E0,0E0,0E0,0E0,0E0,0E0,0E0,0E0,0E0,0E0,0E0],"parents":[2147483647,0,0,1,1,2,2,3,3,4,4,7,7,8,8,11,11,12,12,13,13,15,15,16,16,17,17,18,18,19,19,20,20],"right_children":[2,4,6,8,10,-1,-1,12,14,-1,-1,16,18,20,-1,22,24,26,28,30,32,-1,-1,-1,-1,-1,-1,-1,-1,-1,-1,-1,-1],"split_conditions":[7.576035E-1,9.568151E-1,1.0037655E-1,8.771299E-1,9.798764E-1,3.854871E-3,1.50128165E-2,9.019309E-1,7.576035E-1,4.3987907E-3,-7.350343E-4,9.080411E-1,8.620675E-2,6.4574145E-2,2.9374987E-3,2.8425187E-1,8.853985E-1,8.6443055E-1,9.786035E-2,8.849339E-2,7.5495793E-3,-4.535547E-3,-1.0259067E-4,4.3103974E-3,2.93196E-4,-4.253545E-3,1.7544428E-3,5.0798436E-3,1.648425E-2,-4.7164327E-3,4.7118898E-4,-2.0253344E-3,-8.10003E-3],"split_indices":[45,1,0,43,1,0,0,19,0,0,0,22,17,9,0,45,4,46,3,47,33,0,0,0,0,0,0,0,0,0,0,0,0],"split_type":[0,0,0,0,0,0,0,0,0,0,0,0,0,0,0,0,0,0,0,0,0,0,0,0,0,0,0,0,0,0,0,0,0],"sum_hessian":[2.42E2,2.4E2,2E0,2.36E2,4E0,1E0,1E0,1.55E2,8.1E1,3E0,1E0,1.37E2,1.8E1,7.9E1,2E0,1.32E2,5E0,1.2E1,6E0,3.5E1,4.4E1,1.19E2,1.3E1,3E0,2E0,8E0,4E0,5E0,1E0,2.8E1,7E0,9E0,3.5E1],"tree_param":{"num_deleted":"0","num_feature":"48","num_nodes":"33","size_leaf_vector":"0"}},{"base_weights":[1.2095975E-2,1.0561803E-2,1.6599169E-2,1.0005696E-2,2.3193981E-2,1.7909119E-2,1.8247664E-3,6.34832E-3,1.0888211E-2,5.7892404E-3,2.8998028E-2,2.9925175E-2,1.5227126E-2,5.7783127E-3,-1.2160539E-4,6.9731367E-3,-5.4970384E-4,8.605343E-3,1.3864709E-2,4.2236247E-3,3.66651E-2,1.934817E-2,1.0826681E-2,-6.938875E-4,1.0837615E-3,5.4312595E-3,1.3263355E-2,1.6596913E-3,-1.8393993E-3,1.1064571E-2,1.2836402E-3,1.1990197E-2,2.455026E-2,1.1373865E-2,2.366209E-2,1.48028005E-2,5.2856505E-3,3.76001E-4,6.000097E-3,4.0158574E-3,1.2342866E-2,6.6704988E-3,-2.8402277E-4,1.4021464E-2,6.416552E-3,6.645769E-3,2.6158648E-2,1.2171758E-2,2.0964146E-3,7.1083703E-3,2.582868E-2,2.8020341E-3,1.6569426E-2,1.3170123E-2,3.3715963E-3],"categories":[],"categories_nodes":[],"categories_segments":[],"categories_sizes":[],"default_left":[1,1,1,1,1,1,1,1,1,0,0,1,1,0,1,1,1,1,1,0,0,1,1,0,0,1,0,0,0,1,1,1,1,1,1,1,1,0,0,0,0,0,0,0,0,0,0,0,0,0,0,0,0,0,0],"id":31,"left_children":[1,3,5,7,9,11,13,15,17,-1,-1,19,21,-1,23,25,27,29,31,-1,-1,33,35,-1,-1,37,-1,-1,-1,39,41,43,45,47,49,51,53,-1,-1,-1,-1,-1,-1,-1,-1,-1,-1,-1,-1,-1,-1,-1,-1,-1,-1],"loss_changes":[1.5034899E-3,1.0604989E-3,1.1285432E-3,5.054064E-4,5.3924904E-4,1.3168082E-3,4.6873098E-5,1.6330334E-4,8.45572E-4,0E0,0E0,1.4041793E-3,6.428417E-4,0E0,4.201058E-6,2.5772047E-4,1.4450622E-5,1.4802734E-3,9.0744905E-4,0E0,0E0,5.2208174E-4,4.725526E-4,5.972515E-7,0E0,8.113688E-5,0E0,0E0,0E0,5.090735E-4,1.8767969E-4,5.1007373E-4,5.653454E-5,4.850712E-5,3.1851232E-4,2.5038375E-4,1.3669135E-4,0E0,0E0,0E0,0E0,0E0,0E0,0E0,0E0,0E0,0E0,0E0,0E0,0E0,0E0,0E0,0E0,0E0,0E0],"parents":[2147483647,0,0,1,1,2,2,3,3,4,4,5,5,6,6,7,7,8,8,11,11,12,12,14,14,15,15,16,16,17,17,18,18,21,21,22,22,25,25,29,29,30,30,31,31,32,32,33,33,34,34,35,35,36,36],"right_children":[2,4,6,8,10,12,14,16,18,-1,-1,20,22,-1,24,26,28,30,32,-1,-1,34,36,-1,-1,38,-1,-1,-1,40,42,44,46,48,50,52,54,-1,-1,-1,-1,-1,-1,-1,-1,-1,-1,-1,-1,-1,-1,-1,-1,-1,-1],"split_conditions":[8.854892E-1,9.4465065E-1,3.4622106E-1,1.3602804E-3,3.7347436E-2,9.992676E-3,2.3762289E-1,8.7241304E-1,4.2673353E-2,1.7367721E-3,8.699409E-3,4.6034284E-2,3.4324892E-2,1.7334939E-3,7.576035E-1,8.500565E-1,1.6831588E-2,1.6141415E-2,9.0577334E-1,1.2670874E-3,1.0999531E-2,8.857241E-1,6.7362696E-2,-2.0816625E-4,3.2512844E-4,4.2988945E-4,3.979007E-3,4.979074E-4,-5.518198E-4,8.4938656E-4,8.140796E-1,8.547153E-1,1.5333893E-3,9.3633556E-1,8.481028E-1,1.0320984E-2,5.281154E-3,1.12800306E-4,1.8000292E-3,1.2047573E-3,3.7028599E-3,2.0011498E-3,-8.520683E-5,4.2064395E-3,1.9249656E-3,1.9937307E-3,7.847595E-3,3.6515277E-3,6.289244E-4,2.1325112E-3,7.7486043E-3,8.406103E-4,4.970828E-3,3.9510373E-3,1.011479E-3],"split_indices":[10,43,2,8,3,21,0,43,24,0,0,41,41,0,0,43,0,24,22,0,0,16,32,0,0,8,0,0,0,17,46,10,0,10,19,6,15,0,0,0,0,0,0,0,0,0,0,0,0,0,0,0,0,0,0],"split_type":[0,0,0,0,0,0,0,0,0,0,0,0,0,0,0,0,0,0,0,0,0,0,0,0,0,0,0,0,0,0,0,0,0,0,0,0,0,0,0,0,0,0,0,0,0,0,0,0,0,0,0,0,0,0,0],"sum_hessian":[2.42E2,1.83E2,5.9E1,1.77E2,6E0,5.4E1,5E0,3.6E1,1.41E2,2E0,4E0,8E0,4.6E1,1E0,4E0,3.3E1,3E0,8.2E1,5.9E1,2E0,6E0,2.2E1,2.4E1,3E0,1E0,2.8E1,5E0,1E0,2E0,6.1E1,2.1E1,5.2E1,7E0,9E0,1.3E1,1.3E1,1.1E1,3E0,2.5E1,1E1,5.1E1,4E0,1.7E1,3.7E1,1.5E1,1E0,6E0,8E0,1E0,2E0,1.1E1,2E0,1.1E1,1E0,1E1],"tree_param":{"num_deleted":"0","num_feature":"48","num_nodes":"55","size_leaf_vector":"0"}},{"base_weights":[-1.2548359E-2,-1.3164135E-2,4.1101735E-2,-1.899958E-2,-1.1652457E-2,4.985419E-2,1.1798412E-2,4.8386306E-3,-2.014121E-2,-1.8100042E-2,-1.0017674E-2,-2.1406278E-2,-5.486404E-3,-5.653438E-3,-2.3627188E-2,-2.3782821E-2,-8.817678E-3,-2.8894594E-2,-1.781705E-2,-1.09486E-2,5.008541E-3,-3.141224E-2,-1.5824003E-2,3.1162426E-3,-2.6511487E-2,-5.766772E-3,-1.5759172E-2,-1.1185428E-2,-3.3554822E-2,3.5661291E-3,-1.3208708E-2,1.356875E-3,6.9906935E-3,-3.544707E-2,-1.44808125E-2,-1.9799002E-2,-3.9142035E-3,-1.5344907E-2,-3.0700259E-2,-7.490576E-3,1.3069687E-2,-1.3485987E-2,-3.0792817E-2],"categories":[],"categories_nodes":[],"categories_segments":[],"categories_sizes":[],"default_left":[1,1,1,1,1,0,0,0,1,1,1,1,0,1,1,1,1,1,0,1,1,1,1,0,1,1,1,0,0,0,0,0,0,0,0,0,0,0,0,0,0,0,0],"id":32,"left_children":[1,3,5,7,9,-1,-1,-1,11,13,15,17,-1,19,21,23,25,27,-1,29,31,33,35,-1,37,39,41,-1,-1,-1,-1,-1,-1,-1,-1,-1,-1,-1,-1,-1,-1,-1,-1],"loss_changes":[8.5689165E-3,1.9045435E-3,1.8122746E-4,1.403749E-3,1.8635169E-3,0E0,0E0,0E0,7.3536485E-4,2.4806038E-3,2.3836363E-3,6.140303E-4,0E0,7.887763E-4,1.0823859E-3,9.6339826E-4,3.0010864E-3,6.150203E-4,0E0,3.4234754E-4,2.6705296E-5,3.0648243E-4,6.326246E-4,0E0,4.3424778E-5,3.4423464E-3,1.0883957E-3,0E0,0E0,0E0,0E0,0E0,0E0,0E0,0E0,0E0,0E0,0E0,0E0,0E0,0E0,0E0,0E0],"parents":[2147483647,0,0,1,1,2,2,3,3,4,4,8,8,9,9,10,10,11,11,13,13,14,14,15,15,16,16,17,17,19,19,20,20,21,21,22,22,24,24,25,25,26,26],"right_children":[2,4,6,8,10,-1,-1,-1,12,14,16,18,-1,20,22,24,26,28,-1,30,32,34,36,-1,38,40,42,-1,-1,-1,-1,-1,-1,-1,-1,-1,-1,-1,-1,-1,-1,-1,-1],"split_conditions":[7.576035E-1,1.7337037E-3,1.0037655E-1,5.5903324E-4,7.665716E-3,1.4956257E-2,3.5395236E-3,1.4515892E-3,8.812468E-1,1.9392907E-3,8.829495E-4,7.8117944E-2,-1.6459213E-3,1.6279396E-2,3.452568E-2,2.348176E-3,8.923762E-1,1.1574323E-3,-5.3451154E-3,9.263572E-4,7.510432E-1,1.1418536E-2,1.3736221E-1,9.3487283E-4,8.256346E-1,8.8683593E-1,2.7313584E-1,-3.3556286E-3,-1.0066447E-2,1.0698388E-3,-3.9626127E-3,4.070625E-4,2.097208E-3,-1.0634121E-2,-4.344244E-3,-5.9397006E-3,-1.1742611E-3,-4.603472E-3,-9.210078E-3,-2.2471729E-3,3.920906E-3,-4.045796E-3,-9.237845E-3],"split_indices":[45,11,0,35,3,0,0,0,7,38,17,29,0,6,24,27,31,41,0,2,1,2,18,0,4,31,42,0,0,0,0,0,0,0,0,0,0,0,0,0,0,0,0],"split_type":[0,0,0,0,0,0,0,0,0,0,0,0,0,0,0,0,0,0,0,0,0,0,0,0,0,0,0,0,0,0,0,0,0,0,0,0,0,0,0,0,0,0,0],"sum_hessian":[2.42E2,2.4E2,2E0,4.7E1,1.93E2,1E0,1E0,2E0,4.5E1,3.7E1,1.56E2,4.1E1,4E0,1.2E1,2.5E1,1.1E1,1.45E2,1.1E1,3E1,8E0,4E0,1.1E1,1.4E1,1E0,1E1,1.02E2,4.3E1,3E0,8E0,1E0,7E0,2E0,2E0,8E0,3E0,1E1,4E0,4E0,6E0,9.4E1,8E0,3.9E1,4E0],"tree_param":{"num_deleted":"0","num_feature":"48","num_nodes":"43","size_leaf_vector":"0"}},{"base_weights":[-8.285916E-3,-8.798317E-3,3.563897E-2,-1.9227536E-2,-7.870275E-3,1.0922134E-2,4.253632E-2,-2.4103547E-2,5.0833886E-3,-1.0014253E-2,-2.7288597E-3,-3.1276878E-3,-2.8703537E-2,-7.1419757E-3,1.1539169E-2,-3.1729196E-3,-1.2248483E-2,1.4711072E-2,-6.0465857E-3,1.289025E-4,-6.4487294E-3,-1.0608368E-2,-3.3071253E-2,-1.860059E-2,1.9061007E-3,-2.5170067E-2,-1.0122329E-2,6.8411063E-3,4.6705365E-2,-4.267187E-3,-2.3698896E-2,-1.51653215E-2,-4.0342757E-3,-3.2657363E-2,-3.7865143E-3,7.0211804E-3,-1.36774015E-2,4.0590614E-3,-2.7389279E-2,-1.2390693E-2,-3.2783889E-3,-5.151032E-3,1.048302E-2,-6.955677E-3,4.5401426E-3],"categories":[],"categories_nodes":[],"categories_segments":[],"categories_sizes":[],"default_left":[1,1,1,1,1,0,0,1,1,1,1,1,1,0,0,1,1,1,1,0,0,1,0,1,1,1,1,1,0,1,0,0,0,0,0,0,0,0,0,0,0,0,0,0,0],"id":33,"left_children":[1,3,5,7,9,-1,-1,11,13,15,17,19,21,-1,-1,23,25,27,29,-1,-1,31,-1,33,35,37,39,41,-1,43,-1,-1,-1,-1,-1,-1,-1,-1,-1,-1,-1,-1,-1,-1,-1],"loss_changes":[5.7828054E-3,2.1812543E-3,4.6854606E-5,2.3747943E-3,2.43082E-3,0E0,0E0,1.4540441E-3,3.981095E-4,2.360899E-3,3.965633E-3,4.4092343E-5,6.76617E-4,0E0,0E0,3.1697527E-3,2.9870663E-3,2.4502177E-3,1.6892711E-3,4.3955467E-7,0E0,5.8650243E-5,0E0,1.9587236E-3,2.567068E-3,1.1490257E-3,1.5584072E-3,4.907417E-4,0E0,1.286536E-3,0E0,0E0,0E0,0E0,0E0,0E0,0E0,0E0,0E0,0E0,0E0,0E0,0E0,0E0,0E0],"parents":[2147483647,0,0,1,1,2,2,3,3,4,4,7,7,8,8,9,9,10,10,11,11,12,12,15,15,16,16,17,17,18,18,21,21,23,23,24,24,25,25,26,26,27,27,29,29],"right_children":[2,4,6,8,10,-1,-1,12,14,16,18,20,22,-1,-1,24,26,28,30,-1,-1,32,-1,34,36,38,40,42,-1,44,-1,-1,-1,-1,-1,-1,-1,-1,-1,-1,-1,-1,-1,-1,-1],"split_conditions":[7.576035E-1,3.4145252E-3,1.0037655E-1,8.8543344E-1,7.152282E-2,3.2766403E-3,1.2760896E-2,5.07529E-2,3.5394363E-2,1.07499845E-2,1.09215304E-1,8.5982525E-1,1.1813947E-3,-2.1425928E-3,3.4617507E-3,7.24807E-1,1.4788073E-2,1.0543427E-1,9.303348E-1,3.867075E-5,-1.9346189E-3,2.5001857E-1,-9.921377E-3,6.7416844E-3,8.9050615E-1,1.9017148E-3,8.9001775E-1,8.0779527E-4,1.401161E-2,4.679669E-2,-7.109669E-3,-4.5495965E-3,-1.2102828E-3,-9.797209E-3,-1.1359543E-3,2.106354E-3,-4.1032205E-3,1.2177185E-3,-8.216784E-3,-3.717208E-3,-9.835167E-4,-1.5453097E-3,3.1449061E-3,-2.0867032E-3,1.3620429E-3],"split_indices":[45,21,0,31,5,0,0,42,2,30,3,1,20,0,0,4,27,3,37,0,0,0,0,0,16,0,28,17,0,23,0,0,0,0,0,0,0,0,0,0,0,0,0,0,0],"split_type":[0,0,0,0,0,0,0,0,0,0,0,0,0,0,0,0,0,0,0,0,0,0,0,0,0,0,0,0,0,0,0,0,0,0,0,0,0,0,0,0,0,0,0,0,0],"sum_hessian":[2.42E2,2.4E2,2E0,1.8E1,2.22E2,1E0,1E0,1.5E1,3E0,1.56E2,6.6E1,3E0,1.2E1,1E0,2E0,3.9E1,1.17E2,1E1,5.6E1,2E0,1E0,3E0,9E0,9E0,3E1,1.5E1,1.02E2,9E0,1E0,5.2E1,4E0,1E0,2E0,4E0,5E0,2.3E1,7E0,1E0,1.4E1,7.6E1,2.6E1,2E0,7E0,4E1,1.2E1],"tree_param":{"num_deleted":"0","num_feature":"48","num_nodes":"45","size_leaf_vector":"0"}},{"base_weights":[8.788678E-3,4.9897567E-3,1.0034526E-2,8.038942E-3,3.6591995E-3,6.7578503E-3,1.1474627E-2,1.0209745E-2,4.7337213E-3,4.2155264E-3,-6.5951544E-4,-1.1068241E-3,7.6865978E-3,2.0902352E-2,1.0097235E-2,1.3884306E-3,1.1035621E-2,5.030036E-3,1.1816025E-3,1.3410896E-3,5.2595856E-3,-2.0989776E-3,1.4796058E-3,8.69751E-4,-1.5812119E-3,6.296345E-3,1.2896026E-2,5.3852946E-3,2.4332842E-2,2.5020465E-2,9.451031E-3,-8.5808337E-4,2.1694899E-3,-2.3782253E-5,5.6518274E-3,2.682209E-7,2.2191405E-3,-2.279679E-3,-6.620586E-4,6.9633126E-3,-1.9474179E-3,5.003363E-3,1.5563829E-2,1.244247E-3,6.350895E-3,2.8503329E-2,1.2793493E-2,7.6574087E-3,2.825568E-2,1.3345511E-2,6.9639026E-3,-1.2344718E-3,1.3554096E-4,3.1798035E-3,1.1343658E-3,-9.918511E-4,9.561777E-4,1.0680953E-3,5.975802E-3,-2.8924544E-3,7.5581544E-3,6.8968534E-4,-3.0563474E-3,1.6960045E-2,3.593266E-3,1.48317E-2,2.2041202E-3,1.9393494E-2,5.669594E-3],"categories":[],"categories_nodes":[],"categories_segments":[],"categories_sizes":[],"default_left":[1,1,1,1,1,1,1,1,1,1,1,1,1,1,1,0,0,0,0,1,1,0,1,0,1,1,1,1,1,1,1,1,1,1,1,0,0,0,0,1,1,0,1,0,0,0,0,0,0,1,1,0,0,0,0,0,0,0,0,0,0,0,0,0,0,0,0,0,0],"id":34,"left_children":[1,3,5,7,9,11,13,15,17,19,21,23,25,27,29,-1,-1,-1,-1,31,33,-1,35,-1,37,39,41,43,45,47,49,51,53,55,57,-1,-1,-1,-1,59,61,-1,63,-1,-1,-1,-1,-1,-1,65,67,-1,-1,-1,-1,-1,-1,-1,-1,-1,-1,-1,-1,-1,-1,-1,-1,-1,-1],"loss_changes":[1.1000205E-3,2.2212497E-4,7.812679E-4,8.081971E-5,1.1089805E-4,4.3215696E-4,1.4121532E-3,5.753094E-5,3.5293924E-6,1.12989685E-4,2.1580765E-5,7.938903E-6,2.9540807E-4,6.674272E-4,8.3395466E-4,0E0,0E0,0E0,0E0,2.3723149E-5,6.0232705E-5,3.9896622E-7,3.2814687E-6,0E0,2.3427083E-6,2.499884E-4,1.3268914E-4,8.092298E-6,2.1283887E-4,8.327654E-6,9.531593E-4,1.6632764E-6,5.8051373E-6,3.794392E-6,3.3712655E-5,0E0,0E0,0E0,0E0,2.5636645E-4,1.3805365E-5,0E0,5.6052464E-5,0E0,0E0,0E0,0E0,0E0,0E0,6.461954E-4,9.840121E-4,0E0,0E0,0E0,0E0,0E0,0E0,0E0,0E0,0E0,0E0,0E0,0E0,0E0,0E0,0E0,0E0,0E0,0E0],"parents":[2147483647,0,0,1,1,2,2,3,3,4,4,5,5,6,6,7,7,8,8,9,9,10,10,11,11,12,12,13,13,14,14,19,19,20,20,22,22,24,24,25,25,26,26,27,27,28,28,29,29,30,30,31,31,32,32,33,33,34,34,39,39,40,40,42,42,49,49,50,50],"right_children":[2,4,6,8,10,12,14,16,18,20,22,24,26,28,30,-1,-1,-1,-1,32,34,-1,36,-1,38,40,42,44,46,48,50,52,54,56,58,-1,-1,-1,-1,60,62,-1,64,-1,-1,-1,-1,-1,-1,66,68,-1,-1,-1,-1,-1,-1,-1,-1,-1,-1,-1,-1,-1,-1,-1,-1,-1,-1],"split_conditions":[1.0718174E-2,3.9986433E-3,8.3519405E-1,8.6057186E-1,8.831308E-1,5.8558583E-3,8.2905364E-1,3.134446E-1,8.877867E-2,7.440655E-1,8.381456E-1,8.4049645E-4,8.834796E-1,8.274139E-1,7.8652465E-1,4.165292E-4,3.3106864E-3,1.5090109E-3,3.5448076E-4,6.399233E-3,7.579928E-3,-6.2969327E-4,8.849297E-2,2.609253E-4,7.562764E-1,3.0941278E-1,1.7307641E-2,4.6636235E-2,8.841425E-1,1.0985704E-1,4.263557E-2,1.3609199E-1,8.188028E-3,7.619807E-2,5.0735804E-3,8.046627E-8,6.657422E-4,-6.8390375E-4,-1.9861759E-4,1.2704267E-3,7.4874055E-1,1.501009E-3,1.1281454E-1,3.7327412E-4,1.9052685E-3,8.550999E-3,3.838048E-3,2.2972226E-3,8.476704E-3,9.420573E-1,7.8652465E-1,-3.7034156E-4,4.066229E-5,9.539411E-4,3.4030975E-4,-2.9755535E-4,2.8685332E-4,3.204286E-4,1.7927407E-3,-8.6773635E-4,2.2674464E-3,2.069056E-4,-9.1690425E-4,5.0880136E-3,1.0779798E-3,4.4495105E-3,6.6123606E-4,5.8180485E-3,1.7008783E-3],"split_indices":[47,42,4,31,40,6,7,1,0,46,1,3,22,43,13,0,0,0,0,42,27,0,0,0,1,33,15,0,16,0,47,0,3,0,12,0,0,0,0,0,1,0,3,0,0,0,0,0,0,28,31,0,0,0,0,0,0,0,0,0,0,0,0,0,0,0,0,0,0],"split_type":[0,0,0,0,0,0,0,0,0,0,0,0,0,0,0,0,0,0,0,0,0,0,0,0,0,0,0,0,0,0,0,0,0,0,0,0,0,0,0,0,0,0,0,0,0,0,0,0,0,0,0,0,0,0,0,0,0,0,0,0,0,0,0,0,0,0,0,0,0],"sum_hessian":[2.42E2,6.1E1,1.81E2,1.7E1,4.4E1,5.7E1,1.24E2,9E0,8E0,3.9E1,5E0,6E0,5.1E1,1.4E1,1.1E2,1E0,8E0,7E0,1E0,1.1E1,2.8E1,3E0,2E0,1E0,5E0,4.2E1,9E0,3E0,1.1E1,3E0,1.07E2,3E0,8E0,2E0,2.6E1,1E0,1E0,2E0,3E0,3.9E1,3E0,3E0,6E0,1E0,2E0,7E0,4E0,1E0,2E0,4E1,6.7E1,2E0,1E0,3E0,5E0,1E0,1E0,2E0,2.4E1,2E0,3.7E1,1E0,2E0,5E0,1E0,3.5E1,5E0,5E0,6.2E1],"tree_param":{"num_deleted":"0","num_feature":"48","num_nodes":"69","size_leaf_vector":"0"}},{"base_weights":[-8.979057E-3,-9.488466E-3,3.4936488E-2,-1.8051006E-2,-8.716374E-3,4.237607E-2,1.002866E-2,-4.471009E-3,-2.3974773E-2,-9.334421E-3,1.9855036E-3,-6.683817E-3,-1.1404492E-3,-3.1715392E-3,-2.7468856E-2,2.4255356E-3,-9.870387E-3,-6.0458556E-3,6.226758E-3,-1.5032738E-3,-2.5987625E-5,-5.7133078E-3,9.559989E-4,-3.2544706E-2,-1.4868894E-2,-5.2145133E-3,2.1990487E-2,-1.0207671E-2,5.460141E-3,-2.0171134E-3,-1.1080412E-2,2.6866768E-3,9.980191E-3,1.0338072E-3,-9.170267E-3,2.6133344E-2,6.8523884E-3,-8.129961E-3,-1.3367061E-2,8.540293E-3,-3.4302333E-3,2.1238129E-4,3.8707294E-3,3.0219555E-3,1.1292283E-2],"categories":[],"categories_nodes":[],"categories_segments":[],"categories_sizes":[],"default_left":[1,1,1,1,1,0,0,1,1,1,1,0,1,1,1,1,1,1,1,0,0,0,0,0,0,1,1,1,1,0,0,1,1,0,0,0,0,0,0,0,0,0,0,0,0],"id":35,"left_children":[1,3,5,7,9,-1,-1,11,13,15,17,-1,19,21,23,25,27,29,31,-1,-1,-1,-1,-1,-1,33,35,37,39,-1,-1,41,43,-1,-1,-1,-1,-1,-1,-1,-1,-1,-1,-1,-1],"loss_changes":[5.7676397E-3,1.4359299E-3,1.3093627E-4,1.4212583E-3,1.4935154E-3,0E0,0E0,4.3966676E-5,8.5782865E-4,1.3538599E-3,4.8046562E-4,0E0,1.5783498E-6,3.6935653E-5,2.196068E-4,1.6094417E-3,1.1002254E-3,7.906418E-5,9.2773524E-5,0E0,0E0,0E0,0E0,0E0,0E0,2.0721483E-4,9.069103E-6,1.1910573E-3,1.6621372E-4,0E0,0E0,1.6756105E-5,2.394634E-6,0E0,0E0,0E0,0E0,0E0,0E0,0E0,0E0,0E0,0E0,0E0,0E0],"parents":[2147483647,0,0,1,1,2,2,3,3,4,4,7,7,8,8,9,9,10,10,12,12,13,13,14,14,15,15,16,16,17,17,18,18,25,25,26,26,27,27,28,28,31,31,32,32],"right_children":[2,4,6,8,10,-1,-1,12,14,16,18,-1,20,22,24,26,28,30,32,-1,-1,-1,-1,-1,-1,34,36,38,40,-1,-1,42,44,-1,-1,-1,-1,-1,-1,-1,-1,-1,-1,-1,-1],"split_conditions":[7.576035E-1,7.2038317E-1,1.0037655E-1,6.271962E-1,3.0309382E-1,1.2712822E-2,3.0085982E-3,6.2955004E-1,1.2287846E-3,7.278284E-1,1.1780685E-1,-2.0051452E-3,1.011163E-2,1.1053456E-2,7.269585E-1,7.8912973E-1,9.568151E-1,9.003656E-1,2.059261E-3,-4.5098216E-4,-7.796288E-6,-1.7139924E-3,2.8679968E-4,-9.763412E-3,-4.460668E-3,9.85848E-4,2.2477464E-1,8.790837E-1,9.798764E-1,-6.0513406E-4,-3.3241238E-3,7.8139615E-1,7.9001355E-1,3.1014218E-4,-2.75108E-3,7.840004E-3,2.0557167E-3,-2.4389883E-3,-4.0101185E-3,2.562088E-3,-1.02907E-3,6.371439E-5,1.1612189E-3,9.065867E-4,3.3876852E-3],"split_indices":[45,10,0,7,6,0,0,16,38,16,45,0,0,0,28,1,1,7,29,0,0,0,0,0,0,2,0,43,1,0,0,7,10,0,0,0,0,0,0,0,0,0,0,0,0],"split_type":[0,0,0,0,0,0,0,0,0,0,0,0,0,0,0,0,0,0,0,0,0,0,0,0,0,0,0,0,0,0,0,0,0,0,0,0,0,0,0,0,0,0,0,0,0],"sum_hessian":[2.42E2,2.4E2,2E0,1.8E1,2.22E2,1E0,1E0,6E0,1.2E1,2.1E2,1.2E1,3E0,3E0,2E0,1E1,9E0,2.01E2,4E0,8E0,2E0,1E0,1E0,1E0,6E0,4E0,7E0,2E0,1.97E2,4E0,3E0,1E0,5E0,3E0,3E0,4E0,1E0,1E0,1.21E2,7.6E1,3E0,1E0,2E0,3E0,1E0,2E0],"tree_param":{"num_deleted":"0","num_feature":"48","num_nodes":"45","size_leaf_vector":"0"}},{"base_weights":[-5.870403E-3,-6.296213E-3,3.0293128E-2,-4.504347E-3,-1.0054155E-2,9.283811E-3,3.615588E-2,-8.222452E-3,-1.4829918E-4,-5.6290943E-3,-1.4685866E-2,6.327013E-3,-9.938356E-3,-4.1689067E-3,1.0092716E-2,-8.523548E-3,2.07613E-3,-2.000196E-2,-4.523571E-3,7.114455E-4,9.95215E-3,-8.461898E-3,-2.412685E-2,-2.0709918E-4,-1.8678276E-2,4.5161266E-3,2.8149894E-2,-2.9865578E-3,-1.5534492E-2,6.982954E-3,-6.190015E-3,-9.060025E-3,-2.7170485E-2,-9.203266E-3,5.740533E-3,-1.0702051E-3,1.4244094E-3,5.0708763E-3,1.3143132E-2,-9.11229E-3,9.9681355E-3,-1.0220218E-2,-3.200177E-2,-4.2700823E-3,6.124602E-3,-2.5249794E-2,-4.4281925E-3,8.509975E-3,-7.5698746E-3,1.5337589E-2,3.9699554E-2,-7.6026255E-3,-4.4971704E-5,-4.9893637E-3,-2.3860406E-2,7.498822E-3,1.6859397E-3,-6.904427E-3,-1.6661845E-3,-1.2784706E-2,6.54344E-4,-3.151869E-2,-1.3039973E-2,2.4385042E-3,-1.4540954E-2,8.724441E-3,8.431139E-4],"categories":[],"categories_nodes":[],"categories_segments":[],"categories_sizes":[],"default_left":[1,1,1,1,1,0,0,1,1,1,1,1,1,1,1,1,1,1,1,1,1,1,1,1,1,1,1,1,1,1,1,1,1,1,1,0,0,0,0,0,0,0,0,0,0,0,0,0,0,0,0,0,0,0,0,0,0,0,0,0,0,0,0,0,0,0,0],"id":36,"left_children":[1,3,5,7,9,-1,-1,11,13,15,17,19,21,23,25,27,29,31,33,35,37,39,41,43,45,47,49,51,53,55,57,59,61,63,65,-1,-1,-1,-1,-1,-1,-1,-1,-1,-1,-1,-1,-1,-1,-1,-1,-1,-1,-1,-1,-1,-1,-1,-1,-1,-1,-1,-1,-1,-1,-1,-1],"loss_changes":[3.932637E-3,1.5775403E-3,3.385311E-5,2.6711614E-3,1.4954936E-3,0E0,0E0,2.2848067E-3,3.2125586E-3,9.320949E-4,1.9083973E-3,1.9649157E-4,1.4717374E-3,3.2151984E-3,2.0882154E-3,1.118191E-3,5.2995083E-4,1.6363356E-3,7.252919E-4,7.875674E-6,2.6809168E-5,9.778515E-4,4.3952977E-4,1.1838042E-3,1.0119253E-3,9.332733E-4,1.3099331E-4,2.440722E-4,1.0223235E-3,9.21794E-6,4.655347E-6,4.0637783E-4,4.4918992E-4,6.5685954E-4,6.5711545E-5,0E0,0E0,0E0,0E0,0E0,0E0,0E0,0E0,0E0,0E0,0E0,0E0,0E0,0E0,0E0,0E0,0E0,0E0,0E0,0E0,0E0,0E0,0E0,0E0,0E0,0E0,0E0,0E0,0E0,0E0,0E0,0E0],"parents":[2147483647,0,0,1,1,2,2,3,3,4,4,7,7,8,8,9,9,10,10,11,11,12,12,13,13,14,14,15,15,16,16,17,17,18,18,19,19,20,20,21,21,22,22,23,23,24,24,25,25,26,26,27,27,28,28,29,29,30,30,31,31,32,32,33,33,34,34],"right_children":[2,4,6,8,10,-1,-1,12,14,16,18,20,22,24,26,28,30,32,34,36,38,40,42,44,46,48,50,52,54,56,58,60,62,64,66,-1,-1,-1,-1,-1,-1,-1,-1,-1,-1,-1,-1,-1,-1,-1,-1,-1,-1,-1,-1,-1,-1,-1,-1,-1,-1,-1,-1,-1,-1,-1,-1],"split_conditions":[7.576035E-1,7.6939926E-2,1.0037655E-1,1.8237665E-2,8.4942156E-1,2.7851434E-3,1.0846764E-2,1.0472098E-3,6.639011E-2,8.3114696E-1,9.0005165E-1,3.5668644E-3,2.6689976E-1,8.941904E-1,9.087807E-1,9.951226E-3,2.4353823E-1,7.7189654E-2,2.1190003E-1,4.2092887E-1,2.1996893E-2,2.5582504E-1,3.381285E-1,3.209642E-2,8.9020145E-1,1.1968917E-1,1.0435256E-1,7.5589263E-1,3.4006506E-2,5.928272E-1,2.4980576E-1,8.8194454E-1,8.845705E-1,3.9210342E-2,8.949789E-1,-3.2106155E-4,4.2732284E-4,1.5212629E-3,3.94294E-3,-2.7336872E-3,2.9904407E-3,-3.0660657E-3,-9.600531E-3,-1.2810248E-3,1.8373807E-3,-7.5749387E-3,-1.3284578E-3,2.5529927E-3,-2.2709626E-3,4.601277E-3,1.1909867E-2,-2.2807878E-3,-1.3491512E-5,-1.4968092E-3,-7.158122E-3,2.2496467E-3,5.0578197E-4,-2.0713282E-3,-4.998554E-4,-3.835412E-3,1.963032E-4,-9.455607E-3,-3.911992E-3,7.315513E-4,-4.362286E-3,2.6173324E-3,2.529342E-4],"split_indices":[45,41,0,42,16,0,0,29,2,22,46,27,15,13,37,27,33,45,36,1,6,15,17,39,43,42,3,1,8,0,0,10,10,33,13,0,0,0,0,0,0,0,0,0,0,0,0,0,0,0,0,0,0,0,0,0,0,0,0,0,0,0,0,0,0,0,0],"split_type":[0,0,0,0,0,0,0,0,0,0,0,0,0,0,0,0,0,0,0,0,0,0,0,0,0,0,0,0,0,0,0,0,0,0,0,0,0,0,0,0,0,0,0,0,0,0,0,0,0,0,0,0,0,0,0,0,0,0,0,0,0,0,0,0,0,0,0],"sum_hessian":[2.42E2,2.4E2,2E0,1.64E2,7.6E1,1E0,1E0,8.8E1,7.6E1,4E1,3.6E1,9E0,7.9E1,5.5E1,2.1E1,2.9E1,1.1E1,2.3E1,1.3E1,4E0,5E0,7.3E1,6E0,4.4E1,1.1E1,1.7E1,4E0,1.7E1,1.2E1,7E0,4E0,1E1,1.3E1,9E0,4E0,1E0,3E0,3E0,2E0,7.1E1,2E0,3E0,3E0,2.7E1,1.7E1,7E0,4E0,1.3E1,4E0,3E0,1E0,6E0,1.1E1,6E0,6E0,6E0,1E0,3E0,1E0,7E0,3E0,9E0,4E0,3E0,6E0,2E0,2E0],"tree_param":{"num_deleted":"0","num_feature":"48","num_nodes":"67","size_leaf_vector":"0"}},{"base_weights":[6.376362E-3,5.502827E-3,1.0097629E-2,4.8289043E-3,9.617119E-3,1.53276995E-2,6.6835326E-3,4.440271E-3,1.3410739E-2,7.5765015E-3,2.3416558E-2,2.4698665E-2,9.364908E-3,1.2356925E-2,3.5126596E-3,3.6223158E-3,7.5333803E-3,4.2414814E-3,1.9227311E-2,-7.022421E-4,8.326924E-3,1.0753777E-2,3.898725E-3,1.4246263E-2,3.1997163E-3,8.583118E-3,1.2502988E-3,4.0476695E-3,-1.0394206E-3,9.174077E-3,-1.056024E-4,2.770126E-4,-1.3303757E-3,9.4148675E-3,2.5273561E-3,1.3438761E-3,9.762192E-3,3.747503E-3,-3.7305354E-4,4.472385E-3,-1.198858E-3,2.372527E-3,-3.0419603E-3,4.1794563E-3,1.32241165E-2,4.036844E-3,-1.4688174E-3,3.6710023E-3,1.0701831E-2,1.6293924E-4,4.049321E-3,4.616797E-3,1.3392767E-3,1.2192369E-3,-1.6377866E-3],"categories":[],"categories_nodes":[],"categories_segments":[],"categories_sizes":[],"default_left":[1,1,1,1,1,1,1,1,1,1,0,0,1,1,1,1,1,0,0,1,1,0,0,0,0,1,1,1,1,1,1,0,0,1,1,0,0,1,1,0,0,0,0,0,0,0,0,0,0,0,0,0,0,0,0],"id":37,"left_children":[1,3,5,7,9,11,13,15,17,19,-1,-1,21,23,25,27,29,-1,-1,31,33,-1,-1,-1,-1,35,37,39,41,43,45,-1,-1,47,49,-1,-1,51,53,-1,-1,-1,-1,-1,-1,-1,-1,-1,-1,-1,-1,-1,-1,-1,-1],"loss_changes":[7.343432E-4,5.053305E-4,7.010754E-4,5.1744E-4,5.828878E-4,7.186099E-4,4.7829293E-4,3.9522583E-4,2.9178325E-4,1.6116153E-4,0E0,0E0,4.9175695E-5,1.2742658E-4,2.1869267E-4,2.6991405E-4,4.2709918E-4,0E0,0E0,2.2138393E-6,1.2132607E-4,0E0,0E0,0E0,0E0,3.809441E-5,6.220565E-5,2.7944078E-4,8.920787E-5,5.111259E-4,4.54587E-5,0E0,0E0,1.0116433E-4,1.7333005E-5,0E0,0E0,6.3775733E-6,2.2135075E-5,0E0,0E0,0E0,0E0,0E0,0E0,0E0,0E0,0E0,0E0,0E0,0E0,0E0,0E0,0E0,0E0],"parents":[2147483647,0,0,1,1,2,2,3,3,4,4,5,5,6,6,7,7,8,8,9,9,12,12,13,13,14,14,15,15,16,16,19,19,20,20,25,25,26,26,27,27,28,28,29,29,30,30,33,33,34,34,37,37,38,38],"right_children":[2,4,6,8,10,12,14,16,18,20,-1,-1,22,24,26,28,30,-1,-1,32,34,-1,-1,-1,-1,36,38,40,42,44,46,-1,-1,48,50,-1,-1,52,54,-1,-1,-1,-1,-1,-1,-1,-1,-1,-1,-1,-1,-1,-1,-1,-1],"split_conditions":[9.017612E-1,9.0586406E-1,1.989846E-2,3.4334573E-1,9.281019E-1,8.8334006E-1,1.6444378E-2,8.8679403E-1,7.9611903E-1,8.0007187E-4,7.0249676E-3,7.4096E-3,2.2831056E-1,9.588735E-1,8.379153E-1,8.896898E-1,9.330212E-1,1.2724445E-3,5.7681934E-3,1.3287361E-1,9.235897E-1,3.2261333E-3,1.1696175E-3,4.273879E-3,9.5991493E-4,1.720365E-2,8.803955E-1,9.0640134E-1,3.6153927E-2,7.414299E-2,8.184127E-1,8.3103776E-5,-3.9911273E-4,7.978634E-1,3.983147E-2,4.0316285E-4,2.9286577E-3,8.973164E-1,3.2966994E-2,1.3417156E-3,-3.5965742E-4,7.1175816E-4,-9.1258815E-4,1.2538369E-3,3.9672353E-3,1.2110532E-3,-4.4064524E-4,1.1013007E-3,3.2105495E-3,4.888177E-5,1.2147964E-3,